{
  "version": "1.0",
  "format": "rtneural-json",
  "model_name": "harmonypredictor",
  "input_size": 128,
  "output_size": 64,
  "layers": [
    {
      "type": "dense",
      "name": "fc1",
      "shape": [
        256,
        128
      ],
      "in_features": 128,
      "out_features": 256,
      "weights": [
        [
          0.04412735998630524,
          0.07514047622680664,
          -0.03729858621954918,
          -0.052141670137643814,
          -0.03946799039840698,
          -0.01893998682498932,
          0.03872397914528847,
          -0.002574160462245345,
          0.019913265481591225,
          0.013445456512272358,
          0.005452591925859451,
          -0.033388786017894745,
          0.05530683696269989,
          0.04506103694438934,
          -0.007817373611032963,
          -0.02070663310587406,
          0.007819734513759613,
          -0.04283943399786949,
          -0.03628678247332573,
          0.029634185135364532,
          -0.012732906267046928,
          -0.037410344928503036,
          0.029416659846901894,
          0.0004027424438390881,
          -0.02675275318324566,
          -0.023036811500787735,
          0.024469265714287758,
          -0.044797297567129135,
          -0.021425891667604446,
          -0.0365278385579586,
          -0.016842711716890335,
          0.044810954481363297,
          -0.003871366148814559,
          -0.0192981269210577,
          0.002333261538296938,
          0.011531323194503784,
          0.007066838443279266,
          0.02531101182103157,
          0.0250761266797781,
          0.024399299174547195,
          0.05156376212835312,
          0.04030196741223335,
          -0.05978236719965935,
          0.009314336813986301,
          0.04217527434229851,
          -0.010344105772674084,
          -0.0860251635313034,
          0.0340692363679409,
          -0.05872244015336037,
          0.029568267986178398,
          0.049383558332920074,
          -0.005350887309759855,
          0.01460266299545765,
          -0.062300905585289,
          -0.08814866840839386,
          -0.04111909121274948,
          -0.06707293540239334,
          -0.05546121671795845,
          -0.016134964302182198,
          -0.05695187300443649,
          -0.06368310749530792,
          -0.04262220859527588,
          -0.015553007833659649,
          -0.03198240324854851,
          -0.05120518058538437,
          0.006946227513253689,
          0.028738681226968765,
          0.03290141746401787,
          -0.06363660842180252,
          -0.025781041011214256,
          -0.05133562535047531,
          -0.01255385484546423,
          0.037018291652202606,
          0.05752067640423775,
          -0.02770434133708477,
          0.038431063294410706,
          0.04225113242864609,
          -0.019430799409747124,
          0.034871287643909454,
          -0.05581307411193848,
          0.017863832414150238,
          0.038409966975450516,
          -0.05183778703212738,
          -0.06942213326692581,
          0.0006072583491913974,
          -0.015312460251152515,
          -0.044247400015592575,
          0.04948573186993599,
          0.052590519189834595,
          0.05882524326443672,
          -0.09424422681331635,
          -0.025380024686455727,
          -0.0543263778090477,
          0.040273625403642654,
          -0.03457293659448624,
          -0.07538159936666489,
          -0.022787852212786674,
          0.005940236616879702,
          -0.012183918617665768,
          0.0049123987555503845,
          0.07641707360744476,
          0.012676218524575233,
          -0.04183739423751831,
          0.021015852689743042,
          -0.031533997505903244,
          -0.005141821224242449,
          0.012162582948803902,
          -0.033758699893951416,
          -0.0050857714377343655,
          0.0019742720760405064,
          -0.039266955107450485,
          0.0058999620378017426,
          -0.003256226424127817,
          0.051329292356967926,
          0.04409591108560562,
          -0.04984143376350403,
          0.007148664444684982,
          -0.04091229662299156,
          0.08333098143339157,
          0.0193736981600523,
          -0.0749170184135437,
          -0.0314544253051281,
          -0.061231859028339386,
          0.0394071601331234,
          0.006740097422152758,
          -0.06468986719846725,
          0.06978501379489899,
          0.0682421624660492
        ],
        [
          -0.025234537199139595,
          0.006779846269637346,
          -0.049773167818784714,
          -0.044890742748975754,
          -0.0692608579993248,
          -0.004319372121244669,
          -0.04284561797976494,
          0.032593417912721634,
          -0.05259091407060623,
          -0.03847435861825943,
          -0.012716754339635372,
          0.0833451971411705,
          0.07789622992277145,
          -0.044127725064754486,
          0.07033998519182205,
          -0.052319273352622986,
          0.04376280680298805,
          -0.049084730446338654,
          -0.0295497328042984,
          -0.0345420204102993,
          0.009187081828713417,
          0.06600826978683472,
          0.02458992227911949,
          0.07717382907867432,
          -0.06675927340984344,
          0.05224348232150078,
          -0.003258301177993417,
          -0.0269999410957098,
          -0.06205199286341667,
          0.0005818044301122427,
          -0.051414016634225845,
          0.06680934131145477,
          -0.05131226405501366,
          0.034385520964860916,
          -0.04827042669057846,
          -0.03873851150274277,
          0.07131630182266235,
          -0.0028436791617423296,
          0.058984480798244476,
          0.07228455692529678,
          -0.06048599258065224,
          0.06522157043218613,
          -0.013507436960935593,
          0.030187660828232765,
          0.018763994798064232,
          -0.04275526851415634,
          0.007676930632442236,
          -0.009423819370567799,
          -0.010960688814520836,
          0.06858178228139877,
          0.07580943405628204,
          0.03812810406088829,
          -0.04954901337623596,
          -0.03954313322901726,
          0.07123077660799026,
          0.002949456451460719,
          0.023484740406274796,
          0.03982529044151306,
          -0.04112744331359863,
          -0.0562068335711956,
          0.044338759034872055,
          0.03757356107234955,
          -0.016344357281923294,
          0.040445663034915924,
          0.05653006583452225,
          -0.00792259257286787,
          0.007039870135486126,
          0.03146108612418175,
          0.032150231301784515,
          -0.01814810000360012,
          -0.04421138018369675,
          -0.014631402678787708,
          0.051251333206892014,
          -0.05518442392349243,
          0.0216908510774374,
          0.05907450243830681,
          -0.07748191803693771,
          -0.03376917541027069,
          0.0024748914875090122,
          0.07663365453481674,
          -0.09276840835809708,
          0.05480491742491722,
          -0.03442351147532463,
          -0.03932442143559456,
          -0.006238908506929874,
          -0.08398403972387314,
          0.03885945677757263,
          0.030195705592632294,
          -0.04028624668717384,
          0.04194868355989456,
          0.01040938775986433,
          0.015220189467072487,
          -0.017484450712800026,
          -0.03137032687664032,
          -0.02348014898598194,
          -0.0354803167283535,
          0.0027390415780246258,
          0.001492017530836165,
          -0.022971035912632942,
          0.015456181019544601,
          0.009783969260752201,
          0.01677369885146618,
          -0.02611062489449978,
          0.052560869604349136,
          -0.06199666112661362,
          0.03523567318916321,
          0.045820530503988266,
          0.014541896060109138,
          0.05351344123482704,
          -0.038593653589487076,
          -0.04849677532911301,
          -0.04155292734503746,
          -0.01967732422053814,
          0.04385846480727196,
          0.010803775861859322,
          0.024652596563100815,
          0.019878901541233063,
          -0.0539822094142437,
          0.08565950393676758,
          -0.08983996510505676,
          0.05741553381085396,
          -0.007087380159646273,
          0.012330111116170883,
          -0.020680297166109085,
          -0.022106468677520752,
          0.022324180230498314,
          -0.00839647650718689,
          -0.030535979196429253
        ],
        [
          -0.03396357595920563,
          0.0780005231499672,
          -0.04997231066226959,
          0.030849331989884377,
          -0.06895802915096283,
          0.023838866502046585,
          -0.04125870764255524,
          0.061886440962553024,
          -0.0541437529027462,
          0.0813392847776413,
          0.04919884353876114,
          0.028279976919293404,
          0.06248437985777855,
          -0.020015763118863106,
          -0.009183039888739586,
          -0.0566701702773571,
          0.05023862421512604,
          -0.052057333290576935,
          0.01987738162279129,
          0.007639674469828606,
          -0.010182161815464497,
          -0.00889045000076294,
          -0.02023494243621826,
          0.021453451365232468,
          0.03174228221178055,
          0.06733383983373642,
          0.061642151325941086,
          0.009294596500694752,
          0.03890968859195709,
          -0.021281614899635315,
          0.045309025794267654,
          0.04773220419883728,
          0.015666047111153603,
          0.031691133975982666,
          -0.006953130476176739,
          0.033260278403759,
          0.04729362949728966,
          -0.05812375992536545,
          -0.019515397027134895,
          0.057270172983407974,
          -0.017393236979842186,
          -0.02361264079809189,
          0.032770395278930664,
          -0.05837012082338333,
          -0.0013746097683906555,
          0.06847594678401947,
          0.047931969165802,
          0.08102771639823914,
          -0.0423719622194767,
          -0.07961662858724594,
          -0.019701197743415833,
          0.012066873721778393,
          0.08630684018135071,
          -0.04714510217308998,
          -0.03910170495510101,
          -0.021247578784823418,
          0.055246226489543915,
          0.01772417314350605,
          0.004679286852478981,
          0.0027959782164543867,
          0.008983639068901539,
          0.043112657964229584,
          -0.011146598495543003,
          0.05788404121994972,
          -0.013913205824792385,
          0.058547791093587875,
          0.07755491882562637,
          0.008815222419798374,
          -0.024058684706687927,
          -0.026823770254850388,
          -0.014636662788689137,
          0.031931180506944656,
          0.006837388966232538,
          0.029417740181088448,
          0.05887714773416519,
          -0.0434717983007431,
          0.04217738285660744,
          -0.07109040021896362,
          -0.03752199560403824,
          0.06290824711322784,
          0.03001374565064907,
          0.032485153526067734,
          -0.058081530034542084,
          0.00895234290510416,
          0.001851140521466732,
          -0.04325677454471588,
          0.03206663206219673,
          -0.036445919424295425,
          -0.01357495691627264,
          0.004727648105472326,
          -0.03424857184290886,
          -0.017706893384456635,
          -0.08998705446720123,
          -0.06801440566778183,
          -0.03916492313146591,
          0.08189816027879715,
          -0.014224836602807045,
          0.02233869582414627,
          -0.05740442872047424,
          0.023026779294013977,
          0.004443143494427204,
          0.028453383594751358,
          -0.016441691666841507,
          0.025221796706318855,
          -0.031422026455402374,
          0.0616581104695797,
          -0.033128704875707626,
          0.02422121725976467,
          0.02729783020913601,
          -0.06202469393610954,
          -0.06796588748693466,
          -0.06376255303621292,
          0.07569856941699982,
          -0.05819976329803467,
          -0.02556115761399269,
          -0.008904222398996353,
          -0.016651740297675133,
          0.02817501872777939,
          0.025538070127367973,
          -0.004034173209220171,
          -0.0827714279294014,
          -0.06802501529455185,
          -0.0344371423125267,
          -0.012493778020143509,
          -0.0037445328198373318,
          0.03472239524126053,
          0.02261137217283249,
          0.05451947823166847
        ],
        [
          0.046502865850925446,
          0.011224339716136456,
          0.004917581100016832,
          -0.07068268209695816,
          -0.06691371649503708,
          0.019201137125492096,
          -0.0625959038734436,
          0.042753905057907104,
          -0.030033346265554428,
          0.022761069238185883,
          0.04973575845360756,
          0.02737073227763176,
          -0.03700561821460724,
          0.012901471927762032,
          0.00972464308142662,
          0.02805788628757,
          -0.01627725176513195,
          -0.005294715985655785,
          -0.06682138890028,
          -0.003662239294499159,
          -0.0093288104981184,
          -0.027367545291781425,
          0.04817584529519081,
          -0.017495928332209587,
          -0.08162442594766617,
          -0.010981351137161255,
          -0.04310309514403343,
          -0.0017223129980266094,
          -0.03645346313714981,
          0.009098953567445278,
          0.02395765297114849,
          -0.02643275260925293,
          0.06233030930161476,
          0.0016313102096319199,
          -0.008350837975740433,
          0.06019313633441925,
          0.03290655463933945,
          0.05408233776688576,
          0.07314416766166687,
          -0.03737788647413254,
          0.002869445364922285,
          -0.014839215204119682,
          -0.0448278933763504,
          -0.027659442275762558,
          0.028683891519904137,
          -0.04569461941719055,
          -0.036309342831373215,
          -0.01872873678803444,
          0.02442658320069313,
          -0.005368534475564957,
          -0.023867692798376083,
          -0.030240802094340324,
          -0.012645083479583263,
          -0.0492875762283802,
          -0.07107113301753998,
          -0.010210798121988773,
          0.07629168033599854,
          -0.061167147010564804,
          0.002069054637104273,
          -0.03546198830008507,
          -0.06854771822690964,
          -0.05467856675386429,
          0.042091548442840576,
          0.07029806077480316,
          -0.007296128198504448,
          0.03430779650807381,
          0.06583424657583237,
          -0.024782761931419373,
          0.06759261339902878,
          -0.07472730427980423,
          0.042788065969944,
          0.04459378868341446,
          0.004308357834815979,
          0.003239096375182271,
          -0.02834259159862995,
          -0.05357888713479042,
          0.04954520985484123,
          0.025436431169509888,
          0.05478816479444504,
          0.058827273547649384,
          -0.003203029278665781,
          -0.09293977171182632,
          -0.04780259355902672,
          -0.08195635676383972,
          -0.034401699900627136,
          -0.05949648097157478,
          0.04705432429909706,
          0.01944792829453945,
          -0.0538959838449955,
          0.04495304077863693,
          0.03078552521765232,
          -0.007682177238166332,
          0.04510290175676346,
          -0.05370417609810829,
          -0.04379165172576904,
          -0.021280469372868538,
          -0.07735441625118256,
          -0.0788768008351326,
          -0.07158682495355606,
          0.06288202852010727,
          0.004373171366751194,
          -0.06755280494689941,
          0.03954501077532768,
          -0.0601251944899559,
          -0.012661133892834187,
          0.02685212902724743,
          0.07437960058450699,
          0.0389811173081398,
          -0.04412314295768738,
          0.07816924154758453,
          0.05352615565061569,
          0.06662304699420929,
          -0.0010293886298313737,
          -0.0019296739483252168,
          -0.07270636409521103,
          -0.05779934301972389,
          -0.085222527384758,
          -0.037267934530973434,
          0.03604710102081299,
          -0.05902702361345291,
          -0.07114291191101074,
          0.07241197675466537,
          -0.02304275520145893,
          0.0023379421327263117,
          -0.03180927783250809,
          -0.0006529552047140896,
          0.044734615832567215,
          -0.01571200229227543
        ],
        [
          0.03410784527659416,
          -0.05083779990673065,
          -0.030782610177993774,
          0.07637746632099152,
          -0.0006936961435712874,
          -0.017337555065751076,
          -0.03429386019706726,
          -0.0794493556022644,
          -0.0043242322281003,
          -0.031925227493047714,
          0.05469965934753418,
          -0.05317167192697525,
          -0.019040625542402267,
          -0.00020015073823742568,
          -0.02008836902678013,
          0.008777132257819176,
          0.03794493526220322,
          -0.026841111481189728,
          0.06574378162622452,
          0.014808504842221737,
          -0.08364634960889816,
          0.038567621260881424,
          -0.03206785023212433,
          0.03251311182975769,
          -0.0013657950330525637,
          0.04403536766767502,
          0.07652696222066879,
          0.06295458227396011,
          -0.029323995113372803,
          0.029433084651827812,
          0.06609755009412766,
          0.0017910549649968743,
          0.0715528354048729,
          -0.04239541292190552,
          0.05395692586898804,
          0.0390835702419281,
          -0.050055645406246185,
          -0.061071205884218216,
          -0.031625472009181976,
          -0.013407784514129162,
          -0.02245730347931385,
          -0.05580458790063858,
          -0.06492005288600922,
          -0.03154260665178299,
          -0.03495534881949425,
          0.0848381519317627,
          -0.07153911143541336,
          0.010031325742602348,
          -0.06727093458175659,
          0.03557835891842842,
          -0.02221742458641529,
          -0.0037318000104278326,
          0.07766204327344894,
          0.07349657267332077,
          0.0672576054930687,
          0.01693817600607872,
          -0.04660029709339142,
          -0.050188660621643066,
          -0.03676139935851097,
          0.025127647444605827,
          0.022644704207777977,
          0.04973580315709114,
          0.05121495947241783,
          0.03153863921761513,
          0.026376815512776375,
          0.08184371888637543,
          0.058414340019226074,
          -0.02416391484439373,
          -0.061804331839084625,
          0.055814988911151886,
          0.01505602989345789,
          -0.06072906032204628,
          0.06711933761835098,
          -2.4618500901851803e-05,
          -0.03616925701498985,
          0.017498843371868134,
          -0.0031658068764954805,
          -0.06393256038427353,
          0.04823949560523033,
          -0.0220975149422884,
          -0.0033792362082749605,
          -0.1054312065243721,
          -0.07058969140052795,
          -0.07082611322402954,
          0.048648588359355927,
          0.019031235948204994,
          0.016992149874567986,
          0.022061431780457497,
          -0.013328921049833298,
          -0.004890249576419592,
          -0.03771485388278961,
          -0.03838040307164192,
          0.01696005091071129,
          -0.03505086526274681,
          -0.08951562643051147,
          0.048594702035188675,
          0.02096497267484665,
          0.0418887585401535,
          -0.001875853631645441,
          0.02274050936102867,
          0.08711555600166321,
          -0.08458385616540909,
          -0.0839211568236351,
          -0.0336238294839859,
          -0.04955275356769562,
          0.10026068240404129,
          0.005532798822969198,
          0.037258654832839966,
          0.05344739556312561,
          -0.03913462534546852,
          -0.038526501506567,
          -0.03638803958892822,
          -0.04410343989729881,
          0.03585353121161461,
          0.0694519504904747,
          -0.03431025147438049,
          0.009089496918022633,
          -0.02870449423789978,
          0.035510528832674026,
          0.076970674097538,
          -0.06893806159496307,
          -0.02058558724820614,
          -0.07137548923492432,
          -0.005986347794532776,
          -0.005120354238897562,
          0.06262730807065964,
          -0.05843060463666916,
          -0.05971822515130043
        ],
        [
          -0.0730159655213356,
          0.06204485148191452,
          0.0514880008995533,
          0.05152737721800804,
          0.05970363691449165,
          0.07154466211795807,
          0.018598422408103943,
          -0.051009684801101685,
          0.003961259499192238,
          0.07049361616373062,
          0.02619164064526558,
          0.04735309258103371,
          -0.04485611245036125,
          0.0347253791987896,
          -0.0034042070619761944,
          -0.06422603130340576,
          0.001623446703888476,
          0.07105196267366409,
          0.013828343711793423,
          -0.019669184461236,
          -0.01595858857035637,
          0.02362692542374134,
          0.01554922666400671,
          0.0032570979092270136,
          0.007052693050354719,
          0.07152475416660309,
          -0.08202321827411652,
          0.04097377508878708,
          -0.039584193378686905,
          0.03445751965045929,
          0.04638366028666496,
          -0.05468568950891495,
          -0.03208097815513611,
          0.08819922059774399,
          -0.020941035822033882,
          -0.009328353218734264,
          -0.050318896770477295,
          0.0010790161322802305,
          -0.05739211291074753,
          -0.05037076398730278,
          -0.0554356649518013,
          0.00901611428707838,
          -0.06275112181901932,
          -0.007748542353510857,
          0.04460538551211357,
          -0.032950062304735184,
          -0.03114597126841545,
          0.06496333330869675,
          0.00697655975818634,
          -0.06302878260612488,
          -0.0672433078289032,
          -0.05076169595122337,
          0.025535622611641884,
          0.004007119219750166,
          0.002805061638355255,
          0.04274759814143181,
          0.014012720435857773,
          -0.025802606716752052,
          0.0037336437962949276,
          -0.0020089985337108374,
          0.12930768728256226,
          0.04275580868124962,
          -0.036854684352874756,
          -0.06238975003361702,
          0.01640786975622177,
          0.03771733492612839,
          0.09679538011550903,
          -0.0609344057738781,
          0.009960662573575974,
          -0.010828842408955097,
          0.023723410442471504,
          0.030087949708104134,
          -0.04284839332103729,
          -0.040432158857584,
          0.001424572430551052,
          -0.059660810977220535,
          -0.07470685243606567,
          -0.03647154942154884,
          0.007599560543894768,
          -0.05110446736216545,
          0.04332892224192619,
          0.02086949534714222,
          -0.0627877488732338,
          -0.03280744329094887,
          -0.011424075812101364,
          0.05663764476776123,
          -0.08473367989063263,
          -0.033449962735176086,
          0.08966615051031113,
          -0.02703992649912834,
          -0.017232324928045273,
          0.03100169636309147,
          -0.0015816702507436275,
          0.036649733781814575,
          0.006226330995559692,
          0.0579397976398468,
          -0.0744393989443779,
          0.1088235080242157,
          -0.07329743355512619,
          -0.002307918854057789,
          0.07001760601997375,
          0.029425665736198425,
          0.012086499482393265,
          -0.06817102432250977,
          -0.010319430381059647,
          -0.058032069355249405,
          -0.04601874575018883,
          0.05309681221842766,
          0.023558173328638077,
          -0.058143891394138336,
          -0.02202465943992138,
          0.06949362903833389,
          -0.01662498340010643,
          -0.04009973630309105,
          0.034018415957689285,
          -0.06681182235479355,
          0.05139346420764923,
          0.06854432821273804,
          -0.019639305770397186,
          0.05366171523928642,
          0.002062586136162281,
          -0.022481553256511688,
          0.005577380303293467,
          0.03845474496483803,
          -0.026426861062645912,
          -0.06214961037039757,
          -0.07592637836933136,
          -0.02522905543446541
        ],
        [
          -0.0616459921002388,
          0.040630143135786057,
          0.017117485404014587,
          -0.028928332030773163,
          0.02808522991836071,
          0.008086038753390312,
          0.026969479396939278,
          -0.02284514531493187,
          -0.008982803672552109,
          0.018281681463122368,
          0.04338262230157852,
          -0.06194770708680153,
          0.07451999187469482,
          -0.03725329786539078,
          0.06253137439489365,
          -0.014260884374380112,
          0.011106139980256557,
          0.10664640367031097,
          0.023774579167366028,
          0.06275977939367294,
          0.03640066087245941,
          0.031619440764188766,
          -0.030743954703211784,
          0.01902035064995289,
          0.034146830439567566,
          0.04374312609434128,
          0.048926178365945816,
          -0.07107850164175034,
          0.07334063947200775,
          0.03009258769452572,
          -0.06841188669204712,
          0.02870246022939682,
          0.07303503155708313,
          0.02908552996814251,
          -0.02943769097328186,
          0.05750160291790962,
          0.0020944944117218256,
          -0.0005036629736423492,
          0.06465542316436768,
          -0.04280060902237892,
          -0.02448190003633499,
          0.03308452293276787,
          -0.03891339525580406,
          0.05286749079823494,
          0.07153274863958359,
          0.03956102207303047,
          -0.006984333973377943,
          -0.04651029407978058,
          0.0024210764095187187,
          0.04691603407263756,
          -0.041734009981155396,
          -0.07084377110004425,
          0.017919324338436127,
          0.07789266109466553,
          -0.0463700145483017,
          0.04403198882937431,
          0.014724455773830414,
          -0.0338195376098156,
          0.063928984105587,
          -0.0623667873442173,
          0.02526560239493847,
          -0.053023576736450195,
          -0.004037313628941774,
          0.001323182717896998,
          -0.023760292679071426,
          0.05693262070417404,
          -0.037630822509527206,
          -0.0055467295460402966,
          0.07511074841022491,
          -0.022103209048509598,
          -0.04017917811870575,
          -0.03802652657032013,
          -0.06821496039628983,
          -0.01849082112312317,
          0.05673472583293915,
          0.023949673399329185,
          -0.02922697179019451,
          0.05621335282921791,
          0.09537988156080246,
          0.016151191666722298,
          0.07355114072561264,
          0.03387438878417015,
          0.07047547399997711,
          0.079045370221138,
          -0.025238893926143646,
          -0.02739701047539711,
          -0.09685155004262924,
          0.028929289430379868,
          -0.0040223184041678905,
          -0.06489952653646469,
          0.055163778364658356,
          0.043164875358343124,
          0.030155813321471214,
          -0.038809847086668015,
          0.04303612932562828,
          -0.026162272319197655,
          -0.07431841641664505,
          -0.03336019814014435,
          0.02347867749631405,
          -0.01650851033627987,
          -0.028710393235087395,
          0.004153724294155836,
          -0.004916403442621231,
          -0.05516309291124344,
          -0.02929510734975338,
          0.012874350883066654,
          0.07554544508457184,
          0.02069622464478016,
          -0.08011814206838608,
          -0.019101956859230995,
          -0.001403791829943657,
          -0.012998880818486214,
          0.05659206211566925,
          0.05009786784648895,
          -0.026633424684405327,
          0.03276647627353668,
          0.04838090017437935,
          0.031645871698856354,
          0.025515159592032433,
          0.03340214490890503,
          0.06074773892760277,
          0.04836872220039368,
          -0.056338120251894,
          0.030150746926665306,
          -0.08174777776002884,
          0.004125777631998062,
          -0.08171772956848145,
          -0.012682436034083366
        ],
        [
          0.037353381514549255,
          -0.04357935115695,
          0.023355979472398758,
          0.03423602879047394,
          -0.029586737975478172,
          -0.02514227293431759,
          -0.0827760100364685,
          -0.08084776997566223,
          -0.06684575974941254,
          -0.014840950258076191,
          -0.06213498115539551,
          -0.05519988015294075,
          0.002861771732568741,
          -0.05535002797842026,
          0.008429541252553463,
          0.06693069636821747,
          0.03402252495288849,
          -0.006979428231716156,
          0.04192398115992546,
          0.017220230773091316,
          -0.013797232881188393,
          -0.04242411628365517,
          -0.03574943542480469,
          0.0557946115732193,
          -0.020808564499020576,
          -0.025874443352222443,
          -0.07076102495193481,
          -0.0050033461302518845,
          -0.07345381379127502,
          0.010947431437671185,
          -0.05934348702430725,
          0.02739430032670498,
          0.05240621045231819,
          -0.07006767392158508,
          0.04987124353647232,
          -0.05413176119327545,
          0.038303032517433167,
          -0.014680270105600357,
          0.010988078080117702,
          0.015366149134933949,
          0.03874671459197998,
          0.010709425434470177,
          -0.054145894944667816,
          0.06088094785809517,
          -0.010862589813768864,
          -0.011696928180754185,
          -0.04927085340023041,
          0.020690908655524254,
          -0.02015376091003418,
          0.06705877184867859,
          0.013907957822084427,
          0.025865603238344193,
          -0.0665355697274208,
          -0.010927633382380009,
          0.0316382497549057,
          0.05680762603878975,
          0.04036758467555046,
          0.08112738281488419,
          0.029963670298457146,
          0.030597850680351257,
          0.05019257590174675,
          0.06786327809095383,
          -0.046502698212862015,
          0.016165992245078087,
          0.0050765289925038815,
          0.07349648326635361,
          0.01573474332690239,
          -0.0406261682510376,
          0.004966572858393192,
          0.06636884808540344,
          -0.06613440811634064,
          -0.02032521925866604,
          0.008649534545838833,
          0.020528078079223633,
          -0.052840884774923325,
          -0.01193931233137846,
          -0.04604571312665939,
          -0.01055629551410675,
          -0.054638396948575974,
          0.05253981798887253,
          -0.05314670503139496,
          -0.016383497044444084,
          0.07471069693565369,
          -0.04847627505660057,
          0.00015624187653884292,
          0.028702227398753166,
          -0.05645348131656647,
          -0.07327490299940109,
          -0.06881025433540344,
          -0.07108253240585327,
          0.07241210341453552,
          -0.0791492760181427,
          0.018563896417617798,
          -0.015199474059045315,
          -0.07436864823102951,
          -0.06172465160489082,
          -0.04251886159181595,
          -0.00028225764981471,
          0.014529522508382797,
          -0.026219481602311134,
          -0.04219337925314903,
          -0.0886748880147934,
          -0.049513425678014755,
          0.0441906563937664,
          0.02660883031785488,
          -0.058011677116155624,
          -0.02832680195569992,
          0.041327234357595444,
          0.0275253988802433,
          0.06779487431049347,
          -0.0019043004140257835,
          0.04700244963169098,
          0.06758631020784378,
          0.05252838879823685,
          -0.022301333025097847,
          -0.01869405247271061,
          -0.025136636570096016,
          -0.05935318022966385,
          0.07713758200407028,
          0.011191213503479958,
          -0.01756477914750576,
          -0.010951870121061802,
          -0.05717720463871956,
          0.05335880070924759,
          -0.03314363956451416,
          -0.0007120268419384956,
          0.04404585435986519,
          0.07922523468732834
        ],
        [
          -0.012334140948951244,
          -0.04469634220004082,
          -0.00017814832972362638,
          0.03355414792895317,
          -0.00041201390558853745,
          0.08770813047885895,
          0.032649554312229156,
          0.03487642481923103,
          0.02274472638964653,
          -0.03110346756875515,
          0.06529928743839264,
          0.052901316434144974,
          -0.06085120886564255,
          0.048426248133182526,
          0.08144667744636536,
          -0.029246026650071144,
          0.01982569508254528,
          -0.07615702599287033,
          -0.037587180733680725,
          0.010665747337043285,
          -0.04035800322890282,
          -0.0015787658048793674,
          -0.07814259082078934,
          -0.016424210742115974,
          0.014375451020896435,
          -0.013204311020672321,
          0.044159118086099625,
          0.00998280756175518,
          0.019914472475647926,
          -0.008190819062292576,
          -0.006759689189493656,
          -0.02548818476498127,
          -0.05072757974267006,
          -0.03840149939060211,
          -0.059147048741579056,
          0.06039484590291977,
          0.051666051149368286,
          -0.06095418334007263,
          -0.04420996457338333,
          0.006569028832018375,
          0.013302085921168327,
          -0.06095297262072563,
          -0.0074003469198942184,
          0.05295152589678764,
          0.023919962346553802,
          0.04207206889986992,
          -0.013116489164531231,
          0.05814799293875694,
          -0.038059432059526443,
          0.018227247521281242,
          -0.04791480675339699,
          -0.0338425375521183,
          -0.005582049023360014,
          0.06567421555519104,
          -0.054377030581235886,
          0.008086605928838253,
          -0.019561560824513435,
          -0.09453175216913223,
          -0.018390486016869545,
          0.019355669617652893,
          0.009249898605048656,
          0.01734229549765587,
          -0.017459167167544365,
          0.06508276611566544,
          0.014826778322458267,
          0.03165590763092041,
          -0.03483961895108223,
          0.06099185347557068,
          -0.029695961624383926,
          -0.05597122758626938,
          -0.016968203708529472,
          0.03145342320203781,
          0.05989830940961838,
          0.0519905760884285,
          -0.0175927747040987,
          0.06843587756156921,
          0.09813911467790604,
          0.021847065538167953,
          -0.035234834998846054,
          -0.04031641036272049,
          0.08720455318689346,
          0.02868470549583435,
          0.02373230643570423,
          -0.060615528374910355,
          -0.03749096766114235,
          0.05278695374727249,
          0.03152015432715416,
          -0.04474739730358124,
          -0.07996322959661484,
          0.046017058193683624,
          0.0008690156973898411,
          -0.01872696541249752,
          0.08411557972431183,
          0.08502043783664703,
          0.07715024799108505,
          -0.08169801533222198,
          -0.06355034559965134,
          -0.007820937782526016,
          0.057621754705905914,
          0.09207998216152191,
          -0.003998430911451578,
          0.03141655772924423,
          -0.027311885729432106,
          -0.029625242576003075,
          -0.0006605893140658736,
          0.054113324731588364,
          -0.000437522103311494,
          0.01826130598783493,
          -0.03041199967265129,
          -0.004523574840277433,
          0.059523630887269974,
          0.01452893391251564,
          0.026695970445871353,
          0.0650331899523735,
          0.029871154576539993,
          0.07618509978055954,
          -0.011172870174050331,
          -0.07323311269283295,
          -0.07904523611068726,
          -0.041466619819402695,
          0.07839123904705048,
          -0.02260160632431507,
          -0.014762585051357746,
          0.0635010302066803,
          0.05257256329059601,
          0.07207532227039337,
          -0.030904443934559822,
          -0.005971047095954418
        ],
        [
          -0.058679595589637756,
          -0.009173732250928879,
          -0.005786494817584753,
          0.020095551386475563,
          -0.042997799813747406,
          -0.04612073302268982,
          0.04604208469390869,
          0.006227619480341673,
          0.0411582849919796,
          0.0484144389629364,
          0.03405919298529625,
          -0.027011722326278687,
          0.013261297717690468,
          0.003713029669597745,
          0.04467437043786049,
          0.015071125701069832,
          -0.0726756900548935,
          -0.04358300939202309,
          -0.0666283518075943,
          -0.04067160561680794,
          0.005468468647450209,
          0.05760518088936806,
          0.028109131380915642,
          -0.02048930525779724,
          0.009942070581018925,
          -0.06547494232654572,
          0.006136349868029356,
          -0.08172332495450974,
          0.01713154837489128,
          -0.02958441898226738,
          -0.09434664249420166,
          -0.07912024855613708,
          0.0033625690266489983,
          0.02016984112560749,
          -0.026430441066622734,
          0.043924570083618164,
          -0.023460378870368004,
          0.008074251934885979,
          0.04386187717318535,
          0.08461588621139526,
          -0.06359666585922241,
          -0.049159128218889236,
          -0.03741106763482094,
          0.006542496383190155,
          0.0024910541251301765,
          -0.020975332707166672,
          -0.03614756092429161,
          -0.045091550797224045,
          -0.040568895637989044,
          -0.05071250721812248,
          0.06736177951097488,
          0.06125873699784279,
          -0.020464850589632988,
          0.023119105026125908,
          -0.008958336897194386,
          -0.03530137613415718,
          -0.007437879219651222,
          0.019332898780703545,
          0.022488029673695564,
          -0.0001987527502933517,
          0.004539437126368284,
          0.0731772854924202,
          -0.055789515376091,
          0.04689798131585121,
          -0.004659577272832394,
          0.06814475357532501,
          0.03878476843237877,
          -0.03917991742491722,
          0.03259025141596794,
          -0.06866820901632309,
          0.018865497782826424,
          -0.035898298025131226,
          -0.012175862677395344,
          -0.008422790095210075,
          0.07655330747365952,
          0.022452348843216896,
          0.04917875677347183,
          0.022560888901352882,
          0.04908645898103714,
          -0.013424145057797432,
          0.030843276530504227,
          0.08460830897092819,
          -0.04392185062170029,
          0.006553457118570805,
          -0.0064971051178872585,
          0.07603488117456436,
          -0.005020477343350649,
          0.02536654658615589,
          -0.04670034721493721,
          8.516407979186624e-05,
          0.004265433643013239,
          -0.05061712861061096,
          0.04389367997646332,
          0.023321475833654404,
          -0.06466586142778397,
          0.07401148229837418,
          0.038597822189331055,
          -0.06664302200078964,
          0.04255351796746254,
          -0.03941660374403,
          0.014301945455372334,
          0.04544537886977196,
          -0.049130503088235855,
          0.016262540593743324,
          0.056500960141420364,
          0.04101516306400299,
          0.04554010182619095,
          -0.050161976367235184,
          -0.020646659657359123,
          -0.004521142225712538,
          -0.016616856679320335,
          0.028591308742761612,
          -0.0611334852874279,
          -0.0764448419213295,
          0.04139261692762375,
          -0.0022804730106145144,
          0.0739600732922554,
          0.009664015844464302,
          0.017742350697517395,
          -0.02481914684176445,
          -7.1903778007254e-05,
          0.046557649970054626,
          0.06455628573894501,
          0.04179707169532776,
          -0.01719089411199093,
          -0.04327517747879028,
          0.056802548468112946,
          -0.05886290594935417
        ],
        [
          0.06819532066583633,
          -0.029974672943353653,
          -0.019507164135575294,
          -0.024353763088583946,
          -0.060406677424907684,
          0.01634928025305271,
          0.024405550211668015,
          0.02069191075861454,
          -0.035605087876319885,
          -0.06826042383909225,
          -0.027863336727023125,
          -0.02287164330482483,
          -0.02338610589504242,
          0.04309585690498352,
          0.04780663922429085,
          -0.05573739483952522,
          -0.06300981342792511,
          0.004264547023922205,
          -0.0624220110476017,
          0.05531545355916023,
          0.0002972707443404943,
          -0.02324286475777626,
          0.06009114161133766,
          0.027336278930306435,
          0.06693882495164871,
          -0.03187819942831993,
          0.031359340995550156,
          0.05451589077711105,
          0.03749250993132591,
          0.033854346722364426,
          0.007971352897584438,
          0.08221781998872757,
          -0.04018378257751465,
          -0.006299206055700779,
          -0.03585759177803993,
          -0.053794849663972855,
          -0.04051773622632027,
          0.06193390488624573,
          -0.05306403338909149,
          0.09202682971954346,
          -0.04216581583023071,
          -0.03738819807767868,
          -0.02848718874156475,
          0.04335945099592209,
          -0.0073318276554346085,
          -0.065396249294281,
          0.009597896598279476,
          0.02828923426568508,
          -0.045205146074295044,
          0.012875296175479889,
          0.004078724421560764,
          0.01059429720044136,
          0.035270970314741135,
          0.04546405002474785,
          -0.08047964423894882,
          -0.005450741853564978,
          -0.0020645963959395885,
          -0.0026896700728684664,
          -0.014756503514945507,
          0.02362982928752899,
          -0.028699250891804695,
          -0.05193827673792839,
          0.07167749851942062,
          -0.0485345758497715,
          -0.08226078003644943,
          0.04825934022665024,
          -0.00970644410699606,
          0.06448722630739212,
          0.06898778676986694,
          -0.0651591494679451,
          -0.02543213963508606,
          0.060523565858602524,
          0.07623626291751862,
          0.06923196464776993,
          -0.04979940876364708,
          0.021064430475234985,
          -0.030775906518101692,
          0.04022667557001114,
          -0.02151424251496792,
          -0.013327358290553093,
          -0.007111086044460535,
          -0.02866045944392681,
          0.04778638854622841,
          -0.020322246477007866,
          0.021398894488811493,
          0.022214028984308243,
          -0.004573908168822527,
          0.06925477832555771,
          0.03824998438358307,
          -0.00014301540795713663,
          -0.031177740544080734,
          0.001985640497878194,
          0.013925066217780113,
          0.05436355993151665,
          0.01773766055703163,
          0.018253237009048462,
          -0.022259414196014404,
          0.042555078864097595,
          -0.056054845452308655,
          -0.0013060516212135553,
          -0.015225015580654144,
          0.017646607011556625,
          -0.013840327970683575,
          0.0035213567316532135,
          0.04271549731492996,
          -0.055643655359745026,
          -0.057770222425460815,
          -0.02527870610356331,
          -0.05341256037354469,
          -0.022075217217206955,
          0.007007588632404804,
          -0.06360755860805511,
          0.028507070615887642,
          0.04046110063791275,
          -0.03477999567985535,
          -0.06325691938400269,
          0.00628000358119607,
          0.01931266114115715,
          0.07491899281740189,
          0.020729629322886467,
          0.006074073258787394,
          0.03915944695472717,
          -0.0072713266126811504,
          -0.008630402386188507,
          -0.02482578158378601,
          -3.2572315831203014e-06,
          -0.03472485765814781,
          0.003605009289458394
        ],
        [
          -0.07667237520217896,
          -0.04540237784385681,
          0.04554776847362518,
          -0.06629246473312378,
          0.0059448848478496075,
          0.03961870074272156,
          0.020792638882994652,
          -0.062107548117637634,
          0.024915052577853203,
          -0.04623228311538696,
          -0.047678686678409576,
          -0.06921867281198502,
          -0.05552492290735245,
          0.04250112548470497,
          0.01297821756452322,
          -0.009778507053852081,
          0.020825117826461792,
          -0.021290583536028862,
          0.058677028864622116,
          0.017967741936445236,
          0.08367236703634262,
          -0.02623853273689747,
          0.06008555367588997,
          0.03271426633000374,
          -0.003364147385582328,
          0.06735224276781082,
          -0.011977138929069042,
          0.0041305068880319595,
          -0.10745616257190704,
          0.030872246250510216,
          0.0332430899143219,
          0.04829178750514984,
          -0.0030679593328386545,
          -0.014088296331465244,
          -0.10081636160612106,
          -0.06427173316478729,
          0.03350150212645531,
          -0.016999157145619392,
          -0.048827219754457474,
          0.007319337222725153,
          -0.009677406400442123,
          0.03811725229024887,
          0.07933299243450165,
          -0.02529464103281498,
          -0.0716175064444542,
          -0.028869450092315674,
          -0.06548982858657837,
          -0.08799636363983154,
          -0.007255862932652235,
          -0.009988753125071526,
          0.012977824546396732,
          0.026756344363093376,
          0.02588687650859356,
          -0.0042443773709237576,
          0.003880430245772004,
          0.036286238580942154,
          -0.0023393789306282997,
          -0.04470498487353325,
          0.02188284695148468,
          -0.019172679632902145,
          0.051404524594545364,
          -0.05427761748433113,
          -0.024368857964873314,
          -0.0703943595290184,
          -0.025572974234819412,
          0.015386752784252167,
          -0.07006102800369263,
          -0.08786618709564209,
          -0.01541483961045742,
          0.0571100078523159,
          0.010362543165683746,
          -0.08590755611658096,
          -0.0012414410011842847,
          0.035160284489393234,
          0.06582900881767273,
          0.010232647880911827,
          -0.00869873445481062,
          0.07567872852087021,
          0.010211959481239319,
          -0.05294216796755791,
          0.014503397047519684,
          -0.0957566499710083,
          -0.030700884759426117,
          -0.02158495970070362,
          0.04301196709275246,
          -0.016061916947364807,
          -0.006025254260748625,
          0.022788628935813904,
          0.005957531742751598,
          -0.03717001527547836,
          0.009520488791167736,
          0.01485519204288721,
          0.04371549189090729,
          0.046706005930900574,
          0.048344582319259644,
          0.08173857629299164,
          -0.015980903059244156,
          0.013951169326901436,
          -0.025426695123314857,
          -0.06099429726600647,
          -0.04634400084614754,
          0.07407922297716141,
          -0.03909779712557793,
          0.036933790892362595,
          -0.05494319275021553,
          0.012935939244925976,
          -0.01688884012401104,
          0.00901042390614748,
          0.0704091414809227,
          0.04439844191074371,
          0.07493075728416443,
          -0.07681011408567429,
          0.06903548538684845,
          0.038380540907382965,
          -0.04186797887086868,
          0.061334118247032166,
          -0.0031596589833498,
          0.04144904389977455,
          -0.036235395818948746,
          0.047414325177669525,
          0.02815937250852585,
          0.05761445686221123,
          0.026834866032004356,
          0.0018405640730634332,
          -0.002596126403659582,
          0.0826764851808548,
          -0.06175067275762558,
          -0.020210713148117065
        ],
        [
          0.055864427238702774,
          -0.04323950782418251,
          -0.013032191433012486,
          0.059659428894519806,
          0.06543885916471481,
          -0.001213730312883854,
          -0.03507796302437782,
          -0.003771947231143713,
          -0.056738950312137604,
          0.06004275009036064,
          -0.052489180117845535,
          0.06407635658979416,
          0.05583975091576576,
          0.013575650751590729,
          0.027030829340219498,
          -0.020164730027318,
          -0.06750649213790894,
          0.031781282275915146,
          0.0027373861521482468,
          -0.01982232742011547,
          -0.03831890597939491,
          -0.058459702879190445,
          -0.03423978015780449,
          0.0031822798773646355,
          0.044006261974573135,
          -0.009833386167883873,
          -0.09175817668437958,
          -0.06250280141830444,
          0.029164055362343788,
          -0.013196195475757122,
          -0.029321543872356415,
          -0.025979572907090187,
          0.049329064786434174,
          0.051469944417476654,
          0.012736640870571136,
          -0.0016968551790341735,
          0.0455731600522995,
          -0.07636436820030212,
          0.07277195155620575,
          -0.04694213345646858,
          0.045831937342882156,
          -0.05925091728568077,
          -0.03285612538456917,
          -0.03504069149494171,
          -0.06634163856506348,
          -0.08556514233350754,
          0.03344346582889557,
          0.03342486917972565,
          -0.07727636396884918,
          0.06821627914905548,
          0.01934458687901497,
          0.03209516778588295,
          0.02519908919930458,
          0.026959938928484917,
          0.09053236991167068,
          0.0033160890452563763,
          0.03828789293766022,
          -0.06204000487923622,
          -0.0014651373494416475,
          -0.02031182125210762,
          0.01945791393518448,
          -0.02211412973701954,
          -0.04207324609160423,
          0.024547863751649857,
          -0.07045397907495499,
          -0.05593946576118469,
          0.04695802554488182,
          -0.0813162550330162,
          -0.05583460256457329,
          0.08692044764757156,
          0.046998895704746246,
          -0.004676823504269123,
          -0.05905226245522499,
          -0.10302813351154327,
          0.009335429407656193,
          -0.0790720134973526,
          0.027442768216133118,
          -0.06576419621706009,
          0.0849168673157692,
          -0.05864022672176361,
          0.0798785462975502,
          -0.022598804906010628,
          0.036008842289447784,
          0.011533316224813461,
          0.012844150885939598,
          -0.042191170156002045,
          -0.08931166678667068,
          -0.025601623579859734,
          0.016958022490143776,
          0.0890309065580368,
          0.08227423578500748,
          0.006364858243614435,
          0.03660621866583824,
          -0.06321743875741959,
          0.0404912605881691,
          -0.008500989526510239,
          -0.08015142381191254,
          0.06120028346776962,
          0.0332794189453125,
          0.05611896514892578,
          -0.027097249403595924,
          0.06414569914340973,
          -0.02811765857040882,
          -0.044729214161634445,
          0.044785454869270325,
          0.08876407146453857,
          0.07474026083946228,
          0.029912324622273445,
          0.05344094708561897,
          -0.009837120771408081,
          -0.04988342896103859,
          0.044661745429039,
          -0.026498943567276,
          0.060191914439201355,
          0.00955289788544178,
          -0.006496076006442308,
          0.07131130993366241,
          0.0499056875705719,
          0.06842467188835144,
          -0.021922284737229347,
          0.053331516683101654,
          0.008733022958040237,
          0.017921458929777145,
          0.0200409647077322,
          -0.012782868929207325,
          0.06996297836303711,
          0.047287214547395706,
          -0.033615510910749435
        ],
        [
          -0.005742099601775408,
          -0.037234917283058167,
          0.003194180317223072,
          0.04147560894489288,
          0.05060819908976555,
          -0.0019507149700075388,
          0.008639980107545853,
          -0.016604797914624214,
          -0.03714868426322937,
          0.04606592655181885,
          0.012710285373032093,
          0.04464804381132126,
          -0.05298962816596031,
          -0.03638122230768204,
          -0.008806322701275349,
          0.026756392791867256,
          -0.058540068566799164,
          0.011892554350197315,
          -0.07374630868434906,
          -0.03077027201652527,
          0.0219969991594553,
          0.0643639862537384,
          -0.08068688213825226,
          0.00719331344589591,
          0.04404130205512047,
          -0.041176825761795044,
          0.0455160066485405,
          0.011424018070101738,
          0.013407615944743156,
          0.06565416604280472,
          -0.031117063015699387,
          0.014788995496928692,
          0.03755202889442444,
          -0.059130020439624786,
          -0.046190936118364334,
          0.08464629203081131,
          -0.08848118782043457,
          0.03198346123099327,
          0.07741942256689072,
          -0.021025218069553375,
          0.021075794473290443,
          0.05348213389515877,
          -0.0026030114386230707,
          -0.05079226940870285,
          0.013128995895385742,
          -0.028292115777730942,
          -0.05394076555967331,
          -0.004877596162259579,
          -0.018786456435918808,
          -0.008765379898250103,
          0.051847971975803375,
          0.009227328933775425,
          0.0456538051366806,
          -0.00480940705165267,
          -0.030945608392357826,
          -0.051301587373018265,
          0.05211950093507767,
          -0.09409892559051514,
          0.07164772599935532,
          0.06646652519702911,
          -0.032102979719638824,
          0.015928860753774643,
          0.01470271311700344,
          0.07711368799209595,
          0.05956518277525902,
          0.043771181255578995,
          0.06251004338264465,
          -0.03875301405787468,
          0.03203162923455238,
          -0.028677891939878464,
          0.037729691714048386,
          -0.05520569905638695,
          -0.05386940389871597,
          0.013311507180333138,
          0.05995483323931694,
          -0.042977314442396164,
          -0.036156121641397476,
          -0.04713867977261543,
          -0.038555800914764404,
          -0.04643716663122177,
          0.07637742906808853,
          0.061476416885852814,
          0.01614922098815441,
          0.007356570567935705,
          -0.04596572369337082,
          0.03810027241706848,
          -0.007255859673023224,
          0.06703248620033264,
          -0.06252399832010269,
          -0.04072180017828941,
          -0.020189590752124786,
          -0.00407346012070775,
          0.024351907894015312,
          -0.09219719469547272,
          0.07530582696199417,
          -0.04606907069683075,
          -0.058252912014722824,
          0.039707206189632416,
          0.03610735386610031,
          -0.057937439531087875,
          -0.027871493250131607,
          0.039317335933446884,
          -0.031520165503025055,
          0.07874429225921631,
          -0.021323446184396744,
          -0.010762921534478664,
          0.067855104804039,
          0.02741479128599167,
          0.002353574149310589,
          0.049522511661052704,
          0.005717123858630657,
          0.04562992602586746,
          0.06277044862508774,
          -0.0018777213990688324,
          0.034524012356996536,
          -0.0028502715285867453,
          -0.03819817304611206,
          -0.0448521226644516,
          0.01885787956416607,
          -0.04599286615848541,
          -0.013054483570158482,
          -0.038455646485090256,
          -0.052024535834789276,
          0.07591471821069717,
          0.09099870175123215,
          -0.01305645052343607,
          -0.04450256749987602,
          0.04868846386671066
        ],
        [
          -0.029968544840812683,
          -0.08318650722503662,
          0.07484470307826996,
          -0.03341379016637802,
          -0.05336249992251396,
          -0.04535818472504616,
          0.055092111229896545,
          -0.07167290151119232,
          -0.03888734057545662,
          0.016273939982056618,
          -0.010892407968640327,
          -0.022661320865154266,
          0.03186089172959328,
          -0.04934907704591751,
          0.08134211599826813,
          0.04353628307580948,
          -0.01103194896131754,
          -0.002354484284296632,
          -0.003077403176575899,
          -0.0010055835591629148,
          0.04990212619304657,
          -0.06775250285863876,
          0.022305352613329887,
          -0.013990569859743118,
          -0.04532657936215401,
          0.06307312846183777,
          -0.01031501591205597,
          -0.07503256946802139,
          -0.03065991960465908,
          -0.09371070563793182,
          0.05857393518090248,
          0.041249342262744904,
          -0.004105878062546253,
          -0.07407884299755096,
          -0.0017758837202563882,
          0.020736683160066605,
          0.06863182038068771,
          -0.03159305453300476,
          0.03878737986087799,
          0.09764666110277176,
          -0.032693274319171906,
          -0.005248850677162409,
          -0.05861898139119148,
          -0.030835038051009178,
          -0.07705072313547134,
          -0.04837203770875931,
          0.03089437447488308,
          -0.020912673324346542,
          0.07799728959798813,
          -0.024274004623293877,
          0.02109595388174057,
          -0.00670244637876749,
          0.047755271196365356,
          -0.07197348028421402,
          -0.006657630205154419,
          -0.05606572702527046,
          0.0535384826362133,
          0.06774041801691055,
          -0.037516117095947266,
          -0.05384283885359764,
          0.06412015110254288,
          0.030532080680131912,
          -0.06749574840068817,
          -0.04375077039003372,
          -0.061776380985975266,
          -0.03910833224654198,
          0.02309717983007431,
          -0.06694922596216202,
          0.035488780587911606,
          -0.06556449085474014,
          -0.05316030979156494,
          -0.039720140397548676,
          -0.003935371525585651,
          0.014830094762146473,
          -0.04147687554359436,
          0.04738433286547661,
          0.07291033864021301,
          -0.04555058851838112,
          -0.08306573331356049,
          -0.041995033621788025,
          0.034796103835105896,
          0.08152113109827042,
          -0.02380995824933052,
          0.050533175468444824,
          -0.03209741413593292,
          -0.03430991247296333,
          -0.060122258961200714,
          0.035628579556941986,
          0.042289916425943375,
          -0.060518257319927216,
          -0.0006181863136589527,
          0.0026166930329054594,
          0.03823285177350044,
          0.08394800871610641,
          -0.029405130073428154,
          0.047682132571935654,
          0.007890566252171993,
          -0.06461892277002335,
          -0.026648297905921936,
          -0.03511803224682808,
          0.028789103031158447,
          -0.05271286144852638,
          -0.006184046156704426,
          0.02507726103067398,
          0.045323695987463,
          0.029141996055841446,
          -0.07371248304843903,
          0.03846970200538635,
          0.03487525135278702,
          -0.03172049671411514,
          -0.05777827277779579,
          -0.011691433377563953,
          -0.06972403824329376,
          0.01638934016227722,
          0.08976566046476364,
          -0.02970644272863865,
          -0.005421679932624102,
          -0.05551207810640335,
          0.08430272340774536,
          -0.0003368418838363141,
          0.01891346089541912,
          -0.03552113473415375,
          0.0802263617515564,
          -0.026536162942647934,
          0.0368424691259861,
          -0.053872112184762955,
          0.025127414613962173,
          -0.08130896091461182
        ],
        [
          0.013473044149577618,
          0.018211770802736282,
          -0.0690353512763977,
          -0.09289582818746567,
          0.003007706720381975,
          0.006972086150199175,
          -0.04586496949195862,
          0.0713842436671257,
          -0.014162822626531124,
          -0.022900307551026344,
          0.06692753732204437,
          -0.023641305044293404,
          0.08122223615646362,
          0.02877824939787388,
          0.04442494362592697,
          0.053232062608003616,
          0.026810236275196075,
          0.04357528313994408,
          -0.0044388738460838795,
          0.05266585201025009,
          0.054072823375463486,
          0.040640007704496384,
          0.04549736902117729,
          -0.0683877170085907,
          -0.0676032155752182,
          0.030140617862343788,
          0.045961666852235794,
          -0.025589613243937492,
          0.017630266025662422,
          0.009739291854202747,
          -0.029032960534095764,
          -0.039469096809625626,
          0.0763552114367485,
          0.037012338638305664,
          0.03927664831280708,
          -0.010342632420361042,
          -0.07999707013368607,
          0.010792051441967487,
          0.06979195773601532,
          0.05874515324831009,
          -0.02719961106777191,
          0.07958544045686722,
          -0.026741711422801018,
          0.019683167338371277,
          -0.07705776393413544,
          0.08150752633810043,
          -0.04529837518930435,
          -0.03460857272148132,
          -0.0007437248714268208,
          0.03558524325489998,
          0.0008362190565094352,
          -0.022634495049715042,
          -0.06718523800373077,
          0.009804356843233109,
          0.040712881833314896,
          0.030675727874040604,
          -0.012718536891043186,
          -0.07267963141202927,
          -0.033676888793706894,
          0.0021978251170367002,
          -0.028472082689404488,
          -0.03927440196275711,
          -0.017898309975862503,
          -0.061683591455221176,
          0.008723106235265732,
          0.04484131932258606,
          -0.057883795350790024,
          -0.08142748475074768,
          0.06712784618139267,
          -0.06481087952852249,
          0.07201328873634338,
          -0.0653822049498558,
          -0.046589918434619904,
          0.005227021407335997,
          0.030653735622763634,
          -0.08220930397510529,
          -0.061460286378860474,
          0.09708531200885773,
          0.009417249821126461,
          0.021522024646401405,
          0.03987593948841095,
          -0.06909582763910294,
          -0.02023056335747242,
          -0.021224305033683777,
          -0.05200913920998573,
          -0.03764568269252777,
          0.02015756629407406,
          0.029232822358608246,
          0.08702860027551651,
          -0.06212364137172699,
          0.015652403235435486,
          -0.03990009054541588,
          0.030965127050876617,
          0.004632582888007164,
          -0.06944892555475235,
          0.0366884283721447,
          0.02370968647301197,
          -0.00760939996689558,
          0.053458184003829956,
          0.08219560235738754,
          -0.07345245778560638,
          0.025355594232678413,
          0.044492207467556,
          -0.001247409381903708,
          -0.006949685513973236,
          0.022088680416345596,
          0.003126300871372223,
          -0.049803636968135834,
          -0.02111142687499523,
          -0.052577584981918335,
          -0.005103005096316338,
          -0.08867792785167694,
          0.08458838611841202,
          -0.0024568550288677216,
          -0.05007852241396904,
          0.007713919505476952,
          -0.07521788775920868,
          -0.05556240305304527,
          -0.023184090852737427,
          -0.00420753937214613,
          0.0367656946182251,
          0.08197440207004547,
          -0.03084186092019081,
          0.0375128909945488,
          0.07205909490585327,
          0.017611809074878693,
          0.020884990692138672,
          0.012265102006494999
        ],
        [
          -0.02215346321463585,
          0.03378365933895111,
          0.0053294808603823185,
          0.03569290041923523,
          0.08032095432281494,
          -0.0328688882291317,
          -0.0686834454536438,
          0.017752408981323242,
          -0.05186639353632927,
          0.04556148871779442,
          0.008478122763335705,
          0.07871439307928085,
          0.09046653658151627,
          -0.057309553027153015,
          0.034149665385484695,
          -0.0690440908074379,
          -0.09429720789194107,
          -0.08047839254140854,
          0.030677277594804764,
          0.010891282930970192,
          -0.06712707132101059,
          -0.05881691351532936,
          -0.014259560965001583,
          -0.01150019746273756,
          -0.008797495625913143,
          -0.027209660038352013,
          0.05210450664162636,
          0.035140592604875565,
          -0.0379985012114048,
          -0.07313740253448486,
          0.05436423793435097,
          -0.052601587027311325,
          0.01907241903245449,
          0.013146146200597286,
          0.03673063591122627,
          -0.05650520324707031,
          -0.01564565673470497,
          0.043240807950496674,
          -0.028621165081858635,
          -0.05825461447238922,
          0.014738820493221283,
          -0.08646076917648315,
          0.044912926852703094,
          0.017303084954619408,
          -0.08859298378229141,
          0.015140539035201073,
          0.0072104437276721,
          0.07461642473936081,
          0.04008857533335686,
          -0.02477251924574375,
          0.07635637372732162,
          0.006403905805200338,
          0.04387568682432175,
          -0.06135592982172966,
          -0.0013097859919071198,
          -0.04693906009197235,
          -0.022548221051692963,
          0.10762099176645279,
          0.07069630175828934,
          0.02567324787378311,
          0.004097748082131147,
          -0.04978566989302635,
          -0.032360997051000595,
          -0.06176504120230675,
          -0.043134938925504684,
          -0.018599117174744606,
          0.0035789296962320805,
          -0.0339556448161602,
          0.05271539464592934,
          0.01333529967814684,
          0.009638166055083275,
          0.045131176710128784,
          -0.010610564611852169,
          -0.05783633142709732,
          -0.0037367043551057577,
          0.048323482275009155,
          -0.04209556803107262,
          -0.0387384332716465,
          -0.04367409646511078,
          0.044488947838544846,
          0.050911638885736465,
          -0.00920053943991661,
          0.05723176896572113,
          -0.011984906159341335,
          -0.02136320434510708,
          -0.011770473793148994,
          0.01870102249085903,
          0.027693549171090126,
          -0.056496571749448776,
          -0.02250521257519722,
          0.04743308946490288,
          0.015300057828426361,
          0.06471533328294754,
          0.015415913425385952,
          0.026883451268076897,
          -0.07369715720415115,
          0.04303158074617386,
          0.01897457055747509,
          -0.0506628155708313,
          -0.08289768546819687,
          -0.02067069336771965,
          -0.00925956480205059,
          0.032323915511369705,
          0.019847584888339043,
          -0.017872460186481476,
          0.0559287890791893,
          -0.06578821688890457,
          0.010093316435813904,
          0.015416573733091354,
          -0.023862570524215698,
          0.03018895350396633,
          0.048603277653455734,
          0.07455593347549438,
          0.08074542880058289,
          0.007333206478506327,
          -0.045647524297237396,
          0.013859645463526249,
          0.05246925726532936,
          -0.006731692235916853,
          0.025490283966064453,
          0.044938135892152786,
          -0.04220782220363617,
          -0.05153492093086243,
          0.029729152098298073,
          0.060766588896512985,
          0.02477332204580307,
          0.021744852885603905,
          -0.02965320087969303
        ],
        [
          0.03764030709862709,
          0.09871993958950043,
          0.04609370976686478,
          0.03756863251328468,
          -0.03876470401883125,
          0.006902702618390322,
          -0.048617225140333176,
          -0.011687537655234337,
          0.00668240524828434,
          0.03354792296886444,
          -0.06592558324337006,
          -0.058645762503147125,
          2.2263368009589612e-05,
          -0.02866632305085659,
          0.025765733793377876,
          0.05259454622864723,
          -0.06980971246957779,
          0.05029703676700592,
          0.06860830634832382,
          0.00981923472136259,
          0.017928114160895348,
          0.019831582903862,
          -0.037273112684488297,
          0.027588985860347748,
          0.0445665642619133,
          -0.03781868889927864,
          -0.03277343139052391,
          0.09106896072626114,
          -0.05076848715543747,
          -0.005147110670804977,
          0.018786771222949028,
          0.03379162773489952,
          0.03224130719900131,
          -0.07697906345129013,
          -0.032672688364982605,
          0.02552138827741146,
          -0.052161604166030884,
          -0.044490713626146317,
          -0.02947717159986496,
          -0.006365734152495861,
          0.09114561229944229,
          0.028418797999620438,
          -0.07059231400489807,
          -0.04548487067222595,
          -0.04682159796357155,
          -0.015986952930688858,
          -0.03518170863389969,
          -0.04859411343932152,
          -0.012561577372252941,
          -0.03237644582986832,
          0.05469158664345741,
          -0.004576764535158873,
          0.04560229554772377,
          -0.07258305698633194,
          0.0640292689204216,
          -0.039591483771800995,
          -0.07037223130464554,
          0.02035510167479515,
          0.008960750885307789,
          -0.08063947409391403,
          0.008005893789231777,
          0.010734436102211475,
          0.02098134718835354,
          0.06923018395900726,
          -0.064641073346138,
          -0.020060934126377106,
          0.0024952583480626345,
          -0.027607746422290802,
          -0.04357942193746567,
          -0.06655406206846237,
          0.026082441210746765,
          -0.009186605922877789,
          0.05029412358999252,
          -0.06372680515050888,
          -0.02440347895026207,
          0.0412764847278595,
          -0.02774026058614254,
          -0.003686769399791956,
          0.031084004789590836,
          0.024051403626799583,
          -0.06581609696149826,
          0.06294654309749603,
          0.03065635822713375,
          -0.0021162221673876047,
          -0.06553905457258224,
          -0.06973221898078918,
          -0.06017978489398956,
          0.015368173830211163,
          0.025140676647424698,
          -0.04394225403666496,
          -0.04038551449775696,
          0.03434797003865242,
          -0.0037844302132725716,
          -0.020483586937189102,
          0.06784025579690933,
          -0.005411882884800434,
          0.06092991679906845,
          0.04129977896809578,
          0.0015606407541781664,
          0.00473224651068449,
          -0.008208414539694786,
          -0.04244169220328331,
          0.012078095227479935,
          -0.015520481392741203,
          0.031874775886535645,
          0.03940647467970848,
          0.06705882400274277,
          -0.031402233988046646,
          -0.05934436619281769,
          0.06646216660737991,
          -0.053029004484415054,
          0.04038139060139656,
          -0.07813140749931335,
          -0.048348329961299896,
          0.0249110646545887,
          0.008298862725496292,
          0.033306825906038284,
          0.04587576910853386,
          0.03527942672371864,
          0.11050477623939514,
          -0.015063782222568989,
          -0.042929813265800476,
          -0.028723347932100296,
          -0.051036156713962555,
          0.036110859364271164,
          0.03759452700614929,
          -0.026002300903201103,
          -0.012665847316384315
        ],
        [
          -0.02417675405740738,
          0.022377662360668182,
          -0.05726328119635582,
          0.05297134071588516,
          -0.024132709950208664,
          0.042707402259111404,
          0.03814684599637985,
          0.0416853092610836,
          0.034796275198459625,
          0.049987729638814926,
          0.06386779993772507,
          0.06127602607011795,
          0.007471398450434208,
          -0.051846738904714584,
          -0.0390741229057312,
          0.05554088205099106,
          -0.008095132187008858,
          -0.017256271094083786,
          0.02377224713563919,
          -0.03274250030517578,
          -0.07517752796411514,
          0.00027453317306935787,
          0.03717835620045662,
          -0.005163905210793018,
          -0.03255610167980194,
          0.05805227532982826,
          -0.008587663061916828,
          0.01218370907008648,
          0.05458800494670868,
          -0.053000520914793015,
          0.03342343494296074,
          -0.04940061643719673,
          -0.06022529676556587,
          0.0034326212480664253,
          0.038667231798172,
          -0.06814880669116974,
          -0.022456059232354164,
          -0.06007937714457512,
          -0.051374416798353195,
          -0.007652873173356056,
          -0.05815336853265762,
          -0.07743814587593079,
          -0.06685370206832886,
          0.010844099335372448,
          0.011950750835239887,
          -0.02322797104716301,
          0.06133078783750534,
          -0.04981014132499695,
          0.051823634654283524,
          0.04596758633852005,
          -0.04580558463931084,
          -0.01207900233566761,
          -0.0033874830696731806,
          0.032994091510772705,
          -0.03808044269680977,
          -0.013018517754971981,
          -0.040603116154670715,
          0.07275085151195526,
          0.04043162241578102,
          -0.0290960855782032,
          -0.05742355436086655,
          0.018912194296717644,
          0.026120664551854134,
          0.022913487628102303,
          0.05695201829075813,
          0.053504906594753265,
          0.017858371138572693,
          0.0647902712225914,
          0.017927944660186768,
          0.09083990752696991,
          0.04458868131041527,
          -0.034798216074705124,
          -0.05073947459459305,
          -0.05406322330236435,
          0.018268149346113205,
          0.014094129204750061,
          0.015876347199082375,
          -0.06546187400817871,
          -0.0713394284248352,
          0.06600432842969894,
          -0.03844396397471428,
          0.03356517478823662,
          -0.0227237306535244,
          0.02235698327422142,
          0.027547061443328857,
          -0.04927868768572807,
          0.029060889035463333,
          0.007293112576007843,
          0.02951204590499401,
          -0.012975129298865795,
          -0.062120240181684494,
          0.030183715745806694,
          -0.051584549248218536,
          0.03522801771759987,
          0.019860077649354935,
          -0.06471254676580429,
          -0.037795066833496094,
          0.05798431858420372,
          0.05300309136509895,
          -0.04084672033786774,
          -0.07760046422481537,
          -0.013061285950243473,
          -0.01796608418226242,
          0.006940102204680443,
          0.041676413267850876,
          -0.00644390843808651,
          -0.06961726397275925,
          -0.05183126777410507,
          0.01489496510475874,
          0.005458667408674955,
          -0.08752769976854324,
          0.03216079995036125,
          -0.03807792812585831,
          0.05938766896724701,
          -0.08853168040513992,
          -0.025747817009687424,
          -0.058637797832489014,
          -0.012897003442049026,
          -0.017838608473539352,
          -0.001312508131377399,
          0.04411958530545235,
          -0.03393099084496498,
          -0.06138082966208458,
          0.02253158576786518,
          0.04179961234331131,
          -0.01266450248658657,
          0.014575205743312836,
          0.027439186349511147
        ],
        [
          -0.05291229858994484,
          0.02368469163775444,
          0.046190619468688965,
          -0.04242076724767685,
          -0.03790493309497833,
          0.07058531790971756,
          0.06564002484083176,
          -0.06992574781179428,
          -0.009199087508022785,
          0.056904468685388565,
          -0.006192103959619999,
          -0.0016699021216481924,
          0.052461352199316025,
          -0.10303197801113129,
          -0.03372884541749954,
          -0.015233399346470833,
          -0.03736963868141174,
          0.013437134213745594,
          -0.04263787344098091,
          0.06921622157096863,
          -0.03937007859349251,
          -0.0388961024582386,
          -0.03937587887048721,
          -0.018055899068713188,
          -0.00796277355402708,
          -0.00536676961928606,
          -0.034997329115867615,
          -0.04561607912182808,
          0.0010085852118209004,
          -0.04973670840263367,
          -0.02518468163907528,
          -0.017087632790207863,
          0.013352572917938232,
          -0.01740797981619835,
          0.037839800119400024,
          0.03754059597849846,
          -0.046684060245752335,
          -0.002240995177999139,
          -0.0167824886739254,
          -0.06926880776882172,
          0.009919182397425175,
          0.06274847686290741,
          0.06995726376771927,
          0.04542560130357742,
          -0.009314709343016148,
          0.008195935748517513,
          -0.05492085590958595,
          -0.016368987038731575,
          -0.019118839874863625,
          -0.06296028196811676,
          -0.06901603192090988,
          -0.04360698536038399,
          -0.035105954855680466,
          0.0445210225880146,
          -0.09054235368967056,
          0.050859350711107254,
          0.020569708198308945,
          -0.06502032279968262,
          0.004953285679221153,
          0.027989057824015617,
          0.00130997016094625,
          0.06618320941925049,
          -0.07007750123739243,
          -0.04395231977105141,
          -0.037242330610752106,
          -0.02810618281364441,
          -0.006995394825935364,
          0.03034254163503647,
          0.01905079558491707,
          0.005278968717902899,
          -0.04388105124235153,
          -0.015624991618096828,
          -0.038708727806806564,
          -0.07055599242448807,
          -0.028788158670067787,
          0.018914593383669853,
          0.03399085998535156,
          -0.05935851112008095,
          0.030405618250370026,
          -0.03228296712040901,
          0.020048368722200394,
          0.04456697031855583,
          -0.06805755943059921,
          0.026732483878731728,
          -0.0385124608874321,
          0.06204766035079956,
          0.018834948539733887,
          0.07038013637065887,
          0.06848479062318802,
          -0.015753066167235374,
          0.04804858937859535,
          -0.03472952917218208,
          -0.018809610977768898,
          -0.016825081780552864,
          -0.07963087409734726,
          -0.020990515127778053,
          -0.05068306252360344,
          -0.07472514361143112,
          -0.029566727578639984,
          -0.001271918648853898,
          0.03391002491116524,
          0.06522636115550995,
          -0.01611430011689663,
          -0.09299901872873306,
          0.01652764156460762,
          0.015715165063738823,
          -0.04875824600458145,
          -0.014233831316232681,
          -0.07695205509662628,
          -0.02366597019135952,
          -0.040867965668439865,
          0.011720120906829834,
          -0.04801423102617264,
          0.02909812703728676,
          0.014659055508673191,
          -0.003084928495809436,
          0.059286415576934814,
          0.02453787811100483,
          0.04899095743894577,
          -0.07481291145086288,
          -0.005359696224331856,
          0.05287725850939751,
          0.008845078758895397,
          -0.06519979983568192,
          0.0644751563668251,
          0.06496616452932358,
          -0.05939788743853569,
          0.05969066172838211
        ],
        [
          0.015265722759068012,
          -0.032682083547115326,
          -0.04202720895409584,
          -0.02927456423640251,
          0.07792255282402039,
          0.010631040669977665,
          -0.030119631439447403,
          -0.02368832938373089,
          0.009775761514902115,
          0.0044169132597744465,
          -0.0031142854131758213,
          0.0024161916226148605,
          -0.08403922617435455,
          -0.0003874631365761161,
          -0.07302021980285645,
          -0.016867687925696373,
          0.04101238399744034,
          0.02258499152958393,
          0.0021981489844620228,
          -0.06335216015577316,
          -0.04911522939801216,
          0.06599415093660355,
          0.05356787517666817,
          0.022091209888458252,
          -0.05907187610864639,
          0.06135382875800133,
          0.022838756442070007,
          0.07728224247694016,
          0.02423892356455326,
          -0.02545766904950142,
          0.07390137761831284,
          -0.0030889438930898905,
          -0.06555140018463135,
          -0.04087776318192482,
          0.04429885745048523,
          0.007643536198884249,
          -0.03482732176780701,
          0.07914646714925766,
          -0.006912665441632271,
          -0.026298992335796356,
          -0.006412840448319912,
          0.05525480583310127,
          0.06073207035660744,
          0.07180497795343399,
          0.0624709315598011,
          0.0650448277592659,
          0.03145715966820717,
          -0.019437432289123535,
          -0.049954839050769806,
          -0.002531832316890359,
          0.0076577551662921906,
          -0.007601683959364891,
          0.047151193022727966,
          -0.0503530353307724,
          -0.020619221031665802,
          -0.03635026887059212,
          -0.01859031245112419,
          -0.015269926749169827,
          -0.020288724452257156,
          0.057928405702114105,
          0.007364940829575062,
          0.07332801073789597,
          0.034693002700805664,
          -0.028646940365433693,
          0.07125045359134674,
          0.08933544903993607,
          0.042733848094940186,
          0.032339178025722504,
          -0.0815424993634224,
          0.010578516870737076,
          -0.05840045213699341,
          -0.05411936715245247,
          -0.030287614092230797,
          0.023664310574531555,
          -0.04262228682637215,
          0.08484761416912079,
          0.01750023663043976,
          -0.06392984837293625,
          0.020054830238223076,
          -0.03036128543317318,
          -0.01618194207549095,
          0.07211074233055115,
          -0.060748446732759476,
          -0.05528262257575989,
          -0.03433942794799805,
          -0.02750423178076744,
          0.01977616362273693,
          -0.022963304072618484,
          0.048482101410627365,
          0.07820939272642136,
          -0.03295357897877693,
          0.030080033466219902,
          -0.010184170678257942,
          -0.022171003744006157,
          0.010071863420307636,
          0.07594142109155655,
          0.005393101368099451,
          0.00015428919869009405,
          -0.06744576245546341,
          -0.006912257056683302,
          -0.011835413984954357,
          0.06772002577781677,
          -0.019075961783528328,
          -0.011971825733780861,
          0.10025867819786072,
          -0.029024096205830574,
          0.00699934596195817,
          -0.0653267577290535,
          0.01798819564282894,
          0.04590656980872154,
          0.07344856858253479,
          0.05750967562198639,
          0.08632335811853409,
          -0.007327692583203316,
          0.113249272108078,
          -0.10792374610900879,
          -0.04249751940369606,
          0.002613858785480261,
          -0.08215603977441788,
          -0.008249267935752869,
          -0.05847451090812683,
          0.03529033437371254,
          -0.001856653019785881,
          -0.06160833686590195,
          0.028569648042321205,
          0.0185898095369339,
          -0.0228300578892231,
          0.041874513030052185
        ],
        [
          -0.03575364500284195,
          -0.009113305248320103,
          0.008787399157881737,
          -0.05311662703752518,
          0.033090438693761826,
          0.071434885263443,
          -0.027589663863182068,
          0.031167784705758095,
          -0.02734343521296978,
          -0.08528342843055725,
          -0.01640227995812893,
          0.027059281244874,
          0.007961896248161793,
          -0.03330329805612564,
          0.04505934193730354,
          -0.005132713355123997,
          -0.06744188815355301,
          -0.003935214132070541,
          0.07748645544052124,
          -0.05012941733002663,
          -0.033584561198949814,
          -0.06389164924621582,
          0.05303003638982773,
          -0.02971969172358513,
          0.06731124222278595,
          -0.024490660056471825,
          0.07602161914110184,
          0.053353916853666306,
          -0.08545462042093277,
          -0.03410082310438156,
          0.01749585010111332,
          -0.05405537784099579,
          0.03172312676906586,
          0.055390506982803345,
          -0.059456583112478256,
          0.09235864877700806,
          0.0158836767077446,
          0.019224725663661957,
          0.023477787151932716,
          0.07222899049520493,
          -0.01970762014389038,
          -0.0616426058113575,
          -0.033944711089134216,
          0.05904260650277138,
          0.07717040181159973,
          0.053638819605112076,
          -0.04438116028904915,
          0.08433705568313599,
          -0.0978727787733078,
          0.0025994055904448032,
          -0.07320129871368408,
          -0.04985488951206207,
          0.04963439702987671,
          -0.057426340878009796,
          0.0656151995062828,
          -0.06782996654510498,
          -0.06620635092258453,
          -0.0777633935213089,
          0.06949298828840256,
          0.04708345606923103,
          -0.018433261662721634,
          0.014057640917599201,
          0.06831638514995575,
          0.05751646310091019,
          -0.0234437994658947,
          0.043182622641325,
          -0.000564239569939673,
          0.04956004023551941,
          -0.03330851346254349,
          0.00699990801513195,
          0.08840350806713104,
          0.04375816136598587,
          0.05706769600510597,
          0.0350072905421257,
          -0.07162080705165863,
          0.028217600658535957,
          -0.052817393094301224,
          0.029462937265634537,
          0.033511001616716385,
          -0.03238845244050026,
          0.021907852962613106,
          -0.06129683926701546,
          -0.05239596590399742,
          0.009609667584300041,
          -0.008869466371834278,
          0.017140904441475868,
          0.07242026180028915,
          -0.04155890643596649,
          -0.040252093225717545,
          -0.006624543108046055,
          0.043359458446502686,
          -0.008371231146156788,
          -0.030991949141025543,
          -0.014455237425863743,
          -0.020069701597094536,
          -0.029223648831248283,
          0.010891301557421684,
          -0.004992260597646236,
          -0.06257994472980499,
          0.08039336651563644,
          0.0025587272830307484,
          0.0265270434319973,
          0.06944894790649414,
          0.025786107406020164,
          0.03341645747423172,
          0.05251898616552353,
          -0.046163804829120636,
          0.0034186106640845537,
          -0.04017547890543938,
          0.06020011380314827,
          0.006518718786537647,
          -0.008387702517211437,
          0.00031470865360461175,
          -0.032489825040102005,
          -0.06508993357419968,
          0.023218443617224693,
          -0.046929579228162766,
          -0.03955153003334999,
          -0.07338359206914902,
          -0.017599431797862053,
          -0.0032344465143978596,
          0.031055523082613945,
          0.061682116240262985,
          0.019657423719763756,
          0.04016919061541557,
          0.02996133640408516,
          0.02471109665930271,
          -0.043590761721134186
        ],
        [
          -0.09205588698387146,
          0.06745561957359314,
          0.04219743609428406,
          0.04925840348005295,
          0.06556328386068344,
          -0.06901976466178894,
          0.07084060460329056,
          0.05781343951821327,
          -0.04704917222261429,
          -0.03517496585845947,
          0.03923579305410385,
          -0.047796592116355896,
          -0.07103709876537323,
          0.024592483416199684,
          -0.03938509523868561,
          -0.08541939407587051,
          -0.04857360199093819,
          -0.015177818015217781,
          -0.02712567336857319,
          -0.05401349067687988,
          0.029436970129609108,
          -0.05907761678099632,
          0.07400793582201004,
          -0.04694349691271782,
          0.06702569127082825,
          0.0659649595618248,
          -0.04742087423801422,
          -0.03698460012674332,
          -0.025465089827775955,
          -0.011625542305409908,
          0.0673304945230484,
          0.011385787278413773,
          -0.0034667521249502897,
          -0.031984955072402954,
          0.02011902444064617,
          0.019816558808088303,
          0.06451941281557083,
          0.10514800995588303,
          -0.05167507380247116,
          -0.019510377198457718,
          0.053959961980581284,
          0.011721733957529068,
          -0.02788226678967476,
          0.07733560353517532,
          0.03337804600596428,
          0.06822596490383148,
          -0.03179474547505379,
          0.03382464125752449,
          0.057655420154333115,
          0.029091153293848038,
          0.03780684247612953,
          -0.06954639405012131,
          0.013311618007719517,
          -0.02045459672808647,
          0.07725903391838074,
          0.05756165832281113,
          -0.010727056302130222,
          -0.021716056391596794,
          0.08207831531763077,
          0.048315539956092834,
          0.06755869835615158,
          -0.007128939498215914,
          0.03188341483473778,
          -0.0373392179608345,
          -0.06011026352643967,
          -0.021283380687236786,
          -0.0718475878238678,
          0.030199095606803894,
          0.07207094877958298,
          -0.040231216698884964,
          -0.05704285204410553,
          0.044232502579689026,
          -0.07291612029075623,
          0.10053195804357529,
          0.07618112862110138,
          0.033843789249658585,
          -0.05915307626128197,
          0.03552628308534622,
          0.055846840143203735,
          -0.00025835575070232153,
          0.0369340218603611,
          0.08849881589412689,
          -0.042086757719516754,
          0.008847668766975403,
          -0.03264133632183075,
          -0.01701592281460762,
          -0.010986396111547947,
          0.016667049378156662,
          0.04392072185873985,
          0.059454191476106644,
          0.0170897226780653,
          0.027002425864338875,
          -0.05900418013334274,
          0.07053586840629578,
          0.035007525235414505,
          0.05072099715471268,
          -0.01913030818104744,
          0.04003001004457474,
          -0.02120744064450264,
          -0.03628282621502876,
          0.05566985160112381,
          -0.0329669713973999,
          0.05866697430610657,
          0.05396075174212456,
          0.012842869386076927,
          0.07257257401943207,
          -0.0054024141281843185,
          0.08161202073097229,
          -0.05229565501213074,
          -0.022373361513018608,
          -0.046083010733127594,
          -0.05080142244696617,
          -0.03485383838415146,
          0.0649927482008934,
          -0.014762172475457191,
          -0.06021580100059509,
          -0.04228123649954796,
          0.007165888790041208,
          -0.037626612931489944,
          0.04736637324094772,
          0.020355382934212685,
          0.06715705245733261,
          0.024381989613175392,
          0.032572560012340546,
          0.02019716240465641,
          0.014105095528066158,
          -0.008301518857479095,
          0.02371162548661232
        ],
        [
          -0.029617568477988243,
          -0.043324150145053864,
          -0.06957373023033142,
          0.019323285669088364,
          -0.06252352893352509,
          -0.03678421303629875,
          0.025757623836398125,
          -0.03146772086620331,
          -0.058785390108823776,
          -0.005577169358730316,
          -0.027260879054665565,
          0.07478153705596924,
          0.04928259551525116,
          0.07001817971467972,
          0.07472999393939972,
          -0.04498988762497902,
          0.04233662411570549,
          0.03045489266514778,
          -0.03833242505788803,
          -0.03334472328424454,
          0.08408466726541519,
          0.08336156606674194,
          0.014592848718166351,
          0.04430554807186127,
          0.08836343139410019,
          0.005613522604107857,
          -0.06283002346754074,
          -0.037638310343027115,
          0.004057169891893864,
          0.03132018446922302,
          0.03665097802877426,
          -0.052786823362112045,
          0.04861528053879738,
          -0.04200918972492218,
          0.07265596091747284,
          0.020658645778894424,
          -0.03160707652568817,
          -0.05102142319083214,
          0.054879870265722275,
          0.06260921061038971,
          0.02396365813910961,
          0.04892747476696968,
          0.019104667007923126,
          -0.0375441275537014,
          -0.015981510281562805,
          -0.0873088464140892,
          0.0446859672665596,
          -0.0230585765093565,
          0.018220555037260056,
          -0.019476735964417458,
          -0.0315554141998291,
          -0.024507638067007065,
          0.08793949335813522,
          -0.04921066761016846,
          0.026379356160759926,
          0.06749870628118515,
          -0.08456802368164062,
          0.05915175750851631,
          0.04507501795887947,
          -0.017454395070672035,
          -0.0460420697927475,
          -0.0647963359951973,
          -0.01006312482059002,
          -0.00894990749657154,
          -0.06212829425930977,
          -0.035836026072502136,
          0.04596221074461937,
          -0.04155147448182106,
          -0.09809806197881699,
          -0.01643262431025505,
          0.03446181118488312,
          0.037893712520599365,
          -0.009811303578317165,
          0.05580490082502365,
          -0.030970944091677666,
          -0.05263248085975647,
          0.05875544250011444,
          -0.0002044864377239719,
          0.013144958764314651,
          0.05998048186302185,
          0.015683162957429886,
          -0.03149615600705147,
          -0.058999110013246536,
          -0.02869489975273609,
          0.025859344750642776,
          -0.018737448379397392,
          -0.03173161298036575,
          0.028617652133107185,
          -0.02174258790910244,
          0.010025321505963802,
          -0.024712856858968735,
          0.07908560335636139,
          -0.05024372413754463,
          0.07535967975854874,
          0.059138212352991104,
          -0.014291342347860336,
          -0.017675315961241722,
          0.04119320958852768,
          0.018361425027251244,
          0.03551071882247925,
          0.05188203975558281,
          0.057149581611156464,
          -0.04058614745736122,
          -0.04915674775838852,
          -0.011343845166265965,
          -0.03501911833882332,
          -0.037027835845947266,
          0.027110924944281578,
          0.03063918463885784,
          -0.025750549510121346,
          0.06947653740644455,
          -0.018424388021230698,
          -0.017109941691160202,
          -0.08036242425441742,
          0.05542993173003197,
          0.04413430392742157,
          0.004031641408801079,
          0.08241622895002365,
          0.006099082995206118,
          0.04043998941779137,
          0.009908965788781643,
          -0.008555914275348186,
          0.09302104264497757,
          0.05150401219725609,
          -0.04426772519946098,
          0.0381440632045269,
          0.007654936984181404,
          -0.01949319802224636
        ],
        [
          0.0310184508562088,
          0.01972045749425888,
          0.012658316642045975,
          0.044427625834941864,
          -0.08076369017362595,
          0.05415975674986839,
          -0.04726646840572357,
          -0.07289842516183853,
          -0.018068043515086174,
          -0.022205572575330734,
          -0.05943756178021431,
          0.04784221202135086,
          -0.042332783341407776,
          0.01415808405727148,
          0.0757310763001442,
          -0.018026892095804214,
          0.06896907836198807,
          -0.03361999988555908,
          -0.08914615958929062,
          -0.005929157137870789,
          0.06500805914402008,
          -0.05018124729394913,
          0.017542609944939613,
          -0.03210098668932915,
          -0.065769724547863,
          -0.049865152686834335,
          -0.08635690808296204,
          0.03963087126612663,
          0.01059869583696127,
          0.06720419973134995,
          -0.009582264348864555,
          0.01866098679602146,
          0.06496287882328033,
          0.034215204417705536,
          -0.05278619006276131,
          -0.012230591848492622,
          -0.06951410323381424,
          0.010386509820818901,
