{
  "model_type": "RTNeural",
  "model_id": "dynamicsengine",
  "task": "dynamics_mapping",
  "input_size": 32,
  "output_size": 16,
  "architecture": "mlp",
  "layers": [
    {
      "name": "0.weight",
      "type": "conv",
      "weights": [
        [
          -0.16831821203231812,
          -0.027591820806264877,
          -0.02336709201335907,
          -0.11548463255167007,
          -0.0059194001369178295,
          -0.14104293286800385,
          0.07027416676282883,
          -0.07278282940387726,
          -0.047640521079301834,
          0.10833752155303955,
          0.06893563270568848,
          -0.09835854917764664,
          -0.10606096684932709,
          -0.1479712575674057,
          -0.014641647227108479,
          0.10007958859205246,
          -0.14596495032310486,
          0.10303901135921478,
          0.05175039544701576,
          0.13231690227985382,
          -0.11620485037565231,
          0.10773316770792007,
          -0.011351999826729298,
          -0.12582996487617493,
          0.0477897971868515,
          -0.009575984440743923,
          0.15101253986358643,
          0.10376688838005066,
          -0.013462196104228497,
          0.01679256558418274,
          0.16315379738807678,
          0.0449085533618927
        ],
        [
          0.07900851964950562,
          0.16001133620738983,
          -0.022096144035458565,
          0.040628112852573395,
          0.04704935848712921,
          0.03770573437213898,
          0.05039674788713455,
          0.1521342247724533,
          -0.020110029727220535,
          0.019984472543001175,
          -0.15635927021503448,
          0.045276716351509094,
          -0.05448281019926071,
          -0.16447488963603973,
          0.11005333811044693,
          -0.08944667875766754,
          -0.1591651439666748,
          -0.08150074630975723,
          0.11458730697631836,
          0.11588750034570694,
          -0.06344987452030182,
          0.08541411906480789,
          0.08845189213752747,
          -0.16638247668743134,
          0.04521069675683975,
          0.041270751506090164,
          0.04367170110344887,
          0.08178063482046127,
          -0.05148399621248245,
          0.14075429737567902,
          0.08369390666484833,
          -0.09779396653175354
        ],
        [
          -0.029767531901597977,
          -0.05058787390589714,
          -0.1347413957118988,
          -0.12594906985759735,
          -0.08121687918901443,
          -0.002078611869364977,
          0.10360821336507797,
          -0.058204930275678635,
          0.002337355399504304,
          -0.039354052394628525,
          0.10036662966012955,
          -0.13267847895622253,
          0.04926827549934387,
          -0.11765614151954651,
          -0.13676853477954865,
          0.16499018669128418,
          0.16585995256900787,
          -0.04862365126609802,
          0.037811245769262314,
          0.11848268657922745,
          -0.03334753215312958,
          0.12074178457260132,
          0.015001642517745495,
          0.12590858340263367,
          -0.08120674639940262,
          -0.10811745375394821,
          -0.008613262325525284,
          -0.07251865416765213,
          -0.06775790452957153,
          -0.02585798315703869,
          0.1578788310289383,
          -0.12158649414777756
        ],
        [
          0.1090317815542221,
          0.03491826727986336,
          0.08338993042707443,
          -0.15476356446743011,
          -0.017090409994125366,
          0.08022437244653702,
          0.046132057905197144,
          -0.10952380299568176,
          0.03727800399065018,
          0.016812309622764587,
          -0.023427562788128853,
          -0.0636618584394455,
          0.13810110092163086,
          0.17192667722702026,
          0.16331559419631958,
          0.07971566915512085,
          -0.1619301289319992,
          -0.1452692747116089,
          0.005520904902368784,
          -0.05195308476686478,
          0.09459467977285385,
          0.1207682192325592,
          0.024767963215708733,
          0.02719554677605629,
          0.08392108231782913,
          0.11702950298786163,
          -0.08231658488512039,
          -0.16270902752876282,
          0.004045015200972557,
          0.11134324967861176,
          -0.007092921528965235,
          -0.014389259740710258
        ],
        [
          -0.11461722105741501,
          -0.05943349003791809,
          -0.04915007948875427,
          -0.08851128071546555,
          0.17561711370944977,
          -0.12119185924530029,
          -0.1542620062828064,
          -0.008488733321428299,
          0.1825232207775116,
          -0.05107203498482704,
          0.17001625895500183,
          0.07678276300430298,
          0.009546831250190735,
          0.024893423542380333,
          0.16391532123088837,
          -0.08003733307123184,
          -0.15497635304927826,
          0.11040491610765457,
          0.05968168005347252,
          -0.022453928366303444,
          -0.1009141355752945,
          -0.122012659907341,
          0.10229194909334183,
          -0.04511212185025215,
          0.03900410607457161,
          -0.17920483648777008,
          0.03727206587791443,
          -0.02032073400914669,
          -0.15731331706047058,
          -0.156751811504364,
          -0.08961666375398636,
          -0.1272544115781784
        ],
        [
          0.08804212510585785,
          0.02515113353729248,
          -0.1282881498336792,
          -0.05752447620034218,
          -0.04892236366868019,
          -0.12197808921337128,
          0.014784100465476513,
          0.14613096415996552,
          -0.1575600951910019,
          -0.0234469473361969,
          -0.03511922061443329,
          0.07068928331136703,
          -0.07928124815225601,
          0.13013960421085358,
          0.20880822837352753,
          0.13775405287742615,
          -0.056795038282871246,
          0.10881961137056351,
          -0.11736927181482315,
          0.003968746401369572,
          0.08691702783107758,
          -0.035314835608005524,
          -0.16214261949062347,
          0.07557760924100876,
          0.11799726635217667,
          -0.15348897874355316,
          0.12301712483167648,
          0.16433556377887726,
          0.07023143023252487,
          -0.19063225388526917,
          0.14601954817771912,
          -0.02200387790799141
        ],
        [
          -0.1305631399154663,
          -0.12508030235767365,
          0.17040078341960907,
          0.096506267786026,
          0.021015720441937447,
          -0.04356008768081665,
          0.15089789032936096,
          0.04158133640885353,
          0.12318003922700882,
          -0.09761765599250793,
          0.026454756036400795,
          0.08419948071241379,
          0.11072101444005966,
          0.13793893158435822,
          -0.015131744556128979,
          0.08118311315774918,
          0.04057518020272255,
          -0.11290193349123001,
          -0.15660275518894196,
          -0.11350588500499725,
          -0.006849709898233414,
          -0.027682315558195114,
          0.1203504279255867,
          0.014445762149989605,
          -0.10270126163959503,
          -0.10307583212852478,
          0.04219502955675125,
          0.09927210956811905,
          0.15690848231315613,
          -0.016433460637927055,
          -0.16331525146961212,
          -0.03563827648758888
        ],
        [
          0.06778665632009506,
          -0.18130186200141907,
          -0.1973358392715454,
          -0.16410033404827118,
          0.09963081032037735,
          -0.08261431753635406,
          -0.057334721088409424,
          -0.06894536316394806,
          -0.11641315370798111,
          0.014024170115590096,
          -0.07753771543502808,
          0.006040346343070269,
          0.1503606140613556,
          -0.09579652547836304,
          0.10824263095855713,
          0.17124147713184357,
          0.16263948380947113,
          -0.03968830406665802,
          -0.01982460916042328,
          -0.10272000730037689,
          -0.01915241964161396,
          0.025164104998111725,
          0.11418992280960083,
          -0.07017006725072861,
          -0.04019220545887947,
          -0.10433921962976456,
          -0.10592744499444962,
          -0.13191714882850647,
          -0.06630297750234604,
          -0.07854893803596497,
          -0.09995602816343307,
          -0.009185008704662323
        ],
        [
          0.0060591003857553005,
          -0.03761056438088417,
          -0.12431629747152328,
          0.01855064369738102,
          -0.0042903912253677845,
          -0.15259526669979095,
          0.06300915032625198,
          0.018810920417308807,
          0.011818209663033485,
          -0.1764812171459198,
          -0.1524278223514557,
          -0.1661873459815979,
          -0.16354472935199738,
          0.0318346805870533,
          -0.1491895616054535,
          0.07897624373435974,
          0.04834861308336258,
          -0.06476837396621704,
          -0.0792468935251236,
          -0.0179472453892231,
          0.17876365780830383,
          -0.046567607671022415,
          0.17996856570243835,
          0.11592119932174683,
          -0.05584027245640755,
          -0.15352997183799744,
          0.04783711954951286,
          0.030904782935976982,
          0.13736115396022797,
          0.1788007915019989,
          -0.058474741876125336,
          -0.11213870346546173
        ],
        [
          0.14472071826457977,
          0.16554757952690125,
          0.013213722966611385,
          -0.008784342557191849,
          0.1796300709247589,
          0.17443296313285828,
          -0.058032482862472534,
          0.06850500404834747,
          0.13303354382514954,
          0.0925295427441597,
          -0.13098128139972687,
          0.06204719468951225,
          -0.1288275420665741,
          -0.17007531225681305,
          -0.008972857147455215,
          0.024788429960608482,
          -0.11841199547052383,
          -0.041482411324977875,
          0.07193344086408615,
          -0.0014625232433900237,
          0.11814086884260178,
          -0.03484668210148811,
          -0.13460375368595123,
          -0.022868527099490166,
          0.023378361016511917,
          -0.14317704737186432,
          -0.0005579223507083952,
          0.0962495505809784,
          0.0318169891834259,
          0.0010732297087088227,
          -0.10630135983228683,
          0.07150037586688995
        ],
        [
          0.13235709071159363,
          0.06639020889997482,
          -0.13539034128189087,
          -0.03613477572798729,
          -0.0942973792552948,
          -0.1747593879699707,
          0.03972112014889717,
          -0.04109496623277664,
          -0.1381920874118805,
          0.05632665380835533,
          0.1254817545413971,
          0.203490749001503,
          -0.06658448278903961,
          0.016825657337903976,
          0.19629798829555511,
          0.0893435925245285,
          -0.13706094026565552,
          -0.17352572083473206,
          -0.060653604567050934,
          -0.016303880140185356,
          0.003221620572730899,
          -0.03127029538154602,
          -0.09397312998771667,
          -0.16313324868679047,
          0.005942926742136478,
          -0.11687438189983368,
          0.08085961639881134,
          0.0067412154749035835,
          0.024925902485847473,
          -0.0010614614002406597,
          0.08619486540555954,
          -0.015385727398097515
        ],
        [
          0.04248688742518425,
          0.019163116812705994,
          -0.0752946063876152,
          -0.1562497317790985,
          -0.04116741567850113,
          0.05346137285232544,
          0.04973188415169716,
          0.16484004259109497,
          -0.0641779974102974,
          -0.07317502051591873,
          -0.031706541776657104,
          0.13972993195056915,
          0.12323693186044693,
          0.031194403767585754,
          0.04474755749106407,
          0.03244713693857193,
          -0.12104003131389618,
          0.05082236975431442,
          -0.033990249037742615,
          0.09976468980312347,
          0.09139233082532883,
          0.10866912454366684,
          0.05595329403877258,
          0.06199846416711807,
          -0.15335722267627716,
          -0.09464367479085922,
          -0.11744779348373413,
          -0.15723417699337006,
          -0.1068727970123291,
          -0.12300015985965729,
          0.07107552886009216,
          -0.07577476650476456
        ],
        [
          -0.08573833107948303,
          0.14901494979858398,
          -0.12052842229604721,
          0.08144348859786987,
          0.06549561768770218,
          -0.08888262510299683,
          0.15497149527072906,
          0.13863492012023926,
          -0.035882361233234406,
          0.12153006345033646,
          0.04297395050525665,
          0.1441367268562317,
          0.0506308451294899,
          0.1374390721321106,
          -0.024278078228235245,
          0.05381936579942703,
          -0.03907351568341255,
          0.07254451513290405,
          -0.03104846365749836,
          -0.16605697572231293,
          0.10222245007753372,
          -0.09248308837413788,
          -0.007878345437347889,
          -0.06709043681621552,
          -0.049404192715883255,
          0.13360193371772766,
          0.07850757241249084,
          -0.08763045817613602,
          -0.08755488693714142,
          0.03535851463675499,
          -0.07344506680965424,
          -0.02037440799176693
        ],
        [
          0.04116201028227806,
          0.03009238839149475,
          0.17492298781871796,
          0.0412270613014698,
          0.14529269933700562,
          0.15869781374931335,
          -0.16925135254859924,
          0.01858745515346527,
          0.024293864145874977,
          0.12276902794837952,
          -0.09059841930866241,
          0.02988358587026596,
          -0.17295154929161072,
          -0.06340409070253372,
          0.07164590805768967,
          0.02392663061618805,
          0.11719630658626556,
          0.06256096065044403,
          0.015923185274004936,
          -0.12095338851213455,
          -0.05837947130203247,
          0.13450613617897034,
          -0.13566263020038605,
          -0.07403076440095901,
          -0.10196903347969055,
          -0.15073196589946747,
          -0.028498779982328415,
          -0.05370964854955673,
          -0.13926728069782257,
          -0.08559156209230423,
          0.025706736370921135,
          0.020224306732416153
        ],
        [
          -0.1201205775141716,
          -0.09931924194097519,
          0.09791338443756104,
          -0.0177755206823349,
          -0.04269645735621452,
          0.12215721607208252,
          -0.06595305353403091,
          -0.08227422833442688,
          -0.011273229494690895,
          0.13000063598155975,
          0.06730972230434418,
          0.13662058115005493,
          0.17127901315689087,
          -0.14153559505939484,
          -0.05663105472922325,
          -0.00297678355127573,
          -0.09880038350820541,
          -0.08339887112379074,
          0.014636076986789703,
          -0.058162037283182144,
          -0.07845735549926758,
          0.1745186448097229,
          0.005080511327832937,
          -0.0056246742606163025,
          0.08525343239307404,
          -0.03923488035798073,
          -0.10171925276517868,
          0.1221327930688858,
          -0.1066107377409935,
          -0.03688110038638115,
          -0.034530896693468094,
          -0.018103167414665222
        ],
        [
          -0.11369316279888153,
          0.08991564065217972,
          -0.14199168980121613,
          0.033073846250772476,
          -0.049133602529764175,
          -0.05623815581202507,
          -0.02790902741253376,
          0.14826974272727966,
          0.03653929382562637,
          0.0287676639854908,
          -0.12921564280986786,
          -0.042137034237384796,
          -0.05554740130901337,
          0.09311239421367645,
          -0.03302132710814476,
          0.06803016364574432,
          -0.09195198118686676,
          0.12036706507205963,
          -0.04185293987393379,
          0.04153590276837349,
          0.032566893845796585,
          0.14976413547992706,
          0.15090301632881165,
          0.0673697367310524,
          0.07696489244699478,
          0.004616346210241318,
          -0.003746765200048685,
          0.14422564208507538,
          0.04726608470082283,
          0.12970806658267975,
          -0.09990835189819336,
          0.05005655810236931
        ],
        [
          0.10509376972913742,
          -0.08678331971168518,
          -0.048907119780778885,
          0.11566735059022903,
          0.06381431967020035,
          0.15875253081321716,
          0.05181445926427841,
          0.07388554513454437,
          0.029466433450579643,
          0.1596483439207077,
          -0.16441792249679565,
          -0.03629372641444206,
          0.05064902827143669,
          -0.13563555479049683,
          0.12225417792797089,
          0.07977187633514404,
          -0.1250772625207901,
          -0.1488577425479889,
          0.1595279425382614,
          0.05936021730303764,
          -0.009982387535274029,
          0.10935427248477936,
          0.09482042491436005,
          0.17830675840377808,
          0.1187751442193985,
          0.08339951187372208,
          0.06768529117107391,
          -0.08307895809412003,
          0.16369345784187317,
          -0.17066343128681183,
          0.13987363874912262,
          0.14812226593494415
        ],
        [
          0.022107625380158424,
          -0.08656232059001923,
          0.05306373909115791,
          -0.14033354818820953,
          -0.12850984930992126,
          -0.07164549082517624,
          0.00904124416410923,
          0.1435718685388565,
          -0.05348561704158783,
          0.05323117598891258,
          -0.17004506289958954,
          0.033381592482328415,
          0.0800149217247963,
          0.106858029961586,
          -0.08693856000900269,
          -0.11369803547859192,
          0.12292072176933289,
          -0.05575085058808327,
          0.139959454536438,
          0.1481393277645111,
          0.10161338746547699,
          -0.12575684487819672,
          0.02126525342464447,
          0.004657311365008354,
          -0.1884145736694336,
          0.13821472227573395,
          -0.03720288723707199,
          -0.053713109344244,
          0.06295924633741379,
          0.06999669969081879,
          -0.08373770862817764,
          0.08484647423028946
        ],
        [
          -0.04507473111152649,
          -0.1264129877090454,
          0.015020078979432583,
          0.07670863717794418,
          -0.0002847979194484651,
          -0.16221196949481964,
          0.16128645837306976,
          -0.0480402372777462,
          0.10066776722669601,
          0.17668083310127258,
          0.055136289447546005,
          0.06515198200941086,
          -0.16671109199523926,
          -0.058253541588783264,
          -0.1161433681845665,
          -0.060020215809345245,
          -0.07349225878715515,
          0.15098010003566742,
          0.007085280027240515,
          -0.16524672508239746,
          0.054407887160778046,
          -0.012743478640913963,
          -0.1752699464559555,
          -0.11308971047401428,
          -0.09346946328878403,
          0.1513982117176056,
          -0.05910675227642059,
          -0.06202306970953941,
          0.05855574086308479,
          -0.06228780001401901,
          -0.007019172888249159,
          -0.17884981632232666
        ],
        [
          -0.14933346211910248,
          -0.17742346227169037,
          -0.023830106481909752,
          0.05150982737541199,
          0.1282171756029129,
          0.10034332424402237,
          0.17271806299686432,
          -0.11062107980251312,
          -0.08953740447759628,
          0.13296233117580414,
          -0.09384448826313019,
          -0.11445707082748413,
          0.0772773027420044,
          0.0013154029147699475,
          0.17415015399456024,
          -0.03069172240793705,
          -0.07131383568048477,
          0.13504712283611298,
          0.01382378302514553,
          -0.06079276651144028,
          -0.05983598530292511,
          0.08316327631473541,
          0.036775052547454834,
          0.042412593960762024,
          -0.0898500382900238,
          -0.04031379893422127,
          -0.07398705184459686,
          -0.04057150334119797,
          0.07907945662736893,
          0.033476270735263824,
          -0.10161703079938889,
          -0.11318977922201157
        ],
        [
          -0.10207502543926239,
          -0.00010790127271320671,
          0.00910250935703516,
          0.14353075623512268,
          0.1401151865720749,
          0.04511602595448494,
          -0.2017018347978592,
          -0.16231878101825714,
          0.09029046446084976,
          0.021230941638350487,
          0.13351759314537048,
          -0.17519691586494446,
          0.19317032396793365,
          0.09136546403169632,
          0.1503879278898239,
          0.05923940986394882,
          -0.1324215978384018,
          0.018796611577272415,
          0.0506078377366066,
          0.07710669934749603,
          0.15434719622135162,
          0.12580275535583496,
          0.014384119771420956,
          0.05777474120259285,
          0.021766861900687218,
          0.04513591155409813,
          -0.03281734511256218,
          -0.14994286000728607,
          0.09900669753551483,
          -0.09531500190496445,
          -0.12127533555030823,
          0.18859423696994781
        ],
        [
          0.01034245453774929,
          -0.02477547526359558,
          -0.14790521562099457,
          -0.09576237946748734,
          0.06307453662157059,
          -0.09028464555740356,
          0.104426808655262,
          -0.16004031896591187,
          -0.10301270335912704,
          0.017098650336265564,
          0.15858259797096252,
          -0.08737058937549591,
          0.027218475937843323,
          -0.015519599430263042,
          -0.1538621038198471,
          0.008692567236721516,
          -0.01481980923563242,
          0.1340029537677765,
          -0.020006632432341576,
          -0.07020938396453857,
          0.15531347692012787,
          -0.16391991078853607,
          -0.024092765524983406,
          0.15688040852546692,
          -0.13672123849391937,
          0.16084551811218262,
          0.021385306492447853,
          -0.0770244300365448,
          0.14029917120933533,
          0.08363345265388489,
          0.140798881649971,
          -0.08817195892333984
        ],
        [
          0.010023648850619793,
          0.1449565887451172,
          0.021110711619257927,
          -0.12507647275924683,
          0.13472363352775574,
          -0.1668456792831421,
          0.07517924904823303,
          -0.03789990395307541,
          -0.10470465570688248,
          -0.1322803944349289,
          -0.09017406404018402,
          -0.13548971712589264,
          -0.0028905258513987064,
          0.01514760497957468,
          -0.06208380311727524,
          0.16472254693508148,
          0.04415985196828842,
          -0.09106719493865967,
          0.15766161680221558,
          0.07639221847057343,
          -0.11673126369714737,
          0.16291318833827972,
          0.17549744248390198,
          -0.045631371438503265,
          -0.06112975254654884,
          -0.10835728049278259,
          0.1197158470749855,
          -0.13004839420318604,
          -0.08745764195919037,
          0.008928013034164906,
          0.017743976786732674,
          -0.09970952570438385
        ],
        [
          0.05202402174472809,
          -0.10969890654087067,
          0.11731880158185959,
          -0.011810235679149628,
          0.09541548043489456,
          -0.02045437879860401,
          0.07186947017908096,
          0.1909843236207962,
          -0.08257003873586655,
          0.07800347357988358,
          0.15578526258468628,
          -0.10082374513149261,
          -0.008164102211594582,
          -0.06183471158146858,
          0.14527878165245056,
          0.12001893669366837,
          -0.029416494071483612,
          -0.1128048300743103,
          -0.19975797832012177,
          -0.023380588740110397,
          -0.09819921851158142,
          -0.060650501400232315,
          0.14695438742637634,
          0.15602530539035797,
          -0.13336801528930664,
          0.07205942273139954,
          -0.1421736180782318,
          -0.08806806057691574,
          -0.1361944079399109,
          -0.05778573453426361,
          -0.14940325915813446,
          -0.1984078735113144
        ],
        [
          0.1330597698688507,
          -0.13944026827812195,
          -0.08129272609949112,
          -0.11722788959741592,
          0.03644195571541786,
          -0.16330821812152863,
          -0.03095032274723053,
          -0.08458753675222397,
          -0.08127067983150482,
          -0.11670929193496704,
          -0.097238689661026,
          0.06618653982877731,
          0.05646168440580368,
          0.015544393099844456,
          0.011815444566309452,
          0.12635990977287292,
          0.09740865975618362,
          -0.13913720846176147,
          0.08246853947639465,
          -0.10293123126029968,
          -0.11213032156229019,
          0.007225733250379562,
          0.16455990076065063,
          0.05890939012169838,
          0.0765552893280983,
          0.1016811802983284,
          -0.10041497647762299,
          0.024713043123483658,
          0.107210673391819,
          -0.05566757172346115,
          0.1367526352405548,
          0.04012340307235718
        ],
        [
          0.16889996826648712,
          -0.10318674147129059,
          0.1290147751569748,
          -0.04685328155755997,
          -0.13232100009918213,
          0.09493377059698105,
          0.1120099276304245,
          0.09428563714027405,
          -0.003545549698174,
          0.021172748878598213,
          -0.16276423633098602,
          -0.03521085903048515,
          -0.1961432695388794,
          -0.13344182074069977,
          0.03601723164319992,
          0.04582373425364494,
          -0.14797721803188324,
          0.02786390855908394,
          0.12221911549568176,
          -0.08868112415075302,
          0.0356050506234169,
          -0.14205315709114075,
          -0.02388003282248974,
          0.05950574576854706,
          -0.1562802642583847,
          0.16114141047000885,
          0.05986102297902107,
          0.19488798081874847,
          -0.14574190974235535,
          0.07967638969421387,
          0.012456460855901241,
          0.05434112250804901
        ],
        [
          0.015493444167077541,
          0.0625072717666626,
          0.06151938810944557,
          0.11897032707929611,
          0.15597876906394958,
          0.07998912036418915,
          0.09064429998397827,
          -0.044655755162239075,
          0.06302668899297714,
          -0.09313607960939407,
          -0.017642252147197723,
          -0.1021866500377655,
          -0.1127084419131279,
          -0.021101875230669975,
          -0.04805517941713333,
          -0.14694032073020935,
          0.030612654983997345,
          -0.004263332579284906,
          0.03103807009756565,
          0.06026693806052208,
          0.029230190441012383,
          -0.00175327283795923,
          0.07335077226161957,
          0.09442058950662613,
          -0.12450580298900604,
          0.006957226432859898,
          -0.017474070191383362,
          -0.022463418543338776,
          -0.007410861551761627,
          0.010013313964009285,
          0.10352271050214767,
          -0.11942548304796219
        ],
        [
          -0.1363045573234558,
          -0.04639435186982155,
          0.07174765318632126,
          0.07294699549674988,
          -0.009554969146847725,
          -0.010831468738615513,
          0.0691995695233345,
          0.029618004336953163,
          -0.16366393864154816,
          -0.1482422798871994,
          0.15632672607898712,
          0.08959843963384628,
          -0.1625048965215683,
          0.09107683598995209,
          0.0005974418600089848,
          0.17265881597995758,
          0.038268059492111206,
          0.11338358372449875,
          -0.12871906161308289,
          0.12145934253931046,
          -0.12827849388122559,
          -0.11747843027114868,
          -0.10468422621488571,
          0.1618272066116333,
          0.12496990710496902,
          -0.07492877542972565,
          0.0292954221367836,
          0.0268190186470747,
          -0.16580091416835785,
          0.09831809997558594,
          -0.04128391295671463,
          0.08432667702436447
        ],
        [
          -0.1713157743215561,
          0.11953021585941315,
          -0.11892536282539368,
          0.084114670753479,
          -0.09829793125391006,
          0.0114307701587677,
          -0.03391973674297333,
          -0.14428871870040894,
          0.013898025266826153,
          -0.025598039850592613,
          -0.15170574188232422,
          -0.12136303633451462,
          0.042701926082372665,
          0.05232017859816551,
          0.08565451204776764,
          -0.061070170253515244,
          -0.0072433664463460445,
          -0.007661889307200909,
          -0.04313527047634125,
          -0.11831341683864594,
          -0.09381154924631119,
          -0.03733991086483002,
          0.07279283553361893,
          0.11841616034507751,
          0.12982772290706635,
          0.0655478835105896,
          0.012717274948954582,
          0.15867231786251068,
          -0.12168828397989273,
          -0.11145135760307312,
          0.019440582022070885,
          0.0073219467885792255
        ],
        [
          -0.14666758477687836,
          0.13625948131084442,
          -0.19298680126667023,
          -0.09770943969488144,
          0.11949674040079117,
          -0.042448971420526505,
          -0.14696469902992249,
          -0.00795970018953085,
          0.00328293489292264,
          0.140640988945961,
          -0.08110739290714264,
          -0.11454779654741287,
          0.10845077782869339,
          0.14364036917686462,
          0.1387729048728943,
          0.03231420740485191,
          0.054553255438804626,
          0.1418447494506836,
          0.16343645751476288,
          -0.03519577160477638,
          0.03777289390563965,
          0.060060303658246994,
          -0.10116308182477951,
          -0.13854143023490906,
          0.038709405809640884,
          0.1703815907239914,
          -0.07854598015546799,
          -0.036166489124298096,
          0.16586869955062866,
          0.15919514000415802,
          -0.0349043570458889,
          -0.014781307429075241
        ],
        [
          0.18917270004749298,
          0.17371900379657745,
          -0.09084044396877289,
          0.10938722640275955,
          0.16960509121418,
          -0.14204873144626617,
          -4.3008305510738865e-05,
          0.06372499465942383,
          -0.07231584936380386,
          -0.11772198975086212,
          -0.06941083818674088,
          -0.08716358989477158,
          -0.11312825232744217,
          0.046313244849443436,
          0.10446179658174515,
          -0.13141681253910065,
          0.10856377333402634,
          0.03723132982850075,
          0.05003572627902031,
          -0.013750791549682617,
          0.08832751214504242,
          0.002385145053267479,
          -0.15776629745960236,
          0.035517193377017975,
          -0.14413419365882874,
          0.13418638706207275,
          0.13994677364826202,
          -0.012795803137123585,
          0.01923375390470028,
          -0.07844629883766174,
          -0.06698349863290787,
          -0.1703917533159256
        ],
        [
          0.07785150408744812,
          0.05625925213098526,
          -0.14230599999427795,
          0.15112128853797913,
          -0.089634470641613,
          0.08148076385259628,
          -0.011134233325719833,
          0.06199383735656738,
          0.07725657522678375,
          -0.12828783690929413,
          0.02921460010111332,
          -0.18078406155109406,
          -0.17842824757099152,
          0.006524789612740278,
          -0.2240734100341797,
          -0.052293743938207626,
          -0.01916305162012577,
          0.013238049112260342,
          0.02601395919919014,
          0.030823178589344025,
          0.017386557534337044,
          0.033341389149427414,
          -0.0925460159778595,
          0.08394002914428711,
          0.06480682641267776,
          0.1635333150625229,
          0.16346144676208496,
          -0.15577489137649536,
          -0.1534976214170456,
          0.12470211088657379,
          0.008005364798009396,
          0.018367713317275047
        ],
        [
          0.016156766563653946,
          -0.12470606714487076,
          -0.09403408318758011,
          -0.026308637112379074,
          -0.13587044179439545,
          0.15545514225959778,
          0.09590942412614822,
          -0.14330419898033142,
          -0.1491738259792328,
          -0.17576751112937927,
          -0.033798810094594955,
          -0.02126476727426052,
          0.1314263641834259,
          0.1591838002204895,
          -0.024769023060798645,
          0.02108929492533207,
          -0.04052044078707695,
          0.10983661562204361,
          0.014736241661012173,
          -0.08994624018669128,
          0.056101713329553604,
          -0.13461346924304962,
          0.1768266260623932,
          -0.027888402342796326,
          0.12164155393838882,
          0.04647637903690338,
          -0.07769206911325455,
          -0.1424395591020584,
          -0.10069591552019119,
          0.10213165730237961,
          0.11370818316936493,
          -0.07359077036380768
        ],
        [
          0.04082030430436134,
          0.16797588765621185,
          0.022432681173086166,
          0.12142802774906158,
          -0.1343183070421219,
          -0.07605557888746262,
          0.021104155108332634,
          0.07916969060897827,
          -0.08644214272499084,
          0.06962180137634277,
          0.003339358139783144,
          -0.16968083381652832,
          -0.18022583425045013,
          -0.05215148255228996,
          -0.012465637177228928,
          0.08019591122865677,
          -0.0035589260514825583,
          -0.15666550397872925,
          -0.003396903397515416,
          0.11191129684448242,
          0.08756060898303986,
          0.09975587576627731,
          0.01711442321538925,
          0.02413310296833515,
          -0.15567955374717712,
          -0.06304037570953369,
          -0.050454139709472656,
          0.08166466653347015,
          -0.005480097606778145,
          -0.015087155625224113,
          0.015451488085091114,
          0.08309515565633774
        ],
        [
          -0.12925052642822266,
          -0.16322831809520721,
          -0.04845571890473366,
          -0.13769535720348358,
          -0.038649946451187134,
          0.023177210241556168,
          0.0885264128446579,
          0.15833933651447296,
          0.18522341549396515,
          0.10261381417512894,
          -0.09544656425714493,
          0.07230757176876068,
          0.16992591321468353,
          -0.1346675604581833,
          -0.005104512441903353,
          -0.040247704833745956,
          -0.19413360953330994,
          -0.00029795049340464175,
          -0.05707843229174614,
          -0.13461804389953613,
          0.1378246247768402,
          0.12336155772209167,
          -0.024581613019108772,
          0.12026375532150269,
          -0.10598171502351761,
          -0.059899214655160904,
          0.02707912027835846,
          0.10721579194068909,
          0.09921824932098389,
          -0.09103571623563766,
          0.08463135361671448,
          0.04025692865252495
        ],
        [
          0.17693625390529633,
          0.08368196338415146,
          -0.04769991338253021,
          -0.09924270212650299,
          0.160049706697464,
          0.14380954205989838,
          0.10086662322282791,
          0.0862160250544548,
          0.06282617151737213,
          -0.06371864676475525,
          0.12171471118927002,
          -0.11193068325519562,
          -0.007743995636701584,
          0.1442730724811554,
          -0.05529836565256119,
          0.1407201588153839,
          0.08209757506847382,
          -0.06622282415628433,
          0.0697655975818634,
          -0.1438465565443039,
          -0.05023013800382614,
          -0.19430407881736755,
          0.06617885082960129,
          -0.09658724814653397,
          -0.1579960584640503,
          0.14060457050800323,
          -0.011095544323325157,
          -0.12168645113706589,
          -0.04802336543798447,
          -0.013654254376888275,
          0.16007059812545776,
          -0.03164338693022728
        ],
        [
          0.044804081320762634,
          -0.04754680022597313,
          0.13310325145721436,
          0.09178084880113602,
          -0.1088029220700264,
          -0.13412827253341675,
          0.11898943036794662,
          0.16038228571414948,
          0.04245101287961006,
          0.06008163467049599,
          0.12623751163482666,
          -0.13658055663108826,
          0.0817752555012703,
          0.0038512006867676973,
          0.12021246552467346,
          -0.13835884630680084,
          -0.004561630077660084,
          0.01533584389835596,
          -0.14403273165225983,
          -0.09674049913883209,
          0.11611102521419525,
          -0.009664801880717278,
          -0.0035261735320091248,
          -0.10643082857131958,
          -0.003806373570114374,
          0.15344606339931488,
          0.09367980062961578,
          0.13198938965797424,
          0.13682250678539276,
          0.01684386283159256,
          0.12119859457015991,
          -0.11570803076028824
        ],
        [
          0.040812887251377106,
          -0.1767575740814209,
          -0.03370426967740059,
          0.008954064920544624,
          -0.01702861301600933,
          0.02337738871574402,
          0.15711486339569092,
          0.03746942803263664,
          0.010078241117298603,
          0.1738608330488205,
          0.14556896686553955,
          0.04885551333427429,
          0.17958314716815948,
          -0.08644109964370728,
          0.05580418184399605,
          0.11861886084079742,
          0.05392478406429291,
          -0.03982698172330856,
          -0.14730419218540192,
          0.058163661509752274,
          -0.1387549191713333,
          -0.023898687213659286,
          0.0038252691738307476,
          0.0899098813533783,
          -0.042054612189531326,
          -0.13233491778373718,
          -0.015469669364392757,
          -0.09127410501241684,
          0.14178813993930817,
          -0.04614153131842613,
          0.02076326124370098,
          -0.09999609738588333
        ],
        [
          0.037120770663022995,
          -0.046342894434928894,
          0.01935504376888275,
          0.04088066145777702,
          -0.17158663272857666,
          -0.07013057172298431,
          0.005833580624312162,
          0.004846080671995878,
          0.04337611421942711,
          0.15525686740875244,
          -0.03514117747545242,
          0.17364034056663513,
          0.09239823371171951,
          -0.06548262387514114,
          0.006629408337175846,
          0.1413155198097229,
          -0.13005059957504272,
          -0.09656354039907455,
          -0.05407730117440224,
          0.026432452723383904,
          -0.1702880561351776,
          -0.1526293307542801,
          0.07394172996282578,
          0.05172782391309738,
          0.10643550753593445,
          -0.12120100110769272,
          0.18900345265865326,
          0.10244957357645035,
          -0.13863463699817657,
          -0.06841512769460678,
          0.15341974794864655,
          -0.10981641709804535
        ],
        [
          0.11012811958789825,
          -0.10716665536165237,
          0.026441842317581177,
          -0.006717258132994175,
          -0.12266255170106888,
          0.14586667716503143,
          -0.05702795833349228,
          -0.07680261880159378,
          0.055266425013542175,
          0.1446790099143982,
          0.1627216637134552,
          -0.04509885609149933,
          -7.376312714768574e-05,
          0.18261659145355225,
          -0.020769625902175903,
          0.14938467741012573,
          -0.10013099759817123,
          0.1528857797384262,
          -0.11578518152236938,
          0.1217719241976738,
          0.0339493453502655,
          -0.12616117298603058,
          0.09444073587656021,
          -0.04152998700737953,
          -0.0904410257935524,
          -0.05940398946404457,
          -0.051720030605793,
          -0.10918731242418289,
          -0.06236717849969864,
          -0.06880872696638107,
          0.043768081814050674,
          -0.17465637624263763
        ],
        [
          -0.03296840935945511,
          -0.053188081830739975,
          0.11969508975744247,
          0.042929746210575104,
          -0.15265803039073944,
          0.13678854703903198,
          -0.1606380194425583,
          -0.15695160627365112,
          0.09736211597919464,
          -0.025885727256536484,
          -0.09798479080200195,
          -0.09804318845272064,
          -0.11294654756784439,
          -0.08658293634653091,
          0.16586434841156006,
          -0.14997634291648865,
          -0.0499676838517189,
          0.10915413498878479,
          0.03341253474354744,
          -0.008432406932115555,
          0.0018046671757474542,
          0.14150860905647278,
          -0.005552015267312527,
          0.17819876968860626,
          0.09597758948802948,
          -0.08072908967733383,
          -0.13218483328819275,
          -0.014524349942803383,
          -0.07496199756860733,
          -0.02034914679825306,
          0.019810857251286507,
          -0.013199548237025738
        ],
        [
          0.05061160400509834,
          -0.17121459543704987,
          0.07399751245975494,
          0.0825594812631607,
          0.12002329528331757,
          -0.1681274175643921,
          0.07876644283533096,
          0.15235817432403564,
          -0.09076978266239166,
          0.01627543941140175,
          0.11402970552444458,
          -0.028106462210416794,
          -0.030019523575901985,
          0.155495285987854,
          0.11673423647880554,
          0.15695424377918243,
          -0.08912422508001328,
          -0.0013573523610830307,
          -0.013596391305327415,
          0.049832507967948914,
          -0.053968045860528946,
          -0.0739554762840271,
          0.11938861757516861,
          -0.10461968928575516,
          -0.08589697629213333,
          0.07384435832500458,
          -0.15888714790344238,
          -0.09721524268388748,
          -0.14610029757022858,
          -0.11783799529075623,
          -0.12809769809246063,
          0.1483815759420395
        ],
        [
          0.007823266088962555,
          -0.17592604458332062,
          -0.1674424707889557,
          -0.043294306844472885,
          -0.06131269037723541,
          0.14478692412376404,
          -0.10582525283098221,
          -0.09388886392116547,
          -0.05833393707871437,
          0.10842010378837585,
          0.045159824192523956,
          0.11978372931480408,
          0.03283141180872917,
          -0.14771007001399994,
          0.007050741463899612,
          0.17163723707199097,
          0.0676848515868187,
          -0.1484133005142212,
          -0.09837695956230164,
          0.0006202583899721503,
          -0.13662530481815338,
          -0.1250797063112259,
          0.07837820053100586,
          -0.005157145671546459,
          0.00710497610270977,
          0.12161540240049362,
          0.0436713881790638,
          0.11898476630449295,
          0.17396077513694763,
          0.0903814509510994,
          -0.06475555151700974,
          0.14638900756835938
        ],
        [
          -0.1334012895822525,
          -0.01611591875553131,
          0.10605734586715698,
          0.03571492061018944,
          -0.14792856574058533,
          0.07190658897161484,
          -0.16608299314975739,
          -0.14471784234046936,
          -0.016617756336927414,
          -0.046271566301584244,
          0.07491963356733322,
          -0.03604453057050705,
          0.20613719522953033,
          -0.012842000462114811,
          -0.00968281552195549,
          0.16667762398719788,
          0.06780058145523071,
          -0.05557432398200035,
          0.08649709075689316,
          0.06074795126914978,
          -0.07316373288631439,
          -0.0031272207852452993,
          -0.1661311388015747,
          -0.08583199232816696,
          -0.12071847170591354,
          -0.06793183833360672,
          -0.01230971422046423,
          -0.11378356069326401,
          0.06828639656305313,
          -0.09644236415624619,
          0.17543503642082214,
          0.04428193345665932
        ],
        [
          -0.03611944988369942,
          0.192464679479599,
          0.006040605716407299,
          -0.06810256093740463,
          0.04368745535612106,
          -0.060013044625520706,
          0.19623510539531708,
          0.09673065692186356,
          0.09108187258243561,
          -0.048142388463020325,
          -0.12127181887626648,
          -0.08716040104627609,
          -0.07556656748056412,
          0.05870133265852928,
          -0.18312257528305054,
          -0.1444210410118103,
          0.03733958303928375,
          -0.07750529050827026,
          -0.14093096554279327,
          -0.007111306767910719,
          -0.10736827552318573,
          -0.12505681812763214,
          -0.018980273976922035,
          -0.10937760025262833,
          -0.020693879574537277,
          -0.13176338374614716,
          0.12593741714954376,
          -0.10370045155286789,
          -0.08666985481977463,
          0.0880480632185936,
          -0.1654457449913025,
          0.03833804279565811
        ],
        [
          0.0375521183013916,
          -0.08083538711071014,
          -0.11175532639026642,
          -0.015440595336258411,
          0.12956498563289642,
          0.1647593379020691,
          -0.017378274351358414,
          0.11769580841064453,
          -0.0032411145512014627,
          0.0489816851913929,
          0.21492259204387665,
          -0.002112617949023843,
          0.1754785031080246,
          -0.07402627915143967,
          0.11348333209753036,
          -0.09925159066915512,
          -0.15154434740543365,
          -0.060436565428972244,
          -0.07730028033256531,
          -0.10468761622905731,
          0.051025357097387314,
          0.042470794171094894,
          0.14934350550174713,
          -0.0737384781241417,
          0.05002223327755928,
          0.14444778859615326,
          0.07748626917600632,
          0.032554492354393005,
          0.003515121527016163,
          0.06206673011183739,
          0.10362610965967178,
          0.023720771074295044
        ],
        [
          0.03761289268732071,
          0.11878485977649689,
          -0.10537847131490707,
          0.15957604348659515,
          0.17752112448215485,
          -0.12443306297063828,
          0.08513093739748001,
          0.12119736522436142,
          -0.10086222738027573,
          0.008394734933972359,
          0.054740697145462036,
          0.051516611129045486,
          0.017666436731815338,
          0.09564278274774551,
          0.006928249262273312,
          -0.026598475873470306,
          -0.07240964472293854,
          -0.14749547839164734,
          0.1300269067287445,
          -0.06900794059038162,
          -0.04815588518977165,
          -0.02344030886888504,
          -0.06092143431305885,
          -0.11377531290054321,
          0.03667424991726875,
          0.14278993010520935,
          -0.11821121722459793,
          -0.15313002467155457,
          -0.13703931868076324,
          -0.014901652000844479,
          -0.03698636218905449,
          0.05165008455514908
        ],
        [
          0.1574944406747818,
          0.03511699289083481,
          0.17713919281959534,
          0.00012075875565642491,
          -0.04567829519510269,
          -0.06210934370756149,
          0.010105669498443604,
          -0.16623027622699738,
          -0.08466991782188416,
          -0.04944970831274986,
          -0.1413680762052536,
          -0.00015269886353053153,
          0.15324120223522186,
          0.03843461722135544,
          0.07247227430343628,
          -0.14957304298877716,
          -0.06966537982225418,
          -0.15676844120025635,
          0.019332099705934525,
          -0.0791935846209526,
          -0.10327504575252533,
          -0.07036904245615005,
          0.050796665251255035,
          0.0124999163672328,
          -0.04733610525727272,
          -0.03206532448530197,
          0.0018024416640400887,
          0.1567542403936386,
          0.16713093221187592,
          -0.0061219618655741215,
          0.15166476368904114,
          -0.10686705261468887
        ],
        [
          0.046955183148384094,
          -0.10010684281587601,
          0.19407020509243011,
          -0.04199576750397682,
          0.18335531651973724,
          -0.16410987079143524,
          0.02309364266693592,
          0.026196207851171494,
          -0.0525907501578331,
          -0.061499178409576416,
          0.07669354230165482,
          -0.11594178527593613,
          -0.10497550666332245,
          -0.0497225746512413,
          0.07646124064922333,
          -0.13974936306476593,
          0.11812292039394379,
          -0.046472202986478806,
          0.03756297007203102,
          0.17188851535320282,
          -0.1718541979789734,
          0.07433968782424927,
          0.01913340389728546,
          -0.03448030725121498,
          -0.11653570830821991,
          -0.1700522005558014,
          -0.08743222057819366,
          0.1684797704219818,
          -0.1078430786728859,
          -0.06117613986134529,
          0.09346354007720947,
          0.14146149158477783
        ],
        [
          -0.11241233348846436,
          -0.061797115951776505,
          0.03198902681469917,
          0.11907852441072464,
          -0.0272991806268692,
          -0.06373584270477295,
          0.0468163937330246,
          0.11966641247272491,
          0.1010034829378128,
          -0.006726759951561689,
          -0.06405077874660492,
          0.12108055502176285,
          0.00788984913378954,
          0.12044710665941238,
          -0.06623688340187073,
          0.12804093956947327,
          0.15685144066810608,
          -0.04008029028773308,
          -0.12318050861358643,
          -0.15821638703346252,
          0.11400173604488373,
          -0.12986785173416138,
          0.1533827930688858,
          0.06671244651079178,
          0.14555880427360535,
          0.14463892579078674,
          0.053787656128406525,
          0.09630956500768661,
          0.16655129194259644,
          0.10956881940364838,
          0.08336568623781204,
          -0.018020035699009895
        ],
        [
          -0.13009104132652283,
          -0.144732266664505,
          0.0658007338643074,
          0.17169605195522308,
          -0.15108048915863037,
          0.07219889014959335,
          0.02285219356417656,
          -0.11883245408535004,
          -0.13656264543533325,
          -0.044144224375486374,
          -0.17268426716327667,
          -0.10880262404680252,
          0.0380384586751461,
          -0.029249092563986778,
          -0.13820189237594604,
          -0.0800166055560112,
          -0.07828572392463684,
          0.12050175666809082,
          -0.12317980825901031,
          0.02233194187283516,
          0.1407969444990158,
          0.18453174829483032,
          0.1924903392791748,
          0.030520545318722725,
          -0.13763919472694397,
          -0.09706779569387436,
          0.11820823699235916,
          0.11621933430433273,
          0.09300064295530319,
          0.0564652718603611,
          -0.0688871294260025,
          0.10491444915533066
        ],
        [
          0.033079855144023895,
          -0.09424688667058945,
          0.02431086078286171,
          0.09887654334306717,
          0.015246761031448841,
          0.12559419870376587,
          -0.0420844703912735,
          0.19617582857608795,
          0.1859743446111679,
          -0.10888304561376572,
          0.06518193334341049,
          -0.1356464922428131,
          -0.05770169198513031,
          -0.024478044360876083,
          -0.0033933287486433983,
          0.09597978740930557,
          -0.1468774527311325,
          -0.130057230591774,
          -0.07028964161872864,
          0.14819303154945374,
          0.10989180207252502,
          -0.09516889601945877,
          -0.10772650688886642,
          -0.1524384468793869,
          0.1484721153974533,
          -0.03764581307768822,
          0.03233381360769272,
          0.03963851183652878,
          -0.0056707533076405525,
          0.04543553665280342,
          -0.15979434549808502,
          -0.18916045129299164
        ],
        [
          -0.10465336591005325,
          0.13227200508117676,
          0.15648505091667175,
          0.04324166104197502,
          0.10090707987546921,
          -0.14482228457927704,
          0.11823001503944397,
          -0.16067029535770416,
          0.011230130679905415,
          0.16258788108825684,
          -0.1072913110256195,
          0.03003035858273506,
          0.027908815070986748,
          -0.15246321260929108,
          -0.0005346763064153492,
          0.099477618932724,
          -0.001184390508569777,
          0.07530497759580612,
          -0.006680000107735395,
          0.08849424123764038,
          0.03031252510845661,
          -0.12667864561080933,
          0.036768656224012375,
          0.004986396990716457,
          -0.0230046808719635,
          -0.16936296224594116,
          0.07862437516450882,
          -0.07912278175354004,
          -0.06785687804222107,
          0.09695380181074142,
          0.058860477060079575,
          0.13887034356594086
        ],
        [
          0.1132507175207138,
          0.04707658290863037,
          -0.19489413499832153,
          -0.047026220709085464,
          0.06102025508880615,
          -0.04678412526845932,
          -0.18903066217899323,
          -0.01617417484521866,
          0.021007327362895012,
          0.14382195472717285,
          0.03951529413461685,
          0.036185190081596375,
          0.08343550562858582,
          0.03393084555864334,
          0.06786926835775375,
          0.07331634312868118,
          0.06403399258852005,
          -0.0022515214513987303,
          -0.019445300102233887,
          0.16304287314414978,
          -0.1487865298986435,
          0.019390860572457314,
          -0.08217732608318329,
          -0.13206887245178223,
          -0.09944390505552292,
          0.11848842352628708,
          0.13593873381614685,
          -0.019821250811219215,
          0.058506499975919724,
          0.03458474203944206,
          -0.1338261067867279,
          0.03575325012207031
        ],
        [
          -0.08833760768175125,
          -0.13678278028964996,
          0.017771659418940544,
          -0.119899220764637,
          -0.08108010143041611,
          -0.11823428422212601,
          0.04211246967315674,
          -0.005308185704052448,
          -0.14791008830070496,
          0.04937528818845749,
          -0.12179994583129883,
          0.09973040968179703,
          0.13727296888828278,
          0.10658905655145645,
          -0.06834814697504044,
          0.020264124497771263,
          -0.05884919688105583,
          0.09035425633192062,
          -0.03677159920334816,
          0.08148936182260513,
          -0.13438300788402557,
          -0.018989652395248413,
          0.03922068700194359,
          0.057843632996082306,
          0.15438805520534515,
          0.08024795353412628,
          0.07791069895029068,
          -0.1700572520494461,
          -0.04534142464399338,
          -0.01135000865906477,
          -0.13651099801063538,
          -0.11975235491991043
        ],
        [
          0.0020286806393414736,
          -0.16783234477043152,
          0.07060858607292175,
          -0.14956778287887573,
          0.1514337956905365,
          0.162694051861763,
          0.023095089942216873,
          0.06118244305253029,
          -0.1796337217092514,
          0.02512205019593239,
          0.002620343118906021,
          -0.10380912572145462,
          0.04931383207440376,
          -0.032468922436237335,
          -0.13439325988292694,
          -0.10312339663505554,
          0.12609785795211792,
          -0.055581025779247284,
          -0.08846299350261688,
          -0.11737766116857529,
          0.06299763172864914,
          -0.1416199505329132,
          -0.03500989452004433,
          -0.10841655731201172,
          -0.005661136470735073,
          0.16323572397232056,
          -0.09364468604326248,
          0.023013882339000702,
          -0.06270037591457367,
          0.1553792655467987,
          -0.03750678896903992,
          -0.11395685374736786
        ],
        [
          0.06523627042770386,
          0.030362624675035477,
          -0.17417584359645844,
          -0.07300424575805664,
          0.028947975486516953,
          -0.041729606688022614,
          0.054106634110212326,
          -0.1399863213300705,
          0.07610956579446793,
          -0.052473969757556915,
          -0.061785440891981125,
          0.04558253288269043,
          0.07148931920528412,
          0.046989813446998596,
          0.1555507928133011,
          -0.09909532964229584,
          0.15181757509708405,
          0.017292117699980736,
          0.060278791934251785,
          -0.04620042070746422,
          0.07443570345640182,
          -0.01624465174973011,
          0.11961635947227478,
          0.10151040554046631,
          0.1711212545633316,
          -0.04309248551726341,
          -0.1296958029270172,
          0.1864185482263565,
          -0.06704539060592651,
          0.07622093707323074,
          0.1684708297252655,
          -0.03249359875917435
        ],
        [
          0.084901824593544,
          0.059242986142635345,
          0.17211554944515228,
          -0.0976162701845169,
          0.012723986990749836,
          0.01837754249572754,
          0.07914403080940247,
          0.14902132749557495,
          -0.16722384095191956,
          -0.17690002918243408,
          -0.17591269314289093,
          -0.224574476480484,
          -0.013543822802603245,
          -0.17403031885623932,
          -0.09304516017436981,
          -0.006836494896560907,
          0.031094642356038094,
          -0.04554489627480507,
          -0.09583495557308197,
          -0.08732987195253372,
          -0.02193380519747734,
          -0.06225171685218811,
          0.1197817400097847,
          0.11877622455358505,
          0.052070502191782,
          -0.0575571246445179,
          0.10069292783737183,
          0.034376196563243866,
          0.05654095113277435,
          -0.03168822452425957,
          -0.09644296765327454,
          -0.1365763396024704
        ],
        [
          0.10117664188146591,
          0.16571295261383057,
          0.10345835983753204,
          0.08529213815927505,
          -0.12251325696706772,
          0.07412265241146088,
          0.14855800569057465,
          -0.06649879366159439,
          -0.03425675258040428,
          0.01990908570587635,
          -0.05976036936044693,
          -0.1687173694372177,
          0.060756534337997437,
          -0.06671299785375595,
          0.03838751092553139,
          -0.1689884066581726,
          -0.0865827426314354,
          -0.10275621712207794,
          0.07602044194936752,
          -0.14659476280212402,
          -0.028124075382947922,
          -0.052338212728500366,
          -0.18330024182796478,
          0.1488374024629593,
          -0.06957606226205826,
          0.03774997964501381,
          0.006155507173389196,
          0.07344858348369598,
          0.11298640072345734,
          -0.05590759962797165,
          0.0018449549097567797,
          -0.14043797552585602
        ],
        [
          -0.06499611586332321,
          0.00013593563926406205,
          0.08988811820745468,
          0.02339574694633484,
          0.03511001914739609,
          -0.07936932146549225,
          -0.13876022398471832,
          0.016536258161067963,
          0.09749838709831238,
          -0.10108208656311035,
          -0.050064653158187866,
          -0.11251983791589737,
          -0.08805759251117706,
          -0.03532757982611656,
          -0.1391744762659073,
          -0.09669623523950577,
          -0.11019747704267502,
          -0.020038112998008728,
          0.008837712928652763,
          -0.04443499818444252,
          0.031127287074923515,
          0.043362513184547424,
          0.039513468742370605,
          0.0005725367809645832,
          -0.11266162246465683,
          -0.06920264661312103,
          0.020860161632299423,
          -0.09230183064937592,
          0.014198226854205132,
          0.040716107934713364,
          0.0728985071182251,
          -0.09871531277894974
        ],
        [
          -0.1667068600654602,
          -0.1578911989927292,
          -0.16686677932739258,
          0.14923147857189178,
          -0.038359787315130234,
          -0.1373237669467926,
          -0.031378474086523056,
          -0.10862588882446289,
          -0.09114709496498108,
          -0.11867906898260117,
          -0.09942343831062317,
          0.1369713693857193,
          -0.14095231890678406,
          0.06869851052761078,
          -0.031218701973557472,
          -0.09241241961717606,
          -0.026082579046487808,
          -0.10025015473365784,
          -0.016017582267522812,
          0.08447583764791489,
          -0.11340232938528061,
          0.017002079635858536,
          -0.14029143750667572,
          -0.11187335103750229,
          0.16609875857830048,
          -0.14301885664463043,
          0.05448150262236595,
          -0.045905567705631256,
          0.1787164807319641,
          0.047702886164188385,
          -0.03930104523897171,
          0.1027892604470253
        ],
        [
          0.12946288287639618,
          -0.17379921674728394,
          -0.03583652153611183,
          0.0586792454123497,
          0.11450055241584778,
          -0.127523735165596,
          0.004433507099747658,
          -0.18781863152980804,
          0.025808293372392654,
          -0.010969866998493671,
          -0.002404596423730254,
          0.01686912216246128,
          0.03384897857904434,
          -0.07669264078140259,
          -0.0337105393409729,
          0.19491204619407654,
          0.18718531727790833,
          -0.08532490581274033,
          0.012885678559541702,
          -0.13086247444152832,
          -0.10919298976659775,
          -0.0253372211009264,
          -0.15475717186927795,
          -0.1341153234243393,
          -0.02706647664308548,
          -0.10238925367593765,
          -0.04714073985815048,
          0.06555023044347763,
          0.10801125317811966,
          0.08903508633375168,
          -0.10740617662668228,
          0.14146378636360168
        ],
        [
          0.11933298408985138,
          0.0623086541891098,
          0.019021237269043922,
          -0.026184197515249252,
          -0.1325678527355194,
          -0.1421525925397873,
          0.04756436124444008,
          0.005696526262909174,
          0.14809757471084595,
          -0.11251384764909744,
          -0.006298185326159,
          -0.1008693054318428,
          0.1222432404756546,
          0.017683347687125206,
          -0.182505801320076,
          -0.05085353925824165,
          -0.17218872904777527,
          -0.06539373844861984,
          -0.1258946806192398,
          -0.13435065746307373,
          0.08562873303890228,
          -0.06397344917058945,
          0.07104562222957611,
          -0.03521396964788437,
          -0.16789892315864563,
          0.008492488414049149,
          0.07583334296941757,
          0.0860050842165947,
          0.05779502913355827,
          0.09776846319437027,
          0.11528870463371277,
          -0.11175034195184708
        ],
        [
          0.13184845447540283,
          -0.014942964538931847,
          -0.07859831303358078,
          -0.02048785611987114,
          0.03481103852391243,
          0.12182337790727615,
          0.052448540925979614,
          0.12638498842716217,
          -0.1544327586889267,
          -0.0928996354341507,
          -0.11793480068445206,
          0.09388142824172974,
          0.17245696485042572,
          0.029427388682961464,
          -0.10045432299375534,
          -0.1638503521680832,
          0.11642756313085556,
          -0.03535871580243111,
          0.10306528955698013,
          -0.03911818936467171,
          -0.09085860103368759,
          -0.03471396490931511,
          0.08385027945041656,
          -0.1352205127477646,
          0.04038975387811661,
          -0.14027287065982819,
          0.18075329065322876,
          0.1337020844221115,
          -0.11799728870391846,
          0.008784142322838306,
          -0.008854508399963379,
          -0.05105170980095863
        ],
        [
          -0.021204054355621338,
          -0.18437698483467102,
          -0.11110997945070267,
          0.13228155672550201,
          -0.1203918382525444,
          -0.04040345922112465,
          -0.19083735346794128,
          -0.06346437335014343,
          0.014012742787599564,
          -0.06547202169895172,
          -0.01749858818948269,
          -0.16153168678283691,
          -0.10479553043842316,
          0.05201907455921173,
          0.0338994637131691,
          0.10559172928333282,
          0.07368788123130798,
          -0.1375928819179535,
          0.017337845638394356,
          0.05872761830687523,
          0.0906859040260315,
          -0.06149641424417496,
          0.03901168704032898,
          -0.1002654954791069,
          0.044574394822120667,
          0.12182063609361649,
          -0.13508325815200806,
          -0.006905923597514629,
          0.1518213450908661,
          0.11939362436532974,
          -0.11899897456169128,
          0.11168427020311356
        ],
        [
          0.1548781394958496,
          -0.08025307953357697,
          -0.1481836885213852,
          0.07202755659818649,
          0.01827990449965,
          -0.12520205974578857,
          -0.1734650582075119,
          -0.029111528769135475,
          0.11600622534751892,
          -0.12315704673528671,
          -0.13867396116256714,
          0.03544161841273308,
          0.08219028264284134,
          -0.09853247553110123,
          0.06026642769575119,
          0.11078687757253647,
          -0.08126042783260345,
          0.04461224377155304,
          0.01449110172688961,
          0.08057678490877151,
          0.13076503574848175,
          0.12299131602048874,
          0.11908601224422455,
          -0.0863208919763565,
          -0.1257610321044922,
          -0.1032017320394516,
          0.06994365900754929,
          0.1831725537776947,
          -0.08085909485816956,
          0.18150639533996582,
          -0.04706031084060669,
          -0.07748076319694519
        ],
        [
          -0.026631202548742294,
          -0.17100070416927338,
          -0.13524264097213745,
          -0.06660398840904236,
          -0.016208836808800697,
          0.09852078557014465,
          0.11216547340154648,
          -0.01785842701792717,
          -0.1161554679274559,
          -0.09143252670764923,
          0.20769955217838287,
          0.06880947947502136,
          0.1874445676803589,
          0.2049867957830429,
          0.11264735460281372,
          0.06793980300426483,
          0.0011638272553682327,
          -0.12221364676952362,
          0.08061133325099945,
          0.1306682676076889,
          -0.14330773055553436,
          0.10613317042589188,
          0.15603314340114594,
          0.03236901015043259,
          -0.014037027955055237,
          0.006215670611709356,
          0.06099160015583038,
          -0.15125805139541626,
          -0.1152501031756401,
          -0.17754343152046204,
          -0.1725444495677948,
          -0.08616111427545547
        ],
        [
          -0.12157003581523895,
          0.03661387413740158,
          -0.0022980705834925175,
          -0.1613539457321167,
          -0.06326328217983246,
          -0.03412586823105812,
          -0.0027010550256818533,
          -0.03420790657401085,
          0.19308990240097046,
          0.16466273367404938,
          -0.005896616727113724,
          0.11234556138515472,
          0.06921837478876114,
          0.061214741319417953,
          -0.11976530402898788,
          0.15240705013275146,
          0.04071676731109619,
          -0.05173863098025322,
          -0.11745649576187134,
          -0.16961315274238586,
          0.14626674354076385,
          0.01320839673280716,
          -0.12119355797767639,
          -0.07693003863096237,
          0.173447385430336,
          0.08084993064403534,
          -0.12893836200237274,
          0.009720707312226295,
          0.033689048141241074,
          0.08506081998348236,
          -0.08885172754526138,
          -0.10764619708061218
        ],
        [
          -0.04632874205708504,
          -0.06029124930500984,
          0.03643057867884636,
          0.05712836608290672,
          -0.08250749856233597,
          -0.11180787533521652,
          0.14125700294971466,
          0.06895271688699722,
          0.1495320349931717,
          -0.03780478239059448,
          -0.021699601784348488,
          0.15510065853595734,
          -0.18253158032894135,
          -0.14117549359798431,
          -0.03699075058102608,
          0.057271603494882584,
          0.12583376467227936,
          -0.03414185345172882,
          0.06576937437057495,
          -0.07929647713899612,
          -0.14794683456420898,
          -0.09346386790275574,
          0.12595097720623016,
          -0.046191614121198654,
          0.1619671732187271,
          0.04405494034290314,
          -0.027126915752887726,
          -0.12108118832111359,
          0.1556233912706375,
          -0.11523392796516418,
          0.061876025050878525,
          0.09255742281675339
        ],
        [
          -0.13903677463531494,
          -0.11893477290868759,
          0.059799645096063614,
          0.18641602993011475,
          0.03163754940032959,
          -0.029193641617894173,
          0.020588738843798637,
          0.00674758106470108,
          -0.14015404880046844,
          0.032964061945676804,
          0.04644111543893814,
          -0.09320803731679916,
          -0.00740261422470212,
          0.027020322158932686,
          0.14481224119663239,
          -0.13988789916038513,
          -0.10566270351409912,
          0.11749783158302307,
          0.15602920949459076,
          0.08721873909235,
          -0.06874604523181915,
          -0.13176129758358002,
          -0.006779113318771124,
          0.017398299649357796,
          0.16624389588832855,
          0.05752309411764145,
          -0.1592673510313034,
          0.1094498336315155,
          -0.05382182449102402,
          -0.10688282549381256,
          -0.14381402730941772,
          0.09749480336904526
        ],
        [
          0.11020708084106445,
          0.11425508558750153,
          -0.04711134359240532,
          0.11239295452833176,
          0.13547608256340027,
          0.1329231858253479,
          0.1540144830942154,
          0.020114367827773094,
          0.12118418514728546,
          -0.154354989528656,
          0.07672605663537979,
          -0.044140517711639404,
          0.02473369427025318,
          0.01952448859810829,
          -0.0974634438753128,
          0.02177301049232483,
          -0.06296130269765854,
          -0.05659298598766327,
          0.1277763694524765,
          -0.11183064430952072,
          -0.18271739780902863,
          0.12571287155151367,
          -0.044420208781957626,
          0.11631374806165695,
          -0.18048380315303802,
          0.05835328623652458,
          0.02417713589966297,
          0.01613267883658409,
          0.1504419445991516,
          -0.04022515192627907,
          0.1370970457792282,
          -0.19359643757343292
        ],
        [
          -0.13921386003494263,
          0.08105240762233734,
          0.17742720246315002,
          0.09460781514644623,
          0.0876058042049408,
          0.17947262525558472,
          0.053934138268232346,
          0.05978278070688248,
          -0.08250564336776733,
          0.00464202743023634,
          0.03071225993335247,
          -0.08017277717590332,
          0.08977808803319931,
          0.07980848103761673,
          -0.03745332732796669,
          -0.046969976276159286,
          -0.03035072609782219,
          -0.0015672415029257536,
          0.12782257795333862,
          0.005132605787366629,
          -0.16080115735530853,
          -0.1170509085059166,
          -0.1407826840877533,
          0.018792206421494484,
          -0.06866265833377838,
          0.15948164463043213,
          -0.13428612053394318,
          -0.02836799994111061,
          0.01692265085875988,
          0.04332747682929039,
          0.12458822876214981,
          0.11977248638868332
        ],
        [
          -0.08887894451618195,
          -0.1677629053592682,
          0.025728018954396248,
          -0.07684238255023956,
          0.026422403752803802,
          0.1292933076620102,
          -0.05267979949712753,
          -0.14261893928050995,
          -0.15440529584884644,
          0.13115689158439636,
          -0.03460503742098808,
          -0.18070082366466522,
          -0.05182434991002083,
          0.15167894959449768,
          0.10387447476387024,
          0.042652420699596405,
          -0.027290072292089462,
          0.1501084864139557,
          -0.04629169777035713,
          -0.07430487126111984,
          -0.12215889990329742,
          -0.08504622429609299,
          0.07427674531936646,
          -0.04600265994668007,
          -0.10554323345422745,
          0.12165646255016327,
          0.12226743996143341,
          -0.14474453032016754,
          0.015337994322180748,
          -0.006692301947623491,
          0.2023138552904129,
          0.0738535150885582
        ],
        [
          -0.16265830397605896,
          0.05911450833082199,
          0.012053915299475193,
          0.08757313340902328,
          -0.14566835761070251,
          -0.058847252279520035,
          0.023434657603502274,
          0.13131266832351685,
          0.007723455782979727,
          0.17990648746490479,
          -0.0035247050691396,
          0.07607735693454742,
          0.016283350065350533,
          0.18231253325939178,
          0.10350234061479568,
          -0.0025349482893943787,
          -0.09118181467056274,
          0.06483431905508041,
          -0.10581299662590027,
          -0.03619012609124184,
          0.14163970947265625,
          0.1281067281961441,
          -0.034257400780916214,
          -0.09099671989679337,
          -0.18208666145801544,
          -0.1516314297914505,
          -0.06411296874284744,
          0.008835063315927982,
          -0.09332998096942902,
          0.0686979740858078,
          0.0395733006298542,
          0.00966484285891056
        ],
        [
          0.04133345186710358,
          0.12725035846233368,
          -0.02978738397359848,
          -0.11534189432859421,
          0.12295818328857422,
          0.0021023028530180454,
          0.02480543963611126,
          -0.032801173627376556,
          -0.022417763248085976,
          0.15112946927547455,
          0.12498165667057037,
          -0.038765497505664825,
          -0.07994212210178375,
          0.11050960421562195,
          0.04241844266653061,
          -0.09615778177976608,
          -0.10168908536434174,
          0.01598675549030304,
          0.0966048538684845,
          0.0896575003862381,
          0.09886503219604492,
          0.003804820356890559,
          -0.15351633727550507,
          -0.09538904577493668,
          -0.04165773466229439,
          0.12410075962543488,
          -0.09648791700601578,
          0.04057358205318451,
          -0.08173693716526031,
          0.13209153711795807,
          -0.00014353134611155838,
          -0.06904437392950058
        ],
        [
          0.03806962072849274,
          -0.1693892478942871,
          -0.01382116787135601,
          0.06738690286874771,
          -0.07658832520246506,
          -0.08787687867879868,
          -0.1740540862083435,
          -0.06101551651954651,
          0.0296974778175354,
          0.003847007406875491,
          -0.011863748542964458,
          -0.060950130224227905,
          0.16420873999595642,
          0.06395844370126724,
          0.047890614718198776,
          0.18826429545879364,
          -0.08922985196113586,
          -0.15403541922569275,
          -0.1166478767991066,
          0.14564846456050873,
          -0.051650021225214005,
          -0.10512380301952362,
          0.036788661032915115,
          -0.13627889752388,
          0.15470024943351746,
          -0.05354997515678406,
          -0.0018427243921905756,
          -0.06938910484313965,
          -0.009960331954061985,
          -0.006087171379476786,
          -0.042729008942842484,
          0.005602390039712191
        ],
        [
          -0.09011264890432358,
          -0.08537734299898148,
          0.12880320847034454,
          0.079451784491539,
          0.10134182870388031,
          0.12211612612009048,
          0.056504443287849426,
          0.02953992411494255,
          -0.03189971670508385,
          -0.13020603358745575,
          -0.1717584729194641,
          -0.006241227500140667,
          0.14027106761932373,
          -0.06633657217025757,
          -0.13224676251411438,
          0.15934160351753235,
          -0.0005559060373343527,
          0.021237976849079132,
          0.08016560971736908,
          0.1188526451587677,
          -0.07784215360879898,
          -0.1160731092095375,
          -0.10470925271511078,
          0.11342337727546692,
          0.06096883490681648,
          0.0293410774320364,
          -0.05270589515566826,
          -0.14756767451763153,
          -0.009777364321053028,
          -0.12500765919685364,
          0.1617121398448944,
          -0.065086729824543
        ],
        [
          0.18834339082241058,
          0.1353548765182495,
          0.032259631901979446,
          0.18749041855335236,
          0.15231768786907196,
          0.0239508505910635,
          0.058557476848363876,
          0.07501668483018875,
          0.11103259027004242,
          -0.0940253883600235,
          -0.1255742907524109,
          0.16578179597854614,
          -0.13174761831760406,
          0.027291255071759224,
          -0.04303060472011566,
          -0.020903505384922028,
          0.12995584309101105,
          0.13121622800827026,
          -0.09191861748695374,
          -0.043822839856147766,
          -0.018931562080979347,
          0.022169586271047592,
          -0.08272560685873032,
          -0.07932189106941223,
          0.08739756792783737,
          0.07541976869106293,
          -0.13030776381492615,
          0.04231712967157364,
          -0.16006168723106384,
          0.11082043498754501,
          0.11634135991334915,
          -0.15020325779914856
        ],
        [
          -0.014106768183410168,
          0.10865044593811035,
          0.12683990597724915,
          -0.0025683920830488205,
          0.1787632554769516,
          0.1685248613357544,
          0.0770227462053299,
          -0.07259491086006165,
          0.05356109142303467,
          0.08023084700107574,
          -0.14801248908042908,
          0.08063820004463196,
          0.07390514016151428,
          -0.13589224219322205,
          0.12418200820684433,
          0.12943141162395477,
          -0.06298215687274933,
          0.09986374527215958,
          0.10367671400308609,
          -0.03382675349712372,
          0.0810670331120491,
          0.08227582275867462,
          0.043779157102108,
          0.15411439538002014,
          -0.14892025291919708,
          -0.023567765951156616,
          -0.1864774376153946,
          0.07807847857475281,
          0.039870571345090866,
          0.11757656931877136,
          0.0788087472319603,
          0.0646710991859436
        ],
        [
          -0.167029470205307,
          0.008761689998209476,
          0.022368168458342552,
          -0.10874726623296738,
          -0.043193116784095764,
          -0.168140709400177,
          -0.061510663479566574,
          -0.028709303587675095,
          -0.16488230228424072,
          -0.12127955257892609,
          0.15020515024662018,
          -0.14913418889045715,
          0.04857391119003296,
          -0.14490194618701935,
          0.12094644457101822,
          0.1572975367307663,
          0.0021086283959448338,
          0.034450579434633255,
          0.02523733489215374,
          0.16641907393932343,
          -0.11861235648393631,
          -0.019351674243807793,
          0.1614893227815628,
          -0.13765190541744232,
          -0.13004933297634125,
          -0.008835694752633572,
          -0.09832629561424255,
          -0.07612969726324081,
          -0.07266667485237122,
          -0.1075739711523056,
          -0.054437197744846344,
          -0.07841182500123978
        ],
        [
          0.03135109320282936,
          0.09311845153570175,
          -0.013120118528604507,
          0.18265369534492493,
          -0.05346032232046127,
          0.08337566256523132,
          -0.08382920920848846,
          -0.027998626232147217,
          -0.15283890068531036,
          -0.18906499445438385,
          -0.15620718896389008,
          -0.15188689529895782,
          0.12238946557044983,
          0.11057544499635696,
          -0.15107782185077667,
          -0.09987745434045792,
          -0.1530410200357437,
          -0.13890554010868073,
          0.011556833051145077,
          0.144834965467453,
          0.03564174473285675,
          0.07003358006477356,
          -0.15098842978477478,
          0.170486718416214,
          0.03838757053017616,
          -0.10527460277080536,
          0.09474504739046097,
          0.031128743663430214,
          0.018299110233783722,
          0.052172958850860596,
          0.008717287331819534,
          0.06142406538128853
        ],
        [
          0.09662558883428574,
          -0.17007309198379517,
          0.07042960077524185,
          -0.1829386055469513,
          -0.1456032544374466,
          0.10092979669570923,
          0.12986405193805695,
          -0.0010733206290751696,
          0.11796137690544128,
          0.11656433343887329,
          0.1184801459312439,
          0.14644041657447815,
          0.05395467206835747,
          -0.011875776574015617,
          -0.17832247912883759,
          -0.07907770574092865,
          -0.06877295672893524,
          -0.026038914918899536,
          -0.1290406435728073,
          0.06166848912835121,
          0.0014876577770337462,
          -0.11345013976097107,
          0.006616778671741486,
          0.08402019739151001,
          0.014727084897458553,
          -0.11207262426614761,
          0.11974386870861053,
          -0.08980927616357803,
          -0.07224197685718536,
          0.012824655510485172,
          0.16412527859210968,
          0.09582597017288208
        ],
        [
          -0.19594833254814148,
          0.07437881827354431,
          -0.11150678247213364,
          0.037645671516656876,
          -0.18921275436878204,
          -0.13822638988494873,
          -0.012013985775411129,
          0.11990007013082504,
          -0.09033991396427155,
          0.10220181941986084,
          -0.05209442973136902,
          -0.029565738514065742,
          0.08520172536373138,
          0.037322767078876495,
          -0.024387532845139503,
          0.10247769951820374,
          -0.01921810396015644,
          -0.03003874607384205,
          -0.02770676650106907,
          -0.03126826509833336,
          -0.12578026950359344,
          -0.12106621265411377,
          -0.054711706936359406,
          0.031520042568445206,
          -0.08372204005718231,
          0.1211436539888382,
          -0.15316307544708252,
          0.059731971472501755,
          0.0923028439283371,
          -0.0943589136004448,
          -0.05557365342974663,
          -0.11089629679918289
        ],
        [
          0.13888247311115265,
          -0.057512689381837845,
          0.01034973468631506,
          0.09663145244121552,
          -0.18288984894752502,
          -0.17088185250759125,
          -0.16123129427433014,
          -0.1201641857624054,
          -0.089330293238163,
          0.10552448779344559,
          -0.11471627652645111,
          0.11875235289335251,
          -0.05140061676502228,
          0.17913801968097687,
          -0.03272843360900879,
          -0.025474874302744865,
          0.014298206195235252,
          0.06622477620840073,
          -0.14256992936134338,
          0.07781462371349335,
          -0.08144769817590714,
          0.05633822828531265,
          0.023697849363088608,
          -0.010301467962563038,
          0.13132180273532867,
          0.051120392978191376,
          -0.15856023132801056,
          -0.09571222960948944,
          1.0664412002370227e-05,
          -0.14424192905426025,
          -0.07318007946014404,
          -0.13049137592315674
        ],
        [
          0.09017546474933624,
          -0.12648285925388336,
          -0.09714582562446594,
          -0.019473209977149963,
          -0.13052742183208466,
          0.014692082069814205,
          -0.14915962517261505,
          0.13340002298355103,
          0.14167432487010956,
          -0.04387957230210304,
          0.058748967945575714,
          -0.011268602684140205,
          0.0431869812309742,
          -0.10185321420431137,
          -0.12720398604869843,
          -0.12869995832443237,
          0.13607534766197205,
          -0.028120949864387512,
          0.17746670544147491,
          -0.15307117998600006,
          0.05397462844848633,
          -0.000185325276106596,
          0.000352701434167102,
          0.01908997632563114,
          0.16904893517494202,
          -0.0780843049287796,
          0.055915120989084244,
          0.12680718302726746,
          -0.10902441293001175,
          -0.03467961400747299,
          0.08010257035493851,
          -0.01631905883550644
        ],
        [
          0.04582468047738075,
          -0.04714730754494667,
          0.10275115817785263,
          -0.1616833508014679,
          -0.1865086555480957,
          0.08005128055810928,
          0.03489171341061592,
          -0.16536101698875427,
          -0.04609624296426773,
          -0.060087352991104126,
          -0.1009998768568039,
          0.11734020709991455,
          0.05077480152249336,
          0.11341653019189835,
          0.16849352419376373,
          0.10490721464157104,
          -0.028543701395392418,
          0.08802448213100433,
          0.008607669733464718,
          -0.017335180193185806,
          -0.05736120417714119,
          0.046365074813365936,
          0.08606360107660294,
          0.06693952530622482,
          0.08754981309175491,
          -0.07788917422294617,
          0.02132003754377365,
          -0.03824402764439583,
          -0.08974003791809082,
          0.11219009757041931,
          -0.151910200715065,
          0.0004678167460951954
        ],
        [
          -0.05419398471713066,
          -0.1743042767047882,
          0.07912743091583252,
          0.03823445737361908,
          0.11180237680673599,
          -0.18732504546642303,
          -0.15919284522533417,
          -0.15160606801509857,
          0.10020742565393448,
          0.17458708584308624,
          0.09121108800172806,
          0.09671852737665176,
          -0.12654142081737518,
          0.04275978356599808,
          0.09678716957569122,
          -0.14015012979507446,
          0.1678144931793213,
          -0.1191682368516922,
          -0.1288692057132721,
          0.001700277323834598,
          0.013235955499112606,
          -0.05318470299243927,
          0.04023470729589462,
          -0.047042153775691986,
          -0.12976430356502533,
          0.009649339132010937,
          0.07828875631093979,
          0.14110687375068665,
          0.10286293923854828,
          0.07650556415319443,
          0.06453055143356323,
          -0.057221438735723495
        ],
        [
          -0.050171706825494766,
          -0.0483667217195034,
          0.15372486412525177,
          0.16231130063533783,
          0.06479571759700775,
          -0.11730622500181198,
          0.14109985530376434,
          -0.032109975814819336,
          -0.1166132241487503,
          0.1576928049325943,
          0.03789514675736427,
          0.09680529683828354,
          -0.1350865364074707,
          -0.15494877099990845,
          0.08370792865753174,
          0.13323189318180084,
          -0.032736171036958694,
          -0.1501307338476181,
          0.1003415584564209,
          -0.1296706348657608,
          -0.04783996194601059,
          -0.13052219152450562,
          0.06266383081674576,
          -0.10439655184745789,
          -0.12276380509138107,
          -0.03871343284845352,
          0.10562629252672195,
          0.06440040469169617,
          0.06716781854629517,
          -0.16536512970924377,
          0.12133880704641342,
          -0.11876049637794495
        ],
        [
          0.12794072926044464,
          -0.0592593178153038,
          -0.04684549942612648,
          -0.052830200642347336,
          0.12343653291463852,
          0.11209316551685333,
          -0.09383045881986618,
          0.09305756539106369,
          0.1724000871181488,
          0.06201896071434021,
          0.07842151820659637,
          0.15097825229167938,
          -0.06717539578676224,
          -0.11575497686862946,
          -0.10020365566015244,
          -0.02591182477772236,
          0.08925600349903107,
          -0.13611379265785217,
          0.05480382218956947,
          0.04910110682249069,
          0.01561322994530201,
          -0.12276265770196915,
          0.0692674070596695,
          -0.059512533247470856,
          0.07654664665460587,
          0.017731551080942154,
          -0.1299343705177307,
          -0.06076066195964813,
          -0.015389707870781422,
          0.12676888704299927,
          -0.1480994075536728,
          0.09761063754558563
        ],
        [
          -0.0019977688789367676,
          0.07167637348175049,
          0.01316565927118063,
          0.03027324751019478,
          0.10314927250146866,
          -0.05555308237671852,
          -0.1224508211016655,
          -0.08167727291584015,
          0.12947480380535126,
          0.20846444368362427,
          0.02712182328104973,
          0.033429551869630814,
          0.09333255141973495,
          0.07756876945495605,
          -0.14905236661434174,
          -0.030058080330491066,
          -0.1599561870098114,
          0.1239524781703949,
          0.030817121267318726,
          0.12101639807224274,
          0.03794233500957489,
          -0.06064055860042572,
          -0.14051927626132965,
          -0.07692499458789825,
          0.03869377821683884,
          0.13397297263145447,
          0.1542324721813202,
          0.02545042149722576,
          0.10135433077812195,
          0.1290588676929474,
          -0.09260270744562149,
          -0.1950225830078125
        ],
        [
          -0.07519791275262833,
          -0.1132533848285675,
          0.1378484070301056,
          -0.08152485638856888,
          0.06916259974241257,
          0.00659497594460845,
          -0.14589805901050568,
          -0.06294117122888565,
          -0.1355268359184265,
          -0.13031673431396484,
          -0.038078658282756805,
          -0.14843006432056427,
          0.11731918156147003,
          0.09860057383775711,
          0.11481752246618271,
          -0.12354376167058945,
          0.01837918348610401,
          -0.10764086246490479,
          0.15715840458869934,
          0.009482048451900482,
          0.09862484782934189,
          0.07244042307138443,
          -0.0894184336066246,
          0.10756944119930267,
          0.1755848079919815,
          0.028080513700842857,
          -0.09682466089725494,
          0.0723961740732193,
          -0.1611609011888504,
          -0.0804469883441925,
          -0.09070724993944168,
          0.08783134818077087
        ],
        [
          0.017228325828909874,
          0.11592286825180054,
          -0.13022872805595398,
          -0.09374846518039703,
          0.12223754078149796,
          0.0978323444724083,
          -0.03721978887915611,
          0.09477667510509491,
          -0.043868374079465866,
          0.01945645734667778,
          0.00011210707452846691,
          0.041447874158620834,
          -0.011644192039966583,
          0.09239174425601959,
          0.11989612132310867,
          0.1408063769340515,
          0.04165758192539215,
          0.0423232764005661,
          -0.03993118926882744,
          0.13355235755443573,
          0.12355316430330276,
          -0.10828959941864014,
          -0.16783390939235687,
          -0.004702389240264893,
          0.012492927722632885,
          -0.17770397663116455,
          0.02149006351828575,
          0.10554801672697067,
          -0.08955639600753784,
          -0.06810347735881805,
          0.13912607729434967,
          0.11415500193834305
        ],
        [
          0.0772484838962555,
          -0.058615557849407196,
          0.0072133345529437065,
          0.07906030118465424,
          -0.18300604820251465,
          -0.040557198226451874,
          0.08803582191467285,
          0.0012770998291671276,
          0.13119657337665558,
          0.034932512789964676,
          -0.061760034412145615,
          -0.15344823896884918,
          -0.11726753413677216,
          0.13787882030010223,
          -0.08075259625911713,
          0.048490919172763824,
          0.0025152729358524084,
          -0.03742937371134758,
          -0.007169913966208696,
          -0.04280262067914009,
          -0.06520643830299377,
          0.14240454137325287,
          -0.05780938267707825,
          0.0988270714879036,
          0.18377383053302765,
          0.003995128441601992,
          0.05885643512010574,
          -0.14791205525398254,
          0.16784417629241943,
          -0.09820239245891571,
          -0.051817119121551514,
          -0.13239826261997223
        ],
        [
          -0.023302994668483734,
          0.09857609122991562,
          0.014574846252799034,
          -0.01566258631646633,
          -0.11186893284320831,
          -0.08783753961324692,
          0.12488105148077011,
          0.13151219487190247,
          0.11257849633693695,
          -0.11113888770341873,
          0.02898654155433178,
          -0.10408131778240204,
          -0.004522781353443861,
          -0.010314390994608402,
          0.016577135771512985,
          -0.11066178977489471,
          -0.14581327140331268,
          -0.08234018832445145,
          -0.016961708664894104,
          0.16368544101715088,
          -0.07468155026435852,
          -0.013727879151701927,
          -0.13866472244262695,
          0.061310891062021255,
          0.060155656188726425,
          0.03057248890399933,
          0.10864254087209702,
          0.04707236960530281,
          0.08743223547935486,
          -0.15444433689117432,
          -0.09108395129442215,
          0.09430104494094849
        ],
        [
          -0.10880674421787262,
          -0.15562741458415985,
          -0.03221843019127846,
          -0.1135321781039238,
          -0.17566369473934174,
          -0.08260921388864517,
          0.05554220452904701,
          0.1516546905040741,
          0.13678982853889465,
          -0.09952839463949203,
          -0.048239924013614655,
          -0.04881688207387924,
          0.043518807739019394,
          0.08803554624319077,
          0.14759470522403717,
          -0.04089011996984482,
          -0.06791602820158005,
          -0.14141950011253357,
          -0.043784186244010925,
          0.08282116800546646,
          0.20319850742816925,
          -0.14099732041358948,
          -0.05658096820116043,
          -0.1154412105679512,
          -0.13397052884101868,
          0.16383512318134308,
          -0.011061632074415684,
          0.12787573039531708,
          -0.12688279151916504,
          0.11776373535394669,
          0.11484494060277939,
          0.12050939351320267
        ],
        [
          -0.1609797179698944,
          -0.12061084061861038,
          -0.034419260919094086,
          -0.1929512768983841,
          0.0009684243123047054,
          -0.19993917644023895,
          0.08921314030885696,
          -0.05301300808787346,
          -0.020735017955303192,
          0.11277280747890472,
          -0.10728646069765091,
          -0.0820099487900734,
          0.054441358894109726,
          -0.06173727288842201,
          0.10451357066631317,
          0.14363212883472443,
          0.10044808685779572,
          -0.11063811182975769,
          -0.08718404918909073,
          0.053211018443107605,
          -0.0019008859526365995,
          0.020450767129659653,
          0.11480247974395752,
          -0.014599804766476154,
          -0.09864451736211777,
          -0.17295093834400177,
          0.1374598890542984,
          0.12563182413578033,
          0.05573402717709541,
          0.1125810518860817,
          0.02188490331172943,
          0.07166413217782974
        ],
        [
          -0.06610610336065292,
          0.17567603290081024,
          0.009612943045794964,
          0.14783713221549988,
          0.09531532227993011,
          0.178293377161026,
          -0.017542114481329918,
          0.10799982398748398,
          0.1782035380601883,
          -0.15419955551624298,
          0.01704995334148407,
          -0.12697294354438782,
          -0.10612581670284271,
          0.05999460071325302,
          0.12513302266597748,
          0.06828722357749939,
          -0.10111141949892044,
          -0.09362361580133438,
          0.03133958950638771,
          -0.020666740834712982,
          -0.0028865241911262274,
          0.07425068318843842,
          0.03897891193628311,
          0.0883103534579277,
          0.04225797951221466,
          -0.15131691098213196,
          0.10663564503192902,
