{
  "model_type": "RTNeural",
  "model_id": "dynamicsengine",
  "task": "dynamics_mapping",
  "input_size": 32,
  "output_size": 16,
  "architecture": "mlp",
  "layers": [
    {
      "name": "0.weight",
      "type": "conv",
      "weights": [
        [
          0.12646988034248352,
          -0.09896159172058105,
          0.050045307725667953,
          0.07745134085416794,
          -0.10332415252923965,
          -0.022363189607858658,
          -0.07773678749799728,
          -0.060606058686971664,
          -0.010690540075302124,
          0.07229921221733093,
          0.08600440621376038,
          0.1282428801059723,
          -0.1563376784324646,
          -0.018164001405239105,
          0.15133467316627502,
          0.12184780091047287,
          -0.13627290725708008,
          -0.16342619061470032,
          0.05826849862933159,
          -0.04389495402574539,
          -0.028864184394478798,
          -0.01744619570672512,
          -0.1672515720129013,
          0.13214510679244995,
          0.051964085549116135,
          -0.07343225181102753,
          0.16212470829486847,
          -0.01392095535993576,
          0.14204935729503632,
          -0.15995313227176666,
          0.12607339024543762,
          0.10539258271455765
        ],
        [
          -0.11354498565196991,
          -0.14611424505710602,
          0.13716740906238556,
          0.016549548134207726,
          0.004993070382624865,
          0.1472240537405014,
          0.06753582507371902,
          0.09027843177318573,
          -0.0720505639910698,
          -0.03634863346815109,
          -0.14102989435195923,
          -0.0485859252512455,
          0.1277538388967514,
          0.08663124591112137,
          -0.16259971261024475,
          0.06245804578065872,
          -0.001444260124117136,
          -0.059232939034700394,
          0.0035830482374876738,
          0.12375921756029129,
          0.16390769183635712,
          -0.07715637981891632,
          -0.1371048539876938,
          -0.08416053652763367,
          0.05055796727538109,
          -0.055770207196474075,
          -0.05156686529517174,
          -0.11198119074106216,
          -0.025778627023100853,
          -0.0665549486875534,
          0.06262855976819992,
          -0.09776674211025238
        ],
        [
          0.14833685755729675,
          0.07020097970962524,
          0.0645795464515686,
          0.01062636636197567,
          0.05978195369243622,
          0.10482984036207199,
          0.04941943660378456,
          -0.17718330025672913,
          0.11414457857608795,
          -0.18231649696826935,
          -0.13745220005512238,
          0.1666211485862732,
          0.13025431334972382,
          -0.14493761956691742,
          0.00027938513085246086,
          0.10797950625419617,
          0.17005978524684906,
          0.04384797811508179,
          0.1279197484254837,
          0.02649904415011406,
          0.09505078941583633,
          0.140193372964859,
          0.11904381215572357,
          -0.1107192188501358,
          0.14566877484321594,
          -0.17233067750930786,
          -0.12187840044498444,
          0.15318921208381653,
          -0.11907242238521576,
          0.020966535434126854,
          -0.16493044793605804,
          -0.1328320950269699
        ],
        [
          -0.03241673484444618,
          -0.11827845871448517,
          0.13148047029972076,
          0.10855109989643097,
          0.009371478110551834,
          0.04644687473773956,
          -0.12120576947927475,
          0.03948252648115158,
          -0.15136335790157318,
          -0.04171333461999893,
          0.06666068732738495,
          0.03454923629760742,
          0.07694181799888611,
          0.12526294589042664,
          0.08855415135622025,
          0.1052752286195755,
          0.1248178780078888,
          -0.03554894030094147,
          -0.04565422236919403,
          -0.0030709945131093264,
          0.15155133605003357,
          -0.0034942252095788717,
          -0.04426652565598488,
          -0.10439161211252213,
          0.084504634141922,
          0.13661375641822815,
          -0.1658286601305008,
          0.17559418082237244,
          0.1202535629272461,
          -0.17954006791114807,
          -0.005312865599989891,
          -0.009103922173380852
        ],
        [
          -0.12953531742095947,
          -0.15439914166927338,
          0.12511394917964935,
          0.1723461151123047,
          -0.12873218953609467,
          -0.07139874249696732,
          -0.027026908472180367,
          0.03196442127227783,
          0.09203819185495377,
          0.17352640628814697,
          0.15680624544620514,
          -0.022838430479168892,
          0.08689596503973007,
          0.1589205414056778,
          0.06280066817998886,
          0.04208669066429138,
          -0.16482070088386536,
          0.11894077062606812,
          -0.14582926034927368,
          -0.11063767224550247,
          -0.10699760913848877,
          0.1738908290863037,
          -0.062208324670791626,
          -0.08557994663715363,
          -0.053702376782894135,
          0.09824895858764648,
          0.010005423799157143,
          0.02579788863658905,
          0.11953210830688477,
          -0.06153867766261101,
          -0.088570736348629,
          0.020105551928281784
        ],
        [
          -0.10763415694236755,
          -0.14254465699195862,
          0.06630115211009979,
          0.07145226001739502,
          0.16092151403427124,
          0.17373578250408173,
          -0.08231890201568604,
          0.15903030335903168,
          -0.16471900045871735,
          -0.15494729578495026,
          0.0037485649809241295,
          0.027635039761662483,
          -0.1404736489057541,
          -0.11026205867528915,
          0.05514514073729515,
          0.1735086292028427,
          0.026736773550510406,
          -0.11046968400478363,
          -0.12105026096105576,
          -0.06995845586061478,
          0.031246019527316093,
          0.09012259542942047,
          -0.15425297617912292,
          0.02080683968961239,
          0.17481274902820587,
          -0.1550341099500656,
          0.10824780911207199,
          -0.15534208714962006,
          -0.015596719458699226,
          -0.13533084094524384,
          0.046337638050317764,
          0.09166175872087479
        ],
        [
          0.02480367384850979,
          0.15799126029014587,
          -0.1663123369216919,
          -0.14375701546669006,
          -0.04841650649905205,
          -0.020428728312253952,
          -0.024539124220609665,
          -0.048812385648489,
          -0.032801780849695206,
          -0.1595270037651062,
          0.13731391727924347,
          -0.04598485305905342,
          -0.05565055459737778,
          0.04072009027004242,
          -0.17235073447227478,
          -0.11661623418331146,
          0.015859905630350113,
          -0.10698864609003067,
          -0.06167338788509369,
          -0.14666695892810822,
          -0.03976604714989662,
          -0.10375945270061493,
          -0.038479603826999664,
          -0.028446657583117485,
          -0.05948789045214653,
          -0.051842767745256424,
          -0.009698011912405491,
          -0.08810194581747055,
          -0.15385597944259644,
          -0.09463196247816086,
          0.016924120485782623,
          0.011877605691552162
        ],
        [
          -0.156175896525383,
          0.1187669038772583,
          -0.15809108316898346,
          -0.011570903472602367,
          -0.045989301055669785,
          0.006401188671588898,
          -0.08177880197763443,
          0.14107227325439453,
          -0.07788896560668945,
          -0.09413976222276688,
          0.03665570914745331,
          0.025004103779792786,
          0.03721856698393822,
          0.019291380420327187,
          0.10458763688802719,
          0.0673646554350853,
          -0.12509003281593323,
          -0.0333658829331398,
          -0.03137611597776413,
          0.03137201443314552,
          0.08835794031620026,
          -0.17858444154262543,
          0.05587045103311539,
          -0.061907656490802765,
          -0.17691285908222198,
          0.028711138293147087,
          -0.060847874730825424,
          0.05811703950166702,
          -0.1214178130030632,
          -0.06721912324428558,
          -0.05411883071064949,
          -0.012637943960726261
        ],
        [
          0.009408798068761826,
          -0.02715766616165638,
          0.11623099446296692,
          -0.03555294871330261,
          0.040867023169994354,
          0.1725372076034546,
          0.011549578048288822,
          -0.1153552234172821,
          -0.1135261282324791,
          -0.016167325899004936,
          0.01343618705868721,
          -0.02705899067223072,
          -0.03749788925051689,
          -0.056264396756887436,
          0.001964931609109044,
          0.0927586555480957,
          0.10501977801322937,
          0.16807812452316284,
          0.1667190045118332,
          -0.14501820504665375,
          0.11757710576057434,
          0.0765158161520958,
          0.09784414619207382,
          0.07444613426923752,
          -0.008916139602661133,
          0.025712531059980392,
          -0.1329541653394699,
          0.10580151528120041,
          0.02297886088490486,
          -0.056114312261343,
          -0.13136228919029236,
          0.001430351985618472
        ],
        [
          0.13508883118629456,
          -0.02223237231373787,
          0.12521949410438538,
          -0.07958874851465225,
          0.08465314656496048,
          -0.11891552060842514,
          -0.12059307098388672,
          -0.07429048418998718,
          -0.06823663413524628,
          -0.10149145871400833,
          -0.11648858338594437,
          0.07144582271575928,
          -0.15394064784049988,
          -0.008504183031618595,
          -0.05441015958786011,
          -0.04472973197698593,
          -0.12348004430532455,
          0.01709502749145031,
          0.06431614607572556,
          -0.15770722925662994,
          0.16136017441749573,
          0.1497580111026764,
          -0.03502542898058891,
          0.06488733738660812,
          0.16133569180965424,
          0.058679863810539246,
          0.02739369496703148,
          -0.05677846819162369,
          -0.11496643722057343,
          0.09114139527082443,
          0.10161373764276505,
          -0.16648471355438232
        ],
        [
          -0.12319477647542953,
          -0.09222306311130524,
          0.16827937960624695,
          -0.1090322807431221,
          0.014767562970519066,
          -0.14851123094558716,
          -0.13677851855754852,
          -0.14373944699764252,
          -0.14328531920909882,
          -0.15863342583179474,
          -0.11356675624847412,
          -0.1539396494626999,
          -0.04053864628076553,
          0.030465733259916306,
          -0.09097136557102203,
          -0.16594691574573517,
          0.10702665895223618,
          0.1438579261302948,
          0.006442706100642681,
          0.01897955685853958,
          -0.13766475021839142,
          0.01424794364720583,
          -0.11554031074047089,
          -0.14938220381736755,
          0.04476778954267502,
          -0.11304342746734619,
          0.13477766513824463,
          -0.14289724826812744,
          0.12025319039821625,
          0.08485061675310135,
          -0.1104058176279068,
          -0.09409184753894806
        ],
        [
          -0.0447300486266613,
          0.11840081959962845,
          -0.0850553959608078,
          -0.11561883985996246,
          0.06160755455493927,
          -0.1646713763475418,
          0.14511094987392426,
          0.035907283425331116,
          0.06090549752116203,
          -0.030180249363183975,
          0.0156805831938982,
          -0.15518705546855927,
          0.059568505734205246,
          -0.08515022695064545,
          0.12289353460073471,
          -0.06963557004928589,
          0.07004326581954956,
          0.11826910823583603,
          0.02782811038196087,
          0.03233104199171066,
          0.17262843251228333,
          -0.0752110406756401,
          0.12675318121910095,
          0.06892483681440353,
          0.0525151826441288,
          0.1602335423231125,
          -0.03221868723630905,
          0.10435006022453308,
          -0.14039286971092224,
          -0.008939557708799839,
          0.1260964572429657,
          0.17701499164104462
        ],
        [
          -0.019044147804379463,
          -0.105679951608181,
          0.1031901016831398,
          -0.15823994576931,
          0.10111159086227417,
          -0.13617128133773804,
          0.12631937861442566,
          -0.011702018789947033,
          0.15441347658634186,
          0.1083190068602562,
          0.01182225439697504,
          -0.1620134860277176,
          -0.006126808933913708,
          0.09233427047729492,
          -0.057642027735710144,
          0.054173439741134644,
          0.14680702984333038,
          0.06657318025827408,
          0.050174739211797714,
          -0.043460264801979065,
          -0.13709858059883118,
          0.03012826107442379,
          -0.023774228990077972,
          -0.11466792225837708,
          -0.1409330666065216,
          -0.02290412411093712,
          0.10015684366226196,
          -0.11786692589521408,
          -0.034667037427425385,
          0.055033303797245026,
          -0.07587184011936188,
          0.0880214273929596
        ],
        [
          0.04925116151571274,
          0.07452932745218277,
          -0.05578846484422684,
          0.02790037915110588,
          -0.0761941522359848,
          -0.029740553349256516,
          0.16911329329013824,
          -0.15153726935386658,
          0.08275937288999557,
          -0.016488926485180855,
          0.03095930814743042,
          -0.03443142771720886,
          0.06563872843980789,
          0.06478533893823624,
          0.07611708343029022,
          0.14169149100780487,
          0.16388607025146484,
          -0.06555484235286713,
          -0.010940109379589558,
          -0.13995987176895142,
          0.12310562282800674,
          0.08090019226074219,
          0.05666704475879669,
          0.14374904334545135,
          0.0206545852124691,
          0.08343353867530823,
          -0.037446457892656326,
          -0.10787753015756607,
          -0.025899700820446014,
          0.17732305824756622,
          -0.032772455364465714,
          0.12503482401371002
        ],
        [
          0.13352124392986298,
          -0.015507718548178673,
          0.006879269145429134,
          -0.08769542723894119,
          -0.011670482344925404,
          -0.09422756731510162,
          -0.12722128629684448,
          -0.00430045323446393,
          -0.13249453902244568,
          -0.01695685274899006,
          0.15626150369644165,
          -0.05820149555802345,
          0.16333751380443573,
          0.15609554946422577,
          0.1662663370370865,
          -0.009845392778515816,
          0.005205320660024881,
          0.022753573954105377,
          0.06983955204486847,
          -0.021426917985081673,
          -0.1596188098192215,
          0.08211001008749008,
          -0.012165934778749943,
          0.0238818246871233,
          0.017778197303414345,
          -0.01720011793076992,
          -0.013514305464923382,
          0.0753130167722702,
          -0.08162275701761246,
          0.12088169902563095,
          0.13470882177352905,
          -0.052551593631505966
        ],
        [
          -0.13302206993103027,
          0.15251629054546356,
          -0.15599414706230164,
          -0.04598650336265564,
          -0.1314130425453186,
          -0.09580659866333008,
          0.008968094363808632,
          0.1676217019557953,
          0.03595735877752304,
          0.142868772149086,
          0.05101501941680908,
          -0.09285923093557358,
          0.15895363688468933,
          -0.02749457210302353,
          0.05946161597967148,
          0.0890905112028122,
          -0.06876875460147858,
          0.16914473474025726,
          -0.0207294262945652,
          0.004908053670078516,
          0.18343529105186462,
          0.15773454308509827,
          -0.1272531896829605,
          0.002343349391594529,
          0.16548044979572296,
          -0.06216583028435707,
          0.0277965497225523,
          -0.08458516746759415,
          -0.060246460139751434,
          -0.14755551517009735,
          0.1158633679151535,
          -0.07241599261760712
        ],
        [
          0.12281029671430588,
          -0.15656083822250366,
          -0.14561602473258972,
          -0.03674374520778656,
          0.061379995197057724,
          -0.09754958748817444,
          0.15828558802604675,
          0.03424038738012314,
          -0.0152526730671525,
          -0.11216972768306732,
          0.09232137352228165,
          -0.17132927477359772,
          -0.17750027775764465,
          0.13982081413269043,
          0.02039608545601368,
          -0.09581541270017624,
          0.135982945561409,
          0.13157597184181213,
          -0.10445532202720642,
          0.12107746303081512,
          -0.040349964052438736,
          0.023906800895929337,
          -0.158771812915802,
          0.07259733229875565,
          0.049067530781030655,
          -0.14683954417705536,
          0.11462271958589554,
          0.1447570025920868,
          0.11476567387580872,
          0.022102700546383858,
          0.1363839954137802,
          -0.019717933610081673
        ],
        [
          0.028810394927859306,
          0.1483003795146942,
          0.1638631373643875,
          0.1800883710384369,
          -0.13738809525966644,
          0.08306020498275757,
          0.15369217097759247,
          0.0689782202243805,
          0.10148371756076813,
          -0.13319654762744904,
          -0.08199474215507507,
          -0.0010199007811024785,
          0.10089468210935593,
          0.11437506228685379,
          -0.026331543922424316,
          0.021453093737363815,
          0.15029612183570862,
          -0.12452901899814606,
          -0.06253789365291595,
          0.00869768112897873,
          0.09331165999174118,
          -0.05282348766922951,
          -0.011497393250465393,
          0.09649255871772766,
          -0.11541526019573212,
          0.1075848937034607,
          -0.041172683238983154,
          -0.028074931353330612,
          0.12750932574272156,
          -0.12260689586400986,
          0.04705752804875374,
          -0.04188362509012222
        ],
        [
          0.04626580700278282,
          0.14740559458732605,
          0.031253863126039505,
          -0.03788928687572479,
          -0.05765996500849724,
          -0.0400918610394001,
          -0.0863804817199707,
          0.09462392330169678,
          -0.014561353251338005,
          -0.029082875698804855,
          0.06323462724685669,
          0.05331495404243469,
          0.14777091145515442,
          0.04448581114411354,
          -0.0378008596599102,
          0.10140407830476761,
          0.050801459699869156,
          -0.007798875216394663,
          -0.11515531688928604,
          0.169825941324234,
          0.021404745057225227,
          -0.030771391466259956,
          -0.10921796411275864,
          0.12375419586896896,
          0.06185027211904526,
          -0.12448793649673462,
          0.18363623321056366,
          -0.12432006001472473,
          -0.0308813638985157,
          0.07779634743928909,
          -0.014941439032554626,
          0.11267686635255814
        ],
        [
          -0.01943022757768631,
          0.13258060812950134,
          -0.010601824149489403,
          -0.049086205661296844,
          -0.13193874061107635,
          -0.05075331777334213,
          0.08289796113967896,
          -0.0910557210445404,
          0.025611771270632744,
          0.029601220041513443,
          -0.15091723203659058,
          0.12792660295963287,
          0.11542721837759018,
          0.0376117080450058,
          0.0713178813457489,
          -0.16385026276111603,
          0.1754138469696045,
          0.0884045660495758,
          0.13340871036052704,
          -0.061739321798086166,
          -0.16235539317131042,
          -0.01152848917990923,
          0.15816938877105713,
          0.09731810539960861,
          -0.10288000851869583,
          -0.14009703695774078,
          0.030989615246653557,
          0.12729240953922272,
          0.11881504952907562,
          0.12741751968860626,
          -0.1558292806148529,
          -0.07998323440551758
        ],
        [
          -0.12145131826400757,
          -0.10792244225740433,
          0.1667300909757614,
          0.02923072874546051,
          0.14871275424957275,
          0.1308712214231491,
          -0.15608583390712738,
          -0.02607538178563118,
          0.047655560076236725,
          -0.06687851250171661,
          -0.08609780669212341,
          -0.08650705218315125,
          -0.11490746587514877,
          -0.057946160435676575,
          -0.14475712180137634,
          -0.048150960355997086,
          -0.1179516613483429,
          0.025648482143878937,
          0.1362118124961853,
          0.16772937774658203,
          0.00263102725148201,
          0.11856502294540405,
          -0.1421787142753601,
          -0.03375576063990593,
          0.016259968280792236,
          -0.003666540142148733,
          0.03470573201775551,
          0.006913392338901758,
          0.05857766792178154,
          0.17700213193893433,
          0.07146474719047546,
          -0.11634515970945358
        ],
        [
          0.1485081911087036,
          0.04166743904352188,
          0.1232314258813858,
          0.09448273479938507,
          -0.03766632452607155,
          -0.0646093487739563,
          0.0973900631070137,
          0.10425961017608643,
          0.14631494879722595,
          0.08944693952798843,
          0.15487217903137207,
          0.1542735993862152,
          -0.040362708270549774,
          -0.11209197342395782,
          0.011166645213961601,
          -0.17156243324279785,
          -0.049006663262844086,
          -0.04640113562345505,
          -0.13724763691425323,
          -0.006382148712873459,
          0.1552828997373581,
          -0.0876455157995224,
          0.12211461365222931,
          -0.0026321192272007465,
          -0.0948871597647667,
          0.09748288244009018,
          0.10352563112974167,
          0.07497425377368927,
          0.015063018538057804,
          -0.000821999623440206,
          -0.1769500970840454,
          0.028619389981031418
        ],
        [
          0.09101837128400803,
          0.016445305198431015,
          -0.07908803224563599,
          -0.1118820384144783,
          0.08188571035861969,
          0.0009375796653330326,
          0.018961820751428604,
          -0.09422305226325989,
          -0.1383811980485916,
          -0.15459895133972168,
          0.04892951622605324,
          0.050415847450494766,
          0.17661215364933014,
          -0.026312971487641335,
          0.04061765596270561,
          0.03616708144545555,
          0.0842585563659668,
          -0.11885026842355728,
          0.08280541747808456,
          -0.15825213491916656,
          -0.024569973349571228,
          0.00038459227653220296,
          0.15946337580680847,
          -0.1309281438589096,
          0.0033623366616666317,
          -0.17947067320346832,
          -0.07572634518146515,
          -0.07451137900352478,
          0.0025692644994705915,
          0.04995005950331688,
          -0.13048434257507324,
          -0.02264399640262127
        ],
        [
          -0.14122530817985535,
          0.15416540205478668,
          -0.07076795399188995,
          -0.16523002088069916,
          0.04686325415968895,
          0.014631681144237518,
          -0.1310434341430664,
          -0.0991847813129425,
          -0.10044948756694794,
          0.13320644199848175,
          0.0537550263106823,
          -0.02616577409207821,
          -0.0803089365363121,
          -0.1238318681716919,
          -0.09511196613311768,
          -0.055200669914484024,
          -0.02597517892718315,
          -0.054830312728881836,
          -0.0768113061785698,
          -0.02169310487806797,
          0.15484251081943512,
          0.07783396542072296,
          0.0857718214392662,
          0.15823647379875183,
          0.03351789712905884,
          0.14254650473594666,
          0.08452159911394119,
          0.007467473857104778,
          0.03371462970972061,
          0.1723688691854477,
          0.0697634220123291,
          0.031489502638578415
        ],
        [
          0.043947089463472366,
          -0.10863875597715378,
          -0.060232482850551605,
          -0.056919895112514496,
          0.10504963248968124,
          0.16072192788124084,
          -0.12240651249885559,
          0.11973918229341507,
          0.02613603137433529,
          0.16618245840072632,
          -0.1843043565750122,
          -0.07737289369106293,
          0.14949078857898712,
          -0.13120244443416595,
          0.10305756330490112,
          0.0940442904829979,
          0.05986443907022476,
          -0.15953023731708527,
          0.15715861320495605,
          -0.12930084764957428,
          -0.13279755413532257,
          -0.09213843941688538,
          -0.11025216430425644,
          0.03143695741891861,
          0.003718077205121517,
          0.1262270212173462,
          -0.11064311116933823,
          -0.007259587291628122,
          0.030200941488146782,
          -0.15441027283668518,
          -0.08456793427467346,
          -0.12492474168539047
        ],
        [
          -0.07288502901792526,
          0.0852276012301445,
          -0.063498854637146,
          -0.06744889169931412,
          0.004178150091320276,
          0.06999167799949646,
          0.15415646135807037,
          0.12130464613437653,
          0.09568674117326736,
          -0.14877864718437195,
          0.1828836351633072,
          -0.1527191549539566,
          0.08775410801172256,
          0.01638057827949524,
          -0.13138973712921143,
          0.136555477976799,
          -0.11731791496276855,
          0.0522434338927269,
          -0.03578728437423706,
          -0.12542101740837097,
          0.10661119967699051,
          -0.0030634498689323664,
          -0.1051805168390274,
          0.09719207137823105,
          0.032379016280174255,
          -0.036460887640714645,
          0.06554633378982544,
          -0.05107971280813217,
          -0.15781161189079285,
          0.03061499074101448,
          0.0550890788435936,
          0.010631841607391834
        ],
        [
          0.0998503565788269,
          0.1387384980916977,
          0.02266176976263523,
          0.15648509562015533,
          0.0818338543176651,
          0.05606915056705475,
          -0.1699749380350113,
          0.15014906227588654,
          -0.09337359666824341,
          -0.05315583944320679,
          0.10047280043363571,
          0.1352330595254898,
          -0.11788537353277206,
          -0.15580320358276367,
          -0.1423533707857132,
          0.06257712095975876,
          -0.10039843618869781,
          0.006677038501948118,
          0.0034573161974549294,
          -0.1032537966966629,
          0.15734326839447021,
          0.15598618984222412,
          0.0838499665260315,
          -0.01929398626089096,
          -0.06946595013141632,
          0.11891833692789078,
          0.1546681523323059,
          -0.1299889236688614,
          -0.16124694049358368,
          0.08069548010826111,
          -0.08102370798587799,
          0.13795436918735504
        ],
        [
          0.10736176371574402,
          -0.05370934307575226,
          0.09694169461727142,
          -0.11754202097654343,
          -0.14849494397640228,
          0.06262742727994919,
          -0.06451522558927536,
          -0.035669222474098206,
          -0.06893056631088257,
          0.11644391715526581,
          0.0023683221079409122,
          -0.014692376367747784,
          0.026677897199988365,
          0.005259407218545675,
          0.10790524631738663,
          -0.14482825994491577,
          0.06296074390411377,
          -0.09228990226984024,
          0.027646439149975777,
          -0.16689208149909973,
          0.005031128879636526,
          -0.05183429270982742,
          -0.0031740013509988785,
          -0.13638415932655334,
          -0.14977321028709412,
          0.04700174555182457,
          -0.048390693962574005,
          -0.10597117245197296,
          0.020343415439128876,
          -0.007227872498333454,
          -0.07778101414442062,
          0.03541438281536102
        ],
        [
          -0.17614184319972992,
          0.09438346326351166,
          0.16764628887176514,
          -0.06929729878902435,
          -0.08917201310396194,
          -0.040327250957489014,
          -0.02967570722103119,
          -0.014342705719172955,
          -0.033410198986530304,
          -0.09410683810710907,
          -0.09582770615816116,
          -0.12090341746807098,
          0.017600366845726967,
          -0.17141956090927124,
          -0.12410659343004227,
          0.06129003316164017,
          -0.030129026621580124,
          0.0905866026878357,
          -0.056909140199422836,
          0.16015055775642395,
          0.09974603354930878,
          -0.04485930874943733,
          0.1223757266998291,
          0.09351737052202225,
          0.13323552906513214,
          0.0042212605476379395,
          -0.07568764686584473,
          -0.07382630556821823,
          -0.08564146608114243,
          -0.10865708440542221,
          -0.14677667617797852,
          -0.08728232234716415
        ],
        [
          -0.16705399751663208,
          -0.11453944444656372,
          0.00939150806516409,
          -0.15052244067192078,
          -0.06033002585172653,
          0.1086965799331665,
          -0.16167175769805908,
          0.17349819839000702,
          0.1558864265680313,
          -0.006210152991116047,
          -0.05598118528723717,
          -0.046006977558135986,
          0.034797631204128265,
          0.1406797170639038,
          -0.10720077902078629,
          -0.06096133962273598,
          0.10135897248983383,
          0.026629529893398285,
          0.11445535719394684,
          -0.15069358050823212,
          0.14228816330432892,
          -0.11003910005092621,
          0.15358757972717285,
          -0.0003687597345560789,
          0.08995361626148224,
          -0.01860063709318638,
          -0.04111548513174057,
          -0.15774506330490112,
          0.10991355031728745,
          -0.15148985385894775,
          -0.04025965556502342,
          -0.012135746888816357
        ],
        [
          -0.15818563103675842,
          -0.17069712281227112,
          0.030290348455309868,
          -0.1403297781944275,
          -0.07738256454467773,
          -0.13872897624969482,
          0.11839074641466141,
          0.00582552095875144,
          -0.09978752583265305,
          0.0770711824297905,
          -0.13568156957626343,
          0.1457890272140503,
          0.03924073278903961,
          -0.0152557622641325,
          0.11224807053804398,
          0.09803901612758636,
          -0.06613349914550781,
          -0.03692600876092911,
          0.007305717095732689,
          0.08141376823186874,
          0.09960764646530151,
          -0.07240772247314453,
          0.10991417616605759,
          -0.012894689105451107,
          0.059668075293302536,
          0.044619422405958176,
          -0.06734040379524231,
          0.0831821858882904,
          -0.053147200495004654,
          -0.09132824838161469,
          -0.06438897550106049,
          -0.07918150722980499
        ],
        [
          0.14936566352844238,
          0.04469713941216469,
          0.033644791692495346,
          -0.08727885782718658,
          -0.09925924241542816,
          0.04317339137196541,
          -0.01903199404478073,
          -0.07531096786260605,
          -0.053032755851745605,
          0.026442602276802063,
          0.05574190989136696,
          0.10430759936571121,
          -0.09905912727117538,
          0.13486307859420776,
          -0.10629409551620483,
          0.0818265974521637,
          0.08602523058652878,
          0.13272163271903992,
          -0.12401462346315384,
          -0.10529816150665283,
          -0.10804956406354904,
          0.16838735342025757,
          -0.0900488868355751,
          -0.08426904678344727,
          0.05588896572589874,
          0.15182587504386902,
          -0.11076679825782776,
          -0.17441117763519287,
          0.05180063098669052,
          -0.09309465438127518,
          0.15020757913589478,
          -0.03564350679516792
        ],
        [
          -0.06396021693944931,
          -0.024478044360876083,
          -0.12853437662124634,
          0.15382274985313416,
          0.13349318504333496,
          -0.12589767575263977,
          0.10345606505870819,
          -0.0683932825922966,
          -0.0313619039952755,
          0.13974058628082275,
          -0.1467079371213913,
          0.09754528105258942,
          -0.1518959105014801,
          -0.15114381909370422,
          0.11827459931373596,
          -0.008927109651267529,
          -0.14268547296524048,
          -0.05005596578121185,
          -0.14519557356834412,
          0.14367450773715973,
          -0.17913328111171722,
          -0.0020503292325884104,
          -0.050058867782354355,
          0.16906538605690002,
          -0.1658688187599182,
          -0.11973190307617188,
          0.15897348523139954,
          -0.02586161531507969,
          0.08463378250598907,
          -0.047702766954898834,
          0.02527555078268051,
          0.12006192654371262
        ],
        [
          -0.03936063125729561,
          -0.07685200870037079,
          -0.11505419760942459,
          -0.0952678844332695,
          0.13466404378414154,
          -0.029193416237831116,
          -0.05235414206981659,
          -0.04399833828210831,
          0.017499731853604317,
          -0.08496204018592834,
          -0.11909184604883194,
          -0.07542778551578522,
          -0.09817011654376984,
          0.09504903852939606,
          -0.1743989884853363,
          -0.037626080214977264,
          -0.027167417109012604,
          0.09121266007423401,
          0.09793316572904587,
          0.008401277475059032,
          -0.15220120549201965,
          0.14748114347457886,
          0.1429568976163864,
          0.1099027693271637,
          -0.007024461403489113,
          -0.0967131108045578,
          -0.03389030322432518,
          -0.13227899372577667,
          -0.1548016369342804,
          -0.16218601167201996,
          0.012928911484777927,
          0.004079070873558521
        ],
        [
          -0.10373494774103165,
          0.02993755415081978,
          -0.10320896655321121,
          0.1829829216003418,
          -0.012972532771527767,
          0.0024661142379045486,
          0.1505664885044098,
          0.04782085493206978,
          -0.12789703905582428,
          -0.0854678750038147,
          0.11124107986688614,
          0.14675372838974,
          -0.12464626878499985,
          0.06990598887205124,
          -0.14121176302433014,
          -0.09127816557884216,
          0.15425251424312592,
          -0.04283797740936279,
          -0.15620672702789307,
          -0.05655757337808609,
          -0.12289214134216309,
          0.10126467049121857,
          -0.03252957761287689,
          0.022099483758211136,
          -0.04854193329811096,
          -0.06451772898435593,
          0.11199691146612167,
          -0.1303853541612625,
          -0.011500413529574871,
          0.015543973073363304,
          0.004723614547401667,
          0.051677849143743515
        ],
        [
          0.009511273354291916,
          -0.16081587970256805,
          0.18144617974758148,
          0.12840481102466583,
          0.03384305164217949,
          0.04478151723742485,
          0.012692677788436413,
          -0.02209688536822796,
          -0.12611024081707,
          0.16675017774105072,
          0.134155735373497,
          -0.10130223631858826,
          0.03039540909230709,
          -0.1290159821510315,
          -0.1164790689945221,
          -0.16188420355319977,
          -0.04074063524603844,
          -0.07395301014184952,
          -0.02024824544787407,
          0.09079539030790329,
          0.13082624971866608,
          -0.03444870933890343,
          -0.023658713325858116,
          -0.1036885529756546,
          -0.11216002702713013,
          0.10833971202373505,
          -0.10251326858997345,
          0.16253720223903656,
          0.12194153666496277,
          -0.017421679571270943,
          -0.049997784197330475,
          0.01725517213344574
        ],
        [
          0.008249283768236637,
          -0.11517949402332306,
          0.01799977570772171,
          -0.16414599120616913,
          0.017935780808329582,
          0.1691572219133377,
          -0.029647478833794594,
          0.10889757424592972,
          0.08061691373586655,
          0.05418796092271805,
          -0.01703154481947422,
          -0.15613211691379547,
          0.029546700417995453,
          -0.09351222217082977,
          0.08149552345275879,
          0.045491866767406464,
          0.04909884184598923,
          0.11881745606660843,
          -0.02750411257147789,
          -0.018954133614897728,
          0.003883791621774435,
          -0.100315161049366,
          0.1445801854133606,
          -0.0581798329949379,
          0.09228650480508804,
          -0.16571781039237976,
          -0.008231685496866703,
          0.15517370402812958,
          -0.1726885885000229,
          -0.10966268926858902,
          -0.12309335917234421,
          -0.029911279678344727
        ],
        [
          0.06669551879167557,
          -0.04725397005677223,
          0.15295258164405823,
          -0.1370072364807129,
          0.14322981238365173,
          0.1465350240468979,
          -0.04250103980302811,
          -0.15266574919223785,
          0.12990258634090424,
          -0.10014542937278748,
          -0.016047345474362373,
          -0.0666448175907135,
          0.06187984347343445,
          -0.11772715300321579,
          0.03527840971946716,
          0.09163526445627213,
          -0.009727803990244865,
          0.049564480781555176,
          0.038406044244766235,
          -0.046299491077661514,
          -0.003051462583243847,
          0.03066139854490757,
          0.1539325714111328,
          0.08170296251773834,
          -0.1527557224035263,
          0.0069992877542972565,
          0.05087289214134216,
          -0.04386262968182564,
          -0.012392035685479641,
          -0.1426367163658142,
          -0.06561799347400665,
          -0.04425874724984169
        ],
        [
          -0.010479021817445755,
          0.092709481716156,
          -0.07262617349624634,
          -0.08607567101716995,
          -0.06053139269351959,
          0.08388806879520416,
          -0.011416827328503132,
          -0.031219903379678726,
          0.13792961835861206,
          0.012017125263810158,
          -0.037661176174879074,
          0.0316602997481823,
          0.13136495649814606,
          -0.17042756080627441,
          0.08777222037315369,
          0.13733956217765808,
          0.062035996466875076,
          -0.0611145943403244,
          -0.055349480360746384,
          -0.03272371366620064,
          -0.025357255712151527,
          -0.007513134740293026,
          0.006729901768267155,
          -0.04935565963387489,
          -0.1690189391374588,
          0.15372949838638306,
          0.09406506270170212,
          -0.06856827437877655,
          0.05993952974677086,
          -0.09161682426929474,
          0.043908242136240005,
          0.07841984182596207
        ],
        [
          -0.06579441577196121,
          0.05109301581978798,
          -0.014329416677355766,
          0.03875971585512161,
          -0.058050572872161865,
          0.08497297018766403,
          0.07500188797712326,
          -0.14859896898269653,
          -0.13788586854934692,
          -0.16800358891487122,
          -0.009444023482501507,
          0.028402674943208694,
          -0.11834245920181274,
          0.16112910211086273,
          0.1140490174293518,
          -0.06579584628343582,
          -0.00922304205596447,
          -0.06308577954769135,
          -0.06897270679473877,
          -0.14414486289024353,
          -0.031673308461904526,
          -0.057453740388154984,
          -0.03151145949959755,
          -0.014903565868735313,
          -0.14687447249889374,
          0.10861339420080185,
          0.020572559908032417,
          -0.10189816355705261,
          0.12846705317497253,
          -0.03158654272556305,
          0.010589675046503544,
          -0.07689923048019409
        ],
        [
          -0.1407490074634552,
          0.08551451563835144,
          -0.10990449786186218,
          -0.1281798630952835,
          -0.11534859240055084,
          0.1438358724117279,
          0.050381582230329514,
          0.025654179975390434,
          0.00022504407388623804,
          -0.15359897911548615,
          -0.1286386251449585,
          -0.06711596995592117,
          -0.004607623443007469,
          0.1167217344045639,
          0.04541661962866783,
          0.053306061774492264,
          0.09152112156152725,
          0.049145642668008804,
          -0.06486814469099045,
          -0.09343557804822922,
          -0.10017073899507523,
          0.045639727264642715,
          0.16796176135540009,
          -0.07465362548828125,
          0.11117894947528839,
          0.11700340360403061,
          0.07335545867681503,
          0.10500312596559525,
          -0.1707541048526764,
          0.04452528804540634,
          -0.01187651976943016,
          -0.057424891740083694
        ],
        [
          -0.04578287526965141,
          0.04256806522607803,
          -0.15177106857299805,
          -0.12648673355579376,
          -0.12217562645673752,
          0.14634853601455688,
          -0.1453070491552353,
          0.13291065394878387,
          -0.008171438239514828,
          0.04406450316309929,
          -0.10666116327047348,
          0.11597491055727005,
          -0.011682309210300446,
          -0.15437671542167664,
          0.04003560543060303,
          -0.06618904322385788,
          0.09063776582479477,
          -0.16491146385669708,
          0.12100744247436523,
          0.0716458186507225,
          0.07254227250814438,
          0.14472952485084534,
          0.11233794689178467,
          0.1363169103860855,
          -0.00046028479118831456,
          -0.032679323107004166,
          0.0866590142250061,
          0.12929470837116241,
          -0.1629604995250702,
          -0.14492300152778625,
          0.08121084421873093,
          -0.11256171762943268
        ],
        [
          -0.05818004906177521,
          0.0901399776339531,
          -0.11957235634326935,
          -0.08063067495822906,
          -0.019337257370352745,
          -0.010883544571697712,
          -0.05767366290092468,
          -0.044524867087602615,
          -0.12033046782016754,
          -0.05244988203048706,
          0.055806007236242294,
          0.14009340107440948,
          -0.07212205976247787,
          -0.11425642669200897,
          -0.09299400448799133,
          -0.09645643085241318,
          -0.00812444742769003,
          0.14553067088127136,
          0.028013698756694794,
          0.007091942708939314,
          -0.1168803870677948,
          0.14635904133319855,
          0.04860091954469681,
          -0.09260321408510208,
          -0.02846689708530903,
          -0.17437349259853363,
          -0.008468905463814735,
          -0.10045213252305984,
          0.10896147042512894,
          0.11400619894266129,
          -0.015919022262096405,
          -0.1724551022052765
        ],
        [
          0.052937109023332596,
          -0.11310254037380219,
          -0.1422114074230194,
          0.09273524582386017,
          -0.13823840022087097,
          0.1612038016319275,
          -0.0036122575402259827,
          0.1777619570493698,
          0.16539481282234192,
          -0.10258056223392487,
          -0.08271092921495438,
          0.15243427455425262,
          -0.09052245318889618,
          0.13871672749519348,
          0.09660560637712479,
          -0.13360559940338135,
          0.1600174605846405,
          -0.06557051092386246,
          0.024186691269278526,
          0.01040241215378046,
          -0.04785590246319771,
          0.14506234228610992,
          -0.03975941240787506,
          0.05778604745864868,
          0.008706141263246536,
          -0.06049428507685661,
          -0.03434831276535988,
          -0.07677692919969559,
          -0.12194116413593292,
          -0.10718195140361786,
          -0.09144816547632217,
          -0.07829300314188004
        ],
        [
          -0.09788667410612106,
          -0.1254017949104309,
          -0.11355136334896088,
          0.05686645209789276,
          0.047778211534023285,
          0.07546433061361313,
          -0.0369570329785347,
          -0.02037939243018627,
          0.021858129650354385,
          0.06395884603261948,
          -0.12384162098169327,
          -0.019906139001250267,
          0.021721119061112404,
          -0.006628920324146748,
          -0.1253121793270111,
          -0.010626185685396194,
          0.08627358824014664,
          0.004304968286305666,
          -0.05264376476407051,
          -0.03876526281237602,
          -0.008700583130121231,
          0.11082461476325989,
          0.07901368290185928,
          -0.12792745232582092,
          0.11012193560600281,
          0.06196078658103943,
          -0.1643025279045105,
          -0.07962367683649063,
          0.027088399976491928,
          0.03263576328754425,
          -0.007674745749682188,
          0.0034598519559949636
        ],
        [
          -0.041578151285648346,
          -0.07864014804363251,
          0.043298132717609406,
          -0.1744995266199112,
          -0.11196105927228928,
          -0.15515416860580444,
          0.013687288388609886,
          -0.16061411798000336,
          -0.16246891021728516,
          -0.0882527306675911,
          0.12861597537994385,
          0.06825719773769379,
          -0.10872671008110046,
          -0.1688545048236847,
          0.16587156057357788,
          0.11687182635068893,
          0.16174538433551788,
          -0.1321565955877304,
          0.03913385793566704,
          0.08092258870601654,
          0.1427285373210907,
          0.016802843660116196,
          0.06540793925523758,
          -0.044616833329200745,
          0.15418238937854767,
          0.17243614792823792,
          0.05784399434924126,
          0.010339006781578064,
          0.05958392098546028,
          -0.10375010222196579,
          0.14033670723438263,
          -0.04664136469364166
        ],
        [
          0.05875915661454201,
          0.10130488127470016,
          0.14638252556324005,
          0.0914565920829773,
          -0.012023711577057838,
          -0.06367634981870651,
          0.0737958699464798,
          -0.1603999137878418,
          -0.1079666018486023,
          0.16456033289432526,
          0.08942179381847382,
          -0.05057135224342346,
          0.0454263836145401,
          0.050873998552560806,
          0.131508007645607,
          0.09155397862195969,
          -0.005820282269269228,
          0.07142360508441925,
          0.14866234362125397,
          0.01533390861004591,
          -0.08303018659353256,
          -0.09218332916498184,
          -0.14428779482841492,
          -0.11171776056289673,
          0.16249892115592957,
          0.14752592146396637,
          -0.0163740161806345,
          0.0531887449324131,
          -0.14811497926712036,
          -0.09702065587043762,
          -0.17892137169837952,
          -0.1068134531378746
        ],
        [
          -0.06722152233123779,
          0.11004319787025452,
          -0.08896971493959427,
          -0.15864431858062744,
          0.09240828454494476,
          0.11929266154766083,
          0.13959556818008423,
          0.11276961863040924,
          -0.04041606932878494,
          0.16417811810970306,
          -0.15319640934467316,
          -0.07916058599948883,
          -0.03347769007086754,
          0.15269824862480164,
          -0.05531599745154381,
          0.11702221632003784,
          -0.12135181576013565,
          0.09896953403949738,
          -0.15086817741394043,
          -0.08009401708841324,
          -0.17825812101364136,
          0.03976105898618698,
          0.1543489545583725,
          -0.06541243940591812,
          -0.0956614688038826,
          -0.09958739578723907,
          0.007407038006931543,
          0.04395586997270584,
          0.13794055581092834,
          0.08393466472625732,
          -0.10468485951423645,
          -0.0820389986038208
        ],
        [
          0.07176826149225235,
          -0.10610653460025787,
          0.1363910287618637,
          0.13012950122356415,
          0.061458416283130646,
          0.10707797110080719,
          -0.10446324199438095,
          0.1732490211725235,
          0.0013988055288791656,
          0.09987853467464447,
          0.11959776282310486,
          0.14308200776576996,
          -0.021177735179662704,
          -0.03074698895215988,
          0.16969721019268036,
          0.01440315693616867,
          0.07616400718688965,
          -0.06159909814596176,
          0.08109717816114426,
          0.028841117396950722,
          -0.11981218308210373,
          0.06667613238096237,
          -0.033535461872816086,
          0.044520504772663116,
          -0.08008087426424026,
          0.05525931343436241,
          0.07837162911891937,
          0.1288553774356842,
          -0.15561287105083466,
          0.08269529044628143,
          0.13543663918972015,
          0.019364133477211
        ],
        [
          0.023994717746973038,
          0.08266942948102951,
          -0.019739903509616852,
          0.06468138098716736,
          0.06343072652816772,
          -0.10889822989702225,
          0.010079807601869106,
          -0.040488630533218384,
          0.12703999876976013,
          -0.13715946674346924,
          0.10464666783809662,
          -0.12910610437393188,
          -0.14099057018756866,
          0.14522403478622437,
          0.06880268454551697,
          -0.02292598783969879,
          0.169050395488739,
          -0.1644669771194458,
          -0.03780732303857803,
          -0.15287761390209198,
          0.09626463800668716,
          -0.013811837881803513,
          -0.10710247606039047,
          0.05886955186724663,
          0.019071325659751892,
          0.12815484404563904,
          -0.005729818716645241,
          0.12145926058292389,
          0.026402674615383148,
          -0.11274781823158264,
          0.12356162816286087,
          -0.05946623906493187
        ],
        [
          0.16041363775730133,
          0.12161639332771301,
          -0.015993600711226463,
          0.14544035494327545,
          -0.17232826352119446,
          0.03040805272758007,
          0.11392661929130554,
          0.008422967977821827,
          -0.13940221071243286,
          0.022927315905690193,
          0.07653214782476425,
          -0.07163019478321075,
          -0.09427052736282349,
          -0.15757238864898682,
          -0.045722294598817825,
          -0.08343049883842468,
          -0.1417013555765152,
          -0.0563775934278965,
          0.04777241870760918,
          0.14122070372104645,
          -0.0551137700676918,
          0.010357976891100407,
          0.1373622566461563,
          0.06844493746757507,
          -0.07975900918245316,
          -0.1400613784790039,
          -0.09036161750555038,
          0.037134502083063126,
          -0.023181358352303505,
          0.11542388051748276,
          0.14482589066028595,
          0.06575901806354523
        ],
        [
          -0.08945751935243607,
          0.13039715588092804,
          0.011318005621433258,
          -0.08411569893360138,
          -0.09897717833518982,
          -0.0842011496424675,
          0.09871596097946167,
          -0.1664927750825882,
          0.0742093026638031,
          -0.0502590611577034,
          0.07348908483982086,
          0.016053851693868637,
          -0.04942099377512932,
          0.0641065388917923,
          0.06632813811302185,
          0.013371501117944717,
          -0.07896380126476288,
          0.1339918076992035,
          0.12373612076044083,
          0.048622071743011475,
          0.041448261588811874,
          0.06289959698915482,
          0.1456276774406433,
          -0.09116192907094955,
          -0.012997892685234547,
          0.09049426764249802,
          -0.07351123541593552,
          0.010856624692678452,
          -0.019625939428806305,
          -0.11507853865623474,
          -0.08620575070381165,
          -0.1149851381778717
        ],
        [
          -0.014002916403114796,
          0.17603696882724762,
          -0.12606298923492432,
          -0.016214588657021523,
          0.01923275738954544,
          -0.02876412123441696,
          -0.043609071522951126,
          0.029408037662506104,
          0.050299979746341705,
          -0.054199062287807465,
          0.07683724910020828,
          0.008789696730673313,
          0.01817607320845127,
          -0.08942324668169022,
          -0.11871210485696793,
          -0.03785807639360428,
          0.007658223155885935,
          -0.07500216364860535,
          0.16543525457382202,
          0.03532704710960388,
          0.06111426278948784,
          -0.0542810820043087,
          -0.1630554348230362,
          -0.08748417347669601,
          -0.006203243043273687,
          0.15718908607959747,
          -0.14939433336257935,
          0.04498191922903061,
          -0.12740905582904816,
          0.08298587799072266,
          -0.0059298244304955006,
          -0.0900154858827591
        ],
        [
          0.03121090680360794,
          -0.15553469955921173,
          0.1150863990187645,
          -0.09917958080768585,
          0.03563385829329491,
          -0.09687671810388565,
          0.008182241581380367,
          0.09582433849573135,
          -0.08401753753423691,
          -0.08846887946128845,
          0.0945022702217102,
          -0.1474335640668869,
          -0.06131986156105995,
          0.1810971051454544,
          0.027809595689177513,
          0.1107398122549057,
          -0.060686659067869186,
          -0.16148927807807922,
          -0.06925094127655029,
          0.011291460134088993,
          0.019236480817198753,
          0.15827171504497528,
          -0.008148527704179287,
          0.1633789986371994,
          0.11799658834934235,
          -0.053031034767627716,
          -0.15325471758842468,
          0.04425995051860809,
          0.029489697888493538,
          -0.06554216891527176,
          -0.08665978908538818,
          0.11961458623409271
        ],
        [
          -0.1604846864938736,
          -0.03456656634807587,
          0.1168992891907692,
          0.1105983778834343,
          0.14603370428085327,
          0.08015347272157669,
          0.06348368525505066,
          0.05136071518063545,
          0.0264428723603487,
          0.038566797971725464,
          -0.08223879337310791,
          0.04348848760128021,
          -0.09806858748197556,
          0.15894979238510132,
          -0.04196389764547348,
          -0.11869710683822632,
          -0.10672534257173538,
          -0.14105983078479767,
          -0.028244059532880783,
          0.1008230671286583,
          -0.1252279430627823,
          0.16712965071201324,
          -0.0932474285364151,
          -0.05414474382996559,
          5.2061463065911084e-05,
          0.1482570618391037,
          0.062320858240127563,
          -0.05078103020787239,
          0.12959785759449005,
          -0.12404421716928482,
          -0.0676252469420433,
          -0.15050381422042847
        ],
        [
          0.08413136750459671,
          -0.08336243778467178,
          -0.15163163840770721,
          0.0582936555147171,
          0.16433915495872498,
          0.026685228571295738,
          0.10803321748971939,
          0.026166731491684914,
          0.09661009162664413,
          -0.08358354866504669,
          0.14691011607646942,
          0.0569082610309124,
          0.14630478620529175,
          0.16393809020519257,
          -0.11997286975383759,
          0.10929860174655914,
          -0.15674181282520294,
          -0.04921865463256836,
          -0.1764213591814041,
          0.10053092986345291,
          0.051339469850063324,
          -0.16371549665927887,
          -0.12495753914117813,
          0.08227410912513733,
          0.12386270612478256,
          0.15908542275428772,
          0.008273210376501083,
          0.14067544043064117,
          0.0737789198756218,
          0.05453221872448921,
          -0.08318348973989487,
          -0.14307481050491333
        ],
        [
          -0.1337798535823822,
          0.13476113975048065,
          0.03460695967078209,
          -0.005487077869474888,
          -0.12883862853050232,
          0.12964525818824768,
          -0.0356200635433197,
          -0.04486345499753952,
          0.04769283905625343,
          0.02230028808116913,
          0.09939779341220856,
          0.01622844859957695,
          0.09537339955568314,
          0.009822342544794083,
          -0.024764304980635643,
          0.03878122195601463,
          0.13522937893867493,
          0.09467364847660065,
          0.016474850475788116,
          0.12599137425422668,
          0.019527776166796684,
          0.15434926748275757,
          0.12905335426330566,
          0.037518974393606186,
          0.0057125273160636425,
          0.13046616315841675,
          -0.14672915637493134,
          -0.0999382808804512,
          0.05671730265021324,
          0.06276565790176392,
          -0.15431368350982666,
          0.13100437819957733
        ],
        [
          0.06113443896174431,
          0.05374982953071594,
          -0.15096700191497803,
          0.04047141224145889,
          0.05858803912997246,
          -0.06285117566585541,
          -0.047845665365457535,
          -0.13146723806858063,
          0.13488061726093292,
          0.1637163758277893,
          0.08227420598268509,
          0.05571495741605759,
          0.08043086528778076,
          0.16975027322769165,
          -0.16431336104869843,
          -0.027937743812799454,
          -0.04233294352889061,
          0.15888352692127228,
          -0.034381259232759476,
          0.14443369209766388,
          0.08512233942747116,
          0.03916306048631668,
          -0.00763211352750659,
          -0.1214187890291214,
          -0.02322007156908512,
          -0.009659810923039913,
          0.1300148218870163,
          0.05598236620426178,
          0.027232540771365166,
          -0.006334390491247177,
          -0.01689678244292736,
          0.03247503563761711
        ],
        [
          0.15108734369277954,
          0.09120939671993256,
          0.06412927806377411,
          -0.0980353131890297,
          0.11318156868219376,
          0.07867136597633362,
          0.050715573132038116,
          0.13743442296981812,
          -0.1362687051296234,
          -0.05932680889964104,
          -0.1143692135810852,
          0.11677668988704681,
          0.03787427768111229,
          -0.1674589067697525,
          -0.03417827934026718,
          -0.08761072903871536,
          0.05365268141031265,
          -0.17141003906726837,
          0.0017303535714745522,
          -0.03745458275079727,
          0.14376315474510193,
          0.0796404555439949,
          -0.01097713503986597,
          -0.06799463927745819,
          0.03273392096161842,
          0.1282874494791031,
          -0.16320019960403442,
          -0.06296207010746002,
          0.01996012218296528,
          0.11219609528779984,
          -0.007514027412980795,
          0.14859622716903687
        ],
        [
          0.11715646088123322,
          -0.0963645651936531,
          -0.05794575437903404,
          0.05330171063542366,
          0.12272461503744125,
          -0.08296147733926773,
          -0.08714383840560913,
          -0.021543994545936584,
          -0.09850914031267166,
          -0.15839920938014984,
          -0.03513692691922188,
          0.11067438125610352,
          0.08019819855690002,
          -0.05080697312951088,
          -0.1290450394153595,
          0.11150532960891724,
          -0.16533249616622925,
          -0.05109134688973427,
          -0.14508523046970367,
          0.1286618858575821,
          -0.08631227910518646,
          0.07574939727783203,
          -0.023246336728334427,
          0.10178744047880173,
          -0.058234766125679016,
          0.16561242938041687,
          -0.02960427850484848,
          0.03177926689386368,
          0.0707329511642456,
          -0.04551655054092407,
          0.16299070417881012,
          -0.05348535254597664
        ],
        [
          -0.03874700888991356,
          0.029243048280477524,
          -0.12220995873212814,
          -0.003156988648697734,
          -0.05429407209157944,
          -0.04766872152686119,
          -0.0744176059961319,
          -0.15761156380176544,
          -0.10700596123933792,
          0.06448880583047867,
          -0.11506273597478867,
          0.10277041047811508,
          -0.01801595464348793,
          0.03608294203877449,
          0.07673995941877365,
          0.1529085636138916,
          -0.16958670318126678,
          0.1700480729341507,
          0.07869704067707062,
          0.017431583255529404,
          0.03859448432922363,
          0.14460532367229462,
          -0.1463218480348587,
          0.034400954842567444,
          0.00046177516924217343,
          -0.02189621701836586,
          -0.08013445883989334,
          0.15731197595596313,
          -0.037599582225084305,
          0.11061237752437592,
          0.03355260565876961,
          0.1539248377084732
        ],
        [
          -0.10219649225473404,
          0.08572997897863388,
          -0.14562757313251495,
          -0.17040662467479706,
          0.00534392474219203,
          -0.03690985217690468,
          0.10160064697265625,
          0.04210568219423294,
          -0.11433902382850647,
          0.053700223565101624,
          0.12767517566680908,
          0.11247005313634872,
          -0.11626363545656204,
          -0.06821145862340927,
          0.15009035170078278,
          -0.1440315544605255,
          -0.048511654138565063,
          0.039355017244815826,
          -0.16142410039901733,
          0.07620786875486374,
          0.1451784372329712,
          -0.05686537176370621,
          0.18384388089179993,
          -0.07013487070798874,
          -0.08744961768388748,
          -0.07002533972263336,
          0.0912218913435936,
          -0.17294679582118988,
          0.07007633149623871,
          0.03591934219002724,
          -0.06762682646512985,
          0.12351350486278534
        ],
        [
          -0.018902262672781944,
          0.039271701127290726,
          0.07978815585374832,
          -0.05465827137231827,
          0.0504266582429409,
          0.12355384975671768,
          -0.058976203203201294,
          0.09175548702478409,
          -0.17821389436721802,
          0.030863095074892044,
          -0.16779935359954834,
          0.10672259330749512,
          0.15575973689556122,
          0.06861928105354309,
          -0.0324566513299942,
          -0.06291913986206055,
          -0.07201044261455536,
          -0.15817290544509888,
          -0.07761954516172409,
          0.13555282354354858,
          0.00028227822622284293,
          -0.08633261173963547,
          0.09505461156368256,
          -0.13484904170036316,
          0.04711119830608368,
          -0.062234025448560715,
          0.1568818837404251,
          -0.10871605575084686,
          -0.012640006840229034,
          0.08178319782018661,
          0.13245384395122528,
          -0.10506951808929443
        ],
        [
          0.04393155500292778,
          0.09870725870132446,
          0.10058533400297165,
          0.022689592093229294,
          0.008230509236454964,
          -0.15819846093654633,
          -0.03425465151667595,
          0.04928186535835266,
          0.03552227467298508,
          -0.05227762460708618,
          -0.07362081855535507,
          -0.025934014469385147,
          -0.04471583664417267,
          0.10370981693267822,
          -0.14110402762889862,
          -0.1600462943315506,
          -0.09331411123275757,
          -0.05641188099980354,
          -0.062306806445121765,
          -0.1509130746126175,
          0.1048269048333168,
          0.16042861342430115,
          0.1046617403626442,
          -0.06325279176235199,
          -0.029933571815490723,
          0.06673095375299454,
          0.06987203657627106,
          -0.0696529671549797,
          0.04249400645494461,
          0.08894302695989609,
          0.04869593307375908,
          0.08302544057369232
        ],
        [
          0.14830642938613892,
          0.07386647164821625,
          -0.08655183017253876,
          0.12451782077550888,
          0.08825232088565826,
          0.011596561409533024,
          0.1268206089735031,
          -0.08277452737092972,
          -0.07388240844011307,
          0.12057336419820786,
          -0.09274385869503021,
          -0.18140141665935516,
          -0.024559324607253075,
          -0.08724916726350784,
          -0.16950424015522003,
          0.08820851892232895,
          0.12389231473207474,
          0.009296531789004803,
          -0.1396724134683609,
          0.16507390141487122,
          -0.12973564863204956,
          0.11920586973428726,
          0.0024095531553030014,
          -0.11144795268774033,
          0.12773050367832184,
          0.1530045121908188,
          0.07576742023229599,
          -0.048802800476551056,
          -0.16703569889068604,
          -0.14572054147720337,
          -0.023682445287704468,
          -0.07957664877176285
        ],
        [
          0.11122681200504303,
          0.11620108783245087,
          -0.11525820195674896,
          0.15378659963607788,
          -0.10281656682491302,
          0.1192135363817215,
          -0.13753573596477509,
          -0.06993106007575989,
          -0.004195798188447952,
          0.14758020639419556,
          -0.18720173835754395,
          -0.14327658712863922,
          -0.02440296858549118,
          0.0527481734752655,
          0.06923408061265945,
          -0.16275383532047272,
          -0.15368539094924927,
          -0.10704363137483597,
          -0.04635929688811302,
          -0.11537038534879684,
          -0.08054951578378677,
          -0.027910396456718445,
          -0.09864003211259842,
          0.13200919330120087,
          0.0626552402973175,
          0.11820891499519348,
          0.0170916635543108,
          -0.015802381560206413,
          0.13226599991321564,
          -0.14187292754650116,
          -0.14220966398715973,
          0.039206087589263916
        ],
        [
          0.07118596136569977,
          -0.14398758113384247,
          0.019124634563922882,
          0.10207477957010269,
          -0.09536463022232056,
          -0.12813076376914978,
          -0.08023489266633987,
          0.0207669697701931,
          0.11167684942483902,
          -0.014486920088529587,
          -0.06626183539628983,
          -0.12038406729698181,
          -0.04848723113536835,
          -0.10391635447740555,
          -0.029973259195685387,
          -0.03262597694993019,
          -0.004522268194705248,
          -0.11576154083013535,
          -0.061358533799648285,
          0.11841382086277008,
          -0.1182074099779129,
          -0.031024686992168427,
          -0.10110998153686523,
          -0.14274491369724274,
          0.11534058302640915,
          0.06323316693305969,
          0.038605667650699615,
          0.01801546849310398,
          -0.032325997948646545,
          -0.01250903494656086,
          0.1723954975605011,
          0.10212373733520508
        ],
        [
          -0.07945942878723145,
          0.10407941788434982,
          -0.15054315328598022,
          -0.16480183601379395,
          -0.038035184144973755,
          -0.053469881415367126,
          0.08189169317483902,
          0.06358956545591354,
          0.0713140144944191,
          0.12917347252368927,
          -0.010437021031975746,
          0.13753430545330048,
          -0.11932351440191269,
          0.06486934423446655,
          -0.10268449783325195,
          -0.007988032884895802,
          0.05741645023226738,
          -0.16969893872737885,
          0.07929183542728424,
          0.06543683260679245,
          0.05613274499773979,
          -0.10427456349134445,
          -0.13289189338684082,
          0.030129851773381233,
          0.154334157705307,
          -0.12496301531791687,
          -0.1794218122959137,
          0.1301463544368744,
          -0.16128423810005188,
          -0.16520491242408752,
          0.14204908907413483,
          0.029310734942555428
        ],
        [
          -0.11772470921278,
          -0.1320045441389084,
          -0.09296401590108871,
          -0.08875858038663864,
          -0.04026251658797264,
          0.06923134624958038,
          0.15522152185440063,
          -0.022052055224776268,
          0.013296043500304222,
          -0.02102326974272728,
          0.07321446388959885,
          0.06421282142400742,
          -0.02199760638177395,
          -0.046832915395498276,
          0.05997735261917114,
          0.13688698410987854,
          -0.06314639002084732,
          0.17106333374977112,
          0.07928940653800964,
          0.008933198638260365,
          -0.009995178319513798,
          -0.08967487514019012,
          -0.08890250325202942,
          -0.04739239811897278,
          0.14841340482234955,
          0.036004308611154556,
          0.1257348656654358,
          0.13226208090782166,
          0.1293099820613861,
          0.06031840294599533,
          0.1738753616809845,
          0.13389210402965546
        ],
        [
          0.055760398507118225,
          -0.12803912162780762,
          0.13325507938861847,
          -0.060975708067417145,
          0.032654933631420135,
          -0.14226661622524261,
          0.046006929129362106,
          0.10052946954965591,
          -0.16055762767791748,
          0.046873342245817184,
          0.13858453929424286,
          0.044679559767246246,
          -0.07284896075725555,
          -0.032105717808008194,
          -0.042718879878520966,
          -0.02835765853524208,
          -0.1650436967611313,
          -0.08309494704008102,
          0.01066190842539072,
          0.13815584778785706,
          0.18071964383125305,
          -0.023682603612542152,
          -0.03721906989812851,
          0.0036865584552288055,
          -0.028868842869997025,
          -0.009880529716610909,
          -0.06556995213031769,
          0.09500105679035187,
          0.17391446232795715,
          -0.0893184095621109,
          -0.02451232448220253,
          -0.13049885630607605
        ],
        [
          0.08175685256719589,
          -0.1682240068912506,
          0.0812070220708847,
          -0.094682976603508,
          -0.08596860617399216,
          -0.030906718224287033,
          -0.12634484469890594,
          -0.012303348630666733,
          0.1312554031610489,
          0.0754464790225029,
          0.023799199610948563,
          -0.09191988408565521,
          -0.03962847590446472,
          -0.010263241827487946,
          -0.015003873035311699,
          0.07716301828622818,
          -0.16427567601203918,
          -0.06279807537794113,
          -0.014131754636764526,
          0.07924014329910278,
          -0.05747031420469284,
          -0.07586010545492172,
          -0.13914556801319122,
          0.14299745857715607,
          0.04069405049085617,
          0.07598082721233368,
          0.05220775678753853,
          0.13994935154914856,
          0.16210591793060303,
          -0.13223539292812347,
          0.12456188350915909,
          -0.142258420586586
        ],
        [
          -0.09122850000858307,
          0.11164732277393341,
          -0.03706664219498634,
          -0.03731829300522804,
          0.07952049374580383,
          -0.03843914344906807,
          0.0660836324095726,
          -0.03673505038022995,
          0.09372898936271667,
          0.012490938417613506,
          -0.09936849772930145,
          -0.03783750534057617,
          0.06935601681470871,
          -0.04931913688778877,
          0.11307224631309509,
          0.06539787352085114,
          -0.06596937775611877,
          -0.020578458905220032,
          -0.1593533307313919,
          -0.07368870824575424,
          0.039878398180007935,
          0.02481202967464924,
          0.13860031962394714,
          0.007278675679117441,
          0.11898042261600494,
          0.08654523640871048,
          0.08446496725082397,
          0.06713924556970596,
          0.12703144550323486,
          0.09571098536252975,
          0.054486073553562164,
          -0.17094716429710388
        ],
        [
          -0.1625712513923645,
          0.07352282851934433,
          -0.1670522391796112,
          0.03586573153734207,
          0.04437878727912903,
          -0.11345083266496658,
          0.10361763834953308,
          -0.14153903722763062,
          0.06320902705192566,
          0.1440216600894928,
          0.020784229040145874,
          0.05301044136285782,
          -0.13718503713607788,
          0.14800071716308594,
          0.02641218900680542,
          0.03546009957790375,
          0.15644921362400055,
          -0.192050039768219,
          -0.05784947797656059,
          0.0007442457717843354,
          0.1168551817536354,
          0.14483529329299927,
          -0.06029083952307701,
          -0.02416400797665119,
          -0.014856870286166668,
          0.15764202177524567,
          -0.14582650363445282,
          -0.1606598198413849,
          0.1099298968911171,
          -0.153695747256279,
          -0.06568318605422974,
          0.03546799346804619
        ],
        [
          0.018494518473744392,
          -0.12735918164253235,
          -0.050329841673374176,
          -0.009914949536323547,
          0.056857138872146606,
          -0.13756972551345825,
          0.05234905332326889,
          -0.15234285593032837,
          -0.13222824037075043,
          0.028794681653380394,
          0.06706903874874115,
          0.061089761555194855,
          0.05698560178279877,
          0.030297381803393364,
          -0.045297954231500626,
          -0.14166496694087982,
          -0.043362852185964584,
          -0.14242564141750336,
          0.06308448314666748,
          0.04669110104441643,
          0.08242329955101013,
          -0.07869743555784225,
          0.053928788751363754,
          0.17514856159687042,
          0.15055350959300995,
          -0.1424998939037323,
          -0.01872393675148487,
          0.07307764142751694,
          0.0855567529797554,
          0.03122682124376297,
          -0.0511627122759819,
          -0.11897014826536179
        ],
        [
          0.0026813154108822346,
          0.13315920531749725,
          -0.0012414761586114764,
          0.1538664996623993,
          -0.09587614238262177,
          0.08987254649400711,
          0.1693211793899536,
          -0.0062302774749696255,
          -0.13498489558696747,
          -0.0695003941655159,
          -0.0490143746137619,
          -0.06761879473924637,
          0.1785963475704193,
          0.14183813333511353,
          -0.06594089418649673,
          -0.07322349399328232,
          0.0884411484003067,
          -0.10019953548908234,
          0.15367355942726135,
          -0.13856254518032074,
          -0.05991445481777191,
          0.12989427149295807,
          0.13030624389648438,
          0.0571291409432888,
          0.09675081074237823,
          -0.15395350754261017,
          -0.08403875678777695,
          -0.15738895535469055,
          -0.03079783171415329,
          0.11694616079330444,
          0.08940073102712631,
          0.13692766427993774
        ],
        [
          0.06269421428442001,
          -0.09370838850736618,
          -0.04145081713795662,
          -0.08968798816204071,
          0.1030583307147026,
          0.15683120489120483,
          -0.1581161469221115,
          0.06668194383382797,
          -0.16715838015079498,
          0.06743594259023666,
          0.15587058663368225,
          0.034433379769325256,
          0.041752006858587265,
          0.045295488089323044,
          -0.11642143130302429,
          -0.10221770405769348,
          0.15035629272460938,
          0.05929744988679886,
          0.004081751685589552,
          0.10438396781682968,
          -0.017724571749567986,
          -0.08893534541130066,
          0.16777177155017853,
          -0.06528447568416595,
          0.1424214392900467,
          0.17367997765541077,
          -0.046159930527210236,
          -0.08412402868270874,
          0.06359537690877914,
          -0.1545027643442154,
          -0.14066487550735474,
          0.15352989733219147
        ],
        [
          0.09893312305212021,
          -0.11477164179086685,
          -0.034158166497945786,
          0.0825212225317955,
          -0.09924737364053726,
          -0.04012316092848778,
          0.08373108506202698,
          -0.06964647769927979,
          0.019033202901482582,
          0.032949235290288925,
          -0.08106397837400436,
          -0.06007355824112892,
          -0.014442067593336105,
          0.039029136300086975,
          0.16831636428833008,
          -0.06757379323244095,
          0.15576456487178802,
          0.07101242244243622,
          -0.13731136918067932,
          -0.1563759446144104,
          -0.10767248272895813,
          0.10603472590446472,
          -0.16752222180366516,
          0.01559663936495781,
          -0.007443156559020281,
          -0.16807740926742554,
          -0.09081561863422394,
          0.14543835818767548,
          -0.09589500725269318,
          -0.1692267209291458,
          0.05541232228279114,
          -0.014874260872602463
        ],
        [
          0.023948006331920624,
          0.040983203798532486,
          -0.06728032976388931,
          0.09799731522798538,
          -0.09551479667425156,
          0.1546720713376999,
          0.13202877342700958,
          0.058179013431072235,
          0.022953877225518227,
          -0.15784113109111786,
          0.005378346424549818,
          0.0532589815557003,
          0.15714573860168457,
          -0.11369270831346512,
          -0.06910514086484909,
          0.05395502597093582,
          -0.10698492079973221,
          -0.1056334525346756,
          0.018221262842416763,
          0.07150784134864807,
          0.07050515711307526,
          0.0025193276815116405,
          0.042493268847465515,
          -0.10404333472251892,
          0.1362450122833252,
          -0.08860361576080322,
          -0.06696277111768723,
          0.006256046239286661,
          -0.017630713060498238,
          -0.1334611177444458,
          -0.01983444020152092,
          -0.06638084352016449
        ],
        [
          0.01436586119234562,
          -0.02144582010805607,
          -0.09094095230102539,
          -0.1371414065361023,
          -0.15376871824264526,
          -0.08479588478803635,
          -0.08249825984239578,
          0.1671726256608963,
          0.007873468101024628,
          0.017770444974303246,
          0.04773295670747757,
          0.008656521327793598,
          -0.1384809911251068,
          0.008794109337031841,
          0.10249785333871841,
          0.017326660454273224,
          -0.006113005802035332,
          0.13338463008403778,
          -0.0006500483141280711,
          -0.10994482040405273,
          0.1588628739118576,
          -0.08467885851860046,
          0.13298478722572327,
          -0.10014769434928894,
          -0.07722722738981247,
          -0.17383092641830444,
          -0.07290595769882202,
          0.028278734534978867,
          -0.13927215337753296,
          -0.1453845053911209,
          -0.01600796915590763,
          -0.11295385658740997
        ],
        [
          0.12217193096876144,
          0.09083331376314163,
          -0.0920410081744194,
          0.0958743467926979,
          0.0654124841094017,
          0.01863735169172287,
          -0.1275143027305603,
          0.008879998698830605,
          0.06022586673498154,
          -0.10423259437084198,
          -0.13356047868728638,
          -0.12874360382556915,
          0.0022052263375371695,
          -0.0078596081584692,
          -0.09725458174943924,
          0.04077553376555443,
          -0.10033530741930008,
          0.06427831947803497,
          -0.06628390401601791,
          -0.15963542461395264,
          0.16991683840751648,
          -0.010160223580896854,
          -0.09433447569608688,
          0.1518201231956482,
          0.026692448183894157,
          0.12790203094482422,
          -0.12391245365142822,
          0.003126162337139249,
          0.05058906599879265,
          0.025700872763991356,
          -0.05799955129623413,
          -0.10083356499671936
        ],
        [
          0.0957721471786499,
          -0.14969579875469208,
          0.06743074208498001,
          0.06312484294176102,
          0.1525355726480484,
          -0.14971357583999634,
          -0.13509626686573029,
          -0.1002916768193245,
          -0.08352597802877426,
          0.15985862910747528,
          -0.0869150310754776,
          0.0825100690126419,
          -0.0930793508887291,
          0.04623423144221306,
          -0.02054912969470024,
          -0.04096902161836624,
          0.1420980542898178,
          0.004150079097598791,
          0.040992725640535355,
          -0.14466775953769684,
          0.018637316301465034,
          0.14341995120048523,
          0.023453600704669952,
          0.02676774561405182,
          -0.007641999516636133,
          -0.1356947273015976,
          -0.17123447358608246,
          -0.07783997803926468,
          0.07526599615812302,
          0.12899143993854523,
          0.1341732144355774,
          0.013193652965128422
        ],
        [
          -0.035527028143405914,
          0.09456861019134521,
          -0.08009551465511322,
          -0.14551593363285065,
          0.08832860738039017,
          0.024933593347668648,
          0.111281618475914,
          0.1070895865559578,
          -0.14826153218746185,
          -0.12966039776802063,
          0.0856090858578682,
          0.12453480809926987,
          0.02037513069808483,
          0.08830945938825607,
          -0.08979842811822891,
          -0.08906496316194534,
          -0.07892166823148727,
          -0.01332133449614048,
          0.16754159331321716,
          -0.009932862594723701,
          -0.15060819685459137,
          0.09675237536430359,
          0.15966477990150452,
          0.061348192393779755,
          0.004213074687868357,
          -0.05222484469413757,
          -0.09227842837572098,
          -0.07552697509527206,
          0.018159545958042145,
          0.10911676287651062,
          -0.16088660061359406,
          -0.04673722758889198
        ],
        [
          0.12433210760354996,
          -0.04572617635130882,
          -0.022238250821828842,
          0.04435493052005768,
          0.15988977253437042,
          0.12967613339424133,
          -0.002082743216305971,
          0.13856950402259827,
          -0.009941428899765015,
          0.02305592969059944,
          -0.0037518551107496023,
          -0.017225850373506546,
          -0.054744020104408264,
          -0.09364896267652512,
          0.13315576314926147,
          0.17222747206687927,
          -0.1648925095796585,
          0.14320988953113556,
          0.03740078583359718,
          -0.0010960095096379519,
          -0.1541154533624649,
          0.17296425998210907,
          0.06052964925765991,
          0.04217595234513283,
          -0.15734829008579254,
          0.10170198231935501,
          -0.16877029836177826,
          0.17086078226566315,
          0.05617305263876915,
          -0.15452128648757935,
          -0.14568199217319489,
          -0.16143473982810974
        ],
        [
          0.01565040647983551,
          -0.03253543749451637,
          0.09133719652891159,
          0.00842958316206932,
          -0.1455421894788742,
          -0.03432708606123924,
          0.16430485248565674,
          -0.02948126010596752,
          0.13432268798351288,
          0.15202374756336212,
          -0.164427250623703,
          0.10537596791982651,
          0.06274526566267014,
          0.15987016260623932,
          -0.12311302125453949,
          0.06178953871130943,
          -0.0701717883348465,
          -0.03273732587695122,
          -0.08606616407632828,
          -0.11265743523836136,
          0.06724061071872711,
          0.031249405816197395,
          -0.1123887300491333,
          -0.08598799258470535,
          -0.1455410122871399,
          0.04353155195713043,
          0.014973280020058155,
          0.04713054001331329,
          0.1598721295595169,
          0.08800853788852692,
          0.163870170712471,
          -0.16339947283267975
        ],
        [
          0.1331329047679901,
          -0.16513913869857788,
          0.1253582388162613,
          -0.17256619036197662,
          0.029478106647729874,
          -0.06023241952061653,
          0.16404852271080017,
          0.07812716066837311,
          -0.011067262850701809,
          0.04305529221892357,
          0.12793700397014618,
          0.14766237139701843,
          0.09043864905834198,
          0.15940409898757935,
          -0.15388961136341095,
          -0.06084776297211647,
          -0.059385646134614944,
          0.0980052500963211,
          -0.12755462527275085,
          -0.03287394344806671,
          -0.11582822352647781,
          -0.041794516146183014,
          -0.13525578379631042,
          -0.17943614721298218,
          0.010745971463620663,
          -0.08494861423969269,
          -0.08223417401313782,
          -0.11685355007648468,
          -0.02338956855237484,
          0.15529856085777283,
          -0.07705110311508179,
          -0.15844257175922394
        ],
        [
          0.11517766118049622,
          -0.04913432523608208,
          -0.1503940224647522,
          0.00318728806450963,
          -0.10669386386871338,
          -0.17271791398525238,
          -0.03717426955699921,
          0.07229048013687134,
          0.05166667699813843,
          0.1701313853263855,
          0.1426498144865036,
          -0.12569096684455872,
          0.1032102182507515,
          0.13143926858901978,
          -0.03406977280974388,
          -0.08125414699316025,
          -0.08610811084508896,
          -0.1216849759221077,
          -0.007581367623060942,
          -0.021251719444990158,
          -0.1500435620546341,
          -0.1528601199388504,
          -0.08848028630018234,
          -0.04774991422891617,
          -0.13144026696681976,
          0.028356974944472313,
          -0.11289148032665253,
          0.0847717896103859,
          0.05561405420303345,
          0.10191544145345688,
          -0.08266578614711761,
          -0.013751058839261532
        ],
        [
          0.05986037850379944,
          -0.11674465239048004,
          -0.1062714010477066,
          -0.09032759070396423,
          0.11313790082931519,
          0.12920773029327393,
          0.15875135362148285,
          -0.08993016183376312,
          -0.004870241042226553,
          0.04727618396282196,
          0.050735119730234146,
          0.06751382350921631,
          -0.13789746165275574,
          0.041214484721422195,
          0.025740351527929306,
          0.17940454185009003,
          -0.1080787256360054,
          -0.016783684492111206,
          0.001383292954415083,
          -0.008533631451427937,
          0.1359582394361496,
          0.013553918339312077,
          -0.09412293136119843,
          0.024891216307878494,
          0.033897120505571365,
          -0.16234172880649567,
          0.0005727296229451895,
          0.11433529853820801,
          0.11662280559539795,
          0.06499949097633362,
          -0.11676783114671707,
          -0.11098659038543701
        ],
        [
          0.09022948145866394,
          -0.1627577692270279,
          0.07069750875234604,
          0.074143186211586,
          -0.12686008214950562,
          -0.023369325324892998,
          0.007001828867942095,
          -0.06521434336900711,
          -0.1543239802122116,
          0.10941050946712494,
          -0.06964094936847687,
          -0.14957661926746368,
          -0.027496520429849625,
          -0.042565423995256424,
          0.15385685861110687,
          0.06407339870929718,
          -0.15386484563350677,
          0.1401856243610382,
          0.12271766364574432,
          0.040651869028806686,
          -0.017773231491446495,
          -0.09104980528354645,
          -0.15121491253376007,
          0.1023213267326355,
          0.0716322734951973,
          0.07697881758213043,
          -0.024996470659971237,
          0.10843559354543686,
          0.07578244060277939,
          0.06472138315439224,
          0.014048748649656773,
          0.10673712193965912
        ],
        [
          -0.15045791864395142,
          0.03499512001872063,
          0.007347234524786472,
          -0.11134889721870422,
          -0.04436733201146126,
          -0.1185823604464531,
          0.16185152530670166,
          0.0009040518780238926,
          0.06505449116230011,
          0.08661264926195145,
          -0.09796422719955444,
          -0.07005558907985687,
          -0.05582989379763603,
          -0.13452401757240295,
          0.15347076952457428,
          -0.17389121651649475,
          -0.07539230585098267,
          0.15344053506851196,
          0.12710899114608765,
          0.15125449001789093,
          -0.15651415288448334,
          0.15581195056438446,
          -0.15976688265800476,
          -0.05717206373810768,
          0.11188801378011703,
          0.02712146006524563,
          0.05396873503923416,
          -0.06966539472341537,
          0.0780194103717804,
          0.17216940224170685,
          -0.14745692908763885,
          -0.17194928228855133
        ],
        [
          -0.11512220650911331,
          0.12125003337860107,
          0.08782632648944855,
          -0.02422347106039524,
          -0.11733080446720123,
          -0.13712182641029358,
          0.0928521603345871,
          -0.10291817784309387,
          0.020610792562365532,
          -0.13545264303684235,
          -0.10104137659072876,
          -0.11266026645898819,
          0.09194675832986832,
          -0.13202428817749023,
          -0.15733927488327026,
          0.0032220687717199326,
          -0.12604545056819916,
          0.13960912823677063,
          -0.11273369193077087,
          -0.08699987828731537,
          -0.0405149832367897,
          -0.029993783682584763,
          -0.1535489708185196,
          0.06015442684292793,
          -0.03993026912212372,
          0.05935963988304138,
          -0.13771145045757294,
          0.0025296430103480816,
          0.17084240913391113,
          -0.09532737731933594,
          -0.15309995412826538,
          0.16794095933437347
        ],
        [
          -0.11959142982959747,
          0.04053574800491333,
          -0.09257528185844421,
          -0.04750553518533707,
          -0.14404244720935822,
          0.17854297161102295,
          0.11453434824943542,
          0.13861237466335297,
          -0.1492632031440735,
          0.015344830229878426,
          0.11118024587631226,
          -0.13746783137321472,
          -0.025379206985235214,
          0.12061770260334015,
          0.08952339738607407,
          0.10921043157577515,
          -0.07603710144758224,
          -4.556421117740683e-06,
          -0.005587238818407059,
          0.05910838767886162,
          -0.10160338133573532,
          -0.15780611336231232,
          0.09533872455358505,
          -0.12521205842494965,
          -0.014889487996697426,
          0.10232609510421753,
          0.13602255284786224,
          0.10433811694383621,
          0.12914645671844482,
          -0.14001306891441345,
          0.11379692703485489,
          0.11276432871818542
        ],
        [
          -0.012690688483417034,
          0.06858984380960464,
          0.10864867269992828,
          -0.0018949738005176187,
          -0.1313655823469162,
          0.17988906800746918,
          -0.1002010852098465,
          -0.10383099317550659,
          0.010396594181656837,
          -0.14642420411109924,
          -0.1348402351140976,
          -0.009505358524620533,
          -0.15026922523975372,
          -0.11916922777891159,
          -0.10122118890285492,
          -0.12115810811519623,
          0.14285607635974884,
          0.08845354616641998,
          0.11541180312633514,
          -0.05925748869776726,
          -0.06304936856031418,
          0.02308117225766182,
          0.09351884573698044,
          -0.12139821797609329,
          0.07786492258310318,
          0.1197727769613266,
          -0.06494908034801483,
          0.1463354080915451,
          -0.051681265234947205,
          0.07259470969438553,
          0.047467444092035294,
          -0.12872953712940216
        ],
        [
          0.04540695250034332,
          0.009168960154056549,
          -0.13300608098506927,
          0.10719048976898193,
          0.16356602311134338,
          0.09638024866580963,
          0.10442747175693512,
          -0.03154468908905983,
          0.020665619522333145,
          -0.05255966633558273,
          0.05818343535065651,
          -0.14746931195259094,
          0.03461937978863716,
          -0.12229056656360626,
          0.08613403141498566,
          -0.13303852081298828,
          0.04396335408091545,
          0.022464869543910027,
          0.04986795037984848,
          -0.14923574030399323,
          0.009813360869884491,
          0.15227754414081573,
          -0.12561587989330292,
          -0.11140133440494537,
          0.0911531150341034,
          0.07332862168550491,
          0.019188648089766502,
          0.13171710073947906,
          0.16531173884868622,
          0.08249697089195251,
          -0.05450867861509323,
          0.14002618193626404
        ],
        [
          -0.09554886072874069,
          -0.15057775378227234,
          0.03623679280281067,
          -0.02471018396317959,
          -0.044985465705394745,
          -0.0023925332352519035,
          -0.0004240138514433056,
          0.10262363404035568,
          0.009161892347037792,
          -0.02549940161406994,
          0.06906815618276596,
          -0.055492646992206573,
          -0.12163946032524109,
          0.09639148414134979,
          0.023708555847406387,
          -0.06154203414916992,
          0.0009201935026794672,
          -0.13443954288959503,
          -0.038460057228803635,
          -0.04564129188656807,
          -0.0883607268333435,
          0.03443000838160515,
          0.13584335148334503,
          -0.007633059751242399,
          0.03414274752140045,
          -0.0370822548866272,
          -0.1823982447385788,
          0.14024025201797485,
          0.11009348183870316,
          0.035538896918296814,
          0.15035387873649597,
          -0.10957279801368713
        ],
        [
          -0.10551853477954865,
          0.11590880900621414,
          0.11452843993902206,
          -0.11850498616695404,
          0.0289966631680727,
          -0.08486933261156082,
          0.09097622334957123,
          -0.01094058621674776,
          0.1661699116230011,
          0.06323575973510742,
          -0.06204589456319809,
          -0.07081418484449387,
          0.12772904336452484,
          0.18315519392490387,
          -0.10643353313207626,
          0.011700744740664959,
          -0.09595057368278503,
          0.1554805487394333,
          -0.0777195617556572,
          -0.13474754989147186,
          0.17107445001602173,
          -0.1370980590581894,
          -0.031457360833883286,
          0.13948121666908264,
          0.09124214947223663,
          -0.10303216427564621,
          -0.11914382874965668,
          -0.131084144115448,
          -0.15920737385749817,
          -0.1370624303817749,
          -0.15944832563400269,
          -0.0484100766479969
        ],
        [
          0.12691280245780945,
          0.08063812553882599,
          0.0784921646118164,
          0.10738025605678558,
          0.11676881462335587,
          0.14538531005382538,
          0.1280689388513565,
          0.10160863399505615,
          0.0920107439160347,
          0.16641108691692352,
          0.018487300723791122,
          0.14344069361686707,
          -0.10569468885660172,
          -0.04894814267754555,
          0.00532951857894659,
          -0.1624005138874054,
          0.012096294201910496,
          -0.14721426367759705,
          -0.04218265786767006,
          -0.010888366959989071,
          0.014350161887705326,
          -0.14464706182479858,
          0.12052370607852936,
          -0.1129494458436966,
          0.12485942244529724,
          0.12133196741342545,
          0.03466970473527908,
          -0.08423583954572678,
          0.11117328703403473,
          0.13812360167503357,
          0.08269281685352325,
          -0.08970439434051514
        ],
        [
          0.005986333824694157,
          0.11493267863988876,
          0.08740843087434769,
          0.17258267104625702,
          0.05633477121591568,
          0.10799844563007355,
          -0.1337181031703949,
          -0.04064937308430672,
          0.01806364580988884,
          0.07717685401439667,
          0.14129121601581573,
          -0.12076433002948761,
          0.0007114323670975864,
          0.07911457121372223,
          -0.16808918118476868,
          0.011121584102511406,
          -0.054573286324739456,
          0.04879287630319595,
          0.06445375829935074,
          0.11112193763256073,
          0.05629889667034149,
          0.06705251336097717,
          -0.09334749728441238,
          0.15015707910060883,
          0.08668957650661469,
          -0.10618005692958832,
          -0.046570248901844025,
          0.1369905322790146,
