{
  "version": "1.0",
  "format": "rtneural-json",
  "model_name": "dynamicsengine",
  "input_size": 32,
  "output_size": 16,
  "layers": [
    {
      "type": "dense",
      "name": "fc1",
      "shape": [
        128,
        32
      ],
      "in_features": 32,
      "out_features": 128,
      "weights": [
        [
          0.07880046218633652,
          0.11982946842908859,
          0.04787016659975052,
          -0.019460344687104225,
          0.1620793491601944,
          -0.1382390558719635,
          -0.1398705244064331,
          -0.0391855388879776,
          -0.012638205662369728,
          -0.14633335173130035,
          0.057866256684064865,
          -0.07859165221452713,
          0.08053448051214218,
          0.10912405699491501,
          0.08125928789377213,
          0.09039516001939774,
          -0.06478194147348404,
          -0.1380772441625595,
          0.1188776046037674,
          -0.1576288640499115,
          -0.07937730103731155,
          0.11747847497463226,
          0.16405829787254333,
          0.12962885200977325,
          -0.1331854909658432,
          -0.1361123025417328,
          0.0868116021156311,
          0.007892039604485035,
          0.13355347514152527,
          -0.018645871430635452,
          -0.1575835645198822,
          -0.1557912528514862
        ],
        [
          0.15378178656101227,
          0.11034390330314636,
          0.08523984253406525,
          0.15162386000156403,
          0.0187041237950325,
          0.09911424666643143,
          -0.06907116621732712,
          0.11166795343160629,
          -0.05935287103056908,
          0.16308055818080902,
          0.15391746163368225,
          -0.08160209655761719,
          -0.13677123188972473,
          -0.019442826509475708,
          0.033145464956760406,
          0.013371717184782028,
          0.04940994083881378,
          0.04866151884198189,
          -0.04278548061847687,
          -0.02926323376595974,
          -0.015902981162071228,
          -0.04446854814887047,
          0.026522908359766006,
          0.14241842925548553,
          0.048424795269966125,
          0.055791765451431274,
          -0.05443929508328438,
          0.006288684904575348,
          0.11105030030012131,
          0.009348883293569088,
          -0.14355696737766266,
          -0.07720080018043518
        ],
        [
          -0.17629434168338776,
          -0.113925501704216,
          -0.0913439467549324,
          -0.11168686300516129,
          0.024058038368821144,
          -0.12558841705322266,
          0.011219165287911892,
          0.10513495653867722,
          0.035234272480010986,
          0.12185932695865631,
          0.009842033497989178,
          -0.04264937341213226,
          0.14331945776939392,
          -0.1324731707572937,
          -0.15989738702774048,
          -0.06333914399147034,
          0.08866233378648758,
          0.16466720402240753,
          0.03931403532624245,
          0.08740483969449997,
          0.18890157341957092,
          0.05971119552850723,
          -0.07248859852552414,
          0.1651216447353363,
          0.0006098997546359897,
          -0.067128486931324,
          -0.1423375904560089,
          0.058407556265592575,
          -0.028475936502218246,
          -0.14997920393943787,
          -0.18129949271678925,
          0.012675024569034576
        ],
        [
          0.015560821630060673,
          0.15689773857593536,
          0.16995486617088318,
          0.08099660277366638,
          -0.14951279759407043,
          0.11533059179782867,
          -0.10274629294872284,
          -0.11658770591020584,
          -0.021696384996175766,
          -0.12727190554141998,
          -0.06429339945316315,
          0.002385558793321252,
          -0.1281803697347641,
          -0.08410240709781647,
          0.12068364024162292,
          -0.16731731593608856,
          0.09835170209407806,
          -0.08065683394670486,
          -0.08984320610761642,
          -0.055574413388967514,
          0.15149787068367004,
          0.14203709363937378,
          0.04344427213072777,
          0.06167712062597275,
          -0.11584053933620453,
          -0.05227603018283844,
          0.04325751215219498,
          -0.09175140410661697,
          -0.07034504413604736,
          0.016322018578648567,
          -0.04975567385554314,
          0.05383777245879173
        ],
        [
          -0.02567814290523529,
          -0.0656784325838089,
          -0.10294903814792633,
          -0.06250655651092529,
          0.07746575772762299,
          0.08320135623216629,
          -0.12085669487714767,
          -0.08498594909906387,
          -0.02556956186890602,
          0.17531539499759674,
          0.0175126064568758,
          0.12194880843162537,
          -0.06775929778814316,
          0.17491735517978668,
          -0.10149352997541428,
          -0.13489605486392975,
          0.005720804911106825,
          -0.07560495287179947,
          0.04943772777915001,
          -0.04985983669757843,
          -0.0039238897152245045,
          0.13981854915618896,
          0.021547069773077965,
          0.06550223380327225,
          -0.1325395703315735,
          0.051233965903520584,
          -0.13675451278686523,
          0.12087912857532501,
          0.12166207283735275,
          -0.09053512662649155,
          -0.04733339697122574,
          0.02198053151369095
        ],
        [
          -0.02498956397175789,
          -0.13999904692173004,
          0.03853430971503258,
          -0.15251561999320984,
          0.08238043636083603,
          0.06587649136781693,
          -0.062490519136190414,
          -0.0975358858704567,
          0.05864693224430084,
          -0.14638903737068176,
          0.07609091699123383,
          0.004934899974614382,
          0.1320524513721466,
          0.1744062900543213,
          0.011228850111365318,
          0.07409133017063141,
          -0.1405249834060669,
          0.02041942998766899,
          -0.05961601808667183,
          0.12067832797765732,
          -0.17077618837356567,
          0.11208811402320862,
          0.05514700710773468,
          0.15012367069721222,
          0.17883899807929993,
          0.005808000918477774,
          -0.022735409438610077,
          0.13111795485019684,
          -0.13161782920360565,
          0.02378537878394127,
          -0.08333004266023636,
          0.15577328205108643
        ],
        [
          0.0884503573179245,
          -0.08146633952856064,
          -0.012707097455859184,
          -0.04246309772133827,
          -0.17550544440746307,
          0.05071898177266121,
          -0.164157897233963,
          0.05155834183096886,
          0.10573799163103104,
          0.06850150972604752,
          0.03744995966553688,
          0.10645255446434021,
          -0.015065041370689869,
          0.13548581302165985,
          0.11446241289377213,
          -0.1302054524421692,
          0.04291239008307457,
          0.11975207179784775,
          0.18719281256198883,
          -0.15756449103355408,
          0.05086503177881241,
          -0.09522879123687744,
          -0.11057441681623459,
          -0.12840299308300018,
          0.04246365651488304,
          0.06483954936265945,
          0.049050282686948776,
          -0.15711718797683716,
          -0.19726203382015228,
          -0.0023281641770154238,
          0.1315961331129074,
          -0.03078264184296131
        ],
        [
          0.011885750107467175,
          -0.06403318047523499,
          -0.0829835832118988,
          -0.042226046323776245,
          -0.15077175199985504,
          -0.05719922110438347,
          0.10683787614107132,
          0.16734644770622253,
          -0.08015311509370804,
          0.16561907529830933,
          -0.06545863300561905,
          -0.015342998318374157,
          0.11833872646093369,
          -0.11826963722705841,
          -0.16022150218486786,
          0.15912868082523346,
          -0.0724218413233757,
          -0.08344025164842606,
          0.02542164735496044,
          0.043544914573431015,
          0.12763960659503937,
          -0.03375918045639992,
          0.10009504854679108,
          -0.014484633691608906,
          0.14291580021381378,
          0.1676098257303238,
          0.05461641401052475,
          0.08316095173358917,
          0.0982557088136673,
          -0.013086472637951374,
          -0.02405858226120472,
          0.03484893962740898
        ],
        [
          0.12161055952310562,
          0.09514904767274857,
          -0.012111402116715908,
          0.1551026552915573,
          -0.025662941858172417,
          0.1344250738620758,
          0.011628706008195877,
          -0.01622525043785572,
          -0.016937168315052986,
          -0.04757118225097656,
          0.06229028478264809,
          0.11536698788404465,
          -0.09931202232837677,
          0.09961503744125366,
          0.17686942219734192,
          -0.08045147359371185,
          -0.09745550900697708,
          -0.08859974890947342,
          -0.041183531284332275,
          0.1750645935535431,
          -0.004731351044028997,
          -0.12333613634109497,
          -0.09960612654685974,
          -0.055433742702007294,
          -0.11298555135726929,
          0.1040523573756218,
          0.03287443146109581,
          -0.08641757816076279,
          0.11258705705404282,
          0.07263674587011337,
          0.1587328016757965,
          -0.0895361602306366
        ],
        [
          -0.16229869425296783,
          -0.17250947654247284,
          0.017435429617762566,
          0.16328832507133484,
          -0.014098234474658966,
          -0.04718996584415436,
          0.12952420115470886,
          0.09832445532083511,
          0.07714470475912094,
          -0.007136018015444279,
          -0.07209135591983795,
          -0.1541818380355835,
          0.0951748639345169,
          -0.16449077427387238,
          -0.08894210308790207,
          0.001010419800877571,
          -0.0051405043341219425,
          -0.044853899627923965,
          0.1615993231534958,
          -0.16689205169677734,
          0.1351970136165619,
          0.05392489954829216,
          -0.08457119762897491,
          0.039677418768405914,
          0.05935311317443848,
          -0.013002412393689156,
          0.05344996601343155,
          -0.13363437354564667,
          0.17152653634548187,
          -0.09325983375310898,
          -0.06032973900437355,
          0.04289688915014267
        ],
        [
          -0.00584436347708106,
          0.13567858934402466,
          0.10244715213775635,
          0.1426190882921219,
          0.047359853982925415,
          0.0967765524983406,
          -0.10044249147176743,
          -0.0787704810500145,
          0.13253356516361237,
          0.1544998735189438,
          -0.09161299467086792,
          -0.018308907747268677,
          -0.06959786266088486,
          -0.035767439752817154,
          0.13822610676288605,
          0.005825061351060867,
          0.16459724307060242,
          -0.03791552782058716,
          0.1225869283080101,
          -0.04583338648080826,
          0.07373405992984772,
          -0.14717724919319153,
          -0.15835097432136536,
          0.022287659347057343,
          -0.0026917587965726852,
          0.00953979417681694,
          0.17863453924655914,
          0.09450332820415497,
          -0.07466964423656464,
          0.01303836889564991,
          -0.07972151786088943,
          -0.016162443906068802
        ],
        [
          -0.14347124099731445,
          -0.06584976613521576,
          -0.103460893034935,
          -0.12866556644439697,
          0.07925160974264145,
          0.07102662324905396,
          0.11475343257188797,
          0.10428716987371445,
          -0.03015248104929924,
          -0.13700325787067413,
          0.08425838500261307,
          -0.03023647703230381,
          0.1928994506597519,
          0.02609257586300373,
          0.11422449350357056,
          -0.09841662645339966,
          -0.024390602484345436,
          -0.12920518219470978,
          0.0363302156329155,
          0.054604094475507736,
          -0.035826485604047775,
          0.05765910446643829,
          -0.03907454013824463,
          -0.1039966270327568,
          -0.018886758014559746,
          -0.15041567385196686,
          -0.10958515852689743,
          -0.12886929512023926,
          -0.167420893907547,
          0.04632009193301201,
          -0.16817830502986908,
          0.15760201215744019
        ],
        [
          -0.08803466707468033,
          -0.10484681278467178,
          0.04082639515399933,
          0.02529686689376831,
          0.12296967953443527,
          0.16970597207546234,
          0.03890812397003174,
          -0.010987916961312294,
          0.05445414036512375,
          0.12919391691684723,
          -0.01940947398543358,
          -0.024924898520112038,
          0.11977268010377884,
          0.02217566967010498,
          -0.0526064895093441,
          -0.12374430894851685,
          0.13377685844898224,
          -0.07650776952505112,
          -0.06299512833356857,
          -0.13434234261512756,
          -0.05843537300825119,
          0.10421981662511826,
          0.05165373161435127,
          -0.17741385102272034,
          0.12114782631397247,
          -0.06852792203426361,
          -0.10703860968351364,
          0.020677542313933372,
          0.14065062999725342,
          -0.16570624709129333,
          0.11648799479007721,
          -0.190754234790802
        ],
        [
          -0.12778210639953613,
          -0.06445091217756271,
          -0.10686695575714111,
          0.08722210675477982,
          -0.15644942224025726,
          0.10891968756914139,
          -0.13457585871219635,
          0.1581316739320755,
          -0.051759280264377594,
          -0.14980359375476837,
          -0.12559586763381958,
          -0.13423912227153778,
          -0.17578788101673126,
          -0.008882151916623116,
          0.054798778146505356,
          -0.06525982171297073,
          -0.030713697895407677,
          0.10674367845058441,
          -0.10164358466863632,
          -0.1448773443698883,
          -0.0004896748578175902,
          0.09789867699146271,
          0.06360865384340286,
          0.08398733288049698,
          -0.12374716252088547,
          0.13201823830604553,
          -0.10981936752796173,
          -0.16275398433208466,
          -0.1184433326125145,
          -0.08408419787883759,
          -0.13101078569889069,
          0.08737493306398392
        ],
        [
          0.02642269991338253,
          0.021518409252166748,
          -0.12158496677875519,
          0.12844467163085938,
          -0.09677343815565109,
          -0.012777747586369514,
          0.0874515026807785,
          0.09034738689661026,
          -0.007775045465677977,
          -0.1453317403793335,
          -0.046489305794239044,
          0.010890320874750614,
          0.09334579110145569,
          -0.00663792947307229,
          -0.0997684895992279,
          0.020020918920636177,
          -0.01289896946400404,
          0.09547571837902069,
          -0.0666784793138504,
          -0.1573960781097412,
          0.11427979171276093,
          0.12890887260437012,
          0.015605189837515354,
          -0.03181232884526253,
          -0.12510162591934204,
          0.1303826868534088,
          -0.10418389737606049,
          -0.1804339587688446,
          0.04120282083749771,
          0.1639314442873001,
          -0.1376902461051941,
          0.127750962972641
        ],
        [
          -0.02195262350142002,
          -0.1067613735795021,
          0.09812968224287033,
          0.11788398027420044,
          0.039372652769088745,
          0.14590583741664886,
          0.08205384016036987,
          0.017748095095157623,
          -0.025141237303614616,
          -0.07223978638648987,
          0.13176393508911133,
          0.053064022213220596,
          0.1588849276304245,
          -0.07818100601434708,
          -0.14275795221328735,
          -0.008550071157515049,
          0.15817923843860626,
          0.0601034015417099,
          -0.1259642094373703,
          -0.047284021973609924,
          -0.13202372193336487,
          0.0008392469026148319,
          0.1379069834947586,
          0.10310865938663483,
          -0.05362861603498459,
          0.01608126051723957,
          0.10757564008235931,
          -0.03112538531422615,
          0.12496082484722137,
          -0.037077028304338455,
          0.13113296031951904,
          0.002723792102187872
        ],
        [
          -6.567069794982672e-05,
          -0.15863831341266632,
          0.15673360228538513,
          -0.011113638058304787,
          -0.03918837755918503,
          0.1908729076385498,
          0.012383643537759781,
          0.08616875112056732,
          0.012639493681490421,
          0.16603371500968933,
          0.11352656036615372,
          -0.08208063244819641,
          0.11224351078271866,
          -0.04320715367794037,
          0.11290354281663895,
          0.13962532579898834,
          -0.07347329705953598,
          -0.058422770351171494,
          -0.01034982968121767,
          0.005944001954048872,
          -0.06262689083814621,
          -0.046855028718709946,
          -0.018153704702854156,
          -0.04690443351864815,
          -0.16961388289928436,
          0.08211860060691833,
          -0.030397731810808182,
          0.17243742942810059,
          -0.06606761366128922,
          0.08200613409280777,
          0.08363870531320572,
          -0.15773986279964447
        ],
        [
          -0.1405608206987381,
          -0.15450938045978546,
          0.0787830799818039,
          0.0638430044054985,
          0.11717256903648376,
          -0.011924182064831257,
          -0.036370664834976196,
          -0.011771101504564285,
          0.07219342887401581,
          0.019732285290956497,
          -0.16884374618530273,
          -0.15300722420215607,
          0.11638310551643372,
          0.07521677762269974,
          -0.1508065164089203,
          0.1441129744052887,
          -0.013518153689801693,
          0.076995350420475,
          -0.11240650713443756,
          0.04002736508846283,
          -0.023756029084324837,
          0.14171423017978668,
          -0.09377497434616089,
          -0.08791106194257736,
          0.10422104597091675,
          -0.06292200088500977,
          0.0859808549284935,
          0.06796830892562866,
          0.10393829643726349,
          0.139046773314476,
          0.02196234092116356,
          0.13384698331356049
        ],
        [
          -0.15929928421974182,
          -0.02545328438282013,
          -0.12874169647693634,
          -0.10834671556949615,
          0.1470661461353302,
          -0.10149487853050232,
          0.12356287240982056,
          0.04944123700261116,
          0.04224507138133049,
          0.20030474662780762,
          0.16178950667381287,
          -0.0442262627184391,
          -0.09916839748620987,
          -0.07704206556081772,
          0.009783631190657616,
          -0.07211937010288239,
          -0.10880433022975922,
          -0.14250442385673523,
          -0.09464181959629059,
          0.14488540589809418,
          0.149769127368927,
          0.08892537653446198,
          0.11335287243127823,
          0.12330936640501022,
          0.11354517191648483,
          -0.04926201328635216,
          0.09393777698278427,
          0.043577421456575394,
          -0.08628556877374649,
          -0.12857304513454437,
          0.07738279551267624,
          -0.15160024166107178
        ],
        [
          0.0784057155251503,
          0.028626181185245514,
          0.15168462693691254,
          -0.07397011667490005,
          -0.11549614369869232,
          0.15247052907943726,
          -0.12930987775325775,
          -0.17130836844444275,
          -0.051566097885370255,
          0.14705482125282288,
          -0.023460375145077705,
          0.005808985326439142,
          -0.14622977375984192,
          -0.0373377799987793,
          0.0007893789443187416,
          -0.15477702021598816,
          0.06649067997932434,
          0.11650075018405914,
          0.02848888374865055,
          -0.12942719459533691,
          0.1232248991727829,
          0.18310609459877014,
          0.04862174019217491,
          0.07723584026098251,
          -0.08537260442972183,
          0.1178729310631752,
          -0.10934517532587051,
          -0.023584531620144844,
          0.06702402979135513,
          0.01863381266593933,
          0.11204054206609726,
          0.09277527779340744
        ],
        [
          0.11939884722232819,
          0.060076259076595306,
          0.11096733808517456,
          -0.1044422909617424,
          -0.19255127012729645,
          0.154396191239357,
          0.021062644198536873,
          -0.06850796192884445,
          -0.011767446994781494,
          -0.10357010364532471,
          0.07928625494241714,
          0.014216470532119274,
          0.04954482987523079,
          -0.07398571074008942,
          0.06331872195005417,
          -0.1340443640947342,
          0.06260733306407928,
          -0.0668507069349289,
          -0.09193984419107437,
          -0.025211358442902565,
          0.05398837849497795,
          0.06030051037669182,
          -0.1093524843454361,
          0.06709202378988266,
          -0.020596414804458618,
          -0.026648789644241333,
          -0.10451915860176086,
          0.12531507015228271,
          0.06988094002008438,
          0.17265376448631287,
          -0.01637362688779831,
          -0.0888068750500679
        ],
        [
          -0.0250947717577219,
          -0.06497710198163986,
          -0.12857207655906677,
          0.1464567929506302,
          -0.13698403537273407,
          -0.0040548862889409065,
          0.17821113765239716,
          0.044537223875522614,
          -0.06740725040435791,
          -0.02045082300901413,
          -0.05523549020290375,
          0.056428078562021255,
          -0.017842678353190422,
          0.1159287542104721,
          -0.03011324629187584,
          -0.10110939294099808,
          -0.13906912505626678,
          0.06208551302552223,
          0.0757347121834755,
          -0.07765594124794006,
          0.01149425283074379,
          -0.023299293592572212,
          -0.09545142948627472,
          0.12680914998054504,
          0.09831447899341583,
          0.10210136324167252,
          0.0831792950630188,
          -0.08397538214921951,
          0.09857362508773804,
          -0.0868634581565857,
          -0.1718461811542511,
          0.10186360776424408
        ],
        [
          0.11301056295633316,
          0.04565157741308212,
          -0.038300130516290665,
          0.0974750965833664,
          -0.04770170897245407,
          -0.03435630723834038,
          0.07341230660676956,
          -0.10790814459323883,
          -0.019961733371019363,
          -0.07046868652105331,
          0.16998068988323212,
          -0.08226477354764938,
          0.1387382447719574,
          -0.1404208093881607,
          -0.11197911202907562,
          -0.14093874394893646,
          0.14649751782417297,
          -0.17743206024169922,
          0.14910976588726044,
          -0.06626144796609879,
          0.035511523485183716,
          0.10200376808643341,
          -0.053076956421136856,
          -0.058860477060079575,
          0.01727020926773548,
          -0.002052322030067444,
          -0.08942589908838272,
          0.17768792808055878,
          -0.07816128432750702,
          -0.027155660092830658,
          0.11078355461359024,
          -0.12186908721923828
        ],
        [
          -0.037748001515865326,
          0.03419540822505951,
          0.12334094941616058,
          -0.00046647549606859684,
          0.1367952674627304,
          0.05439649894833565,
          -0.017033159732818604,
          -0.11070530861616135,
          -0.09829486161470413,
          -0.11931359022855759,
          0.06585924327373505,
          0.0604722686111927,
          0.13794547319412231,
          0.03884648531675339,
          0.15644130110740662,
          0.14289839565753937,
          -0.07431468367576599,
          -0.15229396522045135,
          0.16455763578414917,
          0.028601106256246567,
          0.12807002663612366,
          0.03573443368077278,
          0.02315697632730007,
          0.0624052956700325,
          0.06474880129098892,
          0.1461583524942398,
          -0.1315748542547226,
          0.01021510362625122,
          0.13982920348644257,
          0.118205226957798,
          -0.11642980575561523,
          -0.11844856292009354
        ],
        [
          -0.03094853088259697,
          -0.08164998888969421,
          -0.111427903175354,
          0.11811733990907669,
          -0.19665241241455078,
          0.007735458202660084,
          -0.10336345434188843,
          -0.15393571555614471,
          -0.12800589203834534,
          0.19361454248428345,
          0.1291692852973938,
          -0.09873441606760025,
          0.10431771725416183,
          -0.014874961227178574,
          -0.03810849413275719,
          0.13482677936553955,
          -0.1748722493648529,
          0.15695175528526306,
          0.007861325517296791,
          -0.04471886157989502,
          -0.05718826875090599,
          0.059009723365306854,
          0.010219771414995193,
          0.07909401506185532,
          0.15939553081989288,
          -0.046294908970594406,
          0.13299301266670227,
          0.0419841930270195,
          0.07329514622688293,
          0.15771746635437012,
          0.06171020492911339,
          0.15368081629276276
        ],
        [
          0.1482679545879364,
          0.053210388869047165,
          0.04349613934755325,
          0.12746582925319672,
          -0.01232614740729332,
          -0.028790315613150597,
          -0.13070078194141388,
          0.15838545560836792,
          0.12562867999076843,
          -0.04623807221651077,
          0.1541557013988495,
          0.0027994748670607805,
          0.10833130031824112,
          -0.05439338460564613,
          -0.1382150650024414,
          -0.15023410320281982,
          0.12125986069440842,
          0.10877067595720291,
          -0.03902033716440201,
          -0.10250194370746613,
          0.1301957070827484,
          -0.057055581361055374,
          0.16779997944831848,
          -0.16752099990844727,
          0.1610613465309143,
          -0.017609842121601105,
          -0.05357632786035538,
          -0.10716527700424194,
          -0.09485378116369247,
          -0.0900503620505333,
          0.07964084297418594,
          0.11188653856515884
        ],
        [
          -0.1841743141412735,
          0.009451589547097683,
          0.15730348229408264,
          -0.14856351912021637,
          0.0851668119430542,
          0.04706675931811333,
          -0.18882764875888824,
          0.04714196175336838,
          0.11188150197267532,
          -0.1587183177471161,
          0.06797350943088531,
          0.12205000221729279,
          -0.07652301341295242,
          -0.08465903252363205,
          -0.04209866002202034,
          -0.151406392455101,
          -0.007620304357260466,
          -0.1305011808872223,
          -0.04041502997279167,
          -0.06771483272314072,
          0.1734527349472046,
          -0.09817458689212799,
          -0.10664776712656021,
          -0.04355822876095772,
          -0.026813801378011703,
          0.024761583656072617,
          0.1111927181482315,
          -0.1791648268699646,
          0.037200797349214554,
          0.10379266738891602,
          -0.07982981204986572,
          0.16697265207767487
        ],
        [
          -0.1543038934469223,
          -0.033026330173015594,
          0.1415203958749771,
          0.017251569777727127,
          0.10718310624361038,
          -0.11332418769598007,
          -0.1201697587966919,
          0.09127198904752731,
          -0.07187306135892868,
          -0.022734981030225754,
          -0.11412792652845383,
          -0.05054197087883949,
          -0.06211402267217636,
          -0.15971994400024414,
          -0.04895612224936485,
          -0.0013561793603003025,
          0.138713076710701,
          0.0575261190533638,
          0.006651990581303835,
          0.09433867782354355,
          -0.01805596612393856,
          0.14145000278949738,
          0.0022148028947412968,
          0.06248006969690323,
          0.13751809298992157,
          -0.09300048649311066,
          0.09822660684585571,
          -0.1588965505361557,
          -0.07874598354101181,
          0.07095958292484283,
          0.14222733676433563,
          0.08442234992980957
        ],
        [
          -0.06022564321756363,
          0.0916551947593689,
          -0.04139193147420883,
          -0.012966563925147057,
          -0.0831950381398201,
          0.1374272108078003,
          0.0025628232397139072,
          0.00802238192409277,
          -0.0027991270180791616,
          -0.11648175120353699,
          -0.15665028989315033,
          0.11528220027685165,
          0.11789967119693756,
          0.12335186451673508,
          0.004961228463798761,
          0.10410565137863159,
          0.023849420249462128,
          0.05662285163998604,
          0.010673302225768566,
          0.01207864098250866,
          -0.007156271021813154,
          -0.1304769217967987,
          0.12043093889951706,
          -0.14868421852588654,
          0.04462560638785362,
          -0.006771109066903591,
          0.1494126319885254,
          0.11792508512735367,
          -0.07529012113809586,
          -0.042605891823768616,
          0.1442137211561203,
          -0.1154029443860054
        ],
        [
          -0.10204299539327621,
          0.05703315883874893,
          0.07333845645189285,
          -0.11711011081933975,
          -0.02490280382335186,
          0.035854339599609375,
          0.07708963006734848,
          0.08379940688610077,
          0.03308707848191261,
          0.14974400401115417,
          0.11071993410587311,
          0.05305347964167595,
          0.02699868008494377,
          0.005606352351605892,
          0.0795922726392746,
          0.15893016755580902,
          -0.11215896159410477,
          0.019774332642555237,
          -0.12471557408571243,
          0.05155628174543381,
          0.0541963130235672,
          -0.035288043320178986,
          -0.07208742201328278,
          -0.12536092102527618,
          0.0851527601480484,
          -0.12460551410913467,
          -0.15811650454998016,
          -0.09693793207406998,
          0.014339128509163857,
          0.1465337723493576,
          0.1349053680896759,
          -0.15892620384693146
        ],
        [
          0.024410894140601158,
          0.10294905304908752,
          0.02697688154876232,
          0.09738820791244507,
          0.12031944841146469,
          0.03227754682302475,
          -0.0647842288017273,
          -0.10117417573928833,
          -0.12399543821811676,
          -0.04337811470031738,
          0.08831638097763062,
          0.1478084921836853,
          -0.007262771483510733,
          0.06999357789754868,
          0.1313869208097458,
          -0.1619141399860382,
          0.049950823187828064,
          0.004579406231641769,
          -0.14082080125808716,
          -0.07349357008934021,
          0.012438492849469185,
          0.08255618810653687,
          0.12760575115680695,
          -0.1467418372631073,
          0.0696922019124031,
          0.17236971855163574,
          0.0829022005200386,
          0.0739518404006958,
          0.053121134638786316,
          -0.13182201981544495,
          -0.05262679606676102,
          -0.003942899405956268
        ],
        [
          -0.13054506480693817,
          0.1196121871471405,
          -0.09389898926019669,
          -0.0010646770242601633,
          0.05400807410478592,
          -0.07069229334592819,
          0.05729074403643608,
          -0.051954399794340134,
          -0.0726047232747078,
          -0.14322859048843384,
          -0.14554986357688904,
          -0.12213874608278275,
          0.016575738787651062,
          -0.08796526491641998,
          0.16796495020389557,
          -0.05537402257323265,
          -0.053139232099056244,
          -0.13540560007095337,
          -0.09892261773347855,
          -0.0020046946592628956,
          0.027923328801989555,
          -0.14857664704322815,
          -0.15117013454437256,
          -0.10421192646026611,
          -0.0160118006169796,
          -0.14943312108516693,
          0.05128473415970802,
          0.09610223025083542,
          -0.09350267052650452,
          -0.09356130659580231,
          0.04695066064596176,
          0.15930713713169098
        ],
        [
          0.09879893809556961,
          -0.11183993518352509,
          -0.17084990441799164,
          0.030470870435237885,
          -0.11645536124706268,
          0.021942920982837677,
          0.04604194685816765,
          -0.13518016040325165,
          0.057586196810007095,
          -0.06457244604825974,
          0.020044874399900436,
          -0.04237610101699829,
          0.06801018863916397,
          -0.03997505083680153,
          -0.15830451250076294,
          -0.10831411182880402,
          -0.04715517908334732,
          0.006127647124230862,
          -0.07645152509212494,
          -0.15296140313148499,
          -0.04316798970103264,
          -0.13142110407352448,
          0.009068554267287254,
          -0.061224911361932755,
          -0.12089651077985764,
          -0.07437007874250412,
          -0.06543038785457611,
          0.021697653457522392,
          -0.13247081637382507,
          0.06359855085611343,
          -0.18344426155090332,
          0.12808842957019806
        ],
        [
          0.06825843453407288,
          0.009020821191370487,
          -0.06426184624433517,
          0.10357312858104706,
          0.19355803728103638,
          0.06990637630224228,
          0.039611343294382095,
          0.0786704421043396,
          -0.08611328154802322,
          -0.028896231204271317,
          0.004182155709713697,
          0.03167653828859329,
          0.09193581342697144,
          -0.08185505121946335,
          0.08583202958106995,
          0.07977188378572464,
          -0.13759879767894745,
          0.09782236814498901,
          -0.07216982543468475,
          0.005515648517757654,
          0.028829947113990784,
          -0.01732112467288971,
          -0.0237677413970232,
          0.020505590364336967,
          0.07476858049631119,
          0.13368646800518036,
          -0.04279359430074692,
          0.05846194177865982,
          0.055818453431129456,
          0.0075654322281479836,
          -0.11996724456548691,
          0.012796256691217422
        ],
        [
          -0.11398069560527802,
          -0.07192493975162506,
          0.16575361788272858,
          -0.13000759482383728,
          0.021165896207094193,
          -0.14230099320411682,
          -0.10271872580051422,
          0.03142591938376427,
          -0.13039889931678772,
          -0.1556234359741211,
          -0.09672161936759949,
          0.04899752885103226,
          0.04796690493822098,
          -0.15032605826854706,
          0.10342634469270706,
          0.14416593313217163,
          -0.09185686707496643,
          -0.10577057301998138,
          0.09726525843143463,
          -0.14541319012641907,
          -0.006448997184634209,
          0.10047505795955658,
          0.061879996210336685,
          0.05574732646346092,
          -0.14453287422657013,
          0.13318780064582825,
          -0.08063512295484543,
          0.14106547832489014,
          0.004712400957942009,
          0.09056243300437927,
          0.16730202734470367,
          -0.18627262115478516
        ],
        [
          0.05052211880683899,
          -0.11936084926128387,
          -0.002914650598540902,
          0.023308465257287025,
          -0.08474390208721161,
          -0.1688261181116104,
          -0.09354547411203384,
          0.04236049950122833,
          0.06341923028230667,
          -0.06580221652984619,
          0.03489694744348526,
          0.02128414250910282,
          -0.11772854626178741,
          0.04287201166152954,
          0.10282722115516663,
          -0.03533719852566719,
          -0.06175479292869568,
          -0.1955992728471756,
          -0.16736552119255066,
          0.12332575768232346,
          0.08242468535900116,
          -0.0345735065639019,
          -0.09047302603721619,
          -0.012344267219305038,
          -0.10975359380245209,
          0.04259762167930603,
          0.0809629037976265,
          0.05483461916446686,
          0.007346512749791145,
          -0.13718624413013458,
          0.11003915965557098,
          0.040535591542720795
        ],
        [
          0.005799478851258755,
          -0.03046545758843422,
          0.10650032013654709,
          0.08064824342727661,
          -0.05692142993211746,
          -0.07327129691839218,
          -0.09713966399431229,
          -0.061827365309000015,
          0.12480248510837555,
          0.1420774906873703,
          -0.14474248886108398,
          0.17231640219688416,
          -0.05722157657146454,
          -0.0879482552409172,
          -0.1572960466146469,
          -0.16595129668712616,
          -0.019809218123555183,
          -0.09529872983694077,
          0.004542049951851368,
          0.18165262043476105,
          -0.07119904458522797,
          0.1447874903678894,
          0.12031561881303787,
          -0.10812035202980042,
          0.01661873236298561,
          0.16798847913742065,
          0.1505005955696106,
          0.10058794915676117,
          0.13206925988197327,
          -0.12365694344043732,
          0.1416662335395813,
          -0.004507247358560562
        ],
        [
          0.005138212349265814,
          -0.09351219981908798,
          0.12515230476856232,
          0.09362124651670456,
          0.0661720260977745,
          0.004348228219896555,
          0.10971175134181976,
          0.08052016794681549,
          -0.0007528287824243307,
          -0.07045679539442062,
          0.11106576770544052,
          0.1924106627702713,
          -0.17593036592006683,
          0.16126486659049988,
          0.08312523365020752,
          0.13834872841835022,
          0.03885931894183159,
          0.15374797582626343,
          -0.1842370480298996,
          0.02272689715027809,
          -0.060378771275281906,
          0.17658641934394836,
          0.04729706794023514,
          -0.10609866678714752,
          -0.07336869090795517,
          -0.024039212614297867,
          0.10220929980278015,
          0.05477466061711311,
          -0.028794560581445694,
          -0.02762121707201004,
          -0.14053229987621307,
          0.090805284678936
        ],
        [
          0.15555451810359955,
          -0.11766310036182404,
          -0.10451703518629074,
          0.12238258123397827,
          0.08544012904167175,
          -0.09892472624778748,
          0.14943458139896393,
          0.13785149157047272,
          -0.15541769564151764,
          0.08144891262054443,
          0.07394125312566757,
          -0.13431501388549805,
          -0.015611052513122559,
          0.044588975608348846,
          0.11042483896017075,
          -0.16302800178527832,
          0.01979202590882778,
          0.005048071965575218,
          0.1492794156074524,
          0.02225646562874317,
          0.0712098628282547,
          0.08976120501756668,
          0.06835885345935822,
          0.09407949447631836,
          -0.03685874491930008,
          0.032495852559804916,
          -0.08676035702228546,
          -0.04066486284136772,
          0.04544329643249512,
          0.06792300939559937,
          -0.1362437903881073,
          -0.10678967833518982
        ],
        [
          0.11909664422273636,
          -0.0023328454699367285,
          -0.1221533715724945,
          0.032372865825891495,
          0.03890183940529823,
          -0.02624545991420746,
          -0.15162481367588043,
          -0.15912672877311707,
          0.11962461471557617,
          -0.07119590044021606,
          -0.11058472096920013,
          -0.09971743077039719,
          -0.03740904480218887,
          0.12011148780584335,
          -0.03254042565822601,
          -0.025506140664219856,
          -0.07447917014360428,
          -0.07335623353719711,
          -0.08485596626996994,
          -0.01653337851166725,
          -0.0665389820933342,
          0.08809002488851547,
          0.18236765265464783,
          -0.08917591720819473,
          -0.07821101695299149,
          0.16092251241207123,
          0.06455016881227493,
          0.12111899256706238,
          -0.050411324948072433,
          -0.008162141777575016,
          0.010379889979958534,
          0.10087834298610687
        ],
        [
          -0.1732599288225174,
          -0.12546026706695557,
          -0.13718962669372559,
          -0.04003187641501427,
          0.09030961990356445,
          -0.1457621157169342,
          0.1356479674577713,
          -0.1796657145023346,
          0.14889021217823029,
          -0.0577147901058197,
          -0.08873783051967621,
          0.16274766623973846,
          -0.035735346376895905,
          -0.08344347029924393,
          -0.1205693930387497,
          0.10024891793727875,
          -0.11967390030622482,
          0.1105918139219284,
          0.11405164748430252,
          -0.007025771774351597,
          -0.1193067654967308,
          0.05081392824649811,
          0.18605749309062958,
          -0.1399889588356018,
          -0.051828403025865555,
          -0.1454656422138214,
          -0.07311898469924927,
          0.04669243469834328,
          0.03477241098880768,
          -0.17239397764205933,
          -0.12432451546192169,
          0.04103176295757294
        ],
        [
          0.05623417720198631,
          -0.009175276383757591,
          0.12601891160011292,
          -0.012704589404165745,
          0.040829140692949295,
          -0.002695373259484768,
          0.0036317631602287292,
          -0.1504395455121994,
          -0.05580558627843857,
          -0.05943804234266281,
          -0.024109840393066406,
          0.0677151158452034,
          0.14683397114276886,
          -0.05005241557955742,
          -0.15311428904533386,
          0.14797697961330414,
          0.12060093134641647,
          -0.05962855741381645,
          -0.010458795353770256,
          0.07234404236078262,
          0.11160767823457718,
          0.014761499129235744,
          -0.11714814603328705,
          0.14258569478988647,
          -0.11999436467885971,
          -0.159739151597023,
          -0.07318947464227676,
          0.06917202472686768,
          0.09640082716941833,
          0.06009944900870323,
          -0.15769898891448975,
          0.13234618306159973
        ],
        [
          0.16124624013900757,
          0.060312118381261826,
          -0.12460987269878387,
          -0.14518070220947266,
          0.07584454864263535,
          -0.020345497876405716,
          0.004496187437325716,
          0.026348093524575233,
          -0.1747395098209381,
          -0.06167950481176376,
          -0.16840101778507233,
          -0.11222992092370987,
          -0.16272948682308197,
          -0.11662481725215912,
          -0.11060496419668198,
          0.01993294432759285,
          0.1327497363090515,
          -0.08916288614273071,
          -0.13551653921604156,
          -0.05309433862566948,
          -0.025158684700727463,
          -0.031234217807650566,
          -0.14113584160804749,
          -0.02708454057574272,
          -0.011906677857041359,
          0.04937577247619629,
          0.10421118885278702,
          -0.1541680246591568,
          0.011721774004399776,
          -0.026349389925599098,
          -0.020970629528164864,
          -0.038922302424907684
        ],
        [
          -0.059674911201000214,
          0.18942734599113464,
          -0.1666307896375656,
          -0.027076853439211845,
          0.0795251876115799,
          0.026897111907601357,
          0.0393763929605484,
          -0.12494587898254395,
          0.1066090390086174,
          0.06502724438905716,
          0.11134087294340134,
          -0.07768305391073227,
          -0.03864879906177521,
          -0.08241232484579086,
          0.07525144517421722,
          0.06187144294381142,
          -0.14016614854335785,
          0.04479845240712166,
          0.0039899214170873165,
          0.08559315651655197,
          -0.17199428379535675,
          0.03530829772353172,
          -0.08510074019432068,
          0.10195616632699966,
          -0.007622143719345331,
          0.1368865817785263,
          0.08781804144382477,
          0.020707346498966217,
          0.04592728987336159,
          0.07706981152296066,
          0.1149011105298996,
          -0.176204115152359
        ],
        [
          0.12780283391475677,
          -0.01357947662472725,
          -0.16625455021858215,
          -0.09679091721773148,
          -0.18099214136600494,
          0.06355348974466324,
          -0.005979311186820269,
          0.0072624534368515015,
          0.09219858050346375,
          0.07635651528835297,
          -0.14301662147045135,
          0.03874628618359566,
          -0.07260012626647949,
          0.1570698469877243,
          -0.03312109410762787,
          -0.15506374835968018,
          0.1502806395292282,
          0.10556678473949432,
          0.02049822360277176,
          0.15068887174129486,
          -0.053532395511865616,
          0.005607642233371735,
          0.16714388132095337,
          0.030223876237869263,
          0.20615577697753906,
          -0.18086138367652893,
          -0.17486928403377533,
          -0.06172694265842438,
          -0.14980950951576233,
          -0.06066646799445152,
          -0.09733591973781586,
          -0.060949306935071945
        ],
        [
          -0.19185274839401245,
          -0.1250533014535904,
          0.13817402720451355,
          0.15495634078979492,
          0.03283978998661041,
          -0.07664741575717926,
          -0.06457933783531189,
          -0.13037201762199402,
          -0.06424508988857269,
          -0.11319081485271454,
          0.05427990108728409,
          -0.02641942724585533,
          -0.07588845491409302,
          0.1189936101436615,
          -0.046481288969516754,
          0.06736745685338974,
          -0.03999938815832138,
          -0.10869588702917099,
          -0.05862317979335785,
          0.07246500998735428,
          0.060268331319093704,
          -0.08152567595243454,
          -0.020909717306494713,
          -0.1699719876050949,
          -0.1522844284772873,
          0.09325645864009857,
          -0.125107541680336,
          -0.17150284349918365,
          0.025497568771243095,
          0.15162740647792816,
          -0.15973380208015442,
          -0.03853210061788559
        ],
        [
          -0.009419442154467106,
          0.03898303583264351,
          -0.061652474105358124,
          -0.08039259910583496,
          -0.0057667819783091545,
          -0.03150331228971481,
          -0.000795201282016933,
          0.07755715399980545,
          0.15391768515110016,
          0.04877883195877075,
          0.12931713461875916,
          0.08818142116069794,
          -0.06954284757375717,
          0.09482753276824951,
          -0.13504092395305634,
          -0.12230570614337921,
          0.1362333595752716,
          0.12265821546316147,
          0.02436687983572483,
          -0.14102987945079803,
          0.12896783649921417,
          0.01934107579290867,
          -0.06785279512405396,
          -0.08705491572618484,
          0.17284412682056427,
          -0.10823691636323929,
          -0.038667161017656326,
          0.11931487917900085,
          -0.0315682478249073,
          0.05718429386615753,
          -0.08954493701457977,
          0.16676373779773712
        ],
        [
          0.10318055748939514,
          0.17836406826972961,
          0.08741029351949692,
          0.11504928767681122,
          0.062256064265966415,
          0.11001171171665192,
          -0.13744010031223297,
          0.12875501811504364,
          -0.05365093797445297,
          -0.09093306958675385,
          0.15739499032497406,
          -0.15896865725517273,
          -0.09880804270505905,
          -0.008331957273185253,
          0.07122989743947983,
          0.08646298944950104,
          0.1772761195898056,
          0.05777385085821152,
          0.1169360876083374,
          -0.03750064969062805,
          0.19071198999881744,
          -0.02070458047091961,
          -0.06719525903463364,
          -0.10901803523302078,
          -0.15298521518707275,
          0.16483834385871887,
          -0.01819998025894165,
          0.1277955174446106,
          -0.09927565604448318,
          0.07430832087993622,
          0.05085393041372299,
          0.13985800743103027
        ],
        [
          0.0036921922583132982,
          -0.1675318330526352,
          0.03280314803123474,
          -0.12386814504861832,
          -0.03594980016350746,
          0.13885104656219482,
          0.17976531386375427,
          0.1605779379606247,
          0.1579064428806305,
          0.0038051912561059,
          0.15051710605621338,
          0.17470000684261322,
          0.1648571491241455,
          -0.04781575873494148,
          0.08449706435203552,
          -0.10278923809528351,
          0.0718136727809906,
          -0.0406007282435894,
          -0.0978928729891777,
          0.029444217681884766,
          0.1479324847459793,
          -0.031185729429125786,
          -0.1349189281463623,
          0.14452849328517914,
          0.1637592315673828,
          0.0384199358522892,
          -0.09104008972644806,
          -0.12398528307676315,
          0.09755732119083405,
          0.0754837840795517,
          -0.048617102205753326,
          0.11195147782564163
        ],
        [
          0.15121449530124664,
          0.02459178864955902,
          -0.05837465822696686,
          -0.17730620503425598,
          -0.12989647686481476,
          0.14469419419765472,
          -0.0344422273337841,
          -0.12448441237211227,
          -0.036372698843479156,
          -0.13792730867862701,
          -0.058470312505960464,
          0.0662403404712677,
          0.15426598489284515,
          0.13105984032154083,
          -0.07526799291372299,
          -0.14670537412166595,
          0.09790007770061493,
          -0.03767570108175278,
          -0.1429702192544937,
          -0.007149712648242712,
          -0.009230837225914001,
          0.09817788004875183,
          -0.029391465708613396,
          -0.08748535811901093,
          -0.0896146222949028,
          0.01888582669198513,
          -0.09603956341743469,
          0.06839228421449661,
          -0.023678947240114212,
          0.08353127539157867,
          0.07872998714447021,
          -0.16574698686599731
        ],
        [
          -0.0415940098464489,
          0.09505974501371384,
          0.1738140881061554,
          -0.04454154521226883,
          0.0319024883210659,
          -0.1049615740776062,
          0.1516670137643814,
          0.12899790704250336,
          -0.07516573369503021,
          0.13485537469387054,
          0.17957602441310883,
          -0.13761630654335022,
          -0.03585447743535042,
          0.036798831075429916,
          -0.03887234255671501,
          -0.10218483209609985,
          -0.15586616098880768,
          0.01103245373815298,
          0.1098552942276001,
          -0.1779390424489975,
          0.07111221551895142,
          0.13577793538570404,
          0.04643942788243294,
          -0.010673156008124352,
          0.06457054615020752,
          0.12050111591815948,
          0.08377549797296524,
          -0.11140290647745132,
          -0.12290465086698532,
          0.06412594765424728,
          0.048251423984766006,
          -0.058457281440496445
        ],
        [
          0.02137695625424385,
          -0.06546564400196075,
          0.0782952606678009,
          0.01744728535413742,
          -0.09057772159576416,
          -0.13764911890029907,
          0.15327836573123932,
          0.11095041036605835,
          -0.08778554201126099,
          0.04586131498217583,
          0.04211663082242012,
          -0.131056547164917,
          0.16364657878875732,
          0.09332713484764099,
          -0.0976390466094017,
          0.1322283148765564,
          -0.08383158594369888,
          0.13783124089241028,
          -0.1658097356557846,
          -0.06739799678325653,
          0.10464448481798172,
          -0.08028620481491089,
          -0.10284754633903503,
          0.04309530556201935,
          0.08780091255903244,
          0.1406838744878769,
          -0.08198781311511993,
          -0.1058882474899292,
          -0.1221921518445015,
          -0.08448882400989532,
          0.10454212129116058,
          -0.09957069158554077
        ],
        [
          0.07945766299962997,
          -0.04497076943516731,
          -0.1262386590242386,
          0.008252259343862534,
          -0.08837708085775375,
          -0.08376647531986237,
          -0.14408423006534576,
          0.0724867433309555,
          -0.12596625089645386,
          -0.08642704039812088,
          0.01102644857019186,
          0.03552761673927307,
          0.12081439048051834,
          0.01478030439466238,
          -0.08362357318401337,
          -0.13819794356822968,
          0.023146074265241623,
          -0.1569184958934784,
          0.0931209847331047,
          0.15249690413475037,
          0.04167431220412254,
          -0.11055911332368851,
          -0.08005454391241074,
          -0.05445355921983719,
          -0.005112258717417717,
          -0.12754730880260468,
          0.0675610899925232,
          -0.12371006608009338,
          0.052380017936229706,
          -0.03179981932044029,
          0.07427355647087097,
          -0.14061926305294037
        ],
        [
          0.10984895378351212,
          -0.10393060743808746,
          0.1755593717098236,
          0.11387185752391815,
          0.07268694043159485,
          0.010266274213790894,
          0.032128192484378815,
          -0.1425224095582962,
          0.0382535494863987,
          0.13474836945533752,
          0.021738486364483833,
          0.022211818024516106,
          -0.1411087065935135,
          0.17062921822071075,
          -0.19040830433368683,
          0.07253914326429367,
          0.011743908748030663,
          0.10281677544116974,
          -0.13062354922294617,
          0.0853041484951973,
          0.020260784775018692,
          0.012777389027178288,
          0.1296452283859253,
          0.12814189493656158,
          -0.002584885573014617,
          0.006718693766742945,
          -0.10402026772499084,
          -0.0974719449877739,
          0.12400656938552856,
          0.11843220144510269,
          -0.026691878214478493,
          -0.01990143395960331
        ],
        [
          0.12888185679912567,
          0.171470507979393,
          0.10844273865222931,
          0.030633892863988876,
          0.06835541129112244,
          -0.039630226790905,
          -0.06676601618528366,
          -0.13701260089874268,
          0.165702223777771,
          -0.10515794157981873,
          -0.05118345096707344,
          0.11097699403762817,
          0.09536116570234299,
          -0.020301928743720055,
          -0.1522763967514038,
          0.13403330743312836,
          0.034737348556518555,
          -0.04457596689462662,
          -0.0507793091237545,
          -0.0088926050812006,
          0.15542583167552948,
          -0.08857876807451248,
          -0.008046836592257023,
          -0.029555346816778183,
          0.17125767469406128,
          0.06394084542989731,
          0.11758125573396683,
          -0.08390282094478607,
          0.13209901750087738,
          -0.11568979173898697,
          -0.16480572521686554,
          0.018498355522751808
        ],
        [
          0.08090069890022278,
          0.15800771117210388,
          -0.08204817026853561,
          0.14225555956363678,
          -0.007819144986569881,
          -0.08372607082128525,
          -0.005083302967250347,
          -0.0959322452545166,
          -0.12054562568664551,
          -0.04035022109746933,
          -0.01348708476871252,
          -0.10453859716653824,
          -0.16971725225448608,
          -0.1320136934518814,
          -0.06313930451869965,
          0.15686160326004028,
          0.021050021052360535,
          0.1660877764225006,
          -0.06616508215665817,
          -0.034079473465681076,
          0.1293553113937378,
          -0.03774706646800041,
          -0.07300570607185364,
          0.14461097121238708,
          -0.16764335334300995,
          0.16829176247119904,
          -0.03610582649707794,
          -0.06091728061437607,
          0.06857867538928986,
          -0.08688637614250183,
          0.06473642587661743,
          0.08982224017381668
        ],
        [
          0.07070863991975784,
          0.1196514442563057,
          0.031793948262929916,
          -0.07273607701063156,
          -0.10159201920032501,
          0.0017069857567548752,
          0.016139358282089233,
          0.10362952947616577,
          -0.16344894468784332,
          0.11751080304384232,
          -0.15025202929973602,
          0.1277700960636139,
          0.11088234186172485,
          -0.10182783752679825,
          -0.0825524628162384,
          0.013905269093811512,
          0.06558860838413239,
          -0.012034551240503788,
          0.11108534783124924,
          -0.03160218521952629,
          0.012803710997104645,
          0.18689695000648499,
          0.049314141273498535,
          0.048331789672374725,
          -0.06809747964143753,
          0.026905683800578117,
          0.0992925614118576,
          -0.060885533690452576,
          -0.04609694704413414,
          -0.10392370074987411,
          0.048631828278303146,
          0.16093534231185913
        ],
        [
          0.06100049242377281,
          -0.12997236847877502,
          -0.044122859835624695,
          0.060781728476285934,
          0.036103732883930206,
          -0.13551555573940277,
          -0.09309402108192444,
          0.15529240667819977,
          -0.11674299091100693,
          -0.006525405216962099,
          0.14569784700870514,
          -0.002776837907731533,
          0.09470739960670471,
          -0.021925417706370354,
          0.06269384175539017,
          -0.15568684041500092,
          -0.06316237151622772,
          0.10749944299459457,
          0.08369627594947815,
          -0.023194747045636177,
          -0.0616009496152401,
          -0.014100815169513226,
          -0.027267973870038986,
          -0.028682149946689606,
          -0.0018856714013963938,
          0.06889615952968597,
          0.04808138310909271,
          -0.019592387601733208,
          0.09425510466098785,
          0.08120305836200714,
          0.041260845959186554,
          -0.0711989477276802
        ],
        [
          -0.03509984537959099,
          -0.11269555240869522,
          0.14985646307468414,
          -0.15197820961475372,
          0.17266668379306793,
          -0.0153433782979846,
          0.07070741057395935,
          0.15365305542945862,
          0.053028084337711334,
          -0.016719013452529907,
          -0.0996311604976654,
          -0.1505005955696106,
          0.06006685271859169,
          -0.13395561277866364,
          -0.11927071958780289,
          -0.06915538758039474,
          0.15288813412189484,
          0.15815646946430206,
          0.016929205507040024,
          -0.006050376687198877,
          0.18196643888950348,
          -0.04220321774482727,
          0.11271079629659653,
          -0.030405744910240173,
          0.011261657811701298,
          -0.15241855382919312,
          -0.10112672299146652,
          0.08983293175697327,
          -0.08104920387268066,
          -0.12542147934436798,
          0.02233281172811985,
          0.055595479905605316
        ],
        [
          -0.02551434189081192,
          -0.002832778263837099,
          -0.16648723185062408,
          0.1603124588727951,
          0.0826588124036789,
          -0.12391400337219238,
          -0.14149358868598938,
          0.13585413992404938,
          -0.011711365543305874,
          0.09908254444599152,
          0.013504421338438988,
          0.1582750827074051,
          0.06882232427597046,
          0.020619723945856094,
          -0.005860663950443268,
          0.01267672423273325,
          -0.10013071447610855,
          0.16503416001796722,
          0.06719853729009628,
          -0.1245959997177124,
          0.015376631170511246,
          0.041089024394750595,
          0.11852321028709412,
          0.1732518970966339,
          -0.06034703180193901,
          -0.08156146109104156,
          0.11223838478326797,
          -0.02370643988251686,
          -0.15322758257389069,
          -0.09529493004083633,
          -0.0987594798207283,
          0.039999980479478836
        ],
        [
          0.11521383374929428,
          0.14093178510665894,
          0.018794100731611252,
          0.0033663709182292223,
          0.010358341969549656,
          -0.08290023356676102,
          -0.05590326711535454,
          -0.07975996285676956,
          0.13078276813030243,
          0.0024885202292352915,
          0.14226001501083374,
          -0.12872663140296936,
          0.13098907470703125,
          -0.0007415731088258326,
          -0.10735413432121277,
          -0.06353376805782318,
          -0.14276577532291412,
          -0.1763773113489151,
          -0.10865945369005203,
          -0.10840483009815216,
          0.14645875990390778,
          -0.09664762020111084,
          -0.09327823668718338,
          0.11123212426900864,
          -0.11506831645965576,
          0.11195345968008041,
          -0.08624561876058578,
          -0.13807347416877747,
          0.03261483460664749,
          0.058773696422576904,
          -0.14047880470752716,
          -0.14390751719474792
        ],
        [
          -0.18509000539779663,
          0.094486765563488,
          -0.05555400997400284,
          0.14067880809307098,
          0.08513635396957397,
          -0.19938023388385773,
          0.048775024712085724,
          0.0012652870500460267,
          0.1258092224597931,
          -0.04106650874018669,
          0.16343338787555695,
          0.012920539826154709,
          0.13444629311561584,
          0.12682746350765228,
          -0.07450494915246964,
          0.06286478787660599,
          -0.1229763925075531,
          0.06598368287086487,
          -0.09696748107671738,
          -0.042771439999341965,
          -0.10316421091556549,
          0.011278857477009296,
          0.02566038817167282,
          0.02569805644452572,
          0.04919987544417381,
          -0.09524151682853699,
          0.01658662036061287,
          0.013449262827634811,
          -0.10196258127689362,
          -0.06871811300516129,
          -0.07976895570755005,
          -0.03804200515151024
        ],
        [
          0.12614557147026062,
          0.042157985270023346,
          -0.039896152913570404,
          -0.16841666400432587,
          -0.06199668347835541,
          -0.158915713429451,
          0.02796955220401287,
          0.08751896023750305,
          -0.12358557432889938,
          0.11437928676605225,
          -0.033146586269140244,
          0.16605538129806519,
          -0.07686202228069305,
          0.06206823140382767,
          0.13112418353557587,
          -0.10456696152687073,
          0.1597137600183487,
          0.1569942981004715,
          -0.14436586201190948,
          0.05190782994031906,
          0.09392792731523514,
          -0.09763702005147934,
          -0.05733055621385574,
          -0.08261245489120483,
          -0.02862745150923729,
          -0.03763711079955101,
          0.04470547288656235,
          -0.1338389366865158,
          -0.061133094131946564,
          0.0814671590924263,
          -0.022491203621029854,
          -0.05723894387483597
        ],
        [
          -0.17139510810375214,
          0.05202364921569824,
          0.023020096123218536,
          -0.037841372191905975,
          -0.1383180022239685,
          -0.04218682646751404,
          -0.04029395058751106,
          0.029221853241324425,
          -0.13135795295238495,
          0.0017696936847642064,
          0.08544094115495682,
          -0.09417558461427689,
          0.06824211031198502,
          -0.04330048710107803,
          -0.11220087110996246,
          0.14257144927978516,
          0.1623625010251999,
          0.002331933006644249,
          0.15472158789634705,
          -0.16101057827472687,
          0.08826938271522522,
          -0.15762348473072052,
          0.028280118480324745,
          0.15011581778526306,
          0.06607711315155029,
          0.06579098850488663,
          0.07496633380651474,
          -0.0032475392799824476,
          0.0944577306509018,
          0.12252867221832275,
          0.14603883028030396,
          0.03395678102970123
        ],
        [
          -0.08764911442995071,
          -0.14369525015354156,
          -0.12636801600456238,
          -0.13505688309669495,
          0.05806645005941391,
          0.12556608021259308,
          0.16318179666996002,
          0.016560908406972885,
          0.1380734145641327,
          0.03159241005778313,
          0.04984763637185097,
          -0.13238494098186493,
          0.13275153934955597,
          -0.08120815455913544,
          -0.07905139029026031,
          0.029410598799586296,
          -0.1569148302078247,
          -0.10532011836767197,
          -0.035876352339982986,
          -0.021662039682269096,
          0.019414037466049194,
          0.04768701642751694,
          0.026309967041015625,
          0.1386742889881134,
          0.15637162327766418,
          0.11948886513710022,
          -0.13349616527557373,
          0.015445373952388763,
          0.10770224779844284,
          -0.1439283788204193,
          -0.08602266013622284,
          -0.09600728750228882
        ],
        [
          0.1008283719420433,
          -0.16694842278957367,
          0.0367768332362175,
          -0.11852854490280151,
          0.029795004054903984,
          -0.1031564474105835,
          -0.03889017924666405,
          -0.01138498354703188,
          0.16934658586978912,
          0.12735526263713837,
          0.11410918831825256,
          0.07382941246032715,
          0.052692171186208725,
          -0.013670012354850769,
          -0.056064918637275696,
          0.06941020488739014,
          -0.008916126564145088,
          0.10681668668985367,
          -0.1301138550043106,
          0.034098438918590546,
          0.14856821298599243,
          0.16435208916664124,
          -0.08125922828912735,
          0.15504659712314606,
          0.05158659443259239,
          0.00036598375299945474,
          -0.14206373691558838,
          0.006813518237322569,
          0.16222384572029114,
          0.15891800820827484,
          -0.08425482362508774,
          0.0719372108578682
        ],
        [
          0.1612044870853424,
          0.14905945956707,
          0.1261758655309677,
          -0.12359034270048141,
          0.028804810717701912,
          -0.09540349245071411,
          0.04265496879816055,
          0.15032832324504852,
          0.1126735508441925,
          0.1721368134021759,
          -0.03847247362136841,
          0.08938008546829224,
          0.16736160218715668,
          0.08764061331748962,
          0.051038775593042374,
          0.07182463258504868,
          0.07349872589111328,
          -0.07705933600664139,
          -0.06288526207208633,
          -0.18061047792434692,
          -0.12015462666749954,
          0.045262519270181656,
          -0.1657284051179886,
          -0.14099395275115967,
          0.11597470939159393,
          0.14071078598499298,
          0.12972763180732727,
          -0.11804117262363434,
          0.10072058439254761,
          -0.024488329887390137,
          -0.13781164586544037,
          -0.13357628881931305
        ],
        [
          -0.10320574790239334,
          -0.09275506436824799,
          -0.13302262127399445,
          0.1430366188287735,
          0.10643721371889114,
          0.17109358310699463,
          0.0031649041920900345,
          0.024729106575250626,
          -0.0796169564127922,
          -0.010502273216843605,
          -0.1247713714838028,
          0.07429420202970505,
          0.029597127810120583,
          0.08108706772327423,
          -0.06457463651895523,
          -0.015551730059087276,
          0.055129241198301315,
          0.172714501619339,
          -0.10848013311624527,
          0.10230559855699539,
          0.11591951549053192,
          -0.058948908001184464,
          -0.15608416497707367,
          0.036297980695962906,
          0.02637225016951561,
          0.16430875658988953,
          -0.14765621721744537,
          0.11609205603599548,
          0.08947455137968063,
          0.1363377422094345,
          -0.0056968689896166325,
          -0.15747025609016418
        ],
        [
          -0.13682585954666138,
          0.032199982553720474,
          -0.09570278972387314,
          -0.15175758302211761,
          -0.1146472841501236,
          -0.15533725917339325,
          -0.029038451611995697,
          0.07941371202468872,
          0.17099180817604065,
          -0.00942988507449627,
          0.16446396708488464,
          0.15095889568328857,
          -0.043781884014606476,
          -0.12267770618200302,
          0.17652980983257294,
          -0.08097482472658157,
          0.05027149245142937,
          0.11108515411615372,
          -0.1262454390525818,
          -0.10046001523733139,
          0.00889824703335762,
          -0.0870458260178566,
          -0.0837852880358696,
          -0.10591743141412735,
          0.13373792171478271,
          0.15071478486061096,
          0.12771537899971008,
          -0.10968136042356491,
          0.07952778041362762,
          -0.01663343422114849,
          -0.08908398449420929,
          -0.10029066354036331
        ],
        [
          -0.10970490425825119,
          0.06387227028608322,
          -0.01837664470076561,
          -0.12615688145160675,
          -0.1344875693321228,
          -0.1047978401184082,
          0.055599719285964966,
          0.1823454648256302,
          0.038708873093128204,
          -0.1434323936700821,
          -0.04463496059179306,
          -0.011238289065659046,
          -0.021607594564557076,
          0.0027439058758318424,
          0.023500405251979828,
          0.007295459974557161,
          0.012326390482485294,
          -0.02795565314590931,
          0.13518349826335907,
          0.15168496966362,
          -0.0867624506354332,
          0.10368023067712784,
          -0.04743369296193123,
          -0.1553840935230255,
          -0.0045804535038769245,
          0.025127021595835686,
          -0.04659527540206909,
          -0.14051397144794464,
          0.11671127378940582,
          -0.1739615648984909,
          -0.16069352626800537,
          0.08111510425806046
        ],
        [
          -0.02756384015083313,
          -0.046664655208587646,
          -0.08189234882593155,
          -0.057187411934137344,
          -0.16392536461353302,
          -0.008737637661397457,
          0.1642088145017624,
          0.09554287791252136,
          -0.02372753620147705,
          -0.08630909025669098,
          -0.09590332955121994,
          0.10461676120758057,
          -0.09005215018987656,
          -0.1539098173379898,
          0.15494582056999207,
          -0.011051091365516186,
          0.1290205717086792,
          0.13343515992164612,
          -0.16837801039218903,
          0.09422830492258072,
          -0.1112917885184288,
          -0.15150102972984314,
          0.06884290277957916,
          0.08097272366285324,
          0.119076669216156,
          -0.04725433140993118,
          -0.044594038277864456,
          -0.013343372382223606,
          0.13014256954193115,
          0.11056335270404816,
          0.06729807704687119,
          0.08156414330005646
        ],
        [
          0.09526382386684418,
          -0.07920486479997635,
          -0.1673346906900406,
          -0.06492713838815689,
          -0.033209819346666336,
          -0.13587579131126404,
          0.023134412243962288,
          -0.18817578256130219,
          -0.1303810030221939,
          -0.16627301275730133,
          -0.07414558529853821,
          0.04523290693759918,
          0.07230221480131149,
          0.020624183118343353,
          0.13975128531455994,
          -0.09871307015419006,
          0.08470932394266129,
          0.12206443399190903,
          0.04467354342341423,
          0.10240799933671951,
          0.13431940972805023,
          0.06827868521213531,
          -0.12332441657781601,
          -0.06938938051462173,
          -0.0006605274393223226,
          -0.07065414637327194,
          -0.0676204264163971,
          0.08593038469552994,
          0.00816439650952816,
          -0.08127796649932861,
          -0.04388367012143135,
          0.03487767279148102
        ],
        [
          0.13833925127983093,
          0.17094016075134277,
          -0.01593577116727829,
          0.10476706176996231,
          -0.1384269744157791,
          0.056479595601558685,
          0.025307321920990944,
          0.12223557382822037,
          0.15916937589645386,
          0.006792721338570118,
          -0.05631672218441963,
          0.1053086444735527,
          0.035760387778282166,
          -0.13572753965854645,
          -0.046468645334243774,
          -0.14284256100654602,
          -0.01564444601535797,
          0.011793798767030239,
          0.09759104251861572,
          0.11669880896806717,
          -0.13561241328716278,
          0.14815396070480347,
          0.001992203760892153,
          -0.07953859865665436,
          -0.035075947642326355,
          0.05459379777312279,
          0.009715862572193146,
          -0.1103292778134346,
          -0.10793673247098923,
          0.13803035020828247,
          -0.09417031705379486,
          -0.1314031481742859
        ],
        [
          0.04916363209486008,
          0.13271702826023102,
          -0.15615704655647278,
          -0.08585259318351746,
          0.035223010927438736,
          -0.1024242490530014,
          0.04495972767472267,
          0.00836801715195179,
          0.13309277594089508,
          0.16578246653079987,
          0.08160464465618134,
          -0.11357028037309647,
          -0.04763701930642128,
          -0.14405353367328644,
          0.0302753746509552,
          -0.04752995818853378,
          0.027013814076781273,
          0.05541372299194336,
          0.05541618540883064,
          0.005629850085824728,
          0.1675342470407486,
          -0.11223046481609344,
          0.11649257689714432,
          -0.13670842349529266,
          -0.01752610132098198,
          -0.053716547787189484,
          0.039704639464616776,
          0.0014683973276987672,
          0.08492282778024673,
          0.029841020703315735,
          -0.1258848011493683,
          -0.024805203080177307
        ],
        [
          0.08118168264627457,
          0.15379993617534637,
          -0.10214920341968536,
          -0.04891530051827431,
          -0.03925778344273567,
          -0.002296918537467718,
          -0.13288767635822296,
          -0.11334821581840515,
          -0.13835370540618896,
          -0.1466236412525177,
          -0.011418147943913937,
          0.11418818682432175,
          -0.16029629111289978,
          0.07733162492513657,
          -0.06729983538389206,
          -0.0684477761387825,
          -0.025768017396330833,
          -0.0747259184718132,
          0.008632641285657883,
          -0.12904173135757446,
          0.0958247184753418,
          -0.15084175765514374,
          -0.1334305703639984,
          -0.03140611946582794,
          -0.15195803344249725,
          -0.17469564080238342,
          -0.13630621135234833,
          0.11509483307600021,
          -0.09049253165721893,
          -0.030114633962512016,
          0.015630142763257027,
          0.031588852405548096
        ],
        [
          0.11269938945770264,
          -0.09425697475671768,
          0.05564114823937416,
          0.026302648708224297,
          -0.14352069795131683,
          -0.07299819588661194,
          0.06286843121051788,
          0.15244847536087036,
          -0.09691200405359268,
          -0.06583977490663528,
          -0.14815719425678253,
          -0.04773329943418503,
          -0.017547667026519775,
          0.13339634239673615,
          -0.15112578868865967,
          0.036612216383218765,
          -0.11384374648332596,
          0.08838608115911484,
          0.11349762976169586,
          0.1823887676000595,
          -0.0671447366476059,
          0.18949823081493378,
          0.13717707991600037,
          -0.048446379601955414,
          -0.06483656913042068,
          -0.020245080813765526,
          -0.0769207552075386,
          -0.027167510241270065,
          0.028445731848478317,
          0.097604900598526,
          0.09946832060813904,
          -0.012162350118160248
        ],
        [
          0.09830380976200104,
          -0.02743120864033699,
          0.05374825373291969,
          -0.14128875732421875,
          -0.04588976129889488,
          0.1470455825328827,
          0.13142305612564087,
          0.05710143595933914,
          -0.14794401824474335,
          -0.046439751982688904,
          0.10234750807285309,
          -0.03973426669836044,
          -0.03831078112125397,
          -0.08596526086330414,
          0.02359606884419918,
          -0.009055091999471188,
          0.018326126039028168,
          0.16128647327423096,
          0.06673964858055115,
          0.0791751891374588,
          -0.13584959506988525,
          0.07104571163654327,
          0.13377955555915833,
          -0.03299900144338608,
          -0.05654256418347359,
          -0.07919412851333618,
          -0.16578586399555206,
          0.16457267105579376,
          -0.17526230216026306,
          -0.016293955966830254,
          -0.020189829170703888,
          -0.14197421073913574
        ],
        [
          0.15539921820163727,
          -0.04609468951821327,
          -9.612616122467443e-05,
          0.057589754462242126,
          -0.02580389752984047,
          0.020425233989953995,
          0.11448242515325546,
          0.0889565497636795,
          0.06083816662430763,
          0.012857723981142044,
          -0.1725153625011444,
          -0.007648876868188381,
          -0.02913735620677471,
          -0.009748585522174835,
          -0.0633167251944542,
          -0.009956303052604198,
          -0.10391461849212646,
          -0.1566559374332428,
          0.023803768679499626,
          0.12932449579238892,
          0.17421837151050568,
          0.13527756929397583,
          0.11777616292238235,
          -0.0569731630384922,
          0.0013993288157507777,
          0.03253801167011261,
          -0.09186673164367676,
          -0.14056719839572906,
          -0.11407236754894257,
          0.12990812957286835,
          0.16221579909324646,
          0.061078742146492004
        ],
        [
          -0.07227250188589096,
          0.1814735233783722,
          -0.10789529234170914,
          0.0038940864615142345,
          0.14085642993450165,
          -0.18881294131278992,
          0.05164021626114845,
          -0.08908553421497345,
          0.006811159662902355,
          -0.024400152266025543,
          0.12294375896453857,
          0.08815270662307739,
          -0.15328477323055267,
          0.07098113000392914,
          -0.10893906652927399,
          -0.09838302433490753,
          0.08955791592597961,
          -0.06113320216536522,
          0.11682857573032379,
          0.1838097721338272,
          0.043443936854600906,
          0.09317350387573242,
          -0.13461518287658691,
          0.00994657538831234,
          1.044470991473645e-06,
          -0.015375093556940556,
          0.16186904907226562,
          -0.04652536287903786,
          0.16447065770626068,
          -0.10655739158391953,
          0.1558518260717392,
          0.11952576041221619
        ],
        [
          -0.15911522507667542,
          0.18431948125362396,
          0.11664855480194092,
          -0.11753914505243301,
          -0.005534552037715912,
          -0.1605605185031891,
          0.10193239897489548,
          -0.032646674662828445,
          -0.1607131063938141,
          0.09563501924276352,
          -0.09696578979492188,
          -0.04081539437174797,
          -0.03507233411073685,
          -0.06109492853283882,
          0.03867889940738678,
          0.11719051003456116,
          0.051841359585523605,
          0.1549757719039917,
          -0.07717441022396088,
          -0.13470841944217682,
          0.16620993614196777,
          0.17048543691635132,
          -0.002661144593730569,
          -0.01824067160487175,
          -0.025877300649881363,
          -0.06179839372634888,
          -0.16928043961524963,
          -0.1105293408036232,
          -0.09954085946083069,
          0.01276541780680418,
          -0.0592745877802372,
          0.16544705629348755
        ],
        [
          0.17044253647327423,
          0.00707871513441205,
          0.013029608875513077,
          -0.15348424017429352,
          -0.18746323883533478,
          -0.055868908762931824,
          0.053524360060691833,
          -0.12532563507556915,
          0.007128850556910038,
          -0.13105304539203644,
          0.12629884481430054,
          0.09441092610359192,
          -0.13436178863048553,
          -0.15102913975715637,
          0.05640503391623497,
          0.04283726215362549,
          -0.017138808965682983,
          -0.0166371650993824,
          -0.007175792008638382,
          0.16448360681533813,
          0.12355706840753555,
          0.13888099789619446,
          0.0718613862991333,
          0.10378365218639374,
          0.06006241217255592,
          -0.15035901963710785,
          -0.014779125340282917,
          0.007438880857080221,
          -0.13317722082138062,
          -0.09993831813335419,
          0.06678881496191025,
          -0.17609311640262604
        ],
        [
          -0.020503824576735497,
          -0.07635723799467087,
          -0.09299813210964203,
          0.10941557586193085,
          0.08683565258979797,
          0.15289537608623505,
          -0.1160336509346962,
          0.001887182705104351,
          0.14580799639225006,
          -0.11327709257602692,
          -0.17778520286083221,
          -0.08050967007875443,
          -0.0030267303809523582,
          -0.04999205470085144,
          0.0171501561999321,
          0.1917572170495987,
          -0.02165285311639309,
          -0.0747949555516243,
          -0.15182815492153168,
          0.0493430532515049,
          0.05458473414182663,
          0.14985805749893188,
          -0.03978511318564415,
          -0.07601577788591385,
          -0.13360479474067688,
          0.0944259762763977,
          0.007595263887196779,
          0.09535625576972961,
          0.00999175664037466,
          0.10747988522052765,
          0.14280515909194946,
          -0.10282957553863525
        ],
        [
          0.10360172390937805,
          -0.08680395781993866,
          0.04562270641326904,
          0.1550702452659607,
          -0.019375288859009743,
          -0.051805317401885986,
          -0.017982615157961845,
          0.04660674184560776,
          -0.08870363235473633,
          0.02251398004591465,
          0.03333485871553421,
          0.029974957928061485,
          -0.10740399360656738,
          0.16137239336967468,
          0.08998175710439682,
          -0.11714150756597519,
          -0.14401954412460327,
          0.08134208619594574,
          -0.04380941018462181,
          -0.03493201732635498,
          0.0264687892049551,
          0.13710273802280426,
          -0.06685911864042282,
          0.16514484584331512,
          0.03966527804732323,
          -0.033360935747623444,
          -0.04335401579737663,
          -0.12953324615955353,
          -0.11191998422145844,
          -0.14874550700187683,
          0.11289945989847183,
          -0.0654582679271698
        ],
        [
          0.06161365285515785,
          0.020471958443522453,
          0.13646557927131653,
          -0.17125257849693298,
          0.0712297335267067,
          0.05433940514922142,
          0.09700822830200195,
          -0.037452034652233124,
          0.17444327473640442,
          0.05937397852540016,
          0.01563080959022045,
          0.02479180321097374,
          0.1742490530014038,
          0.013593881390988827,
          -0.09037378430366516,
          0.1337374746799469,
          -0.07439857721328735,
          -0.1091524213552475,
          0.07847978919744492,
          0.08656411617994308,
          -0.0778535008430481,
          -0.09492674469947815,
          0.15925709903240204,
          -0.05112111195921898,
          -0.057118356227874756,
          0.13552743196487427,
          -0.09456685185432434,
          0.10584213584661484,
          -0.05463841184973717,
          0.15175774693489075,
          0.004704683553427458,
          -0.039657313376665115
        ],
        [
          0.0909520834684372,
          -0.04068809747695923,
          -0.08209812641143799,
          -0.1399613320827484,
          -0.13149796426296234,
          0.019700320437550545,
          0.14373934268951416,
          -0.12429974228143692,
          -0.060362402349710464,
          0.038050055503845215,
          -0.1231575757265091,
          -0.07008780539035797,
          0.002437662798911333,
          0.04476059973239899,
          0.12676703929901123,
          -0.010947516188025475,
          -0.12853947281837463,
          0.1252916157245636,
          0.0996645912528038,
          0.16193243861198425,
          -0.0971856638789177,
          -0.06265612691640854,
          -0.1155024915933609,
          0.09212912619113922,
          0.08552560210227966,
          -0.009138137102127075,
          -0.07449885457754135,
          0.05960787832736969,
          0.02074398845434189,
          -0.06172559782862663,
          -0.1633242815732956,
          -0.11285551637411118
        ],
        [
          -0.17007070779800415,
          0.1948462426662445,
          0.11377156525850296,
          -0.044992875307798386,
          -0.12319408357143402,
          -0.16061089932918549,
          0.0939263254404068,
          0.16304540634155273,
          0.08992177993059158,
          0.015213117934763432,
          -0.004230188671499491,
          -0.18268421292304993,
          0.024836992844939232,
          0.130406454205513,
          0.1728191375732422,
          -0.057252708822488785,
          0.036438751965761185,
          -0.11136892437934875,
          0.006307919509708881,
          0.12442997843027115,
          -0.034103114157915115,
          0.1529754251241684,
          0.04781092703342438,
          -0.09572789072990417,
          0.06071602553129196,
          0.06894203275442123,
          -0.13518419861793518,
          0.00578421400859952,
          0.16656996309757233,
          0.00027826870791614056,
          -0.0419292151927948,
          -0.14629866182804108
        ],
        [
          0.028961777687072754,
          0.10050850361585617,
          0.010765002109110355,
          0.14088881015777588,
          -0.17089469730854034,
          0.031668759882450104,
          -0.10775879770517349,
          -0.15182173252105713,
          0.08705328404903412,
          -0.15108288824558258,
          -0.11440646648406982,
          -0.05374651774764061,
          -0.09368309378623962,
          -0.13866612315177917,
          0.04164528101682663,
          0.11486664414405823,
          0.030091818422079086,
          -0.06749887764453888,
          0.16883669793605804,
          0.009417273104190826,
          -0.05651182681322098,
          -0.13306701183319092,
          0.1044791117310524,
          -0.14882142841815948,
          -0.019194526597857475,
          0.17355476319789886,
          0.08320414274930954,
          0.15897701680660248,
          0.16038750112056732,
          0.06335119158029556,
          0.03778298199176788,
          0.0408666767179966
        ],
        [
          -0.010838928632438183,
          0.04632752016186714,
          0.10258921980857849,
          0.09940693527460098,
          -0.14414937794208527,
          0.14202843606472015,
          0.07833649963140488,
          0.060100533068180084,
          0.0692397803068161,
          0.1091226264834404,
          -0.03223560377955437,
          0.05082279443740845,
          -0.17887699604034424,
          0.042476754635572433,
          0.05240561440587044,
          0.015218155458569527,
          0.027099469676613808,
          -0.08548736572265625,
          -0.08340737968683243,
          0.14697374403476715,
          -0.1792028844356537,
          0.005803869571536779,
          0.09114127606153488,
          -0.08742407709360123,
          0.11132137477397919,
          0.1300695538520813,
          0.1749633103609085,
          -0.10977524518966675,
          0.10243543237447739,
          0.03459523245692253,
          -0.028054436668753624,
          -0.06629007309675217
        ],
        [
          -0.1071748435497284,
          0.023430466651916504,
          0.14322315156459808,
          -0.16891717910766602,
          0.04952486231923103,
          0.12592728435993195,
          0.1629013866186142,
          0.1734796166419983,
          -0.033377647399902344,
          0.052906084805727005,
          -0.12707918882369995,
          0.025941189378499985,
          0.05879205837845802,
          -0.08731861412525177,
          -0.015835193917155266,
          -0.12422459572553635,
          -0.03673659637570381,
          0.10876298695802689,
          0.060416847467422485,
          -0.06735802441835403,
          0.13616451621055603,
          -0.013730616308748722,
          0.08561815321445465,
          0.07344398647546768,
          -0.17191174626350403,
          -0.15806877613067627,
          0.04013480618596077,
          0.04959830641746521,
          -0.11579684913158417,
          -0.04392530769109726,
          -0.06445668637752533,
          -0.17021287977695465
        ],
        [
          0.05860821157693863,
          -0.03881043195724487,
          0.04061923921108246,
          0.07865218818187714,
          -0.054684072732925415,
          -0.03968523070216179,
          -0.05041085183620453,
          -0.02615763433277607,
          -0.06394477188587189,
          -0.023283198475837708,
          0.03637119382619858,
          0.006965735461562872,
          -0.07737764716148376,
          -0.030783869326114655,
          0.14709177613258362,
          -0.1424318104982376,
          -0.07715588063001633,
          0.008226947858929634,
          -0.0678674578666687,
          0.1341608613729477,
          -0.011732077226042747,
          -0.05787951499223709,
          0.09990894794464111,
          -0.02095111273229122,
          0.14801058173179626,
          -0.12880049645900726,
          -0.08164004236459732,
          -0.0651479959487915,
          -0.09806407243013382,
          -0.0752401277422905,
          0.10842783004045486,
          -0.048862505704164505
        ],
        [
          0.16686157882213593,
          -0.053121164441108704,
          0.09247631579637527,
          -0.0335724912583828,
          0.13808554410934448,
          -0.18629838526248932,
          0.1421111524105072,
          -0.08712249994277954,
          0.14138498902320862,
          0.13500943779945374,
          0.18959428369998932,
          -0.09197892993688583,
          -0.16025130450725555,
          0.18126660585403442,
          -0.06202046945691109,
          -0.025258928537368774,
          -0.11380153894424438,
          -0.07388428598642349,
          0.14591632783412933,
          0.07590514421463013,
          -0.1426609605550766,
          0.14963383972644806,
          -0.1050468161702156,
          0.161438450217247,
          -0.15486319363117218,
          0.031086942180991173,
          -0.03130635619163513,
          0.06586604565382004,
          -0.00558288861066103,
          0.10249429941177368,
          -0.006689522881060839,
          -0.11396430432796478
        ],
        [
          -0.09811758995056152,
          -0.01235131360590458,
          -0.13883933424949646,
          0.16637012362480164,
          -0.00265323743224144,
          0.11741139739751816,
          0.0972323939204216,
          0.012717843055725098,
          -0.03755619749426842,
          0.14193375408649445,
          0.06490404903888702,
          -0.05474306643009186,
          -0.07032546401023865,
          0.11820118129253387,
          0.09629732370376587,
          0.1373792290687561,
          0.09855373948812485,
          -0.08952397853136063,
          -0.00577497249469161,
          -0.049998123198747635,
          0.08949615806341171,
          0.11961956322193146,
          0.14898376166820526,
          -0.039495762437582016,
          -0.0024397773668169975,
          0.08895836770534515,
          0.10703657567501068,
          0.022058600559830666,
          -0.16323061287403107,
          0.1319412887096405,
          0.16128042340278625,
          -0.01729860156774521
        ],
        [
          -0.10100121796131134,
          0.09222405403852463,
          -0.08953666687011719,
          -0.08413880318403244,
          0.024314621463418007,
          -0.014435538090765476,
          0.14731885492801666,
          -0.035291094332933426,
          -0.17908167839050293,
          -0.11499013751745224,
          0.12419576197862625,
          0.10676578432321548,
          0.15541556477546692,
          -0.16857051849365234,
          -0.1307428628206253,
          0.12806767225265503,
          -0.08912001550197601,
          0.11822503060102463,
          0.022612296044826508,
          -0.002344833454117179,
          -0.17473863065242767,
          -0.08110611885786057,
          -0.08754768967628479,
          0.14744970202445984,
          0.003226835047826171,
          0.13797208666801453,
          -0.13874104619026184,
          0.1499687284231186,
          -0.06383033096790314,
          -0.040124621242284775,
          -0.16479510068893433,
          0.06160856783390045
        ],
        [
          -0.0937461107969284,
          0.05468134209513664,
          0.00664974469691515,
          0.055828697979450226,
          -0.09176056832075119,
          -0.07751385867595673,
          0.10329777747392654,
          0.0037520150654017925,
          0.06400420516729355,
          -0.0913093090057373,
          -0.16243597865104675,
          0.13100098073482513,
          -0.013571023941040039,
          0.1144779622554779,
          -0.12392320483922958,
          0.1028120368719101,
          -0.07502797245979309,
          -0.13213792443275452,
          -0.14652322232723236,
          -0.008398676291108131,
          -0.15387822687625885,
          0.02530595287680626,
          0.14987897872924805,
          -0.05425837263464928,
          -0.12332535535097122,
          0.08744330704212189,
          0.03054998628795147,
          0.12341241538524628,
          -0.16666117310523987,
          -0.005123964510858059,
          -0.04845935106277466,
          -0.03328084945678711
        ],
        [
          -0.09854701906442642,
          0.133863165974617,
          -0.04148618504405022,
          -0.09378830343484879,
          0.07002032548189163,
          0.10677800327539444,
          0.09907997399568558,
          -0.02693799138069153,
          0.14960017800331116,
          0.04340100660920143,
          0.1501801311969757,
          -0.05200248584151268,
          0.1439049392938614,
          0.03500588238239288,
          0.11466788500547409,
          0.08806882798671722,
          -0.0024579211603850126,
          -0.017752960324287415,
          -0.15380863845348358,
          -0.18425732851028442,
          0.16779233515262604,
          -0.051972586661577225,
          0.18340443074703217,
          -0.07089932262897491,
          -0.05765116959810257,
          -0.14090092480182648,
          -0.017105864360928535,
          0.1215316578745842,
          -0.10542497783899307,
          0.15563277900218964,
          -0.10173045843839645,
          0.03124193847179413
        ],
        [
          -0.1084955483675003,
          -0.03633784130215645,
          0.09854695200920105,
          0.06028398498892784,
          0.06879293918609619,
          -0.019651414826512337,
          0.014153718948364258,
          0.048026349395513535,
          0.1446242332458496,
          -0.12492978572845459,
          0.015138966031372547,
          0.169137641787529,
          0.04405776783823967,
          0.12092658132314682,
          0.05890825763344765,
          0.15604013204574585,
          0.1487257033586502,
          -0.04148074612021446,
          0.06863930821418762,
          0.15450038015842438,
          0.12766651809215546,
          -0.05069355294108391,
          0.1625595986843109,
          -0.0782836377620697,
          0.08217652887105942,
          0.024763701483607292,
          0.012605722062289715,
          0.10742517560720444,
          -0.08062221109867096,
          -0.0006083009066060185,
          0.12669602036476135,
          0.09343324601650238
        ],
        [
          -0.1543523371219635,
          0.08496915549039841,
          -0.10922513157129288,
          0.1747465580701828,
          -0.16798710823059082,
          0.142414852976799,
          -0.06419239193201065,
          0.030037378892302513,
          0.05609581992030144,
          0.031079547479748726,
          -0.17273195087909698,
          0.15339742600917816,
          0.11230997741222382,
          -0.031746335327625275,
          0.12629692256450653,
          -0.06664836406707764,
          -0.0017398328054696321,
          0.00713904807344079,
          0.11754541844129562,
          0.0990157276391983,
          -0.05547428876161575,
          -0.05005022510886192,
          0.04801124334335327,
          0.057658448815345764,
          -0.16483165323734283,
          0.13593706488609314,
