{
  "model_type": "RTNeural",
  "model_id": "dynamicsengine",
  "task": "dynamics_mapping",
  "input_size": 32,
  "output_size": 16,
  "architecture": "mlp",
  "layers": [
    {
      "name": "0.weight",
      "type": "conv",
      "weights": [
        [
          -0.036457665264606476,
          0.023080764338374138,
          -0.13524769246578217,
          0.056835416704416275,
          -0.10563728958368301,
          0.2222447693347931,
          -0.1089773029088974,
          0.1297660917043686,
          -0.13582278788089752,
          0.008380351588129997,
          -0.04222626984119415,
          0.1477106809616089,
          0.030845478177070618,
          -0.020242203027009964,
          0.05112066864967346,
          0.08726566284894943,
          -0.11448647081851959,
          0.009786466136574745,
          -0.1417587846517563,
          -0.03500959649682045,
          0.13149240612983704,
          -0.05290314182639122,
          0.013637341558933258,
          0.10432417690753937,
          0.04766416922211647,
          0.06950505077838898,
          -0.1150200292468071,
          -0.11309857666492462,
          0.18029703199863434,
          -0.1328224241733551,
          0.10202398896217346,
          -0.08848416060209274
        ],
        [
          0.1000470221042633,
          0.1400371640920639,
          -0.12004892528057098,
          -0.034736305475234985,
          0.05228650942444801,
          0.021543817594647408,
          -0.09567064046859741,
          -0.02998548187315464,
          -0.0317767970263958,
          -0.17153596878051758,
          0.08799682557582855,
          0.17019595205783844,
          -0.10705647617578506,
          0.06046726182103157,
          0.2214059680700302,
          0.21592946350574493,
          0.14627490937709808,
          -0.09218189120292664,
          0.15684041380882263,
          -0.14194822311401367,
          0.07510217279195786,
          -0.1780848354101181,
          -0.15995438396930695,
          0.10590937733650208,
          -0.17161427438259125,
          0.1652214080095291,
          -0.11851620674133301,
          0.17939133942127228,
          0.09311088174581528,
          -0.10395383834838867,
          0.11056078970432281,
          0.22018322348594666
        ],
        [
          0.046942442655563354,
          -0.025103271007537842,
          -0.14319786429405212,
          -0.0700487270951271,
          0.1423346847295761,
          -0.061598487198352814,
          -0.1848183423280716,
          -0.02306465618312359,
          0.16400094330310822,
          0.0061904969625175,
          -0.009288243018090725,
          0.13326585292816162,
          0.16576944291591644,
          -0.07851903140544891,
          0.04634860157966614,
          0.10531728714704514,
          0.10407522320747375,
          0.11688601970672607,
          -0.09971842169761658,
          0.15061306953430176,
          -0.03441876545548439,
          0.15255895256996155,
          0.1839647889137268,
          0.08474700152873993,
          0.1283593475818634,
          0.08362390846014023,
          0.13801394402980804,
          -0.05367770045995712,
          0.24131421744823456,
          0.24686303734779358,
          -0.06842537224292755,
          0.18233130872249603
        ],
        [
          0.1559823602437973,
          0.043041080236434937,
          -0.07464204728603363,
          0.20739294588565826,
          0.2220720648765564,
          -0.10179537534713745,
          -0.11978480964899063,
          -0.12277226895093918,
          -0.1695208102464676,
          -0.026506494730710983,
          -0.09124641865491867,
          0.18920594453811646,
          0.13476629555225372,
          0.005887697916477919,
          0.1613607257604599,
          -0.1208730936050415,
          0.10456747561693192,
          -0.021204672753810883,
          -0.14680252969264984,
          0.04674107953906059,
          -0.1140667274594307,
          0.10096646100282669,
          -0.10748173296451569,
          0.047278665006160736,
          -0.005714904051274061,
          -0.1830284595489502,
          -0.13738562166690826,
          -0.10713133960962296,
          -0.04701145365834236,
          0.015334155410528183,
          0.14052601158618927,
          0.09202507883310318
        ],
        [
          0.14001083374023438,
          0.09407856315374374,
          0.10333690047264099,
          0.03405994921922684,
          -0.0595976896584034,
          0.04040186479687691,
          0.06026267632842064,
          -0.10094835609197617,
          -0.11514363437891006,
          -0.23345768451690674,
          -0.23694206774234772,
          -0.23093058168888092,
          -0.09659389406442642,
          0.10073181986808777,
          0.030199294909834862,
          0.16658611595630646,
          0.07305566221475601,
          -0.05773364380002022,
          -0.012591163627803326,
          0.08008942753076553,
          0.02622642181813717,
          -0.10483516752719879,
          -0.06495494395494461,
          0.0035184563603252172,
          0.09928084164857864,
          0.07696708291769028,
          -0.07046167552471161,
          -0.02714032679796219,
          -0.06435360759496689,
          0.000301437103189528,
          0.12443383038043976,
          0.006417726166546345
        ],
        [
          0.13434705138206482,
          0.04522092267870903,
          0.02433614432811737,
          -0.09480784088373184,
          0.04099152982234955,
          -0.18589192628860474,
          -0.10734406113624573,
          -0.16917648911476135,
          0.1984238624572754,
          0.07899720966815948,
          0.04191358759999275,
          0.16548176109790802,
          0.058705784380435944,
          -0.16096314787864685,
          -0.08173330128192902,
          0.051083941012620926,
          -0.1591843217611313,
          0.015553019009530544,
          0.009268954396247864,
          -0.1248801127076149,
          0.1638566553592682,
          -0.04107734188437462,
          -0.0610247440636158,
          0.10083632916212082,
          0.04223601520061493,
          -0.11713302880525589,
          0.044839803129434586,
          0.05904378369450569,
          0.04695760831236839,
          -0.10990554094314575,
          0.09207234531641006,
          -0.057950686663389206
        ],
        [
          0.1119268536567688,
          -0.12316156178712845,
          -0.22152462601661682,
          0.04727760702371597,
          0.09095889329910278,
          -0.1853407472372055,
          0.04211759939789772,
          0.11289400607347488,
          -0.059923045337200165,
          0.14024662971496582,
          0.156283900141716,
          0.01474626176059246,
          -0.06110478565096855,
          -0.1140059307217598,
          -0.04924677684903145,
          0.13223113119602203,
          0.1587669849395752,
          -0.11956445127725601,
          -0.14653277397155762,
          0.11051787436008453,
          0.081106998026371,
          -0.07939755171537399,
          -0.020266404375433922,
          -0.16603252291679382,
          0.027750659734010696,
          -0.03605290874838829,
          0.038468923419713974,
          -0.03592165187001228,
          0.07476840913295746,
          0.15864397585391998,
          0.16149547696113586,
          -0.1818229705095291
        ],
        [
          -0.23247966170310974,
          -0.056357089430093765,
          0.03590020164847374,
          -0.05254552513360977,
          -0.0812709629535675,
          -0.200631782412529,
          0.05778670683503151,
          0.11085034161806107,
          -0.18484437465667725,
          0.09467680007219315,
          -0.17830927670001984,
          -0.13860297203063965,
          -0.01093024481087923,
          0.028287172317504883,
          0.13391077518463135,
          -0.015387453138828278,
          -0.18542596697807312,
          -0.17083580791950226,
          -0.1191147118806839,
          0.11171195656061172,
          -0.15413621068000793,
          -0.07369421422481537,
          -0.03580189868807793,
          0.12750087678432465,
          -0.005032649729400873,
          0.0030614074785262346,
          -0.05090244859457016,
          0.049621812999248505,
          -0.09451589733362198,
          0.03433205187320709,
          0.04468795284628868,
          -0.13811802864074707
        ],
        [
          0.06286516785621643,
          -0.0886722207069397,
          0.11423003673553467,
          -0.030681418254971504,
          0.14631019532680511,
          -0.06037583202123642,
          -0.0041857557371258736,
          0.06962867826223373,
          -0.02735096588730812,
          -0.013790536671876907,
          0.010923027992248535,
          -0.10651176422834396,
          -0.17365063726902008,
          0.07736045122146606,
          0.17395102977752686,
          0.006989273242652416,
          -0.028944475576281548,
          0.11237040907144547,
          0.129123717546463,
          -0.16289718449115753,
          -0.050294287502765656,
          -0.1161310002207756,
          0.10085416585206985,
          -0.12142061442136765,
          -0.05208069458603859,
          0.1378306895494461,
          -0.09068898111581802,
          0.08429507166147232,
          0.0610097236931324,
          -0.13690471649169922,
          0.06943053752183914,
          -0.027870425954461098
        ],
        [
          0.07315672188997269,
          0.019707724452018738,
          0.09456541389226913,
          -0.11201829463243484,
          -0.06357057392597198,
          -0.19179333746433258,
          -0.1360969990491867,
          0.06322240084409714,
          -0.1686195433139801,
          -0.0034557769540697336,
          -0.10422026365995407,
          0.006488123442977667,
          0.15924230217933655,
          -0.1489877551794052,
          -0.050364986062049866,
          0.06887350976467133,
          0.01892213709652424,
          0.07266055792570114,
          0.025172488763928413,
          0.1696389764547348,
          0.12043473869562149,
          -0.03185877203941345,
          -0.04094529151916504,
          -0.02596423216164112,
          0.057554520666599274,
          -0.0856042429804802,
          0.11166945099830627,
          -0.09030511975288391,
          0.09467235952615738,
          0.06304393708705902,
          0.035775817930698395,
          0.11293080449104309
        ],
        [
          -0.1180582344532013,
          -0.11193276941776276,
          0.003946313168853521,
          -0.03665592521429062,
          -0.17588673532009125,
          0.014255424030125141,
          -0.08986179530620575,
          -0.17883794009685516,
          0.05263666436076164,
          0.000516053638420999,
          0.1402178853750229,
          -0.0465344674885273,
          0.20803415775299072,
          0.20676623284816742,
          0.13081033527851105,
          0.14269813895225525,
          0.05655033886432648,
          0.13831505179405212,
          -0.003517255187034607,
          -0.07156170159578323,
          -0.00496139470487833,
          0.05458921566605568,
          -0.035020314157009125,
          0.08663912117481232,
          0.16171596944332123,
          0.08269919455051422,
          0.009542166255414486,
          -0.06919796764850616,
          0.08990106731653214,
          0.14191870391368866,
          -0.1395782232284546,
          -0.026219768449664116
        ],
        [
          0.07011953741312027,
          0.10493462532758713,
          -0.041273243725299835,
          -0.1522938758134842,
          -0.14695939421653748,
          0.07697034627199173,
          0.18702432513237,
          0.16462504863739014,
          0.04474472254514694,
          0.15739279985427856,
          0.09968674182891846,
          -0.0335857979953289,
          -0.1360907107591629,
          -0.08873653411865234,
          0.04852719604969025,
          -0.11219294369220734,
          -0.1576584279537201,
          0.0517415851354599,
          -0.026051249355077744,
          0.07273521274328232,
          0.0869378000497818,
          0.01853368617594242,
          0.024451619014143944,
          -0.0014685463393107057,
          0.0732605829834938,
          0.13537849485874176,
          0.07219485193490982,
          -0.11782228946685791,
          -0.09512559324502945,
          -0.11529780179262161,
          0.07964444905519485,
          0.051674097776412964
        ],
        [
          0.14399735629558563,
          0.09058167785406113,
          -0.11408349126577377,
          -0.06982266902923584,
          -0.13851089775562286,
          -0.0615595243871212,
          0.009460867382586002,
          -0.10638359934091568,
          0.0262816920876503,
          0.21520516276359558,
          0.09003110229969025,
          0.08294442296028137,
          -0.12817300856113434,
          0.14757908880710602,
          -0.1784900277853012,
          0.1269865185022354,
          -0.10163847357034683,
          0.026552049443125725,
          -0.1617848128080368,
          -0.09728284180164337,
          0.13179312646389008,
          0.1621864140033722,
          -0.0029564369469881058,
          0.09748361259698868,
          0.08176904171705246,
          -0.04753756523132324,
          -0.09812100976705551,
          0.013691642321646214,
          -0.10756388306617737,
          -0.1311708688735962,
          0.054242175072431564,
          0.1822817623615265
        ],
        [
          -0.09065481275320053,
          0.04858355596661568,
          0.09953022003173828,
          -0.061196934431791306,
          -0.18248793482780457,
          -0.02785029262304306,
          -0.05534796789288521,
          -0.13374055922031403,
          0.11195079237222672,
          0.054133519530296326,
          0.17330200970172882,
          0.1502455472946167,
          -0.06044024974107742,
          0.02119082771241665,
          -0.10757182538509369,
          0.059020500630140305,
          -0.06385926157236099,
          0.06575141102075577,
          0.17736127972602844,
          0.16828684508800507,
          -0.06862196326255798,
          0.02951679565012455,
          0.0717782974243164,
          0.11138995736837387,
          0.10743001103401184,
          -0.10043790936470032,
          -0.09058418869972229,
          0.12354834377765656,
          -0.19832652807235718,
          0.013322836719453335,
          0.09601186960935593,
          -0.06168101355433464
        ],
        [
          0.1626107096672058,
          0.010400894097983837,
          0.031634870916604996,
          -0.0692141130566597,
          -0.0036497917026281357,
          -0.06765641272068024,
          0.06173619255423546,
          -0.02405010722577572,
          0.05980311334133148,
          -0.1554652452468872,
          -0.09881112724542618,
          0.03868858888745308,
          0.08344277739524841,
          -0.1756734549999237,
          -0.0362238883972168,
          -0.08440270274877548,
          -0.013283008709549904,
          -0.07980179786682129,
          0.03344309329986572,
          -0.0373927541077137,
          0.04589158669114113,
          -0.16269466280937195,
          -0.030631940811872482,
          -0.13817337155342102,
          0.14142052829265594,
          0.09150128811597824,
          0.13543948531150818,
          0.11878229677677155,
          -0.1085624247789383,
          0.1292555332183838,
          -0.1903103142976761,
          0.0686466246843338
        ],
        [
          -0.167557954788208,
          -0.17281337082386017,
          0.029730338603258133,
          0.08938660472631454,
          -0.15513575077056885,
          -0.11997513473033905,
          -0.11290253698825836,
          0.008239020593464375,
          0.10030966252088547,
          0.102625772356987,
          0.06930176913738251,
          0.11324124783277512,
          -0.012520655989646912,
          0.07657775282859802,
          -0.05874303728342056,
          0.20784153044223785,
          0.1816413849592209,
          0.03255166858434677,
          0.13057464361190796,
          -0.15197008848190308,
          -0.0026944696437567472,
          0.09111257642507553,
          -0.018433362245559692,
          -0.00628439337015152,
          -0.03637130558490753,
          0.19135095179080963,
          0.16915379464626312,
          -0.1844906061887741,
          -0.20305666327476501,
          -0.045230284333229065,
          0.10571124404668808,
          -0.04138776659965515
        ],
        [
          0.1402083933353424,
          -0.031710170209407806,
          0.09959562122821808,
          0.19015997648239136,
          -0.0672035962343216,
          0.02214864082634449,
          -0.20455949008464813,
          -0.05282475799322128,
          0.11640703678131104,
          0.09071803838014603,
          0.10571105033159256,
          0.00846380926668644,
          0.09734968096017838,
          -0.04534497112035751,
          -0.01086258701980114,
          0.06916188448667526,
          0.04430835321545601,
          0.0528421476483345,
          0.04365900158882141,
          -0.0687807947397232,
          0.04602336138486862,
          0.07295510917901993,
          -0.21674351394176483,
          -0.15112338960170746,
          -0.09609155356884003,
          -0.030494587495923042,
          0.06875111162662506,
          -0.017829349264502525,
          -0.17735640704631805,
          0.1290305256843567,
          0.12106511741876602,
          -0.19055776298046112
        ],
        [
          0.08661730587482452,
          -0.026137789711356163,
          0.13291847705841064,
          0.17050205171108246,
          0.138514906167984,
          -0.16014344990253448,
          -0.029422476887702942,
          -0.018197253346443176,
          -0.20275117456912994,
          -0.12604758143424988,
          0.09442021697759628,
          -0.12705464661121368,
          -0.03012636862695217,
          0.12292309105396271,
          0.01019357517361641,
          -0.12455099821090698,
          0.03228049725294113,
          -0.19102536141872406,
          -0.03997701406478882,
          0.11391898989677429,
          -0.14145080745220184,
          0.1321125328540802,
          0.13360634446144104,
          0.1400945633649826,
          -0.10495460778474808,
          0.03752025216817856,
          -0.02241775020956993,
          0.07127489149570465,
          -0.06699017435312271,
          0.146889328956604,
          0.14224912226200104,
          -0.1531950682401657
        ],
        [
          0.05017298460006714,
          -0.15504898130893707,
          -0.14096377789974213,
          -0.033208053559064865,
          -0.0954267755150795,
          -0.05682365968823433,
          0.09509601444005966,
          -0.13951775431632996,
          0.057084038853645325,
          0.07615619152784348,
          -0.07295629382133484,
          -0.08701705932617188,
          -0.036525506526231766,
          -0.09877748042345047,
          -0.0017192966770380735,
          0.13838589191436768,
          0.19902284443378448,
          0.07012258470058441,
          -0.06792900711297989,
          0.00016023455827962607,
          -0.1289774626493454,
          0.013201427645981312,
          0.07079784572124481,
          0.13893067836761475,
          -0.12785200774669647,
          -0.013308287598192692,
          -0.051870107650756836,
          -0.004251926671713591,
          0.14129190146923065,
          -0.12305576354265213,
          -0.1203448697924614,
          0.032114427536726
        ],
        [
          0.10762645304203033,
          -0.06793645024299622,
          0.157833993434906,
          0.13627417385578156,
          0.13088352978229523,
          -0.10187412053346634,
          -0.06725455075502396,
          -0.0722881630063057,
          0.17109723389148712,
          0.12537816166877747,
          -0.06452519446611404,
          0.03747045248746872,
          0.10118863731622696,
          -0.14829885959625244,
          -0.2630051374435425,
          -0.14067703485488892,
          -0.13752950727939606,
          -0.003499905811622739,
          0.08681157976388931,
          0.05921892821788788,
          0.1131862998008728,
          0.12169959396123886,
          0.14754197001457214,
          0.12152448296546936,
          0.1442277431488037,
          -0.1733083426952362,
          -0.005745781119912863,
          0.10621567815542221,
          -0.15911903977394104,
          -0.11984340846538544,
          0.017246659845113754,
          0.13494792580604553
        ],
        [
          0.08878180384635925,
          -0.04619995877146721,
          0.049540914595127106,
          0.02518337033689022,
          0.0549529530107975,
          -0.019007453694939613,
          0.12125954031944275,
          0.0006763443816453218,
          -0.10436546802520752,
          -0.05220342054963112,
          -0.0016783061437308788,
          0.006641330197453499,
          0.04393395781517029,
          0.0990997701883316,
          0.0052364179864525795,
          0.013258051127195358,
          0.043831150978803635,
          0.04469893127679825,
          0.056524086743593216,
          -0.03990013152360916,
          -0.04939039424061775,
          0.13595089316368103,
          -0.016430962830781937,
          0.015470792539417744,
          0.15482497215270996,
          0.08277687430381775,
          -0.003209187649190426,
          -0.012562516145408154,
          -0.10569056123495102,
          0.05734806880354881,
          -0.03421206772327423,
          0.1478937715291977
        ],
        [
          0.08729228377342224,
          0.14897234737873077,
          -0.10252983123064041,
          0.1237579956650734,
          0.04161893203854561,
          -0.069680355489254,
          -0.1695442944765091,
          0.08137278258800507,
          0.10951050370931625,
          -0.17391328513622284,
          0.1468745768070221,
          0.08034541457891464,
          -0.026850668713450432,
          0.10637398809194565,
          -0.05278615280985832,
          0.005310846958309412,
          -0.021121414378285408,
          0.08949021250009537,
          0.14429821074008942,
          0.10393089801073074,
          0.09324225038290024,
          0.05461578071117401,
          0.12359157204627991,
          0.18266987800598145,
          0.09189333021640778,
          0.02185875177383423,
          -0.0947786271572113,
          -0.03494410216808319,
          0.09922052919864655,
          -0.06765124946832657,
          -0.2237364649772644,
          -0.043994322419166565
        ],
        [
          -0.008374853990972042,
          0.09527763724327087,
          0.06730086356401443,
          -0.0897519513964653,
          0.16509844362735748,
          0.10954778641462326,
          0.0009674652246758342,
          0.1775912493467331,
          -0.055429499596357346,
          -0.06897083669900894,
          -0.08088994771242142,
          -0.05155293270945549,
          0.0810016617178917,
          -0.15930481255054474,
          0.06817897409200668,
          -0.11098387837409973,
          -0.07903294265270233,
          0.06571502983570099,
          0.04308357089757919,
          -0.04454070329666138,
          -0.11895156651735306,
          -0.10958180576562881,
          0.08452679216861725,
          -0.10664429515600204,
          0.10817894339561462,
          0.037819232791662216,
          -0.16659465432167053,
          -0.09716024249792099,
          -0.00808264221996069,
          -0.17411068081855774,
          -0.09937843680381775,
          -0.21464930474758148
        ],
        [
          -0.10290300101041794,
          -0.02293059229850769,
          0.051326725631952286,
          -0.10788323730230331,
          0.05278912931680679,
          0.03614465892314911,
          0.0008029026794247329,
          0.18644826114177704,
          0.15880407392978668,
          0.016969606280326843,
          -0.1508379429578781,
          -0.21681378781795502,
          0.10471684485673904,
          0.13706545531749725,
          0.08268923312425613,
          -0.015393185429275036,
          0.08133210241794586,
          0.08431503176689148,
          -0.19097314774990082,
          0.14268797636032104,
          -0.035892073065042496,
          -0.13516157865524292,
          -0.0022450690157711506,
          0.15229035913944244,
          -0.12052014470100403,
          -0.06837664544582367,
          -0.12716259062290192,
          -0.10753875970840454,
          0.1063246950507164,
          0.11613794416189194,
          0.07832697778940201,
          -0.05309415981173515
        ],
        [
          -0.11890154331922531,
          0.0657614916563034,
          -0.13970507681369781,
          0.1723683476448059,
          0.03835443779826164,
          0.08979985117912292,
          0.09769120812416077,
          0.19295844435691833,
          -0.11377555876970291,
          -0.09002813696861267,
          -0.02369769662618637,
          -0.06814025342464447,
          -0.14549250900745392,
          -0.1483551561832428,
          -0.12993428111076355,
          -0.046078477054834366,
          -0.11636339128017426,
          0.06639210134744644,
          -0.12250680476427078,
          -0.011984797194600105,
          0.0672120749950409,
          -0.1961553543806076,
          -0.11645226180553436,
          -0.12152550369501114,
          -0.08135491609573364,
          -0.14186663925647736,
          -0.18521453440189362,
          -0.08098877221345901,
          -0.1504395604133606,
          -0.047939930111169815,
          -0.1927226483821869,
          0.06270314753055573
        ],
        [
          0.12457603216171265,
          -0.052701257169246674,
          0.007499788422137499,
          0.1221814751625061,
          0.0668792724609375,
          -0.19883626699447632,
          -0.09295414388179779,
          -0.1397576630115509,
          0.1405569612979889,
          0.17654204368591309,
          0.01626621000468731,
          0.2339833527803421,
          0.14794686436653137,
          -0.13528142869472504,
          -0.09891156852245331,
          0.11806855350732803,
          -0.0811527743935585,
          -0.13734430074691772,
          -0.10081784427165985,
          -0.09628758579492569,
          -0.10853029787540436,
          -0.13172392547130585,
          0.01948249340057373,
          -0.044459160417318344,
          0.21481715142726898,
          0.11521647125482559,
          -0.0376574732363224,
          -0.007514140568673611,
          -0.13109931349754333,
          0.14435319602489471,
          0.11201867461204529,
          0.2060289829969406
        ],
        [
          -0.05845888331532478,
          -0.038047704845666885,
          -0.15713563561439514,
          0.06680407375097275,
          0.041438695043325424,
          -0.11006363481283188,
          -0.1842518448829651,
          -0.08122299611568451,
          -0.032871633768081665,
          0.08077763766050339,
          -0.10362745821475983,
          -0.08658979088068008,
          0.08093675971031189,
          0.12279679626226425,
          0.0010528184939175844,
          -0.05879659578204155,
          -0.02701309695839882,
          0.04562348499894142,
          0.10769395530223846,
          0.06291457265615463,
          -0.06811259686946869,
          -0.08380286395549774,
          -0.0028610059525817633,
          0.02162134274840355,
          0.11547596752643585,
          -0.05328899249434471,
          0.05297720432281494,
          0.11856914311647415,
          0.13953503966331482,
          0.17736464738845825,
          -0.07573237270116806,
          0.06236237287521362
        ],
        [
          0.12314027547836304,
          0.11722559481859207,
          0.13653168082237244,
          0.008958891965448856,
          0.041299205273389816,
          0.16056525707244873,
          -0.05598954111337662,
          -0.15934474766254425,
          0.02465309016406536,
          -0.1066780835390091,
          -0.16439928114414215,
          -0.1620190590620041,
          -0.1456826627254486,
          -0.1668570339679718,
          -0.028746265918016434,
          0.06642154604196548,
          0.1762927919626236,
          0.1430400013923645,
          -0.002333535347133875,
          -0.005992212798446417,
          0.1019907221198082,
          0.034443847835063934,
          -0.15049433708190918,
          0.06374399363994598,
          0.09791634231805801,
          0.14196492731571198,
          -0.12504148483276367,
          -0.05772441253066063,
          0.03089863806962967,
          0.12922288477420807,
          -0.12287501990795135,
          -0.14107683300971985
        ],
        [
          -0.09508425742387772,
          -0.06341740489006042,
          -0.1154012456536293,
          -0.13041286170482635,
          0.13515901565551758,
          0.10530304163694382,
          0.11041747033596039,
          -0.07866113632917404,
          -0.06751907616853714,
          -0.145990788936615,
          -0.0631427988409996,
          0.0760195329785347,
          -0.015066738240420818,
          -0.03293405473232269,
          -0.08830522000789642,
          0.0004910401767119765,
          -0.16623567044734955,
          0.07806646078824997,
          -0.20135387778282166,
          0.023254333063960075,
          0.11853525787591934,
          0.03927787393331528,
          -0.05230710655450821,
          -0.004900429863482714,
          -0.06133114546537399,
          0.014135189354419708,
          0.08779790252447128,
          -0.013757321983575821,
          0.12639321386814117,
          -0.14653931558132172,
          -0.1407572329044342,
          -0.0764237642288208
        ],
        [
          0.08636432886123657,
          -0.03517056629061699,
          -0.08592773973941803,
          0.015042532235383987,
          0.14140503108501434,
          -0.05352155491709709,
          -0.004709061235189438,
          -0.07021135836839676,
          -0.05602578818798065,
          -0.12836705148220062,
          -0.021735524758696556,
          -0.024574751034379005,
          -0.18391475081443787,
          -0.11588550359010696,
          0.03286796063184738,
          -0.015906983986496925,
          0.08885329961776733,
          0.1312488168478012,
          0.015508504584431648,
          0.06147250533103943,
          0.10588586330413818,
          0.062448449432849884,
          0.011030294001102448,
          0.12918338179588318,
          -0.07721109688282013,
          0.003466803813353181,
          -0.0739361122250557,
          -0.016497816890478134,
          0.04268784448504448,
          -0.05185327306389809,
          0.13938267529010773,
          0.023385895416140556
        ],
        [
          -0.01150254625827074,
          0.0420256182551384,
          -0.0008990034111775458,
          0.12640656530857086,
          -0.0479295514523983,
          -0.19266775250434875,
          -0.09358837455511093,
          -0.1455485224723816,
          0.060988765209913254,
          0.1359056979417801,
          -0.1110287606716156,
          0.10244285315275192,
          0.04800364002585411,
          -0.13436748087406158,
          0.06616874784231186,
          0.08234063535928726,
          0.027998417615890503,
          0.036317240446805954,
          0.07678642868995667,
          0.05236399173736572,
          -0.06443207710981369,
          0.08922933042049408,
          -0.09135578572750092,
          -0.14930200576782227,
          0.1333996057510376,
          0.09197355806827545,
          0.002206452190876007,
          0.02597675286233425,
          0.005739447195082903,
          0.1419965773820877,
          0.16524812579154968,
          0.04100243002176285
        ],
        [
          0.10843143612146378,
          0.12942124903202057,
          -0.15357233583927155,
          0.09667487442493439,
          -0.1330997347831726,
          -0.17393290996551514,
          -5.499472899828106e-05,
          -0.09114097058773041,
          0.16916556656360626,
          -0.12983305752277374,
          0.02243557944893837,
          -0.20503400266170502,
          -0.09157989174127579,
          0.051022861152887344,
          0.1820858269929886,
          -0.03540516644716263,
          0.04556281492114067,
          -0.16086092591285706,
          -0.13692794740200043,
          0.10632458329200745,
          -0.1524895578622818,
          -0.13992495834827423,
          -0.15257592499256134,
          -0.16832956671714783,
          -0.13339971005916595,
          0.02371836081147194,
          0.05434250086545944,
          -0.04101472720503807,
          -0.14158272743225098,
          0.08722583949565887,
          0.13439764082431793,
          -0.12371102720499039
        ],
        [
          -0.24554455280303955,
          -0.083531454205513,
          -0.13577401638031006,
          -0.18259979784488678,
          -0.1525896042585373,
          -0.19355449080467224,
          -0.08767514675855637,
          -0.1442638784646988,
          -0.05595705285668373,
          0.12361465394496918,
          0.1357550024986267,
          0.005699113942682743,
          -0.0362422801554203,
          -0.10695915669202805,
          -0.06667457520961761,
          -0.08102252334356308,
          0.06160667911171913,
          0.1466538906097412,
          0.03254665434360504,
          -0.1470814347267151,
          0.19516213238239288,
          0.16381123661994934,
          0.073735810816288,
          -0.017473723739385605,
          -0.14158979058265686,
          0.054988883435726166,
          -0.009505074471235275,
          0.15871396660804749,
          0.1147032231092453,
          -0.07661301642656326,
          0.06962651759386063,
          0.11597767472267151
        ],
        [
          -0.1449487805366516,
          0.11077918857336044,
          -0.14549189805984497,
          -0.0701519250869751,
          -0.1340659260749817,
          0.08997604250907898,
          -0.09156745672225952,
          0.07503148168325424,
          -0.09575438499450684,
          -0.06254727393388748,
          0.20287130773067474,
          0.2591600716114044,
          0.07079306244850159,
          0.16983681917190552,
          -0.08221572637557983,
          -0.06403722614049911,
          -0.00474542286247015,
          -0.13615013659000397,
          -0.1321834921836853,
          -0.021446313709020615,
          0.017361536622047424,
          0.10174573957920074,
          0.09858151525259018,
          -0.17465171217918396,
          0.07620616257190704,
          -0.008197059854865074,
          0.12210880219936371,
          -0.17442187666893005,
          -0.11105280369520187,
          -0.08396652340888977,
          0.05550688877701759,
          -0.04423065856099129
        ],
        [
          -0.09397530555725098,
          -0.22996270656585693,
          0.10481412708759308,
          -0.19562821090221405,
          -0.18611037731170654,
          -9.562947525409982e-05,
          -0.1401783674955368,
          -0.1348215490579605,
          0.003428130876272917,
          -0.17499984800815582,
          0.16801436245441437,
          -0.1402769535779953,
          -0.046192433685064316,
          -0.07277492433786392,
          0.15645763278007507,
          -0.06227559223771095,
          0.09958349168300629,
          0.07364894449710846,
          -0.16764527559280396,
          0.11552070081233978,
          -0.04174463450908661,
          0.01569908671081066,
          0.14729782938957214,
          0.07167398929595947,
          0.06631863862276077,
          0.04754450544714928,
          0.055423859506845474,
          -0.0584949254989624,
          0.016367582604289055,
          0.0822293758392334,
          -0.1767808198928833,
          -0.06733088195323944
        ],
        [
          -0.15194693207740784,
          0.10177130997180939,
          -0.014936573803424835,
          0.08979009836912155,
          0.04692341759800911,
          0.100287526845932,
          0.09538017213344574,
          0.025464409962296486,
          0.12344743311405182,
          -0.07712548226118088,
          0.12382915616035461,
          0.01713038794696331,
          -0.17636197805404663,
          0.057104986160993576,
          -0.181050643324852,
          0.044843077659606934,
          -0.09060575067996979,
          -0.08736409991979599,
          -0.09547658264636993,
          0.05757206305861473,
          -0.013117687776684761,
          -0.03985690325498581,
          -0.1188424602150917,
          -0.12170659005641937,
          0.025266241282224655,
          0.1386532187461853,
          0.053856413811445236,
          -0.08368697762489319,
          0.11262290179729462,
          0.1848962903022766,
          0.13693010807037354,
          0.003868816187605262
        ],
        [
          -0.13817262649536133,
          0.11855249851942062,
          0.08378482609987259,
          0.14297325909137726,
          0.1223243996500969,
          -0.1507408767938614,
          0.12848542630672455,
          0.13779278099536896,
          -0.20291057229042053,
          -0.10548771917819977,
          -0.1907375156879425,
          0.013261049054563046,
          -0.09975691139698029,
          0.10847534239292145,
          0.18639937043190002,
          0.14830487966537476,
          -0.05195625498890877,
          0.06820607930421829,
          -0.0649598017334938,
          0.038841262459754944,
          -0.13615603744983673,
          -0.032963480800390244,
          -0.05337725579738617,
          -0.030655276030302048,
          0.12920066714286804,
          0.11201820522546768,
          -0.017302775755524635,
          0.06331287324428558,
          0.10233373194932938,
          -0.032859086990356445,
          -0.08285262435674667,
          -0.01991376467049122
        ],
        [
          -0.04711611196398735,
          -0.19566626846790314,
          0.05554042384028435,
          0.014599494636058807,
          0.12123920023441315,
          -0.15823426842689514,
          -0.10533001273870468,
          0.030116790905594826,
          0.1711805909872055,
          0.07516119629144669,
          -0.03646746650338173,
          -0.03663488104939461,
          -0.012958362698554993,
          0.015186344273388386,
          -0.06638801097869873,
          0.055164821445941925,
          -0.13296222686767578,
          -0.01831723377108574,
          0.08416701853275299,
          -0.010161180049180984,
          -0.10873901098966599,
          0.10165642946958542,
          0.12611381709575653,
          -0.1672607809305191,
          0.10865181684494019,
          -0.010551165789365768,
          0.01931590773165226,
          0.006192118860781193,
          -0.05188000574707985,
          0.13890868425369263,
          -0.06510914117097855,
          -0.12946252524852753
        ],
        [
          -0.16802018880844116,
          -0.16791808605194092,
          -0.15361951291561127,
          -0.10905604064464569,
          0.007593119516968727,
          0.09334410727024078,
          -0.07646074146032333,
          0.0072646611370146275,
          0.10594741255044937,
          0.016662519425153732,
          -0.09537084400653839,
          -0.046090710908174515,
          0.11006034910678864,
          0.011410980485379696,
          -0.10555598139762878,
          -0.08030600100755692,
          -0.2212265580892563,
          0.07309534400701523,
          -0.16205544769763947,
          -0.014485254883766174,
          0.1096331998705864,
          0.10659044981002808,
          -0.04837242141366005,
          -0.04083501920104027,
          -0.032978951930999756,
          -0.07795422524213791,
          0.10494758188724518,
          -0.016248496249318123,
          -0.06506134569644928,
          -0.12138394266366959,
          -0.03675069659948349,
          -0.033953215926885605
        ],
        [
          -0.0006202987860888243,
          -0.0315060019493103,
          -0.006188472732901573,
          0.14284487068653107,
          0.06036258861422539,
          -0.1718808114528656,
          -0.0902898982167244,
          -0.13833408057689667,
          0.013094361871480942,
          0.04877490550279617,
          -0.03697920963168144,
          0.04617893695831299,
          -0.0812978744506836,
          -0.10097552835941315,
          0.07501140236854553,
          0.04854535683989525,
          -0.09447687119245529,
          -0.1137690469622612,
          0.10009633749723434,
          0.12596872448921204,
          -0.06405847519636154,
          -0.15722087025642395,
          -0.1308201104402542,
          0.10916606336832047,
          0.19906525313854218,
          0.0684017613530159,
          0.0421978123486042,
          -0.006749360356479883,
          -0.09344339370727539,
          -0.0930582731962204,
          -0.057019058614969254,
          0.14561805129051208
        ],
        [
          0.16787154972553253,
          0.016356846317648888,
          0.012849648483097553,
          0.024402251467108727,
          0.06573347747325897,
          -0.11280413717031479,
          -0.1432381570339203,
          0.013456287793815136,
          -0.21685130894184113,
          0.06409349292516708,
          -0.07557363063097,
          0.08752239495515823,
          -0.17266860604286194,
          -0.07872693240642548,
          -0.027871068567037582,
          0.04712269455194473,
          0.0708463117480278,
          -0.020039668306708336,
          -0.018526146188378334,
          0.08009897172451019,
          -0.14042820036411285,
          -0.0018125614151358604,
          0.06547743082046509,
          -0.04658951237797737,
          0.07280655950307846,
          0.05368196219205856,
          0.09441183507442474,
          0.055441029369831085,
          -0.0891607329249382,
          -0.15105071663856506,
          0.056800760328769684,
          0.1287669986486435
        ],
        [
          0.13716784119606018,
          0.043104760348796844,
          -0.05923934653401375,
          0.11241720616817474,
          -0.0466020368039608,
          0.18152205646038055,
          0.045365314930677414,
          -0.09517444670200348,
          0.01767651177942753,
          0.1690066009759903,
          -0.07269139587879181,
          -0.00883477833122015,
          0.17444318532943726,
          0.03491808846592903,
          -0.055205345153808594,
          -0.09323804080486298,
          0.1376417875289917,
          0.14884574711322784,
          -0.15380753576755524,
          -0.1535816192626953,
          -0.015217788517475128,
          0.07608997821807861,
          0.16495062410831451,
          -0.13546189665794373,
          -0.07874393463134766,
          -0.07007644325494766,
          -0.05365482345223427,
          0.04884299263358116,
          -0.039859872311353683,
          -0.08360244333744049,
          -0.12411323189735413,
          -0.06592505425214767
        ],
        [
          -0.14954747259616852,
          0.10761447995901108,
          -0.149190291762352,
          -0.1361016035079956,
          0.1133420318365097,
          -0.025735072791576385,
          0.06794024258852005,
          0.01182920578867197,
          0.10421081632375717,
          -0.05248412862420082,
          -0.09915791451931,
          0.15410874783992767,
          -0.1158919408917427,
          -0.03194470703601837,
          -0.1465117335319519,
          0.13794207572937012,
          0.0264018215239048,
          -0.07137017697095871,
          -0.07895055413246155,
          -0.031214894726872444,
          0.16573181748390198,
          0.09517565369606018,
          -0.029026295989751816,
          -0.07595381885766983,
          -0.05179392546415329,
          0.08515170961618423,
          -0.07152217626571655,
          0.15916317701339722,
          -0.00431849155575037,
          -0.035776179283857346,
          -0.05165770649909973,
          0.06194475293159485
        ],
        [
          0.16617512702941895,
          -0.10255440324544907,
          0.051143404096364975,
          0.025518201291561127,
          0.04250163584947586,
          0.16340556740760803,
          0.15149080753326416,
          -0.08900100737810135,
          -0.017944611608982086,
          0.1411152333021164,
          -0.028626909479498863,
          -0.17297157645225525,
          -0.16352687776088715,
          0.09278090298175812,
          -0.028156481683254242,
          0.1404990404844284,
          0.0001968065625987947,
          0.013183233328163624,
          0.012394641526043415,
          0.16774019598960876,
          -0.08034917712211609,
          -0.10077977180480957,
          -0.08750896155834198,
          0.17910531163215637,
          0.056089941412210464,
          0.1044238805770874,
          -0.14118200540542603,
          0.0532524511218071,
          0.17022359371185303,
          -0.05862404406070709,
          0.0006891103112138808,
          0.11585452407598495
        ],
        [
          -0.047853875905275345,
          -0.09827691316604614,
          0.06219829246401787,
          0.1572919636964798,
          -0.16254888474941254,
          -0.17497578263282776,
          0.06413915753364563,
          0.07445652037858963,
          0.16298839449882507,
          0.19055013358592987,
          0.064601369202137,
          -0.07163621485233307,
          -0.18571330606937408,
          -0.18299606442451477,
          0.024464484304189682,
          -0.15577377378940582,
          0.07900223135948181,
          0.08633097261190414,
          0.024788809940218925,
          -0.09146491438150406,
          0.13239416480064392,
          -0.0036934218369424343,
          0.05956251919269562,
          -0.0413045734167099,
          0.05850500240921974,
          0.13948751986026764,
          -0.05911191180348396,
          0.08191949874162674,
          0.05576493218541145,
          -0.10325659811496735,
          -0.11753656715154648,
          0.09553173184394836
        ],
        [
          0.11465650796890259,
          0.09843994677066803,
          0.06172783672809601,
          0.12571999430656433,
          -0.16786430776119232,
          0.11426088958978653,
          -0.1879785805940628,
          -0.17857109010219574,
          -0.10915002971887589,
          -0.11644960939884186,
          0.06759463250637054,
          0.20342129468917847,
          0.1370839625597,
          -0.10684420168399811,
          -0.16141238808631897,
          -0.16181215643882751,
          0.04330702871084213,
          0.03296095132827759,
          0.1894100457429886,
          -0.029843894764780998,
          -0.007830925285816193,
          -0.13825160264968872,
          0.06541922688484192,
          0.0670316219329834,
          -0.11835763603448868,
          0.186390683054924,
          0.020373184233903885,
          -0.09917178750038147,
          0.00038440502248704433,
          -0.12668476998806,
          0.10768962651491165,
          -0.06489923596382141
        ],
        [
          0.049328215420246124,
          -0.03197026252746582,
          0.0040421453304588795,
          0.13615897297859192,
          0.1974417120218277,
          -0.0920124351978302,
          0.15269814431667328,
          -0.11659592390060425,
          0.11010471731424332,
          -0.020549336448311806,
          -0.06408492475748062,
          0.04476676136255264,
          -0.11004655063152313,
          0.07268087565898895,
          0.00223481934517622,
          0.08299080282449722,
          0.12079983949661255,
          0.04961564019322395,
          0.0960254967212677,
          -0.08159980922937393,
          0.09890515357255936,
          -0.031066786497831345,
          0.09030398726463318,
          -0.0313677117228508,
          0.11496929824352264,
          0.10762812197208405,
          0.00029758206801488996,
          0.08881767839193344,
          0.026065412908792496,
          -0.1936122477054596,
          -0.09941703081130981,
          0.06721802055835724
        ],
        [
          -0.12258932739496231,
          -0.0648178830742836,
          -0.0475226566195488,
          -0.010394117794930935,
          0.12254060059785843,
          0.02462134137749672,
          0.14245407283306122,
          -0.00347657292149961,
          0.22767096757888794,
          0.21367496252059937,
          0.0039055028464645147,
          0.16626842319965363,
          -0.15883788466453552,
          0.045416299253702164,
          -0.17733405530452728,
          0.11541695892810822,
          -0.12070602178573608,
          -0.1446324735879898,
          -0.07910051941871643,
          0.03704936429858208,
          -0.002403148915618658,
          0.1309938132762909,
          0.09296726435422897,
          -0.0204788688570261,
          -0.10574512183666229,
          -0.07338753342628479,
          0.009052050299942493,
          0.12915855646133423,
          0.11892711371183395,
          -0.03288432955741882,
          0.01278967596590519,
          0.10482971370220184
        ],
        [
          -0.21249333024024963,
          0.10899463295936584,
          -0.1088063195347786,
          -0.1450614184141159,
          -0.07340347021818161,
          0.013033311814069748,
          -0.07997845858335495,
          -0.14647088944911957,
          0.11847398430109024,
          -0.0015803530113771558,
          0.044855643063783646,
          0.010745429433882236,
          -0.1263146996498108,
          -0.06684960424900055,
          0.19499187171459198,
          -0.10780777782201767,
          0.22952181100845337,
          -0.016451939940452576,
          0.23944538831710815,
          -0.01484826672822237,
          0.12595826387405396,
          0.0992126613855362,
          -0.12437669932842255,
          -0.15344737470149994,
          0.10740239173173904,
          -0.10755322873592377,
          -0.001009798375889659,
          -0.08318711072206497,
          0.006882172543555498,
          0.021684134379029274,
          0.21144860982894897,
          0.22813676297664642
        ],
        [
          -0.11406446248292923,
          -0.04591910541057587,
          0.20623262226581573,
          0.033856891095638275,
          -0.037838127464056015,
          -0.00681655015796423,
          0.0029011655133217573,
          -0.0005415166378952563,
          -0.12755952775478363,
          -0.0234939344227314,
          -0.03672950714826584,
          -0.09775944799184799,
          0.12701138854026794,
          0.05373965576291084,
          -0.1097652018070221,
          0.09252642095088959,
          -0.04761211946606636,
          -0.05638422444462776,
          -0.010402671992778778,
          0.1904461532831192,
          0.0005410294397734106,
          -0.005942123476415873,
          0.01484227366745472,
          0.21498456597328186,
          0.1628018319606781,
          -0.0222784336656332,
          -0.15157058835029602,
          -0.056835830211639404,
          0.015028497204184532,
          -0.15884386003017426,
          -0.08327178657054901,
          0.12854395806789398
        ],
        [
          0.18622563779354095,
          0.05394632741808891,
          0.19352199137210846,
          -0.021899089217185974,
          0.11087143421173096,
          0.1231452003121376,
          0.12787507474422455,
          -0.04272375628352165,
          -0.14567863941192627,
          -0.13109424710273743,
          -0.0887579619884491,
          0.04030754044651985,
          -0.028576446697115898,
          -0.09600941836833954,
          -0.05763481929898262,
          0.06172848120331764,
          0.2139837145805359,
          0.14149384200572968,
          -0.1390993893146515,
          0.17353999614715576,
          0.09312399476766586,
          0.016124913468956947,
          0.05676213279366493,
          0.020754007622599602,
          -0.03796594589948654,
          0.03626447543501854,
          -7.07436483935453e-05,
          0.08169471472501755,
          0.01722748763859272,
          -0.18383221328258514,
          -0.18021300435066223,
          0.11661612242460251
        ],
        [
          0.12350112944841385,
          -0.017342261970043182,
          -0.10809315741062164,
          -0.019186485558748245,
          -0.16454407572746277,
          0.055995553731918335,
          0.1519477218389511,
          -0.1719869077205658,
          0.1429564505815506,
          -0.06559746712446213,
          0.05850373953580856,
          0.1005023866891861,
          -0.12393143028020859,
          -0.1550096720457077,
          -0.12556864321231842,
          0.027725977823138237,
          0.015456391498446465,
          -0.1080620139837265,
          -0.10423821955919266,
          -0.05063365399837494,
          -0.0923660472035408,
          0.0005335755995474756,
          -0.14709842205047607,
          0.1868642121553421,
          0.07546095550060272,
          -0.08470407128334045,
          0.23165863752365112,
          0.1945543736219406,
          0.15419235825538635,
          0.04657129943370819,
          0.029415592551231384,
          0.025815268978476524
        ],
        [
          0.2374992072582245,
          0.1940070539712906,
          0.07098221033811569,
          -0.050856124609708786,
          0.12888675928115845,
          0.15287919342517853,
          -0.11520940065383911,
          -0.08585967868566513,
          -0.14301073551177979,
          -0.07909556478261948,
          -0.11954046785831451,
          -0.00039591710083186626,
          -0.02787592262029648,
          -0.03355102241039276,
          -0.2007531374692917,
          0.06444194912910461,
          -0.00037888504448346794,
          -0.016951965168118477,
          0.036481957882642746,
          -0.15768295526504517,
          -0.05267789214849472,
          -0.07956236600875854,
          -0.013575609773397446,
          -0.12182655930519104,
          -0.024181440472602844,
          -0.20392219722270966,
          -0.08779104799032211,
          -0.21080619096755981,
          -0.012646639719605446,
          0.02005801908671856,
          -0.111150823533535,
          -0.03070668689906597
        ],
        [
          0.15281620621681213,
          -0.035991113632917404,
          0.026506107300519943,
          0.08993758261203766,
          0.10378382354974747,
          -0.05272531509399414,
          0.15039142966270447,
          0.040215879678726196,
          0.04280738905072212,
          0.13169121742248535,
          -0.06291776150465012,
          0.050587449222803116,
          -0.19591368734836578,
          -0.11537902802228928,
          -0.14913929998874664,
          -0.2579965591430664,
          -0.03922523185610771,
          -0.22107888758182526,
          -0.025614166632294655,
          0.0034430120140314102,
          0.1010727658867836,
          -0.127131387591362,
          0.03976200148463249,
          -0.002643251558765769,
          -0.09104057401418686,
          -0.030758114531636238,
          0.09761729091405869,
          0.08357897400856018,
          -0.04263714328408241,
          -0.10976962000131607,
          0.10294492542743683,
          0.007046849466860294
        ],
        [
          -0.11807827651500702,
          -0.01344557385891676,
          0.10403725504875183,
          -0.054348234087228775,
          -0.11907649785280228,
          0.07809170335531235,
          -0.18994009494781494,
          -0.05668819695711136,
          -0.06902826577425003,
          0.11069519817829132,
          -0.055771809071302414,
          0.052930910140275955,
          0.17896951735019684,
          0.07855863869190216,
          -0.17671220004558563,
          0.13512031733989716,
          0.006415380630642176,
          -0.1502874344587326,
          0.10001818835735321,
          0.02301252819597721,
          0.011167371645569801,
          -0.11735663563013077,
          -0.004855703562498093,
          0.04342610388994217,
          0.0441073440015316,
          -0.11116047203540802,
          0.17738060653209686,
          0.0224531851708889,
          0.03974997624754906,
          -0.061799902468919754,
          -0.041616134345531464,
          0.18858782947063446
        ],
        [
          0.12850576639175415,
          0.1718684732913971,
          0.173310786485672,
          -0.009398436173796654,
          0.05710040405392647,
          0.00631603691726923,
          0.14188790321350098,
          0.05766602233052254,
          0.19968540966510773,
          0.08552389591932297,
          -0.07776667177677155,
          0.049129944294691086,
          0.22689737379550934,
          -0.016315853223204613,
          0.09033732861280441,
          0.09809422492980957,
          0.22630497813224792,
          0.09953521937131882,
          0.1338002234697342,
          -0.13113783299922943,
          -0.06258048117160797,
          0.01434272900223732,
          0.07363959401845932,
          0.21399448812007904,
          0.1283799558877945,
          -0.051934998482465744,
          0.002905344357714057,
          0.08960552513599396,
          0.06810076534748077,
          0.07831577211618423,
          -0.16634373366832733,
          0.044316232204437256
        ],
        [
          -0.09635204076766968,
          0.028263311833143234,
          0.05723683536052704,
          0.11483816802501678,
          -0.055121034383773804,
          0.1101076528429985,
          0.03619013726711273,
          -0.057378191500902176,
          0.0751778781414032,
          0.11971863359212875,
          0.06828131526708603,
          -0.08546052873134613,
          0.08263306319713593,
          0.03217555582523346,
          0.05435653775930405,
          -0.2141910046339035,
          -0.2188231647014618,
          0.0974237471818924,
          0.12518085539340973,
          0.09541916102170944,
          0.025317588821053505,
          -0.10403374582529068,
          -0.11912208050489426,
          -0.04546549543738365,
          0.10454273968935013,
          -0.14190436899662018,
          0.10200493782758713,
          -0.01636105217039585,
          0.17258669435977936,
          0.10321281105279922,
          -0.04654917120933533,
          0.0592273510992527
        ],
        [
          0.08234955370426178,
          0.1483137011528015,
          0.0551692433655262,
          0.15252916514873505,
          0.029448475688695908,
          -0.027735473588109016,
          -0.03676503524184227,
          -0.10467453300952911,
          -0.0016605171840637922,
          -0.015325402840971947,
          -0.21331116557121277,
          -0.20590820908546448,
          -0.16249129176139832,
          0.038249991834163666,
          0.14781273901462555,
          0.06269776076078415,
          -0.10404445976018906,
          0.07979103177785873,
          0.11095752567052841,
          0.019843783229589462,
          0.13097289204597473,
          -0.04233083501458168,
          -0.09033627808094025,
          0.17974163591861725,
          -0.14141933619976044,
          -0.02081802859902382,
          -0.15121205151081085,
          -0.14149780571460724,
          0.16974399983882904,
          -0.06420808285474777,
          0.14186540246009827,
          0.015260701067745686
        ],
        [
          -0.06992091238498688,
          -0.12846015393733978,
          0.08094623684883118,
          -0.07611362636089325,
          -0.10133594274520874,
          0.2125290036201477,
          0.04392057657241821,
          0.1970781534910202,
          -0.049391038715839386,
          -0.007045529782772064,
          0.12607207894325256,
          0.17740663886070251,
          -0.11941293627023697,
          -0.10468404740095139,
          -0.08019652962684631,
          -0.05303344130516052,
          0.134536013007164,
          0.05633898824453354,
          -0.13265936076641083,
          0.16713446378707886,
          -0.16091857850551605,
          -0.1696714609861374,
          -0.0608646385371685,
          0.06968466937541962,
          0.04931691661477089,
          0.06597308069467545,
          0.14844541251659393,
          0.0916372686624527,
          -0.06977401673793793,
          -0.08437279611825943,
          -0.03193431720137596,
          0.1517045646905899
        ],
        [
          0.02706591598689556,
          -0.03057226911187172,
          0.1334894299507141,
          -0.1316322684288025,
          -0.1660119593143463,
          0.09795010834932327,
          -0.14190304279327393,
          0.03698612004518509,
          0.03120189532637596,
          -0.010487541556358337,
          -0.015312667936086655,
          0.11264994740486145,
          0.0002416805800748989,
          -0.14969849586486816,
          -0.0031772837974131107,
          -0.015777328982949257,
          0.022918546572327614,
          0.015290807001292706,
          0.09961394220590591,
          0.09809413552284241,
          -0.06511060893535614,
          -0.06955675035715103,
          -0.011367629282176495,
          0.10937986522912979,
          0.04757188260555267,
          -0.0076169176027178764,
          0.112310491502285,
          0.12287213653326035,
          -0.21267752349376678,
          -0.16224659979343414,
          0.030658407136797905,
          0.1854781210422516
        ],
        [
          0.06893844902515411,
          -0.12824416160583496,
          0.08866716176271439,
          -0.0076143452897667885,
          -0.013240047730505466,
          -0.029890010133385658,
          0.16844673454761505,
          -0.06660377979278564,
          0.10912487655878067,
          -0.09913194924592972,
          -0.08329571038484573,
          -0.2410954087972641,
          0.0009539348538964987,
          0.04734869673848152,
          0.004725889302790165,
          -0.07489845901727676,
          0.08540237694978714,
          -0.08112173527479172,
          0.015586880035698414,
          -0.12590058147907257,
          0.018738403916358948,
          0.07148117572069168,
          0.1485997885465622,
          0.08418875187635422,
          -0.0491444393992424,
          -0.11937222629785538,
          0.19280923902988434,
          -0.008840637281537056,
          -0.0986362025141716,
          -0.032533664256334305,
          -0.03239591047167778,
          -0.16950272023677826
        ],
        [
          0.04106123372912407,
          0.02433498576283455,
          -0.04586690664291382,
          -0.2508114278316498,
          -0.18022024631500244,
          0.07177410274744034,
          -0.01883527636528015,
          -0.1674492359161377,
          -0.17910243570804596,
          0.11228436231613159,
          0.10051257163286209,
          -0.0038977230433374643,
          0.006181522738188505,
          0.23561044037342072,
          0.012839552946388721,
          0.1821826994419098,
          0.06036905571818352,
          0.18903565406799316,
          0.0936550423502922,
          0.010785136371850967,
          0.06636940687894821,
          -0.04421035200357437,
          0.2124081254005432,
          -0.012505806051194668,
          -0.10443111509084702,
          0.10693703591823578,
          0.19418920576572418,
          0.09014181047677994,
          -0.03637818247079849,
          0.11806275695562363,
          0.23452624678611755,
          -0.09983237832784653
        ],
        [
          0.079422228038311,
          -0.13040904700756073,
          -0.13838376104831696,
          0.140561044216156,
          0.10557451099157333,
          0.06487701833248138,
          -0.1728283315896988,
          -0.13552139699459076,
          -0.19819162786006927,
          -0.08534033596515656,
          -0.03938513621687889,
          -0.00732457498088479,
          0.011505845934152603,
          0.05085500329732895,
          -0.11463852226734161,
          0.06963491439819336,
          -0.14420001208782196,
          0.07695053517818451,
          0.08971435576677322,
          0.10711661726236343,
          0.09851781278848648,
          -0.16298595070838928,
          0.16830146312713623,
          0.18908584117889404,
          0.06879495084285736,
          0.054364610463380814,
          -0.15272735059261322,
          -0.1735745519399643,
          -0.007313125766813755,
          0.06384571641683578,
          -0.145375058054924,
          0.1769351214170456
        ],
        [
          -0.010725145228207111,
          0.09749417006969452,
          -0.12202663719654083,
          -0.08251025527715683,
          -0.03196610510349274,
          -0.11793985962867737,
          -0.0747191458940506,
          -0.1753920167684555,
          -0.028979990631341934,
          0.0004516417975537479,
          -0.043198343366384506,
          -0.11609625071287155,
          0.09401703625917435,
          0.09659364819526672,
          0.14649997651576996,
          0.059442903846502304,
          0.043595269322395325,
          -0.11696036159992218,
          0.016134819015860558,
          -0.09806221723556519,
          -0.013322379440069199,
          0.10286462306976318,
          -0.15368197858333588,
          0.09803298860788345,
          -0.07375979423522949,
          -0.13262324035167694,
          -0.07522271573543549,
          0.11545270681381226,
          0.1199088841676712,
          0.19937318563461304,
          0.14644081890583038,
          0.04303248971700668
        ],
        [
          -0.08193688094615936,
          0.07109356671571732,
          -0.12908464670181274,
          0.15628765523433685,
          0.14741823077201843,
          -0.030393213033676147,
          -0.16671200096607208,
          0.08109939098358154,
          -0.023016363382339478,
          0.057953186333179474,
          0.07737891376018524,
          -0.1099260225892067,
          0.07255437970161438,
          0.12983374297618866,
          -0.017722036689519882,
          0.16591861844062805,
          -0.07774829119443893,
          0.027825791388750076,
          0.010785859078168869,
          0.1505691558122635,
          -0.17234690487384796,
          -0.11977959424257278,
          0.05165959894657135,
          -0.035792041569948196,
          0.022376690059900284,
          0.0720316469669342,
          0.05648371949791908,
          0.12489992380142212,
          -0.08339135348796844,
          -0.1366869956254959,
          0.06635919213294983,
          0.09256429225206375
        ],
        [
          0.10247765481472015,
          -0.17585372924804688,
          0.02825429104268551,
          0.08684169501066208,
          0.06487638503313065,
          0.06119823083281517,
          0.1867068111896515,
          0.08437050133943558,
          0.12332268804311752,
          0.13303060829639435,
          0.008364667184650898,
          0.08059525489807129,
          -0.00037793678347952664,
          -0.1575780063867569,
          0.06772727519273758,
          -0.19307945668697357,
          0.11099280416965485,
          0.12137500941753387,
          -0.16874408721923828,
          0.09102829545736313,
          -0.14531046152114868,
          -0.09949894994497299,
          -0.10405325889587402,
          -0.0321708619594574,
          0.023670777678489685,
          0.02041790634393692,
          -0.009939145296812057,
          0.05605700984597206,
          0.07663629949092865,
          -0.12436242401599884,
          -0.004880531691014767,
          -0.20948435366153717
        ],
        [
          0.07469624280929565,
          -0.11781194061040878,
          0.14545494318008423,
          0.14151737093925476,
          -0.05338875949382782,
          -0.08517201989889145,
          -0.026578685268759727,
          -0.0870918557047844,
          0.043972477316856384,
          -0.09534063190221786,
          -0.1301732212305069,
          0.06131592392921448,
          0.005604606121778488,
          0.0025478783063590527,
          0.0075097521767020226,
          0.04788103699684143,
          0.06407655030488968,
          -0.001411069417372346,
          -0.11226607114076614,
          -0.07479553669691086,
          0.1236337274312973,
          -0.06110949441790581,
          -0.02270088903605938,
          -0.1523107886314392,
          -0.1662401705980301,
          0.06320741772651672,
          0.15706239640712738,
          0.08430594950914383,
          -0.01982620358467102,
          -0.004698926582932472,
          -0.042532991617918015,
          0.11082825064659119
        ],
        [
          -0.14093756675720215,
          -0.05567925423383713,
          -0.21481648087501526,
          -0.0066887391731143,
          -0.20263606309890747,
          -0.09297581017017365,
          0.02935163490474224,
          -0.1124771386384964,
          0.009941021911799908,
          0.03294907882809639,
          -0.06557878851890564,
          0.06852439045906067,
          -0.0882430300116539,
          0.08173365145921707,
          0.12293689697980881,
          0.004672897048294544,
          0.08004320412874222,
          0.1585308164358139,
          0.029922666028141975,
          0.005940271075814962,
          -0.059075478464365005,
          -0.046162985265254974,
          0.08632766455411911,
          0.10837709903717041,
          -0.1279338300228119,
          0.04232606664299965,
          -0.0933615192770958,
          0.19964224100112915,
          0.10687892884016037,
          0.0359356515109539,
          0.17318829894065857,
          0.022475799545645714
        ],
        [
          -0.20133234560489655,
          -0.24966666102409363,
          -0.19658100605010986,
          -0.16193221509456635,
          -0.13599464297294617,
          -0.132676362991333,
          -0.15563496947288513,
          -0.19150136411190033,
          0.08061625808477402,
          -0.054074205458164215,
          -0.016990788280963898,
          0.058831218630075455,
          -0.03502630069851875,
          0.1279585212469101,
          0.11520300805568695,
          0.002078318502753973,
          0.10457616299390793,
          0.0923406109213829,
          -0.13562753796577454,
          0.030627919360995293,
          -0.10309107601642609,
          0.0998261570930481,
          -0.0940798968076706,
          -0.05360351502895355,
          0.1338704526424408,
          0.15323197841644287,
          0.13522173464298248,
          -0.082880400121212,
          0.1659279763698578,
          -0.09808685630559921,
          -0.00170249177608639,
          -0.012210276909172535
        ],
        [
          0.2586226463317871,
          0.22725936770439148,
          0.2589985430240631,
          -0.05981345847249031,
          0.13887378573417664,
          0.1733303964138031,
          0.2066635936498642,
          -0.0027199680916965008,
          0.0451054684817791,
          0.041745733469724655,
          -0.17282412946224213,
          0.10214533656835556,
          0.04104982316493988,
          0.06932549923658371,
          -0.0825689509510994,
          0.024712398648262024,
          0.03217727318406105,
          -0.13224460184574127,
          -0.12498648464679718,
          -0.2102690041065216,
          0.060516852885484695,
          -0.15754681825637817,
          0.05008557066321373,
          0.14874592423439026,
          0.03202447667717934,
          -0.15083877742290497,
          0.0156478863209486,
          0.017933867871761322,
          0.038537975400686264,
          -0.1407143473625183,
          -0.1139468178153038,
          -0.09603285044431686
        ],
        [
          -0.1910429149866104,
          0.12138182669878006,
          0.08799494057893753,
          0.06260287016630173,
          -0.07060900330543518,
          -0.2081565260887146,
          -0.07258346676826477,
          -0.04027295485138893,
          0.19891023635864258,
          0.11644548922777176,
          0.15955406427383423,
          0.16846494376659393,
          0.21398663520812988,
          0.1958419233560562,
          0.13720621168613434,
          -0.09725730866193771,
          -0.20748640596866608,
          -0.09834792464971542,
          0.12559974193572998,
          -0.05457792431116104,
          -0.16420894861221313,
          0.1580534726381302,
          -0.028971141204237938,
          0.15170416235923767,
          -0.08480677753686905,
          0.0055249761790037155,
          -0.10448487102985382,
          0.10150706022977829,
          -0.11645442992448807,
          -0.020064322277903557,
          -0.12875954806804657,
          0.07730243355035782
        ],
        [
          -0.2091633379459381,
          -0.1506747305393219,
          0.05965556204319,
          -0.013440370559692383,
          -0.15068157017230988,
          -0.06466396898031235,
          -0.031110398471355438,
          -0.13928091526031494,
          -0.1139710545539856,
          -0.01208139955997467,
          0.13007505238056183,
          -0.1734866350889206,
          -0.19957835972309113,
          -0.08996114879846573,
          -0.17487327754497528,
          -0.010747543536126614,
          -0.029426326975226402,
          0.0864187553524971,
          -0.15366984903812408,
          -0.10146348178386688,
          -0.11131933331489563,
          -0.0718146339058876,
          -0.036698803305625916,
          -0.14960967004299164,
          -0.08376426249742508,
          0.03183600306510925,
          0.0016128170536831021,
          -0.06988124549388885,
          0.12481603026390076,
          0.20417185127735138,
          -0.1129269227385521,
          -0.09189167618751526
        ],
        [
          0.03961045667529106,
          -0.1705041527748108,
          0.1443515568971634,
          -0.02758670039474964,
          -0.05335760861635208,
          0.030727772042155266,
          -0.0014439118094742298,
          0.1636172980070114,
          0.17563295364379883,
          0.11043898016214371,
          0.14658617973327637,
          0.0455293208360672,
          0.05898509547114372,
          -0.036194898188114166,
          0.07606577128171921,
          -0.009506226517260075,
          -0.11576736718416214,
          0.11666418612003326,
          0.1286403387784958,
          -0.14260420203208923,
          0.08884477615356445,
          0.08965123444795609,
          0.010841697454452515,
          0.11846855282783508,
          -0.1233634352684021,
          0.023453200235962868,
          -0.14029796421527863,
          0.017669502645730972,
          0.15282733738422394,
          0.10213739424943924,
          -0.1456584930419922,
          0.07515885680913925
        ],
        [
          -0.019195325672626495,
          0.020594164729118347,
          -0.02244434505701065,
          -0.21292942762374878,
          -0.16916437447071075,
          -0.05626152455806732,
          -0.13461680710315704,
          0.11950797587633133,
          -0.06394350528717041,
          -0.17362815141677856,
          -0.07532856613397598,
          0.06869332492351532,
          -0.12349552661180496,
          0.048695195466279984,
          0.044171929359436035,
          0.11288811266422272,
          0.15484504401683807,
          -0.05422341078519821,
          0.06058443710207939,
          -0.14372366666793823,
          0.009663896635174751,
          0.12789595127105713,
          -0.10936803370714188,
          -0.040756456553936005,
          0.14389543235301971,
          -0.07359939813613892,
          0.09500273317098618,
          -0.002811337821185589,
          0.19266730546951294,
          -0.06980926543474197,
          0.05852719396352768,
          0.16657330095767975
        ],
        [
          -0.06904959678649902,
          -0.14889705181121826,
          -0.1266757696866989,
          -0.10459653288125992,
          -0.1725628674030304,
          0.025830963626503944,
          -0.09109682589769363,
          -0.11526487022638321,
          0.10093962401151657,
          0.14537464082241058,
          0.10812964290380478,
          -0.12108215689659119,
          -0.21469718217849731,
          -0.05821836367249489,
          0.014444935135543346,
          -0.2085614800453186,
          0.08277270942926407,
          -0.09538145363330841,
          -0.006677139084786177,
          0.1384330689907074,
          -0.07835887372493744,
          0.02476644515991211,
          0.023052792996168137,
          -0.17327536642551422,
          -0.11979536712169647,
          -0.050187595188617706,
          0.002522773575037718,
          0.055607330054044724,
          -0.10631079226732254,
          0.030917348340153694,
          0.11284047365188599,
          -0.03286248818039894
        ],
        [
          -0.06333194673061371,
          0.15551640093326569,
          0.13180561363697052,
          -0.016240505501627922,
          -0.13893987238407135,
          -0.02078355848789215,
          -0.17450815439224243,
          0.04318670555949211,
          0.08716333657503128,
          -0.0673377588391304,
          -0.0002925522858276963,
          -0.016685962677001953,
          0.15040020644664764,
          -0.09714362025260925,
          -0.08095333725214005,
          0.10049551725387573,
          0.09525111317634583,
          -0.11965428292751312,
          0.17652638256549835,
          -0.07425258308649063,
          0.10074305534362793,
          0.003970174118876457,
          -0.13899341225624084,
          0.06952545791864395,
          -0.11670670658349991,
          0.017304595559835434,
          0.13998176157474518,
          -0.00046188136911951005,
          0.1138010174036026,
          0.07773886620998383,
          -0.1558261662721634,
          0.053822554647922516
        ],
        [
          0.0860304981470108,
          -0.08217012137174606,
          0.02541060745716095,
          0.21057547628879547,
          -0.05658242106437683,
          -0.014353225938975811,
          0.0527595616877079,
          0.1674341857433319,
          0.13514894247055054,
          -0.001952405204065144,
          0.042900972068309784,
          -0.1416415274143219,
          0.04437561705708504,
          -0.09301833063364029,
          -0.18226946890354156,
          -0.22303803265094757,
          -0.22029359638690948,
          -0.00658537307754159,
          -0.15770451724529266,
          -0.13963492214679718,
          0.13525162637233734,
          -0.09753497689962387,
          0.03504046052694321,
          0.0703515037894249,
          0.0814252495765686,
          -0.02496912330389023,
          0.10372808575630188,
          -0.03472375124692917,
          -0.08091296255588531,
          0.1947251707315445,
          -0.11972975730895996,
          0.16176877915859222
        ],
        [
          0.013436781242489815,
          0.0839315727353096,
          -0.14859570562839508,
          -0.08322460949420929,
          -0.06268452852964401,
          0.08901805430650711,
          -0.0855388268828392,
          -0.08072423189878464,
          0.06281408667564392,
          0.11489313095808029,
          -0.013343928381800652,
          0.004523513372987509,
          0.061877403408288956,
          0.04350912198424339,
          0.1646861881017685,
          -0.05400063097476959,
          0.1914866715669632,
          0.14163139462471008,
          -0.04125616326928139,
          -0.10950031131505966,
          0.12163957208395004,
          -0.134914830327034,
          -0.11556065827608109,
          -0.08656683564186096,
          0.05449322238564491,
          0.09936556220054626,
          -0.0541960634291172,
          0.14500536024570465,
          -0.1380537450313568,
          0.017550939694046974,
          -0.08005715161561966,
          0.03500901907682419
        ],
        [
          0.03963026776909828,
          0.16231971979141235,
          0.01721102185547352,
          0.15206260979175568,
          -0.10292120277881622,
          0.11126002669334412,
          0.12825989723205566,
          -0.09318316727876663,
          0.02699241414666176,
          -0.09850791841745377,
          -0.11509543657302856,
          0.02796309068799019,
          -0.11604305356740952,
          -0.06754574179649353,
          -0.17592152953147888,
          0.0428655706346035,
          -0.18595139682292938,
          -0.016815438866615295,
          -0.08270055055618286,
          -0.13842743635177612,
          0.10738662630319595,
          -0.05320987105369568,
          -0.15625108778476715,
          -0.015263264998793602,
          0.14594978094100952,
          0.04166946932673454,
          0.05785030499100685,
          0.015694649890065193,
          0.11170840263366699,
          0.1145169585943222,
          -0.1451103240251541,
          0.03521232679486275
        ],
        [
          0.045440923422575,
          0.03777720779180527,
          0.10644566267728806,
          0.10583258420228958,
          0.05931844562292099,
          0.1152210682630539,
          0.024778330698609352,
          0.05521373450756073,
          0.08533283323049545,
          0.15564702451229095,
          -0.09060817956924438,
          -0.12393686175346375,
          -0.15787218511104584,
          -0.2083825021982193,
          -0.18911145627498627,
          -0.2214764505624771,
          -0.0646691620349884,
          0.0658206045627594,
          0.0006040161824785173,
          0.14615729451179504,
          0.03893878310918808,
          -0.049957819283008575,
          -0.16154558956623077,
          0.1081436276435852,
          -0.005699283443391323,
          -0.10697409510612488,
          0.1536852866411209,
          0.07798512279987335,
          -0.05688732489943504,
          -0.18254315853118896,
          0.0536828376352787,
          0.09197328984737396
        ],
        [
          0.05960933864116669,
          0.08155374228954315,
          -0.10673066973686218,
          -0.12314000725746155,
          -0.07544495165348053,
          0.12241756170988083,
          -0.10290639102458954,
          0.13348139822483063,
          0.005910265725106001,
          0.16559287905693054,
          0.2233317345380783,
          -0.036565978080034256,
          -0.16027967631816864,
          0.0983266532421112,
          0.004610380157828331,
          -0.03287358582019806,
          0.0634232684969902,
          -0.044799115508794785,
          -0.09286727011203766,
          -0.136259987950325,
          0.1328161209821701,
          0.13984732329845428,
          0.09746997058391571,
          -0.13769786059856415,
          -0.01385383028537035,
          0.004609198775142431,
          -0.10620173811912537,
          0.043045658618211746,
          0.08557188510894775,
          -0.07841923087835312,
          -0.13655157387256622,
          0.02070971578359604
        ],
        [
          -0.1601763218641281,
          -0.10124846547842026,
          -0.1676626354455948,
          -0.02982434444129467,
          0.09937425702810287,
          -0.03297034278512001,
          -0.20420216023921967,
          -0.14004722237586975,
          0.12370626628398895,
          0.106620654463768,
          0.11110029369592667,
          0.1696312576532364,
          0.11537672579288483,
          0.1770308017730713,
          -0.004637159872800112,
          0.07522722333669662,
          0.1883419305086136,
          0.1775122880935669,
          0.0498376302421093,
          -0.06089449301362038,
          0.13923734426498413,
          0.09615959972143173,
          0.11609655618667603,
          -0.028634043410420418,
          0.027199307456612587,
          0.18540632724761963,
          -0.07899098843336105,
          0.04706062376499176,
          0.19794845581054688,
          0.18299411237239838,
          0.0762009471654892,
          0.08777347952127457
        ],
        [
          -0.026674767956137657,
          -0.019455190747976303,
          -0.06167186051607132,
          0.07504606992006302,
          0.06063173711299896,
          0.16027969121932983,
          0.0264491755515337,
          0.19392256438732147,
          0.1992158591747284,
          -0.08871999382972717,
          0.13857528567314148,
          -0.13241732120513916,
          -0.0009224152308888733,
          -0.13670514523983002,
          0.064952552318573,
          -0.008586883544921875,
          -0.0396491214632988,
          -0.006220374256372452,
          -0.1540294736623764,
          -0.006432739086449146,
          0.09070033580064774,
          0.09176600724458694,
          0.10804873704910278,
          -0.059539757668972015,
          0.05850871652364731,
          -0.08740412443876266,
          -0.0989040955901146,
          -0.1868847906589508,
          -0.13441182672977448,
          0.12891541421413422,
          -0.09463825076818466,
          0.10970684885978699
        ],
        [
          -0.0551484152674675,
          0.049578431993722916,
          0.18052178621292114,
          -0.055915266275405884,
          0.17210204899311066,
          0.04737852141261101,
          0.01615494303405285,
          -0.0646829828619957,
          -0.020274242386221886,
          -0.19994010031223297,
          -0.26074159145355225,
          -0.03889406844973564,
          -0.08494055271148682,
          -0.15073353052139282,
          -0.13838182389736176,
          0.15791819989681244,
          0.16097721457481384,
          0.11471770703792572,
          -0.014042885042726994,
          -0.12168136239051819,
          0.1250293254852295,
          0.10334735363721848,
          0.05514328554272652,
          0.12977191805839539,
          -0.08713916689157486,
          0.01033055316656828,
          -0.06337808072566986,
          -0.09983549267053604,
          -0.09496171027421951,
          -0.02706448920071125,
          -0.04257037118077278,
          0.20917855203151703
        ],
        [
          -0.2055341601371765,
          0.08693115413188934,
          0.07137900590896606,
          -0.16391438245773315,
          -0.1451295167207718,
          0.044256336987018585,
          -0.09413830190896988,
          0.05705220624804497,
          -0.024442501366138458,
          0.04421094059944153,
          0.08068161457777023,
          0.010293882340192795,
          0.08274228125810623,
          0.03659668564796448,
          0.17463475465774536,
          0.25130119919776917,
          -0.056919731199741364,
          0.14794892072677612,
          0.11937394738197327,
          0.06702950596809387,
          0.06467117369174957,
          0.13767172396183014,
          0.1453120857477188,
          0.06565486639738083,
          -0.1316888928413391,
          0.09248647093772888,
          -0.19233013689517975,
          -0.01490027830004692,
          -0.10153886675834656,
          0.07584620267152786,
          0.11398826539516449,
          -0.11413545906543732
        ],
        [
          0.12832480669021606,
          -0.09542956203222275,
          -0.03671438246965408,
          0.06207121163606644,
          -0.008611597120761871,
          -0.14827680587768555,
          0.11867678165435791,
          -0.1521463692188263,
          0.08154503256082535,
          0.047149401158094406,
          -0.011474603787064552,
          0.19706442952156067,
          0.12564782798290253,
          0.14450165629386902,
          0.03904962167143822,
          -0.00832836702466011,
          0.11603660881519318,
          -0.08009473234415054,
          -0.16129833459854126,
          -0.05540671572089195,
          -0.09898249059915543,
          -0.1403808295726776,
          0.11243706196546555,
          0.06756242364645004,
          -0.0034519450273364782,
          -0.09635908901691437,
          0.10462956875562668,
          0.031033804640173912,
          -0.021142274141311646,
          -0.17082078754901886,
          -0.06935875862836838,
          -0.07002253830432892
        ],
        [
          0.03395687788724899,
          0.009180151857435703,
          0.03136841580271721,
          0.04336598142981529,
          0.09813946485519409,
          -0.11694508045911789,
          0.16339211165905,
          0.09555038064718246,
          -0.12574562430381775,
          -0.16530217230319977,
          -0.026524093002080917,
          0.12095724046230316,
          -0.017899703234434128,
          -0.20411372184753418,
          -0.17189034819602966,
          0.06885332614183426,
          -0.010629714466631413,
          -0.053050823509693146,
          -0.18066079914569855,
          -0.19673088192939758,
          -0.15771161019802094,
          -0.10220818966627121,
          0.09551852941513062,
          0.10669153928756714,
          0.10325973480939865,
          0.158925399184227,
          0.031749360263347626,
          0.16757546365261078,
          0.11045435070991516,
          0.05316944420337677,
          0.07146390527486801,
          0.18737700581550598
        ],
        [
          0.11647803336381912,
          -0.08382660150527954,
          -0.10408550500869751,
          -0.0412420816719532,
          -0.019056785851716995,
          0.07114628702402115,
          0.2066091150045395,
          0.07570444792509079,
          0.03588363155722618,
          -0.06720491498708725,
          -0.23679473996162415,
          -0.09804581105709076,
          -0.1562029868364334,
          -0.041641585528850555,
          0.10695350915193558,
          0.07632891833782196,
          -0.05483713373541832,
          0.1520080864429474,
          0.04722951725125313,
          0.0450279638171196,
          -0.1294252723455429,
          -0.0662878155708313,
          -0.05888697877526283,
          -0.003851065644994378,
          0.014468916691839695,
          0.06921830028295517,
          0.1624239981174469,
          -0.06765056401491165,
          0.04327017441391945,
          -0.07978376001119614,
          0.06847059726715088,
          0.027559658512473106
        ],
        [
          0.07539200782775879,
          -0.0011212574318051338,
          0.04003545641899109,
          0.03728863224387169,
          0.09712357819080353,
          -0.01844734512269497,
          0.0006737909861840308,
          0.11082186549901962,
          0.1021692082285881,
          0.1123846173286438,
          -0.13551154732704163,
          0.15714304149150848,
          -0.15316005051136017,
          -0.06591485440731049,
          -0.21731184422969818,
          -0.2039499431848526,
          -0.075204998254776,
          -0.010495837777853012,
          0.049023739993572235,
          0.049119606614112854,
          -0.032363831996917725,
          0.10179932415485382,
          0.06603968143463135,
          -0.10826622694730759,
          0.10301820188760757,
          -0.0559455081820488,
          -0.12255984544754028,
          -0.11684736609458923,
          0.015744246542453766,
          0.03016038052737713,
          0.14128504693508148,
          -0.17278607189655304
        ],
        [
          -0.015421386808156967,
          0.05590834096074104,
          0.06959948688745499,
          0.1185968816280365,
          -0.03258563578128815,
          8.270171383628622e-05,
          0.10322453081607819,
          0.16508714854717255,
          0.0946144163608551,
          0.023661239072680473,
          -0.03142261877655983,
          -0.20805169641971588,
          -0.12797464430332184,
          -0.14943499863147736,
          -0.1681719869375229,
          -0.17245714366436005,
          0.07980362325906754,
          -0.14458118379116058,
          0.0623488612473011,
          0.0011647711507976055,
          -0.09549073129892349,
          0.163323774933815,
          0.013086994178593159,
          -0.03604652360081673,
          0.023496443405747414,
          -0.04750568047165871,
          0.07784642279148102,
          0.101275235414505,
          -0.002829927019774914,
          -0.01728019304573536,
          0.09386816620826721,
          -0.20016935467720032
        ],
        [
          0.1536085456609726,
          -0.03611152246594429,
          0.032340750098228455,
          0.10166992992162704,
          0.12382195144891739,
          -0.1506931632757187,
          -0.1979726105928421,
          0.032297153025865555,
          -0.031172912567853928,
          -0.141640305519104,
          0.043813008815050125,
          0.016618993133306503,
          -0.06525445729494095,
          0.13083897531032562,
          0.11742810904979706,
          -0.1984533965587616,
          0.029966015368700027,
          -0.18637210130691528,
          -0.07536499947309494,
          0.07839659601449966,
          0.0654984787106514,
          0.07945998013019562,
          -0.05744905024766922,
          0.046910934150218964,
          0.05632210150361061,
          -0.10033942013978958,
          0.0805714875459671,
          -0.027319662272930145,
          0.010565628297626972,
          0.06378272920846939,
          -0.13608725368976593,
          -0.1865968108177185
        ],
        [
          -0.14671000838279724,
          -0.06218766048550606,
          0.10962983965873718,
          0.16524800658226013,
          0.03186327591538429,
          0.032132986932992935,
          -0.03329930454492569,
          0.09127940982580185,
          0.10581079870462418,
          0.06978414952754974,
          -0.1431780457496643,
          0.025975381955504417,
          -0.160680890083313,
          -0.12708944082260132,
          -0.0695527195930481,
          0.1680467277765274,
          -0.0797588974237442,
          -0.010049215517938137,
          0.08082374185323715,
          0.036885108798742294,
          0.13103288412094116,
          0.12478466331958771,
          -0.0818919762969017,
          -0.11821828037500381,
          -0.15731649100780487,
          -0.14321619272232056,
          0.16163751482963562,
          0.14092999696731567,
          0.14461252093315125,
          -0.13591019809246063,
          0.1553855687379837,
          0.04381079971790314
        ],
        [
          -0.13482312858104706,
          -0.17197927832603455,
          0.05664582923054695,
          -0.1802707314491272,
          0.04518996551632881,
          -0.0115562928840518,
          0.07234883308410645,
          0.04026896506547928,
          0.04910627752542496,
          -0.08149842172861099,
          0.059173643589019775,
          0.02131205052137375,
          0.20875072479248047,
          0.18688131868839264,
          0.030960531905293465,
          0.10774058103561401,
          -0.15535102784633636,
          -0.03924420848488808,
          -0.12499868124723434,
          0.08523093909025192,
          0.17392459511756897,
          -0.05813002213835716,
          -0.027088692411780357,
          -0.07848057895898819,
          -0.1519758105278015,
          0.07259570062160492,
          0.13891170918941498,
          -0.04055774211883545,
          -0.10859370976686478,
          0.022216279059648514,
          -0.1285567730665207,
          0.03387285768985748
        ],
        [
          -0.22380155324935913,
          0.01627250947058201,
          -0.14229139685630798,
          -0.1862523853778839,
          -0.20915664732456207,
          0.07491664588451385,
          0.06737977266311646,
          0.05281565710902214,
          0.08222334831953049,
          -0.1112852618098259,
          0.007926390506327152,
          -0.10981885343790054,
          0.08212556689977646,
          -0.10939504951238632,
          0.1649305373430252,
          0.09028033912181854,
          -0.014066728763282299,
          -0.01500719878822565,
          0.1473805010318756,
          -0.10053810477256775,
          -0.04823628067970276,
          0.0013826056383550167,
          -0.07402833551168442,
          0.0715584009885788,
          0.020028553903102875,
          0.15083378553390503,
          -0.02772999368607998,
          0.019750207662582397,
          -0.07071086764335632,
          -0.09508098661899567,
          -0.06456753611564636,
          0.15191619098186493
        ],
        [
          -0.1502121090888977,
          -0.14117148518562317,
          -0.04532685503363609,
          -0.05718870833516121,
          0.12625636160373688,
          0.06339024007320404,
          -0.042960964143276215,
          0.0800280049443245,
          0.22118531167507172,
          -0.09278274327516556,
          0.08460292220115662,
          -0.14325736463069916,
          0.03407396003603935,
          -0.08713443577289581,
          0.01818130351603031,
          -0.0496947206556797,
          -0.03519737347960472,
          0.14415544271469116,
          0.11523021012544632,
          -0.10426171869039536,
          0.12256909906864166,
          0.03363333269953728,
          0.003862774232402444,
          -0.1641533523797989,
          -0.10287880152463913,
          -0.03896162286400795,
          0.05916717275977135,
          -0.11432518810033798,
          0.1966848373413086,
          -0.06124689429998398,
          -0.06200331449508667,
          -0.11950088292360306
        ],
        [
          -0.006377180106937885,
          0.12780320644378662,
          -0.03317314758896828,
          -0.02528177574276924,
          0.05426520109176636,
          -0.1530013382434845,
          0.07006161659955978,
          0.06368976086378098,
          0.13570146262645721,
          0.21054573357105255,
          0.010564845986664295,
          0.0970434844493866,
          -0.00858558900654316,
          -0.1836249828338623,
          0.080345518887043,
          0.047409333288669586,
          0.05576943978667259,
          -0.02281494438648224,
          -0.035011857748031616,
          0.03143569827079773,
          0.0108875073492527,
          0.11172837764024734,
          -0.06525900959968567,
          0.08829687535762787,
          0.09438861161470413,
          -0.021226346492767334,
          -0.04664263874292374,
          0.08346287161111832,
          -0.05601795017719269,
          0.06760017573833466,
          -0.06146985664963722,
          -0.04791302606463432
        ],
        [
          0.13329346477985382,
          0.11623398959636688,
          0.01737460121512413,
          -0.06871693581342697,
          -0.05941808223724365,
          0.11698122322559357,
          0.028676053509116173,
          -0.004711483605206013,
          -0.15783411264419556,
          -0.06471984833478928,
          0.03469807654619217,
          -0.05600197985768318,
          0.14423438906669617,
          0.10444878041744232,
          -0.020984768867492676,
          -0.1922333538532257,
          -0.11332682520151138,
          0.0199658814817667,
          0.059208955615758896,
          0.13689285516738892,
          -0.04244043678045273,
          0.012219002470374107,
          -0.007804712280631065,
          -0.15303850173950195,
          0.07839484512805939,
          -0.08808194100856781,
          0.0900333896279335,
          0.08189906179904938,
          0.15944676101207733,
          -0.0928749144077301,
          0.008204457350075245,
          -0.0784105509519577
