{
  "model_type": "RTNeural",
  "model_id": "harmonypredictor",
  "task": "harmony_prediction",
  "input_size": 128,
  "output_size": 48,
  "architecture": "mlp",
  "layers": [
    {
      "name": "0.weight",
      "type": "conv",
      "weights": [
        [
          -0.08163540065288544,
          0.025209056213498116,
          0.07866059988737106,
          -0.013782980851829052,
          -0.02515752799808979,
          0.028680328279733658,
          -0.07929714024066925,
          -0.007511144503951073,
          -0.04380817711353302,
          0.05314696207642555,
          -0.0529039092361927,
          -0.05027920752763748,
          0.04279772937297821,
          -0.05294342339038849,
          -0.041663531213998795,
          -0.012744775041937828,
          0.02624714933335781,
          0.03011508099734783,
          -0.07961378246545792,
          0.058259449899196625,
          0.06304951757192612,
          -0.04750810191035271,
          0.05024157464504242,
          0.0773206353187561,
          0.029742173850536346,
          0.027065103873610497,
          -0.06345205754041672,
          0.06503644585609436,
          -0.07723423838615417,
          0.042808353900909424,
          0.05528409406542778,
          -0.043255437165498734,
          -0.02194419503211975,
          -0.01329757273197174,
          0.012166475877165794,
          0.011952684260904789,
          -0.029831508174538612,
          0.07735822349786758,
          -0.033334534615278244,
          0.007569936569780111,
          0.06556083261966705,
          -0.031388502568006516,
          0.024835852906107903,
          0.02274799533188343,
          0.0177417304366827,
          -0.010924163274466991,
          -0.0699574202299118,
          0.043294571340084076,
          0.016754833981394768,
          -0.06283820420503616,
          0.0306896660476923,
          -0.03627429157495499,
          0.039938487112522125,
          -0.06170770153403282,
          0.013518247753381729,
          0.004111008252948523,
          0.07820217311382294,
          -0.0064071472734212875,
          -0.06854265183210373,
          0.04495547339320183,
          0.012744647450745106,
          0.07934258878231049,
          -0.04499496519565582,
          0.05272889509797096,
          0.04263526201248169,
          0.06399891525506973,
          -0.03765403479337692,
          -0.012634924612939358,
          0.08235674351453781,
          -0.029636584222316742,
          0.04102472588419914,
          0.007371797226369381,
          0.00042550518992356956,
          -0.07507626712322235,
          0.05778823420405388,
          -0.055907294154167175,
          -0.037749841809272766,
          0.026751065626740456,
          -0.09461610019207001,
          -0.00288786762394011,
          -0.003231839509680867,
          0.0016793260583654046,
          -0.08414895087480545,
          0.0664137601852417,
          0.03516648709774017,
          0.011976189911365509,
          0.0026719432789832354,
          0.07985550910234451,
          -0.025640755891799927,
          0.05913081765174866,
          0.01589779555797577,
          -0.011356529779732227,
          0.0825442299246788,
          0.0024921440053731203,
          0.049959536641836166,
          -0.09355933964252472,
          -0.030543992295861244,
          0.056223031133413315,
          -0.005352136678993702,
          -0.0240681953728199,
          -0.004868114832788706,
          -0.018978813663125038,
          -0.07608792185783386,
          -0.08475920557975769,
          0.08378099650144577,
          0.008992975577712059,
          0.04948740452528,
          0.025649892166256905,
          -0.0375170074403286,
          -0.0785427838563919,
          -0.019098889082670212,
          -0.019043682143092155,
          -0.060036446899175644,
          -0.0634613111615181,
          0.011946450918912888,
          -0.03341316431760788,
          -0.031154368072748184,
          0.08161666989326477,
          0.05156608298420906,
          -0.0925063043832779,
          0.04799051210284233,
          -0.057576388120651245,
          -0.07113330811262131,
          -0.016892582178115845,
          0.056127943098545074,
          -0.037725500762462616,
          -0.02690843865275383,
          -0.05240168794989586
        ],
        [
          0.05100477859377861,
          -0.06524670124053955,
          0.0860695168375969,
          -0.06317268311977386,
          0.021935708820819855,
          -0.03576929122209549,
          0.07574319839477539,
          0.011687657795846462,
          -0.040237296372652054,
          -0.037921227514743805,
          -0.07042206823825836,
          -0.050433360040187836,
          0.0361526794731617,
          0.0817437618970871,
          -0.01761387288570404,
          -0.024008633568882942,
          0.030882112681865692,
          0.02192314900457859,
          0.0007834674324840307,
          0.06250249594449997,
          0.08099222183227539,
          0.07028897106647491,
          0.009105461649596691,
          -0.02296026051044464,
          0.08289723098278046,
          -0.08426134288311005,
          -0.014874926768243313,
          0.03298535197973251,
          0.05218590050935745,
          0.05071716755628586,
          0.024460624903440475,
          0.019581828266382217,
          0.0666746199131012,
          0.0841977670788765,
          0.03234503045678139,
          0.05515618994832039,
          -0.032371602952480316,
          -0.02069726213812828,
          -0.011021134443581104,
          0.021869733929634094,
          -0.009194745682179928,
          -0.04025872424244881,
          0.0627966970205307,
          0.07142721116542816,
          -0.04688144102692604,
          -0.06551272422075272,
          -0.04355655610561371,
          0.07484758645296097,
          -0.03197178989648819,
          0.0024245441891252995,
          0.0032956020440906286,
          0.015845177695155144,
          -0.09439603984355927,
          0.03337780386209488,
          0.029552102088928223,
          0.07504630833864212,
          0.07210759073495865,
          -0.07559851557016373,
          -0.024193381890654564,
          -0.07882651686668396,
          -0.08911725133657455,
          0.028248894959688187,
          0.006066718604415655,
          0.04920097440481186,
          -0.007368684746325016,
          -0.05095021426677704,
          -0.07964354008436203,
          -0.05602642893791199,
          0.052796900272369385,
          -0.02831192873418331,
          -0.020723871886730194,
          -0.006515983492136002,
          -0.08148428052663803,
          -0.042824070900678635,
          -0.009699308313429356,
          0.026584798470139503,
          -0.0003118410531897098,
          -0.014454076066613197,
          0.06666132062673569,
          -0.009090759791433811,
          -0.0528961606323719,
          0.03239290043711662,
          -0.04546944051980972,
          -0.0812501311302185,
          -0.010896359570324421,
          -0.029927201569080353,
          -0.041527025401592255,
          0.06007080525159836,
          -0.009009717032313347,
          -0.05103975906968117,
          -0.09220772236585617,
          0.004136453382670879,
          -0.08115509897470474,
          0.06194111332297325,
          0.025539333000779152,
          0.02018321305513382,
          -0.03630424290895462,
          -0.07620956748723984,
          -0.02297270856797695,
          0.09547620266675949,
          0.045507971197366714,
          0.08266894519329071,
          -0.027992185205221176,
          -0.027023857459425926,
          -0.06892986595630646,
          -0.025066178292036057,
          0.0445660799741745,
          0.05842554569244385,
          -0.05196551978588104,
          0.07653425633907318,
          0.07910824567079544,
          0.012555345892906189,
          -0.026571616530418396,
          -0.021966082975268364,
          -0.06924068927764893,
          0.048015810549259186,
          0.019660424441099167,
          0.050626832991838455,
          -0.057332318276166916,
          0.012666390277445316,
          -0.062192220240831375,
          0.06355120241641998,
          -0.005546292755752802,
          -0.05229683220386505,
          -0.08036357164382935,
          0.010943140834569931,
          0.04484708979725838,
          -0.016574706882238388
        ],
        [
          0.01911383680999279,
          0.05109691619873047,
          -0.01010916754603386,
          0.034779828041791916,
          -0.008416849188506603,
          0.067542664706707,
          0.091675765812397,
          -0.06375811994075775,
          0.07837825268507004,
          -0.04199596121907234,
          -0.0070692310109734535,
          0.027567444369196892,
          -0.05622315779328346,
          -0.0661405697464943,
          0.008404666557908058,
          0.00033194469870068133,
          -0.07933097332715988,
          0.057878896594047546,
          0.08438433706760406,
          -0.07547522336244583,
          0.034882381558418274,
          0.009398456662893295,
          -0.005370688624680042,
          0.03382345661520958,
          -0.04946805536746979,
          -0.04738691821694374,
          0.05484180897474289,
          -0.00697645079344511,
          -0.014699253253638744,
          0.012178551405668259,
          -0.058875374495983124,
          0.027890492230653763,
          0.07602547854185104,
          -0.03995395824313164,
          -0.07673045992851257,
          0.045085180550813675,
          0.01611059345304966,
          0.0915166363120079,
          0.043069783598184586,
          -0.04957246035337448,
          -0.040896132588386536,
          -0.020990928635001183,
          -0.03187774866819382,
          -0.08720608055591583,
          -0.007882684469223022,
          -0.07292117923498154,
          0.012618168257176876,
          -0.06798850744962692,
          -0.02226117067039013,
          0.039829302579164505,
          0.06693518906831741,
          0.08425607532262802,
          -0.027447300031781197,
          0.05221470445394516,
          -0.05949493125081062,
          -0.03355035185813904,
          -0.07205668091773987,
          -0.06817322224378586,
          -0.04563463106751442,
          0.013533390127122402,
          -0.08228234946727753,
          0.01812153495848179,
          0.0673494040966034,
          0.01881667599081993,
          -0.06710748374462128,
          0.07060461491346359,
          0.07295560091733932,
          -0.0115690678358078,
          0.06267225742340088,
          0.04624401405453682,
          0.07767248153686523,
          0.04741484299302101,
          0.06958514451980591,
          0.010559276677668095,
          0.08582988381385803,
          -0.06154412403702736,
          -0.07918529957532883,
          0.05912182852625847,
          -0.05774649605154991,
          -0.019945824518799782,
          0.04082568362355232,
          0.05080656707286835,
          -0.09055981040000916,
          0.0030001355335116386,
          0.010499216616153717,
          -0.021908795461058617,
          -0.03427688032388687,
          0.0786525160074234,
          -0.02821505442261696,
          0.002439846284687519,
          0.041854389011859894,
          -0.043317295610904694,
          -0.0788516029715538,
          -0.08279606699943542,
          0.07681842893362045,
          -0.09739331901073456,
          0.037624165415763855,
          0.037036485970020294,
          0.04394577071070671,
          -0.020642124116420746,
          -0.050878871232271194,
          0.018402665853500366,
          0.08251586556434631,
          0.012744166888296604,
          -0.05743370205163956,
          -0.04319356754422188,
          0.021040741354227066,
          0.06306411325931549,
          -0.016747724264860153,
          0.0806465893983841,
          -0.06865944713354111,
          -0.07738269865512848,
          -0.0718369260430336,
          0.06972599029541016,
          0.023674635216593742,
          0.01330836396664381,
          0.03351182863116264,
          -0.04498159512877464,
          0.04697254300117493,
          0.04172198846936226,
          0.05506516247987747,
          0.05570371448993683,
          0.08382799476385117,
          0.0051817395724356174,
          -0.048583656549453735,
          -0.019254673272371292,
          -0.03251666948199272,
          -0.018057556822896004
        ],
        [
          -0.06992579251527786,
          -0.035116732120513916,
          0.08135686814785004,
          0.002181711606681347,
          -0.06823551654815674,
          -0.0343182235956192,
          -0.02955443598330021,
          -0.04843407869338989,
          -0.07233768701553345,
          -0.04854261502623558,
          0.02862192504107952,
          -0.07252682000398636,
          0.05663123354315758,
          -0.0672784373164177,
          -0.055549394339323044,
          0.018451359122991562,
          0.001709355739876628,
          -0.021434176713228226,
          0.03645428642630577,
          0.06780979037284851,
          0.02057093009352684,
          -0.07348883897066116,
          -0.04666825383901596,
          -0.08724850416183472,
          -0.008415921591222286,
          0.024111982434988022,
          -0.03241051733493805,
          0.007767134346067905,
          -0.09847231209278107,
          0.08742492645978928,
          -0.01619577780365944,
          0.023840617388486862,
          0.04219186678528786,
          0.044953130185604095,
          0.02686268836259842,
          0.00394937489181757,
          0.0436907559633255,
          0.048397406935691833,
          -0.03458976000547409,
          0.03798065707087517,
          -0.03232830762863159,
          0.03801817074418068,
          0.011357869021594524,
          -0.03136375918984413,
          -0.05263812467455864,
          0.07575194537639618,
          0.04263503849506378,
          -0.03572700545191765,
          0.04009836167097092,
          0.058658190071582794,
          -0.028765330091118813,
          -0.042830269783735275,
          0.07882201671600342,
          -0.028120243921875954,
          -0.014281169511377811,
          -0.025695575401186943,
          -0.004141442943364382,
          -0.10755940526723862,
          0.009245899505913258,
          -0.08578335493803024,
          0.08976639062166214,
          0.04586568474769592,
          -0.05307070165872574,
          -0.0637110099196434,
          0.017644068226218224,
          0.013762246817350388,
          -0.04063393548130989,
          -0.07327687740325928,
          0.07297500967979431,
          -0.005845572333782911,
          -0.02074059098958969,
          0.062191128730773926,
          -0.09082294255495071,
          0.05677041783928871,
          0.0366857536137104,
          0.041710350662469864,
          -0.10246565192937851,
          0.009647946804761887,
          0.03350367769598961,
          -0.040271125733852386,
          -0.020067747682332993,
          0.01206323690712452,
          0.060983166098594666,
          0.0897613912820816,
          0.055061254650354385,
          -0.07300040870904922,
          -0.020428765565156937,
          0.06824060529470444,
          -0.058197684586048126,
          -0.06623221933841705,
          -0.04165128245949745,
          -0.04736422374844551,
          0.06799277663230896,
          -0.08401010930538177,
          -0.025625621899962425,
          0.07487144321203232,
          0.0013869627146050334,
          -0.04208939149975777,
          0.015769198536872864,
          0.07581354677677155,
          0.07583227008581161,
          -0.0562785342335701,
          0.08172085881233215,
          -0.08697361499071121,
          0.0933443158864975,
          -0.056311748921871185,
          0.04561260715126991,
          0.08324865996837616,
          0.05101172253489494,
          -0.07288742810487747,
          0.009455304592847824,
          0.036346517503261566,
          -0.04728075861930847,
          0.0017966197337955236,
          0.0051713925786316395,
          -0.0540517121553421,
          0.047782957553863525,
          -0.05373099073767662,
          -0.055495522916316986,
          0.07386483252048492,
          -0.04687738046050072,
          -0.06051512435078621,
          0.02858596108853817,
          -0.09247386455535889,
          -0.025660159066319466,
          0.05704428255558014,
          0.08732068538665771,
          -0.07973998785018921
        ],
        [
          0.017892668023705482,
          0.03250446915626526,
          -0.04852868244051933,
          0.018978698179125786,
          0.021573735401034355,
          0.02085753343999386,
          0.017327258363366127,
          -0.03813307732343674,
          0.0032835830934345722,
          -0.08381630480289459,
          -0.0673074871301651,
          -0.036986056715250015,
          0.016024891287088394,
          0.01260935328900814,
          -0.013363982550799847,
          0.0393117256462574,
          0.022788656875491142,
          -0.030203821137547493,
          0.0232732892036438,
          0.02263381890952587,
          0.009988367557525635,
          -0.004352443385869265,
          0.029278265312314034,
          -0.04025015980005264,
          -0.03728102892637253,
          -0.08055756986141205,
          -0.07899819314479828,
          0.04721873998641968,
          -0.0663413479924202,
          0.04714393988251686,
          0.049112264066934586,
          0.04424948990345001,
          -0.06474537402391434,
          -0.08042211085557938,
          -0.06122225150465965,
          0.05961065739393234,
          -0.014088116586208344,
          0.036277078092098236,
          -0.01253749430179596,
          -0.09238629043102264,
          -0.029720580205321312,
          0.019297437742352486,
          -0.01579483412206173,
          0.04601369798183441,
          0.057064980268478394,
          0.016547031700611115,
          0.021231630817055702,
          -0.07384110242128372,
          -0.012360873632133007,
          0.0822625681757927,
          0.06108664348721504,
          -0.008799208328127861,
          -0.058258868753910065,
          0.019072283059358597,
          -0.06993596255779266,
          -0.0829157754778862,
          0.013420173898339272,
          -0.008482743985950947,
          -0.0016463056672364473,
          -0.08677271753549576,
          0.06087310612201691,
          0.02540394477546215,
          -0.015078186057507992,
          0.07438599318265915,
          -0.011163126677274704,
          0.005236989818513393,
          -0.04883945360779762,
          0.021435247734189034,
          -0.07435938715934753,
          0.006762664299458265,
          0.019660551100969315,
          -0.06573761254549026,
          -0.0060632312670350075,
          -0.010809609666466713,
          -0.0789681226015091,
          -0.001197989215143025,
          0.06819657236337662,
          0.05862182378768921,
          -0.04453052952885628,
          -0.0012755482457578182,
          0.05117960274219513,
          0.03806784376502037,
          0.029650582000613213,
          -0.036359451711177826,
          0.047982145100831985,
          0.017870666459202766,
          -0.05677352473139763,
          0.04016530141234398,
          -0.031144890934228897,
          -6.974647840252146e-05,
          -0.07328000664710999,
          -0.06837654113769531,
          -0.0016331475926563144,
          -0.020733173936605453,
          0.05077853798866272,
          -0.01192400325089693,
          0.022706056013703346,
          -0.0233001746237278,
          0.017417922616004944,
          0.04644433781504631,
          -0.056831371039152145,
          0.08073027431964874,
          0.052603963762521744,
          0.09246936440467834,
          -0.04869692772626877,
          0.047137148678302765,
          -0.011279651895165443,
          0.0646076574921608,
          -0.03957919776439667,
          0.014127754606306553,
          -0.03980674594640732,
          -0.036097969859838486,
          0.03064100258052349,
          0.02414524368941784,
          0.06962629407644272,
          -0.06235940754413605,
          -0.028989674523472786,
          -0.03726950287818909,
          0.05467945337295532,
          0.0532827191054821,
          0.04242639243602753,
          0.02080346830189228,
          0.011818000115454197,
          0.04495646059513092,
          0.014184541068971157,
          0.05360674858093262,
          -0.011463096365332603,
          -0.05604315549135208
        ],
        [
          -0.02540167234838009,
          0.0009389611659571528,
          0.040091536939144135,
          -0.017905641347169876,
          0.02050488442182541,
          -0.08813484758138657,
          -0.04314479976892471,
          -0.049375709146261215,
          0.029126988723874092,
          -0.04902850091457367,
          -0.03452213481068611,
          -0.09205310046672821,
          -0.0060517252422869205,
          -0.040073636919260025,
          0.030848680064082146,
          -0.0633692666888237,
          -0.04658469930291176,
          -0.016605669632554054,
          0.01700814813375473,
          0.0698753073811531,
          -0.03665766492486,
          -0.0659334734082222,
          -0.03656378388404846,
          0.023147862404584885,
          -0.020955022424459457,
          -0.006303124595433474,
          -0.03678945451974869,
          0.007913473062217236,
          0.05484473332762718,
          -0.04343944415450096,
          -0.003692089579999447,
          -0.0739540308713913,
          0.0707169845700264,
          0.02271484024822712,
          -0.038147956132888794,
          0.003207869827747345,
          0.09658287465572357,
          0.08499599993228912,
          -0.052468568086624146,
          -0.044615693390369415,
          0.041959941387176514,
          0.04616602510213852,
          -0.08019589632749557,
          -0.05169990286231041,
          0.030185909941792488,
          0.039359625428915024,
          0.0011197361163794994,
          -0.04395462945103645,
          -0.07336680591106415,
          0.023869145661592484,
          -0.02096063271164894,
          -0.06390319019556046,
          -0.03225690871477127,
          0.09048254787921906,
          0.06730109453201294,
          0.015160669572651386,
          0.04283447936177254,
          0.06701646745204926,
          -0.05890914797782898,
          0.07410895079374313,
          0.03752011060714722,
          -0.09363332390785217,
          -0.07354947179555893,
          -0.04805963113903999,
          -0.036203138530254364,
          -0.004956528544425964,
          0.026011822745203972,
          0.06939483433961868,
          0.009387622587382793,
          -0.03010624833405018,
          -0.02747843973338604,
          -0.06601588428020477,
          0.05275830253958702,
          -0.09543427079916,
          0.019889572635293007,
          0.014906518161296844,
          -0.026014702394604683,
          0.03431499004364014,
          0.05814305692911148,
          -0.05095086246728897,
          -0.021926071494817734,
          0.06875184923410416,
          -0.08311695605516434,
          -0.05760195478796959,
          0.014370518736541271,
          -0.04407397657632828,
          0.04187896102666855,
          0.060850486159324646,
          -0.07391774654388428,
          0.008522518910467625,
          -0.009791301563382149,
          -0.033893488347530365,
          0.06352183222770691,
          0.041878197342157364,
          0.038258444517850876,
          -0.10100369155406952,
          -0.02743309922516346,
          0.028402669355273247,
          -0.06509864330291748,
          0.00839797779917717,
          -0.06093728914856911,
          -0.07338990271091461,
          0.04962952807545662,
          -0.050640370696783066,
          -0.0373697504401207,
          0.06946132332086563,
          0.04592613875865936,
          0.06122509017586708,
          -0.07240476459264755,
          -0.06366851925849915,
          0.07853390276432037,
          0.08439283072948456,
          0.07270634919404984,
          -0.07406967878341675,
          0.07270505279302597,
          0.07384859025478363,
          -0.06235727295279503,
          -0.0043555088341236115,
          -0.0776531919836998,
          0.07554057240486145,
          -0.08029745519161224,
          0.047148942947387695,
          -0.08377394825220108,
          0.039468664675951004,
          -0.039226748049259186,
          -0.027745597064495087,
          -0.05155576393008232,
          0.001731452182866633
        ],
        [
          -0.059632401913404465,
          -0.06080377474427223,
          0.005097140092402697,
          -0.05664004012942314,
          0.09501699358224869,
          0.004881685599684715,
          0.01350858062505722,
          0.07117833942174911,
          -0.025109266862273216,
          -0.04089893400669098,
          0.07304288446903229,
          -0.02723447047173977,
          -0.010857274755835533,
          0.012379493564367294,
          0.012749996967613697,
          0.016686124727129936,
          0.02451617643237114,
          -0.02118847146630287,
          -0.07239123433828354,
          -0.033320117741823196,
          -0.05210522189736366,
          0.0016498479526489973,
          0.0006406307220458984,
          0.02658967860043049,
          -0.07171997427940369,
          0.08913028240203857,
          -0.004996302537620068,
          0.030232949182391167,
          0.037289563566446304,
          0.08068517595529556,
          0.006908592768013477,
          -0.07795128226280212,
          0.03650953620672226,
          0.0646396353840828,
          -0.04100869968533516,
          0.07850391417741776,
          0.022005867213010788,
          0.009448867291212082,
          0.04358050972223282,
          -0.07468385249376297,
          -0.06300752609968185,
          0.025603335350751877,
          -0.06401066482067108,
          0.08168093860149384,
          -0.03155370429158211,
          0.08743671327829361,
          0.04967709630727768,
          0.049562111496925354,
          0.08345630019903183,
          -0.05408616364002228,
          0.08045396953821182,
          0.0072718420997262,
          0.00838783010840416,
          0.06429441273212433,
          -0.05069178715348244,
          -2.8662121621891856e-05,
          -0.0017138089751824737,
          0.04297111555933952,
          -0.0847742035984993,
          0.03815858066082001,
          0.00645927619189024,
          -0.02138829044997692,
          -0.028251387178897858,
          -0.04044223204255104,
          -0.03783976659178734,
          0.017155269160866737,
          0.09486821293830872,
          0.029259691014885902,
          -0.06994709372520447,
          0.045671816915273666,
          0.07065574824810028,
          -0.0418107844889164,
          0.0882292240858078,
          -0.01715969294309616,
          0.038221199065446854,
          0.017217064276337624,
          0.04372412711381912,
          -0.03534640744328499,
          0.010719590820372105,
          -0.02172979898750782,
          -0.043694186955690384,
          -0.0842658057808876,
          0.02435484156012535,
          -0.0840684100985527,
          0.03406255319714546,
          0.007150981109589338,
          0.06380902230739594,
          0.008423540741205215,
          -0.08261386305093765,
          0.010546238161623478,
          -0.07200479507446289,
          -0.04569254815578461,
          -0.05001826956868172,
          -0.073080874979496,
          0.02289823442697525,
          0.023521363735198975,
          -0.03970614820718765,
          -0.05139295384287834,
          0.0788501650094986,
          -0.0030456152744591236,
          0.017513461410999298,
          0.02124677039682865,
          -0.022156506776809692,
          -0.02244662493467331,
          0.01405944675207138,
          0.01900991052389145,
          -0.0806242898106575,
          0.006610669661313295,
          0.06507548689842224,
          -0.0028301107231527567,
          -0.05496109277009964,
          -0.05070842057466507,
          -0.005097868386656046,
          -0.04675831273198128,
          -0.02866113930940628,
          0.0055496725253760815,
          0.0492180660367012,
          0.0509001649916172,
          0.08708302676677704,
          -0.07925809174776077,
          0.001690557925030589,
          -0.033934447914361954,
          -0.07838893681764603,
          0.017441099509596825,
          -0.0031425384804606438,
          -0.028923409059643745,
          -0.04336884245276451,
          0.01538341399282217
        ],
        [
          0.05111183226108551,
          -0.005085033364593983,
          0.04715874418616295,
          0.010709172114729881,
          -0.05124852433800697,
          0.05030755326151848,
          0.06510444730520248,
          -0.0027631926350295544,
          0.009030244313180447,
          -0.014624147675931454,
          0.0015357371885329485,
          -0.020580485463142395,
          0.02545720338821411,
          -0.03775051608681679,
          -0.06519542634487152,
          0.028419287875294685,
          0.04648469388484955,
          -0.007612410467118025,
          -0.07009239494800568,
          -0.0332358181476593,
          0.03818387910723686,
          0.06938832253217697,
          0.07007572054862976,
          0.00887784082442522,
          0.05682188272476196,
          -0.03346196934580803,
          -0.014035257510840893,
          0.07875092327594757,
          -0.03519925847649574,
          -0.03413934260606766,
          -0.006202894262969494,
          -0.039960555732250214,
          0.03199271857738495,
          0.05396842584013939,
          -0.002739812945947051,
          0.04171992465853691,
          0.006210001185536385,
          -0.0724136009812355,
          0.03172482177615166,
          -0.07934918254613876,
          -0.048379190266132355,
          -0.012649212032556534,
          -0.020981278270483017,
          -0.046963248401880264,
          -0.01924964413046837,
          -0.05706343799829483,
          -0.06860598176717758,
          -0.03833097219467163,
          0.036027196794748306,
          0.05863289535045624,
          0.022421076893806458,
          0.007228415459394455,
          0.0013225371949374676,
          0.00519880186766386,
          0.006538527086377144,
          -0.03493506833910942,
          -0.00011764268856495619,
          -0.08335865288972855,
          -0.04164629429578781,
          -0.028827931731939316,
          -0.03708693012595177,
          -0.06736390292644501,
          -0.07086997479200363,
          0.04536446928977966,
          0.08134545385837555,
          -0.011186636053025723,
          0.024930426850914955,
          0.03878624737262726,
          0.06896799057722092,
          -0.07683394104242325,
          -0.04998181015253067,
          -0.0412219800055027,
          0.003693954087793827,
          -0.08694198727607727,
          -0.005406303331255913,
          0.09070450067520142,
          0.03735662251710892,
          0.04935877025127411,
          0.0283421128988266,
          -0.034387871623039246,
          -0.08326064050197601,
          0.05265805870294571,
          0.050339050590991974,
          -0.04570300504565239,
          0.044093478471040726,
          0.0753292590379715,
          0.046842120587825775,
          0.08464427292346954,
          0.06041395664215088,
          0.06609349697828293,
          -0.04443186894059181,
          -0.03728350251913071,
          0.04928244650363922,
          -0.03756476566195488,
          -0.03616171330213547,
          -0.015398921445012093,
          0.06117374449968338,
          0.0447789803147316,
          0.0006972640985623002,
          -0.08760837465524673,
          0.039933379739522934,
          -0.05797269567847252,
          -0.07188929617404938,
          -0.09135782718658447,
          -0.07672453671693802,
          -0.037689778953790665,
          -0.08305075764656067,
          -0.004093375988304615,
          0.024722255766391754,
          0.05179600045084953,
          0.059028223156929016,
          -0.008875206112861633,
          0.007684517186135054,
          -0.035057466477155685,
          -0.0049208179116249084,
          -0.006339523009955883,
          0.03698745742440224,
          0.00807929690927267,
          0.07924124598503113,
          0.08124791085720062,
          0.05154777690768242,
          -0.04089582711458206,
          -0.00711538502946496,
          0.054676447063684464,
          -0.04225669056177139,
          -0.031633272767066956,
          0.02435496263206005,
          0.012317193672060966
        ],
        [
          0.006420420948415995,
          0.01117623783648014,
          0.0009448652272112668,
          -0.042767420411109924,
          -0.037990376353263855,
          -0.03986695781350136,
          -0.0045776646584272385,
          0.053045209497213364,
          0.06303698569536209,
          -0.05824176222085953,
          -0.013869792222976685,
          -0.029788615182042122,
          -0.006770194508135319,
          -0.01947721280157566,
          -0.06359758228063583,
          0.00996325258165598,
          0.07336892932653427,
          -0.04328657314181328,
          0.03829662501811981,
          -0.002618872094899416,
          0.045637521892786026,
          0.013056918047368526,
          -0.07731682807207108,
          0.0046414900571107864,
          0.041765712201595306,
          0.0069259414449334145,
          0.06266874819993973,
          -0.04764323681592941,
          -0.0008293866412714124,
          -0.0009346244623884559,
          0.08318573236465454,
          0.05150030180811882,
          -0.016223013401031494,
          0.07555963844060898,
          -0.03280673921108246,
          -0.0024736004415899515,
          -0.07964558899402618,
          -0.01588468812406063,
          0.0912230834364891,
          0.05381573364138603,
          0.08632056415081024,
          0.0737452358007431,
          0.008873408660292625,
          0.020381266251206398,
          0.04415954276919365,
          -0.016085036098957062,
          0.014660880900919437,
          0.015896743163466454,
          0.008387614041566849,
          0.01964334025979042,
          0.07694951444864273,
          -0.028498785570263863,
          0.031064938753843307,
          0.06976843625307083,
          -0.06518027186393738,
          -0.04709072411060333,
          -0.02061459980905056,
          0.03535337373614311,
          0.02152603678405285,
          0.0693078264594078,
          0.007838516496121883,
          -0.06668559461832047,
          -0.08997535705566406,
          0.06386029720306396,
          -0.00400483887642622,
          -0.046006493270397186,
          0.031331345438957214,
          -0.04724351316690445,
          0.014088335447013378,
          0.07642962038516998,
          0.002283449051901698,
          0.005683684255927801,
          -0.008385278284549713,
          -0.013751229271292686,
          0.056844405829906464,
          0.0764913335442543,
          -0.0824713334441185,
          0.05989188700914383,
          -0.07270093262195587,
          -0.06603696197271347,
          0.03873498737812042,
          0.08645431697368622,
          0.05554208159446716,
          0.0627952516078949,
          0.024482550099492073,
          -0.039125505834817886,
          0.04444146901369095,
          0.03371182084083557,
          -0.07360758632421494,
          0.04335722327232361,
          0.05972447991371155,
          0.07880998402833939,
          0.05503024905920029,
          -0.0051483409479260445,
          0.08825908601284027,
          0.07029198110103607,
          -0.044991686940193176,
          -0.028779681771993637,
          -0.01701224595308304,
          -0.051323454827070236,
          0.000813798513263464,
          0.08769956231117249,
          -0.00611951295286417,
          0.05188523232936859,
          -0.0903252437710762,
          0.0017111151246353984,
          0.029537171125411987,
          -0.018221061676740646,
          -0.053278498351573944,
          0.021024182438850403,
          -0.09142887592315674,
          0.056782469153404236,
          -0.012131395749747753,
          -0.08387667685747147,
          0.0045150816440582275,
          0.04358451068401337,
          0.05336906388401985,
          0.04000202566385269,
          -0.03261124715209007,
          0.037523940205574036,
          -0.07307589054107666,
          -0.05559898167848587,
          0.031177572906017303,
          0.02294241636991501,
          -0.061526115983724594,
          -0.0592859722673893,
          -0.06905652582645416,
          -0.020392265170812607
        ],
        [
          -0.08472702652215958,
          0.022437240928411484,
          -0.009905518032610416,
          -0.003411288606002927,
          0.033825892955064774,
          -0.04819900169968605,
          0.0053163692355155945,
          0.06414839625358582,
          0.06351801753044128,
          0.05511246621608734,
          0.02800404094159603,
          0.08348381519317627,
          -0.06962305307388306,
          -0.05702899768948555,
          -0.03931248188018799,
          -0.013588830828666687,
          0.0007797956932336092,
          -0.06912402808666229,
          -0.019604019820690155,
          -0.041958216577768326,
          0.014473446644842625,
          -0.042680930346250534,
          -0.04504423961043358,
          -0.0701298713684082,
          0.007728865370154381,
          -0.0719631165266037,
          -0.03690914809703827,
          -0.05863066017627716,
          -0.016204779967665672,
          0.07347884774208069,
          -0.07131846249103546,
          0.07911887019872665,
          -0.006340164225548506,
          -0.05148095265030861,
          -0.0007732218946330249,
          -0.04234098270535469,
          0.003944658674299717,
          -0.07020825892686844,
          0.029307112097740173,
          0.0349818654358387,
          0.01612568274140358,
          0.07186682522296906,
          -0.040569745004177094,
          -0.06772605329751968,
          -0.044130027294158936,
          0.05241076275706291,
          -0.07242050021886826,
          0.045631494373083115,
          -0.02012866549193859,
          -0.05950396507978439,
          0.04995134845376015,
          0.03748522698879242,
          -0.010716520249843597,
          0.020929716527462006,
          -0.061301540583372116,
          -0.02829206921160221,
          0.03310379013419151,
          0.018520865589380264,
          -0.009841321036219597,
          -0.0843229740858078,
          0.030871648341417313,
          -0.008655369281768799,
          0.0736922100186348,
          -0.02008138969540596,
          -0.007848898880183697,
          -0.07261230796575546,
          0.006284359376877546,
          0.025016169995069504,
          -0.09201411157846451,
          -0.05147458612918854,
          0.03587181866168976,
          -0.058388110250234604,
          0.08199204504489899,
          0.022502608597278595,
          0.001542515936307609,
          -0.027428457513451576,
          -0.04995061829686165,
          -0.008919117040932178,
          0.05824002996087074,
          0.02166830003261566,
          -0.0014618021668866277,
          -0.01773517020046711,
          -0.004060182720422745,
          -0.014583035372197628,
          -0.03921719267964363,
          0.04010656476020813,
          0.006169258151203394,
          0.0006415080279111862,
          -0.025334862992167473,
          -0.051012516021728516,
          0.04889903962612152,
          0.0379030779004097,
          0.0389963835477829,
          0.07380855083465576,
          -0.018357345834374428,
          0.09366095066070557,
          0.07083206623792648,
          0.045125480741262436,
          0.014272942207753658,
          -0.008534936234354973,
          -0.0618402361869812,
          -0.07450181990861893,
          0.02525409124791622,
          0.0767393484711647,
          0.02888217195868492,
          -0.08372736722230911,
          0.03681357949972153,
          -0.0142373600974679,
          -0.08857845515012741,
          -0.03154338523745537,
          0.05848358944058418,
          -0.0033939823042601347,
          -0.06953302025794983,
          -0.07120803743600845,
          0.027279401198029518,
          -0.005210738629102707,
          0.07331746071577072,
          -0.07783441990613937,
          -0.018224045634269714,
          -0.038505975157022476,
          -0.010088728740811348,
          0.08547762036323547,
          -0.03397250175476074,
          -0.06449377536773682,
          -0.04656963422894478,
          -0.01554239634424448,
          -0.05479753017425537,
          -0.050975486636161804
        ],
        [
          -0.010320506058633327,
          -0.015899360179901123,
          0.04912254214286804,
          0.07142672687768936,
          -0.07406029850244522,
          0.015156873501837254,
          0.07643715292215347,
          0.0509905070066452,
          0.07172537595033646,
          0.059317536652088165,
          -0.022154901176691055,
          0.028396792709827423,
          0.008241457864642143,
          -0.021657371893525124,
          0.0575624443590641,
          0.08911889046430588,
          -0.03686800226569176,
          0.015589360147714615,
          0.010653791017830372,
          -0.05276044085621834,
          -0.07422447204589844,
          0.05109010636806488,
          -0.03617728501558304,
          -0.06287020444869995,
          -0.06323235481977463,
          -0.05197465047240257,
          0.047834400087594986,
          -0.04350212961435318,
          -0.027227865532040596,
          0.04560753330588341,
          2.146002952940762e-05,
          -0.020594272762537003,
          0.001505413674749434,
          -0.016544796526432037,
          -0.002779629547148943,
          0.07435112446546555,
          -0.09288648515939713,
          0.015481814742088318,
          0.016753051429986954,
          0.09200805425643921,
          0.06706607341766357,
          -0.05028026923537254,
          -0.06407203525304794,
          -0.017520904541015625,
          -0.010203799232840538,
          -0.06002742052078247,
          -0.048774249851703644,
          -0.03664323315024376,
          0.03818296641111374,
          0.008815078996121883,
          0.030477697029709816,
          0.04803843796253204,
          0.06565070152282715,
          0.06829048693180084,
          0.02767275646328926,
          0.008616904728114605,
          0.08417098224163055,
          0.06819696724414825,
          -0.01980583183467388,
          -0.004871787503361702,
          -0.02989894337952137,
          -0.003001576755195856,
          -0.03704353794455528,
          0.025227516889572144,
          0.05361958220601082,
          0.07041138410568237,
          0.007616482675075531,
          -0.020305950194597244,
          0.02303202450275421,
          0.0127396360039711,
          -0.02201620303094387,
          0.04439239948987961,
          -0.06795814633369446,
          -0.03697904571890831,
          0.08207045495510101,
          0.02697126753628254,
          0.04286707565188408,
          -0.015007848851382732,
          0.0520111620426178,
          0.0077294218353927135,
          -0.06311202049255371,
          0.03154003620147705,
          -0.07250938564538956,
          -0.04135521501302719,
          0.019182922318577766,
          -0.0059494748711586,
          0.08457330614328384,
          0.01693739742040634,
          -0.05578406900167465,
          -0.03511159121990204,
          0.03292090818285942,
          -0.0525745265185833,
          -0.0427088662981987,
          0.029609601944684982,
          0.06518291682004929,
          -0.04039348289370537,
          -0.060990434139966965,
          -0.07404401898384094,
          0.08702821284532547,
          0.06916066259145737,
          -0.05680687353014946,
          0.07656949013471603,
          -0.00636200699955225,
          -0.028079863637685776,
          -0.018883565440773964,
          0.08441123366355896,
          0.03340130299329758,
          0.02137099765241146,
          -0.020175687968730927,
          0.05003080144524574,
          0.017122849822044373,
          -0.08422082662582397,
          0.046225156635046005,
          0.002314690500497818,
          -0.044414058327674866,
          -0.078414686024189,
          -0.027868347242474556,
          -0.07969538867473602,
          0.06082311272621155,
          -0.08322811126708984,
          -0.03423250839114189,
          0.04682804271578789,
          -0.07300741970539093,
          0.02301589772105217,
          0.011780289933085442,
          -0.017974911257624626,
          0.004967020358890295,
          -0.06811525672674179
        ],
        [
          -0.02460388094186783,
          0.03115202859044075,
          0.013885102234780788,
          -0.06602197885513306,
          -0.05785105377435684,
          -0.0849660336971283,
          0.02191874198615551,
          0.03209489583969116,
          -0.04342399910092354,
          -0.06576612591743469,
          0.04803509637713432,
          0.03333873301744461,
          0.016248518601059914,
          0.047885458916425705,
          -0.008186904713511467,
          0.0962059497833252,
          -0.05836314707994461,
          -0.03168913722038269,
          0.036101553589105606,
          0.04017046466469765,
          -0.023368900641798973,
          0.07447764277458191,
          -0.0735541433095932,
          0.06157752126455307,
          0.04734285920858383,
          -0.011269353330135345,
          0.03252733498811722,
          0.046145960688591,
          -0.02719036117196083,
          0.012533674016594887,
          0.017548490315675735,
          -0.04464494809508324,
          -0.014763420447707176,
          -0.03780859336256981,
          -0.004569742362946272,
          -0.008504947647452354,
          -0.06574559956789017,
          0.00617933738976717,
          0.052086785435676575,
          0.08259911090135574,
          -0.017372537404298782,
          -0.014913942664861679,
          -0.03437458723783493,
          -0.04797393083572388,
          -0.02305944636464119,
          0.015889255329966545,
          0.0031320848502218723,
          0.009367343969643116,
          0.05406652390956879,
          -0.04778440296649933,
          -0.0030438487883657217,
          0.0856071189045906,
          0.03473273292183876,
          -0.035501766949892044,
          0.03471898287534714,
          -0.06005513668060303,
          0.07085375487804413,
          -0.022540312260389328,
          -0.031339846551418304,
          -0.04940727725625038,
          -0.08302243798971176,
          0.08424091339111328,
          -0.026201725006103516,
          0.0042925006709992886,
          -0.011081092059612274,
          -0.03192388638854027,
          -0.030267009511590004,
          0.06886372715234756,
          0.044096529483795166,
          -0.04244835302233696,
          0.07175756245851517,
          -0.046026814728975296,
          -0.04435235634446144,
          0.017628824338316917,
          0.06155426427721977,
          -0.006597893312573433,
          -0.07197707146406174,
          0.04246488958597183,
          0.010222036391496658,
          -0.014068400487303734,
          0.03389448672533035,
          0.07401173561811447,
          -0.037330809980630875,
          0.02343326061964035,
          -0.02925284020602703,
          -0.004618833307176828,
          0.005717441439628601,
          0.020195795223116875,
          -0.05613098666071892,
          -0.015597958117723465,
          0.08066315948963165,
          -0.07703090459108353,
          0.0023234086111187935,
          0.07606874406337738,
          0.02562653459608555,
          0.07632984220981598,
          -0.023974265903234482,
          0.0870613381266594,
          0.07770510762929916,
          -0.06354892998933792,
          0.005762788001447916,
          0.04916074126958847,
          0.08611099421977997,
          0.06519392877817154,
          0.00014808838022872806,
          0.03435636684298515,
          0.01815868355333805,
          0.0589391365647316,
          0.011080444790422916,
          -0.026326272636651993,
          -0.029443515464663506,
          -0.07336081564426422,
          -0.09506674855947495,
          -0.012128244154155254,
          0.07240749150514603,
          0.004330645781010389,
          -0.06659089028835297,
          -0.09767857193946838,
          0.08458052575588226,
          0.03460383415222168,
          -0.024583429098129272,
          0.013862859457731247,
          0.00901190284639597,
          0.016291853040456772,
          0.04092387482523918,
          -0.011735543608665466,
          -0.002286547562107444,
          -0.049953244626522064
        ],
        [
          0.02019921876490116,
          0.05031029134988785,
          -0.026845453307032585,
          -0.04739156737923622,
          -0.07684259861707687,
          -0.062284916639328,
          0.07021232694387436,
          -0.005681595765054226,
          -0.055062104016542435,
          0.011030723340809345,
          0.013989999890327454,
          0.05620098486542702,
          -0.013527453877031803,
          -0.06986767053604126,
          0.017092149704694748,
          -0.04015902057290077,
          -0.0592942014336586,
          -0.06956294924020767,
          0.01979689672589302,
          0.06405100971460342,
          -0.05032935366034508,
          -0.014283567667007446,
          0.09015928208827972,
          -0.008103849366307259,
          -0.022275304421782494,
          -0.01631247065961361,
          -0.0003595302696339786,
          -0.047613006085157394,
          -0.010391402058303356,
          -0.012371483258903027,
          0.0029456992633640766,
          -0.059068720787763596,
          -0.021719982847571373,
          -0.02234438620507717,
          -0.024114931002259254,
          -0.015693480148911476,
          -0.07405077666044235,
          0.026505744084715843,
          0.0459638386964798,
          -0.055044353008270264,
          -0.022155631333589554,
          0.02938651479780674,
          -0.003189647337421775,
          -0.07839027792215347,
          -0.08295444399118423,
          0.056507308036088943,
          0.04446592554450035,
          -0.06539475172758102,
          -0.030808670446276665,
          -0.05476240813732147,
          0.06279467046260834,
          0.021264923736453056,
          -0.08625110983848572,
          0.015061601996421814,
          -0.0524321123957634,
          0.018061067909002304,
          0.046994563192129135,
          0.04022908955812454,
          -0.04165162146091461,
          0.044625796377658844,
          0.0501437783241272,
          -0.08752483129501343,
          -0.05707688629627228,
          0.018640195950865746,
          -0.07675942778587341,
          0.02145913615822792,
          0.0006932785618118942,
          0.053999193012714386,
          0.010944189503788948,
          0.011419720016419888,
          -0.04632917419075966,
          -0.025136327371001244,
          0.04819919914007187,
          -0.048316940665245056,
          0.03327691927552223,
          -0.01631903648376465,
          -0.028501104563474655,
          0.02402200922369957,
          -0.06530952453613281,
          0.0549297071993351,
          0.07607264071702957,
          -0.04850708693265915,
          -0.04328450188040733,
          0.07975064963102341,
          -0.050214312970638275,
          -0.005272164475172758,
          -0.07333391159772873,
          -0.05347819998860359,
          -0.052517782896757126,
          -0.04137476533651352,
          -0.0574173666536808,
          -0.0742185041308403,
          -0.002230078913271427,
          -0.06561931222677231,
          0.0028260343242436647,
          0.03657048940658569,
          -0.0639902725815773,
          0.08176898956298828,
          0.011238400824368,
          -0.01198129914700985,
          0.023220255970954895,
          -0.02363649383187294,
          0.08949681371450424,
          -0.017964929342269897,
          0.03287554904818535,
          -0.07259491086006165,
          -0.048382166773080826,
          -0.04803674295544624,
          0.07623935490846634,
          0.08741501718759537,
          0.03727210685610771,
          -0.022635415196418762,
          -0.021711565554142,
          0.011241719126701355,
          0.012564371339976788,
          0.031723786145448685,
          -0.06457918137311935,
          0.03431561216711998,
          0.01713043823838234,
          -0.08240760862827301,
          -0.029638787731528282,
          0.02098659612238407,
          0.011997172608971596,
          0.03406005725264549,
          0.010623875074088573,
          -0.055004313588142395,
          0.05914798751473427,
          -0.033018674701452255
        ],
        [
          0.03184571862220764,
          0.006835796404629946,
          -0.0029065797571092844,
          0.0015478741843253374,
          -0.04176797345280647,
          0.06425506621599197,
          -0.06512792408466339,
          -0.031186768785119057,
          -0.05109591782093048,
          -0.08096368610858917,
          0.03520551323890686,
          0.05072183161973953,
          -0.010100791230797768,
          0.0383838452398777,
          0.06649046391248703,
          0.07959070056676865,
          -0.015001348219811916,
          0.07597851008176804,
          -0.08704204857349396,
          0.0721053034067154,
          0.08602918684482574,
          -0.01491033285856247,
          0.008599657565355301,
          0.08737393468618393,
          0.00680108368396759,
          0.031348880380392075,
          0.04778808727860451,
          -0.06522481143474579,
          -0.007090787868946791,
          0.01697513461112976,
          -0.06301093101501465,
          0.06773567944765091,
          -0.05525539070367813,
          0.050844721496105194,
          -0.013151697814464569,
          0.03036593273282051,
          0.05948934704065323,
          -0.05696597322821617,
          0.03609573096036911,
          0.0023697284050285816,
          -0.03995983675122261,
          0.0370592400431633,
          0.0834716260433197,
          -0.014922409318387508,
          0.039926912635564804,
          0.07681276649236679,
          0.03301260992884636,
          0.018571825698018074,
          0.03430981561541557,
          0.048611972481012344,
          -0.038760364055633545,
          0.08022025972604752,
          0.016971856355667114,
          0.05135592073202133,
          -0.07480588555335999,
          0.049721069633960724,
          -0.01377564761787653,
          0.0829642117023468,
          0.061665963381528854,
          0.0014444234548136592,
          -0.016013117507100105,
          -0.021108007058501244,
          0.06648840010166168,
          0.050555966794490814,
          -0.01226774137467146,
          0.02723550796508789,
          0.010038183070719242,
          -0.059008099138736725,
          -0.06601553410291672,
          -0.03334718942642212,
          0.05769893899559975,
          -0.052434928715229034,
          -0.08807023614645004,
          0.04100679233670235,
          0.0037946850061416626,
          0.032175395637750626,
          0.03290122002363205,
          0.0959804356098175,
          0.03168151155114174,
          0.03959774598479271,
          -0.050591375678777695,
          -0.04939217492938042,
          0.036249782890081406,
          0.009090500883758068,
          0.056322045624256134,
          -0.06689970195293427,
          0.05229620262980461,
          -0.008832653053104877,
          -0.04661771282553673,
          -0.061509475111961365,
          0.06513961404561996,
          0.02198505401611328,
          0.08143730461597443,
          0.0021234587766230106,
          0.03959176689386368,
          -0.07509356737136841,
          -0.02196890115737915,
          0.08551444858312607,
          -0.025389043614268303,
          0.035214945673942566,
          0.04761810228228569,
          -0.05506261810660362,
          -0.00020999941625632346,
          0.0012588012032210827,
          -0.08078192174434662,
          -0.0010922159999608994,
          -0.03501036390662193,
          -0.019524268805980682,
          0.03361889719963074,
          0.05309240520000458,
          -0.046869583427906036,
          0.027807440608739853,
          -0.0913219302892685,
          -0.008929891511797905,
          0.04892820492386818,
          0.06001535430550575,
          0.004020171705633402,
          -0.045971062034368515,
          -0.07241863012313843,
          -0.013685600832104683,
          0.05301416665315628,
          0.05737387388944626,
          0.02562709152698517,
          0.08062373846769333,
          0.03954014554619789,
          -0.05023544281721115,
          -0.06100481376051903,
          0.06029385328292847
        ],
        [
          -0.09461601078510284,
          0.010670295916497707,
          0.045068271458148956,
          0.0173379834741354,
          -0.0625220313668251,
          -0.0320342555642128,
          -0.005941716022789478,
          0.06937787681818008,
          -0.06292931735515594,
          0.011792614124715328,
          -0.05808970704674721,
          0.05229902267456055,
          -0.026508411392569542,
          0.04577500373125076,
          -0.031157225370407104,
          0.005046891048550606,
          0.0009193444857373834,
          0.013920951634645462,
          -0.02667987532913685,
          0.07770048826932907,
          0.056792743504047394,
          -0.08469270914793015,
          0.06554514169692993,
          0.06113230064511299,
          0.04165105149149895,
          0.046950358897447586,
          -0.03529363498091698,
          0.01616545580327511,
          0.004921783227473497,
          -0.04433361068367958,
          0.06108536198735237,
          -0.06749691069126129,
          -0.06839898973703384,
          0.025300737470388412,
          0.061954207718372345,
          -0.08416758477687836,
          0.056172069162130356,
          0.018240883946418762,
          -0.04142766073346138,
          0.07596883922815323,
          -0.03958151489496231,
          -0.020855892449617386,
          -0.07216107100248337,
          0.04933547228574753,
          0.010802270844578743,
          -0.026302918791770935,
          -0.04547547921538353,
          -0.06988806277513504,
          0.006172311957925558,
          -0.06508109718561172,
          0.002936490112915635,
          -0.044935114681720734,
          0.06198675185441971,
          0.07712351530790329,
          -0.07256893813610077,
          -0.027689285576343536,
          0.0038261576555669308,
          0.06245705485343933,
          0.043014660477638245,
          0.021788325160741806,
          -0.004211399704217911,
          0.09346263855695724,
          0.05197926610708237,
          0.07909868657588959,
          -0.04047315940260887,
          -0.07786072045564651,
          0.07101994007825851,
          -0.007715602871030569,
          0.005068568047136068,
          0.04611635580658913,
          -0.05455119535326958,
          0.014978086575865746,
          -0.06604140996932983,
          -0.07974914461374283,
          -0.003090145532041788,
          0.07267952710390091,
          0.02844981476664543,
          -0.03610125929117203,
          -0.0853247418999672,
          0.06583904474973679,
          -0.03037000447511673,
          0.026707101613283157,
          0.016606111079454422,
          -0.0625147894024849,
          -0.020115314051508904,
          -0.03472262620925903,
          -0.002241161884739995,
          0.0013579534133896232,
          -0.01752670481801033,
          0.07318783551454544,
          -0.06797852367162704,
          0.0038477731868624687,
          0.039046511054039,
          0.057127587497234344,
          -0.03631875663995743,
          -0.009814929217100143,
          -0.027217617258429527,
          0.06276977062225342,
          0.05301864817738533,
          0.07193872332572937,
          0.05626505985856056,
          -0.053667470812797546,
          0.07402488589286804,
          -0.09384332597255707,
          -0.08020707964897156,
          0.03935674950480461,
          0.0720871314406395,
          -0.010468201711773872,
          -0.012619899585843086,
          0.05463014543056488,
          0.005217305850237608,
          0.01722399890422821,
          -0.05379357933998108,
          -0.07951129227876663,
          -0.03141703084111214,
          -0.0663653090596199,
          0.010398836806416512,
          -0.0328509584069252,
          0.08918093144893646,
          -0.03291739895939827,
          0.08414710313081741,
          0.017643528059124947,
          0.05918654799461365,
          -0.029991956427693367,
          0.013910488225519657,
          -0.07494266331195831,
          0.05193786695599556,
          -0.056934863328933716
        ],
        [
          0.012444195337593555,
          0.005390959791839123,
          0.06768116354942322,
          0.0660570040345192,
          0.06921570003032684,
          -0.023994524031877518,
          -0.015894386917352676,
          -0.011467966251075268,
          -0.026738828048110008,
          -0.07083287090063095,
          0.05630411207675934,
          -0.0428830124437809,
          -0.013760924339294434,
          -0.07835445553064346,
          -0.027519548311829567,
          -0.05916034057736397,
          0.011906092055141926,
          0.0848059430718422,
          0.06367756426334381,
          0.00460544228553772,
          -0.03198846057057381,
          -0.017828550189733505,
          -0.00010795721027534455,
          -0.05887408182024956,
          0.028212543576955795,
          -0.028932861983776093,
          0.027865592390298843,
          -0.025180216878652573,
          0.02485489472746849,
          0.07080219686031342,
          0.018057866021990776,
          -0.060749176889657974,
          -0.009426147677004337,
          -0.023493176326155663,
          0.05237162485718727,
          0.06810571253299713,
          -0.05501950904726982,
          0.05448286235332489,
          0.0719890221953392,
          -0.06601117551326752,
          -0.0034652408212423325,
          0.01781460829079151,
          -0.039126668125391006,
          0.0535166934132576,
          -0.011761144734919071,
          -0.04732242599129677,
          0.04229656979441643,
          -0.02676183357834816,
          -0.05457041412591934,
          0.07125432789325714,
          -0.04511333629488945,
          -0.05187971517443657,
          0.004088008310645819,
          0.05467907711863518,
          -0.07964850962162018,
          -0.06135592609643936,
          0.08210807293653488,
          -0.05780331417918205,
          0.08962944149971008,
          0.07344433665275574,
          -0.015949686989188194,
          0.04579459875822067,
          0.04688165709376335,
          -0.028394054621458054,
          0.019627781584858894,
          -0.08348318189382553,
          0.032667674124240875,
          0.08174680173397064,
          -0.022717373445630074,
          -0.04499688372015953,
          -0.03297240287065506,
          0.05358445644378662,
          -0.007494685240089893,
          0.03725873678922653,
          -0.049474798142910004,
          -0.029158854857087135,
          0.07364834100008011,
          0.049482446163892746,
          0.07393606007099152,
          0.01655902899801731,
          0.012683332897722721,
          -0.06625024974346161,
          0.033890385180711746,
          -0.014228491112589836,
          0.02946767956018448,
          0.046760134398937225,
          -0.060600731521844864,
          0.04112112522125244,
          0.0798436850309372,
          0.0670451819896698,
          -0.06359350681304932,
          0.0573992095887661,
          -0.03149864822626114,
          -0.06059319153428078,
          0.04234188422560692,
          -0.09101766347885132,
          -0.10529538989067078,
          -0.07828426361083984,
          0.08944997936487198,
          -0.056214991956949234,
          -0.05899014323949814,
          -0.018239790573716164,
          -8.760761556914076e-05,
          0.009251891635358334,
          0.08761889487504959,
          -0.02044127695262432,
          0.08331368118524551,
          0.046787749975919724,
          -0.00547107495367527,
          0.022898413240909576,
          0.07971159368753433,
          -0.04274110123515129,
          -0.08622798323631287,
          -0.003093209583312273,
          0.027129167690873146,
          -0.006480779033154249,
          0.06518933176994324,
          -0.044590890407562256,
          -0.04380642622709274,
          -0.016503972932696342,
          0.025980191305279732,
          -0.046856291592121124,
          0.06055374816060066,
          -0.01598258689045906,
          0.04071733355522156,
          0.04589029774069786,
          -0.023470386862754822,
          -0.044314224272966385
        ],
        [
          -0.030784621834754944,
          0.07520425319671631,
          0.06027159467339516,
          -0.05423523485660553,
          0.05604454502463341,
          0.006482104770839214,
          -0.01581895910203457,
          -0.035261500626802444,
          0.047133639454841614,
          -0.062144726514816284,
          -0.06229591369628906,
          0.09099569171667099,
          -0.027326062321662903,
          0.06930709630250931,
          0.047443557530641556,
          -0.005488207563757896,
          -0.07147873938083649,
          -0.037096355110406876,
          -0.08342412114143372,
          -0.013680636882781982,
          0.08838006854057312,
          0.08651838451623917,
          0.02927202358841896,
          -0.09021932631731033,
          -0.08588254451751709,
          0.07988810539245605,
          -0.0507780984044075,
          -0.039334818720817566,
          -0.0033898805268108845,
          -0.052798230201005936,
          0.030170723795890808,
          0.027335641905665398,
          0.07407170534133911,
          -0.048840466886758804,
          -0.05743589624762535,
          -0.02328871376812458,
          -0.002944338135421276,
          -0.012419762089848518,
          0.019136279821395874,
          -0.029475372284650803,
          -0.030922045931220055,
          0.000489425437990576,
          0.01604924537241459,
          0.058945778757333755,
          0.07973981648683548,
          0.0023772206623107195,
          0.07553458213806152,
          0.07818315178155899,
          -0.024649715051054955,
          0.04253273829817772,
          -0.02691991999745369,
          -0.03910671919584274,
          -0.08235982805490494,
          -0.014529996551573277,
          0.008825346827507019,
          -0.0018576631555333734,
          -0.07061715424060822,
          -0.0583772249519825,
          0.08246535807847977,
          0.03303012251853943,
          -0.018071185797452927,
          -0.009503371082246304,
          0.01743636652827263,
          0.009390722960233688,
          0.06269078701734543,
          -0.005457380786538124,
          -0.022431226447224617,
          0.07177820801734924,
          -0.034053102135658264,
          -0.015699345618486404,
          0.05691410228610039,
          0.082544706761837,
          -0.02838386408984661,
          -0.022053418681025505,
          0.01803080551326275,
          0.020150309428572655,
          -0.08477635681629181,
          0.04252326488494873,
          -0.027946829795837402,
          -0.07550704479217529,
          0.04160714149475098,
          0.029337789863348007,
          -0.057784199714660645,
          0.06515747308731079,
          -0.012412923388183117,
          0.022880271077156067,
          -0.0172505471855402,
          -0.07850871235132217,
          -0.06528831273317337,
          -0.025186045095324516,
          -0.07177455723285675,
          -0.041670143604278564,
          0.025397663936018944,
          0.06452879309654236,
          0.0579134039580822,
          -0.020693078637123108,
          -0.0013688778271898627,
          -0.04161664843559265,
          0.012537997215986252,
          0.02034318447113037,
          0.0008694155840203166,
          -0.048065897077322006,
          -0.05227157101035118,
          0.007855823263525963,
          0.019697966054081917,
          -0.014724736101925373,
          0.001213426934555173,
          -0.05888359621167183,
          -0.03415331989526749,
          0.007940458133816719,
          -0.06824413686990738,
          0.026941737160086632,
          0.03476560488343239,
          0.024115217849612236,
          9.039367432706058e-05,
          0.04910401627421379,
          -0.023032644763588905,
          0.06541449576616287,
          0.03392748534679413,
          -0.08193566650152206,
          -0.045382823795080185,
          -0.011795810423791409,
          -0.08097507804632187,
          -0.07837317883968353,
          -0.06222161650657654,
          0.03283359110355377,
          -0.07448999583721161,
          -0.049497589468955994
        ],
        [
          0.05376724526286125,
          -0.08133023232221603,
          0.08751575648784637,
          -0.0009094878914766014,
          0.057356588542461395,
          0.012893800623714924,
          0.06927099823951721,
          -0.07052311301231384,
          0.00808916985988617,
          -0.049721114337444305,
          0.05796535313129425,
          0.04653123766183853,
          0.06542373448610306,
          -0.06070443242788315,
          -0.020694052800536156,
          0.07792732119560242,
          0.09192798286676407,
          0.01476712804287672,
          0.031186243519186974,
          0.005395993124693632,
          -0.034182533621788025,
          0.03091733530163765,
          -0.08399632573127747,
          0.07638068497180939,
          0.011414621956646442,
          -0.026395432651042938,
          -0.08746809512376785,
          0.06533832103013992,
          -0.035369645804166794,
          0.06733372807502747,
          -0.08496738970279694,
          0.07362275570631027,
          0.0038589383475482464,
          0.08404126763343811,
          -0.05337626114487648,
          0.06972946226596832,
          0.002138120587915182,
          0.00650029955431819,
          -0.0565359853208065,
          -0.030276712030172348,
          0.041913583874702454,
          0.04947191849350929,
          0.0828394666314125,
          -0.0618121363222599,
          -0.006448766682296991,
          -0.06587721407413483,
          -0.0517156682908535,
          0.009955942630767822,
          0.0021611307747662067,
          -0.01967192068696022,
          0.05386500060558319,
          0.0008781153010204434,
          0.041739318519830704,
          0.05402759462594986,
          0.06375706940889359,
          -0.07168929278850555,
          -0.042136289179325104,
          -0.03516748920083046,
          0.07396448403596878,
          0.03471161797642708,
          -0.05865165591239929,
          -0.018488436937332153,
          0.08257625997066498,
          -0.0633126050233841,
          -0.040860194712877274,
          0.04852030426263809,
          0.0015067635104060173,
          -0.0547233410179615,
          0.0003496191930025816,
          -0.06109504774212837,
          -0.058644380420446396,
          0.001367394463159144,
          -0.0509447306394577,
          -0.07009446620941162,
          0.08546553552150726,
          0.06949292868375778,
          0.013091271743178368,
          -0.006709192879498005,
          0.062272265553474426,
          0.08517037332057953,
          -0.033658839762210846,
          -0.012599526904523373,
          -0.06159680336713791,
          -0.017090236768126488,
          0.05008083954453468,
          -0.09550227969884872,
          0.08170883357524872,
          -0.009541409090161324,
          0.08499210327863693,
          -0.04805643483996391,
          -0.061765868216753006,
          0.04918626695871353,
          -0.07798579335212708,
          -0.04094574600458145,
          0.04159103333950043,
          0.07236684858798981,
          0.06877730786800385,
          0.08403196185827255,
          -0.08556021004915237,
          -0.05688050761818886,
          -0.04556309059262276,
          0.06621067225933075,
          -0.05276944115757942,
          -0.021366678178310394,
          0.022143226116895676,
          -0.06939041614532471,
          -0.0800166130065918,
          -0.0008755128365010023,
          0.04245607554912567,
          -0.019527237862348557,
          0.04050370678305626,
          0.024927889928221703,
          0.038104139268398285,
          -0.041771065443754196,
          0.06538687646389008,
          -0.06094546616077423,
          0.01715806871652603,
          0.0865764319896698,
          -0.03244674950838089,
          -0.02150990627706051,
          0.03169256076216698,
          0.07847825437784195,
          -0.07909077405929565,
          -0.03031931445002556,
          0.04269643500447273,
          0.04964499548077583,
          0.009457678534090519,
          -0.08080032467842102
        ],
        [
          0.08822303265333176,
          0.0885096862912178,
          -0.028613287955522537,
          0.09515269845724106,
          0.002472251420840621,
          0.06330142915248871,
          -0.04648074507713318,
          -0.04741175100207329,
          0.012305868789553642,
          -0.07268837839365005,
          -0.0022862900514155626,
          -0.03344281390309334,
          -0.01993550918996334,
          0.059093981981277466,
          0.02952471934258938,
          -0.07705050706863403,
          0.0019583916291594505,
          -0.052726730704307556,
          0.027083344757556915,
          0.026138707995414734,
          0.00459396094083786,
          -0.014845752157270908,
          0.03020831197500229,
          0.027078546583652496,
          0.01795022003352642,
          0.004533153027296066,
          0.04145890474319458,
          0.004317872226238251,
          0.046819161623716354,
          0.01155990082770586,
          0.08547797799110413,
          0.04934665933251381,
          0.007220190018415451,
          -0.04061957448720932,
          -0.06719906628131866,
          0.08935234695672989,
          0.07687610387802124,
          -0.05580601096153259,
          0.009856564924120903,
          0.050196077674627304,
          -0.019996115937829018,
          -0.032921578735113144,
          -0.030418621376156807,
          -0.0870981514453888,
          -0.020550137385725975,
          -0.09019463509321213,
          0.05069650709629059,
          -0.01916152983903885,
          0.04133525863289833,
          -0.07587336003780365,
          0.010413520969450474,
          0.09244007617235184,
          -0.0004496877081692219,
          0.07089705765247345,
          0.007886788807809353,
          -0.054221607744693756,
          0.010847819037735462,
          -0.036392275243997574,
          -0.048738349229097366,
          0.07221585512161255,
          -0.05322641134262085,
          -0.06376312673091888,
          -0.08948562294244766,
          0.09728926420211792,
          -0.07097125053405762,
          0.035967499017715454,
          0.014065013267099857,
          -0.061360567808151245,
          0.038574617356061935,
          -0.059116918593645096,
          -0.055436041206121445,
          0.030546845868229866,
          0.07459569722414017,
          0.019670726731419563,
          -0.08595997840166092,
          0.015514612197875977,
          -0.03688516840338707,
          0.06350893527269363,
          0.026239357888698578,
          0.03282708674669266,
          0.044843968003988266,
          -0.04381156712770462,
          0.00194926920812577,
          -0.05581694096326828,
          0.07020184397697449,
          -0.04119637981057167,
          0.05139883607625961,
          0.07780527323484421,
          -0.07886792719364166,
          0.06685332953929901,
          -0.060861047357320786,
          0.049903739243745804,
          -0.07187455147504807,
          -0.009488645941019058,
          0.02113838493824005,
          -0.00977878738194704,
          0.08318155258893967,
          0.060262031853199005,
          0.036899205297231674,
          -0.043873853981494904,
          0.024297179654240608,
          0.0439440943300724,
          -0.09512294083833694,
          0.041367001831531525,
          0.022245248779654503,
          0.05066933482885361,
          0.030574770644307137,
          -0.02536224201321602,
          -0.06452050805091858,
          0.08755775541067123,
          -0.013949498534202576,
          0.08076226711273193,
          -0.07785357534885406,
          0.0770871490240097,
          -0.003496750956401229,
          0.05485931411385536,
          0.0846225842833519,
          0.0075922696851193905,
          -0.04231901466846466,
          -0.008859310299158096,
          0.07058020681142807,
          -0.052963804453611374,
          0.006181927397847176,
          0.005983160808682442,
          -0.03368114307522774,
          0.051370471715927124,
          -0.06939947605133057,
          -0.02377760224044323
        ],
        [
          -0.06588812172412872,
          -0.04181469604372978,
          0.07394182682037354,
          0.060084033757448196,
          0.049305353313684464,
          -0.05551468953490257,
          0.038276318460702896,
          -0.030425850301980972,
          0.001072768005542457,
          0.03825204074382782,
          0.08298958837985992,
          -0.03186212480068207,
          -0.07531936466693878,
          0.06491631269454956,
          0.06549522280693054,
          -0.005226704757660627,
          -0.017183352261781693,
          0.03768836334347725,
          0.03285488486289978,
          -0.0339762307703495,
          0.0209601242095232,
          -0.021984925493597984,
          0.0727270096540451,
          0.07938793301582336,
          0.033600449562072754,
          0.021427780389785767,
          -0.010613714344799519,
          0.08577543497085571,
          0.06037197634577751,
          0.04627658426761627,
          0.0620410181581974,
          0.07073275744915009,
          0.050139229744672775,
          -0.04124971106648445,
          -0.003841407597064972,
          0.03078959882259369,
          -0.022500209510326385,
          -0.04405123367905617,
          -0.04949760437011719,
          -0.013765031471848488,
          -0.022488804534077644,
          0.05054491013288498,
          0.04385368153452873,
          -0.03976484015583992,
          -0.02246018685400486,
          -0.028819628059864044,
          0.0797395259141922,
          -0.04074870049953461,
          -0.07032928615808487,
          -0.021241312846541405,
          -0.017976516857743263,
          -0.05496371164917946,
          0.03992383927106857,
          0.0441296212375164,
          -0.016005361452698708,
          -0.022873390465974808,
          0.03012782335281372,
          -0.03805248811841011,
          0.05522724241018295,
          -0.017497552558779716,
          0.016391953453421593,
          0.05696352198719978,
          -0.04681871458888054,
          -0.008147970773279667,
          -0.03144454583525658,
          -0.07064458727836609,
          0.007618043106049299,
          0.06890596449375153,
          -0.04073599725961685,
          0.0738128051161766,
          -0.08665718138217926,
          -0.02970864810049534,
          -0.0028974954038858414,
          0.06410196423530579,
          -0.03665990009903908,
          0.01882329024374485,
          -0.026632139459252357,
          -0.00959121435880661,
          0.028069034218788147,
          -0.07364479452371597,
          -0.06081066280603409,
          -0.016451265662908554,
          0.041512709110975266,
          -0.01684538833796978,
          0.0178985558450222,
          -0.02860267646610737,
          -0.009974729269742966,
          0.09398652613162994,
          0.04475780203938484,
          -0.056741178035736084,
          -0.0524984635412693,
          0.09057890623807907,
          -0.03454211354255676,
          -0.044553738087415695,
          -0.06321968883275986,
          -0.05841963365674019,
          0.02109220251441002,
          0.0563652478158474,
          0.0828452855348587,
          0.007311939261853695,
          0.0069118100218474865,
          -0.02818237990140915,
          -0.09082002192735672,
          -0.016174260526895523,
          0.07447455823421478,
          0.05852087214589119,
          0.06463988870382309,
          -0.08434019237756729,
          -0.0659639984369278,
          -0.06489192694425583,
          0.06816761195659637,
          0.016886001452803612,
          0.03834180906414986,
          0.058904197067022324,
          -0.07460270076990128,
          0.007203403394669294,
          0.060539647936820984,
          -0.024739054962992668,
          -0.07955102622509003,
          0.08602046221494675,
          0.0317300446331501,
          0.02344387024641037,
          0.04402679204940796,
          -0.008135886862874031,
          -0.0051615918055176735,
          -0.07653239369392395,
          -0.010400425642728806,
          -0.0006486650672741234
        ],
        [
          -0.020636754110455513,
          -0.09149564802646637,
          -0.01101080235093832,
          0.05143337696790695,
          0.02766818180680275,
          -0.052756816148757935,
          -0.0819936990737915,
          0.03194475546479225,
          -0.020875371992588043,
          0.057967446744441986,
          -0.005070945248007774,
          -0.07465136051177979,
          0.06835314631462097,
          -0.04416956752538681,
          -0.040690843015909195,
          0.004562621004879475,
          0.03105255216360092,
          -0.029796704649925232,
          0.05796795338392258,
          -0.04616493359208107,
          0.004749421961605549,
          0.05887296050786972,
          0.09863033890724182,
          0.003676054300740361,
          -0.019777078181505203,
          0.07788234204053879,
          0.05193358287215233,
          -0.08408734202384949,
          0.08385774493217468,
          0.01345630269497633,
          -0.09644284844398499,
          0.039810556918382645,
          -0.046287842094898224,
          0.057331785559654236,
          0.05690376088023186,
          -0.051028598099946976,
          -0.013627104461193085,
          -0.008525491692125797,
          -0.00303514301776886,
          -0.03553931415081024,
          0.0064851064234972,
          -0.03889665752649307,
          -0.06962254643440247,
          0.026847315952181816,
          -0.009631953202188015,
          -0.06004077196121216,
          -0.03618286922574043,
          0.03789960965514183,
          0.024259120225906372,
          -0.0010178653756156564,
          -0.019452685490250587,
          -0.031407278031110764,
          0.08562295883893967,
          -0.06526391208171844,
          -0.05027996748685837,
          -0.06927917897701263,
          0.008452660404145718,
          0.03569002076983452,
          -0.03348524123430252,
          0.050630196928977966,
          -0.09041959047317505,
          -0.057515114545822144,
          0.045174989849328995,
          -0.07608377188444138,
          -0.05041619390249252,
          -0.04148658737540245,
          0.03951914608478546,
          -0.02915513888001442,
          0.07019785046577454,
          -0.09207183122634888,
          0.012391438707709312,
          0.0455947145819664,
          0.023920485749840736,
          -0.02865433506667614,
          0.07728315144777298,
          -0.040325459092855453,
          0.07109211385250092,
          0.083257295191288,
          -0.08323772996664047,
          -0.0780695453286171,
          0.07195404171943665,
          -0.06450808048248291,
          0.08563834428787231,
          -0.0654592216014862,
          0.047351352870464325,
          -0.043454159051179886,
          -0.06685891002416611,
          -0.07152301073074341,
          -0.012606199830770493,
          -0.04366012290120125,
          -0.05524586886167526,
          0.04669244959950447,
          -0.08955390006303787,
          0.034760456532239914,
          -0.06648677587509155,
          -0.061943721026182175,
          0.0315452478826046,
          -0.07099299132823944,
          -0.04839305207133293,
          -0.07950741052627563,
          0.062491755932569504,
          0.05064842104911804,
          -0.08032900094985962,
          0.06034860759973526,
          -0.0772394984960556,
          -0.06645704060792923,
          -0.0068741547875106335,
          0.08424343913793564,
          0.011316502466797829,
          0.09659932553768158,
          0.031923819333314896,
          0.03067910112440586,
          0.031017303466796875,
          -0.06386113911867142,
          -0.07349450141191483,
          0.010813025757670403,
          0.0658169686794281,
          0.04710296168923378,
          -0.03886108100414276,
          -0.05720403790473938,
          -0.056068722158670425,
          -0.03726700320839882,
          -0.01675279065966606,
          0.0713239386677742,
          0.010163580998778343,
          0.08016187697649002,
          0.005265775136649609,
          -0.04551546275615692
        ],
        [
          -0.018644897267222404,
          0.00047255028039216995,
          -0.04036493971943855,
          0.022551899775862694,
          -0.02579403668642044,
          -0.06039753928780556,
          0.027546755969524384,
          0.0012962716864421964,
          0.020648524165153503,
          0.028437361121177673,
          -0.0169681366533041,
          0.08562107384204865,
          -0.031990937888622284,
          0.07885134220123291,
          0.004835477564483881,
          -0.07793396711349487,
          -0.018112361431121826,
          0.03240521252155304,
          0.043712783604860306,
          -0.04445035383105278,
          -0.021341081708669662,
          -0.05275648459792137,
          -0.07178992033004761,
          -0.008480468764901161,
          0.03944918513298035,
          -0.06876444816589355,
          -0.02593141607940197,
          0.018227750435471535,
          0.08205575495958328,
          0.06260807812213898,
          0.05977514013648033,
          0.008053752593696117,
          -0.0412762351334095,
          0.048732440918684006,
          -0.059771884232759476,
          0.07267928868532181,
          -0.06017177179455757,
          -0.0674157664179802,
          -0.002687809057533741,
          0.013678747229278088,
          0.020451972261071205,
          0.02217942476272583,
          -0.05953472852706909,
          0.011852936819195747,
          0.0711679607629776,
          -0.06247046962380409,
          -0.08216365426778793,
          0.07700783014297485,
          0.10358451306819916,
          0.012712112627923489,
          0.005098017398267984,
          -0.0290619395673275,
          -0.02519850805401802,
          0.034741904586553574,
          -0.00996564794331789,
          -0.07761678844690323,
          -0.001056742505170405,
          0.0159162450581789,
          -0.005227226763963699,
          0.019179338589310646,
          -0.06604938209056854,
          -0.04548243060708046,
          0.06054525449872017,
          -0.0018448831979185343,
          -0.04122140631079674,
          -0.06682607531547546,
          0.022409651428461075,
          -0.027336236089468002,
          0.050674766302108765,
          0.04077386483550072,
          0.01597278006374836,
          -0.0017750962870195508,
          0.04682164639234543,
          -0.04966288432478905,
          -0.007611222565174103,
          -0.07736165821552277,
          -0.0012471976224333048,
          -0.08579295128583908,
          -0.07198241353034973,
          0.07490814477205276,
          0.028148900717496872,
          0.019885262474417686,
          -0.011618124321103096,
          -0.059321172535419464,
          0.0690690353512764,
          0.030579231679439545,
          -0.01751510240137577,
          -0.0543755367398262,
          -0.00573626859113574,
          0.005286093335598707,
          -0.08863367140293121,
          0.037739098072052,
          -0.07306293398141861,
          0.0743507593870163,
          -0.04998483508825302,
          0.04795634374022484,
          0.0612545907497406,
          -0.06415112316608429,
          0.0650898888707161,
          -0.045278679579496384,
          -0.0015576210571452975,
          -0.05181317776441574,
          0.04890228435397148,
          0.06198102980852127,
          -0.02945309318602085,
          0.042297400534152985,
          0.07477670907974243,
          -0.08085281401872635,
          -0.08719675242900848,
          0.0463261641561985,
          0.0005669211968779564,
          0.07176528871059418,
          -0.018647607415914536,
          0.04972581937909126,
          0.03485655039548874,
          0.042483795434236526,
          0.03677652031183243,
          0.06916364282369614,
          -0.00612601125612855,
          -0.00027740313089452684,
          -0.004580709617584944,
          -0.03943074867129326,
          -0.058861494064331055,
          -0.03322822228074074,
          -0.024887748062610626,
          -0.08683773130178452,
          -0.045128289610147476,
          0.05812418460845947
        ],
        [
          0.07687509804964066,
          0.051799476146698,
          -0.08695448189973831,
          -0.06601806730031967,
          -0.06827707588672638,
          -0.05763779208064079,
          -0.05213971063494682,
          0.010131149552762508,
          -0.031416814774274826,
          0.03983519971370697,
          0.03292713314294815,
          0.033580243587493896,
          -0.06553834676742554,
          0.0031385624315589666,
          0.00030253123259171844,
          0.08310210704803467,
          0.02420811727643013,
          -0.011707225814461708,
          0.06338035315275192,
          -0.046464256942272186,
          -0.0106218745931983,
          0.03947307914495468,
          0.06863949447870255,
          -0.012324647977948189,
          0.021364979445934296,
          0.02702833153307438,
          0.010210773907601833,
          0.06084945425391197,
          -0.0700034573674202,
          -0.013462726026773453,
          0.07181031256914139,
          0.0618412047624588,
          -0.0033707725815474987,
          0.015709737315773964,
          0.07710494101047516,
          -0.0005871907342225313,
          0.01331125758588314,
          0.0006847316981293261,
          0.07688635587692261,
          0.05123947560787201,
          0.004581791814416647,
          -0.04312199726700783,
          -0.0032943652477115393,
          0.04699055850505829,
          0.05312863737344742,
          0.09537986665964127,
          -0.009629623964428902,
          0.06911561638116837,
          0.04462500289082527,
          0.014414213597774506,
          0.04032845422625542,
          -0.05322540923953056,
          -0.016004865989089012,
          -0.004274369683116674,
          0.028461981564760208,
          0.09274721145629883,
          0.05630459263920784,
          0.019840748980641365,
          0.08474023640155792,
          -0.017406268045306206,
          0.06569226086139679,
          0.06957362592220306,
          -0.017738353461027145,
          -0.04252387583255768,
          0.0590096153318882,
          0.0318022221326828,
          -0.019355960190296173,
          0.0033844229765236378,
          0.0022375020198524,
          -0.04593527689576149,
          -0.03692401200532913,
          0.06325991451740265,
          -0.025912504643201828,
          -0.04347765073180199,
          0.0334041602909565,
          -0.03830566629767418,
          -0.06426133215427399,
          -0.025663087144494057,
          0.021390823647379875,
          -0.008771579712629318,
          0.07127393782138824,
          -0.06616045534610748,
          -0.07290621846914291,
          -0.08115226775407791,
          0.05607740581035614,
          0.06445610523223877,
          0.021848585456609726,
          0.03224032744765282,
          0.07897690683603287,
          -0.048694148659706116,
          -0.04681374877691269,
          -0.00505612138658762,
          -0.06534755975008011,
          -0.061534833163022995,
          -0.031134409829974174,
          0.045856986194849014,
          0.005926939658820629,
          0.01366685051470995,
          0.0869588553905487,
          0.04733249545097351,
          0.06457069516181946,
          -0.06610238552093506,
          -0.046903446316719055,
          -0.013149578124284744,
          0.061280522495508194,
          0.04010504111647606,
          -0.05582018196582794,
          -0.05935266241431236,
          0.08472952991724014,
          0.0093989921733737,
          0.036747127771377563,
          0.003049438586458564,
          0.054725490510463715,
          -0.000648413086310029,
          0.04719359427690506,
          0.046220771968364716,
          0.008173245936632156,
          -0.005187857896089554,
          -0.017879122868180275,
          -0.016695814207196236,
          0.02752571552991867,
          0.01558692567050457,
          -0.01591585949063301,
          -0.09292714297771454,
          -0.054849110543727875,
          0.008393251337110996,
          0.03023260459303856,
          0.06828230619430542
        ],
        [
          -0.03402046486735344,
          -0.056501176208257675,
          0.05758551135659218,
          -0.06071331724524498,
          -0.034796539694070816,
          0.0006812268402427435,
          0.042783528566360474,
          -0.03863624110817909,
          -0.02226562798023224,
          -0.012457235716283321,
          -0.025012752041220665,
          -0.009188532829284668,
          -0.04587938264012337,
          -0.0027137973811477423,
          -0.0020546037703752518,
          0.07481822371482849,
          0.07479793578386307,
          -0.09172364324331284,
          0.048402030020952225,
          0.05683460459113121,
          -0.04330960288643837,
          -0.03460485860705376,
          -0.051371727138757706,
          -0.02682318724691868,
          0.04580039158463478,
          0.045509304851293564,
          0.0846720039844513,
          0.06226586177945137,
          -0.07597234100103378,
          -0.05530675873160362,
          -0.01230629812926054,
          -0.0011113618966192007,
          0.062241215258836746,
          -0.0260061863809824,
          -0.04924320802092552,
          0.045280054211616516,
          0.010195245034992695,
          -0.08483649045228958,
          0.06817900389432907,
          0.03942909091711044,
          -0.05050058290362358,
          -0.05801553279161453,
          -0.03748580813407898,
          0.08130639046430588,
          -0.07894954085350037,
          0.017480269074440002,
          0.018200622871518135,
          -0.07758261263370514,
          -0.028661049902439117,
          -0.02735115773975849,
          0.03361305594444275,
          -0.05037020146846771,
          -0.0246680099517107,
          -0.062189117074012756,
          -0.029992088675498962,
          -0.004327861126512289,
          -0.07999241352081299,
          0.04049693048000336,
          -0.07086461037397385,
          -0.047560323029756546,
          0.006068515591323376,
          0.07418586313724518,
          -0.07471873611211777,
          0.014944064430892467,
          -0.0941062644124031,
          -0.07569066435098648,
          0.02816610410809517,
          0.07536979019641876,
          0.0631815642118454,
          -0.005792278330773115,
          0.06279847025871277,
          -0.08652797341346741,
          -0.0906871110200882,
          0.055977851152420044,
          -0.019969342276453972,
          -0.05243419483304024,
          -0.0714559257030487,
          -0.06759392470121384,
          -0.00015104821068234742,
          -0.050943031907081604,
          -0.040295641869306564,
          0.01949905790388584,
          -0.05638904124498367,
          -0.0818256139755249,
          -0.03975040093064308,
          0.08764393627643585,
          -0.09064319729804993,
          0.05921954661607742,
          -0.036505188792943954,
          0.07182495296001434,
          -0.0745721310377121,
          0.05559844523668289,
          0.08696780353784561,
          0.07198908925056458,
          0.010453998111188412,
          0.05976812168955803,
          -0.02370007522404194,
          -0.0881880596280098,
          -0.06824105978012085,
          -0.047937460243701935,
          -0.09298774600028992,
          0.05483913794159889,
          -0.059189505875110626,
          0.00032509583979845047,
          0.061617162078619,
          -0.014726460911333561,
          -0.021487338468432426,
          0.025353962555527687,
          -0.07766035944223404,
          -0.06385929882526398,
          0.019779443740844727,
          -0.04768674448132515,
          -0.08375252038240433,
          -0.0658189058303833,
          -0.013653656467795372,
          0.021867023780941963,
          0.05855726823210716,
          -0.04524403065443039,
          -0.064792200922966,
          0.07034783810377121,
          -0.005423625931143761,
          -0.030899163335561752,
          0.047195032238960266,
          0.06165367364883423,
          -0.020910244435071945,
          -0.07553555071353912,
          0.056055422872304916,
          0.07179654389619827
        ],
        [
          0.022489355877041817,
          0.028619300574064255,
          0.031176749616861343,
          0.07068853080272675,
          0.00712313037365675,
          0.03850952535867691,
          0.014748387038707733,
          -0.07053803652524948,
          0.0844717025756836,
          -0.07084734737873077,
          0.051544155925512314,
          0.024622131139039993,
          0.031002771109342575,
          0.02111022360622883,
          -0.0678795576095581,
          0.08738210052251816,
          0.04433944821357727,
          -0.07566643506288528,
          0.07671628147363663,
          -0.054403677582740784,
          0.04778650403022766,
          0.017069051042199135,
          0.04931388795375824,
          0.04811297357082367,
          0.009105433709919453,
          0.0637693703174591,
          -0.07431642711162567,
          -0.03161253035068512,
          0.08475358784198761,
          0.03317254036664963,
          -0.005693220999091864,
          -0.015066598542034626,
          0.07402155548334122,
          0.016506358981132507,
          0.01734744757413864,
          0.04885406047105789,
          -0.07534525543451309,
          0.019837576895952225,
          0.05169684812426567,
          0.011826587840914726,
          -0.00952841341495514,
          0.030587010085582733,
          0.07772266119718552,
          0.06058758497238159,
