{
  "model_type": "RTNeural",
  "model_id": "harmonypredictor",
  "task": "harmony_prediction",
  "input_size": 128,
  "output_size": 48,
  "architecture": "mlp",
  "layers": [
    {
      "name": "0.weight",
      "type": "conv",
      "weights": [
        [
          0.055200573056936264,
          0.08639778941869736,
          0.05958034098148346,
          -0.06471771746873856,
          0.07631729543209076,
          0.07043659687042236,
          -0.03787480667233467,
          0.05529554933309555,
          0.017765609547495842,
          0.07031044363975525,
          -0.07077247649431229,
          0.010719964280724525,
          -0.04009998217225075,
          -0.027237579226493835,
          -0.002978689270094037,
          -0.013278366066515446,
          -0.06466943770647049,
          0.064537413418293,
          0.06437388062477112,
          0.027214596047997475,
          -0.009938391856849194,
          0.006306708324700594,
          -0.053532347083091736,
          0.05733886733651161,
          -0.01086337585002184,
          0.011061841621994972,
          -0.017736952751874924,
          0.0757189467549324,
          -0.08704783767461777,
          -0.02516200579702854,
          0.0160953551530838,
          0.04716194421052933,
          0.007910276763141155,
          0.03695131465792656,
          -0.05727396160364151,
          -0.065803661942482,
          -0.0929313451051712,
          -0.059483081102371216,
          -0.020112071186304092,
          0.0893719270825386,
          -0.024236803874373436,
          -0.0564536526799202,
          0.0034800602588802576,
          0.061078790575265884,
          -0.08472970128059387,
          0.08674909919500351,
          0.06970342248678207,
          -0.001401141402311623,
          -0.014435415156185627,
          0.06293713301420212,
          0.03545903041958809,
          -0.06244729086756706,
          -0.042472247034311295,
          0.0645296722650528,
          -0.048868317157030106,
          0.08536794781684875,
          -0.006446977145969868,
          0.05029011145234108,
          -0.07793840765953064,
          0.005605574231594801,
          0.025855235755443573,
          -0.08398129045963287,
          0.0747896060347557,
          0.06010790914297104,
          0.06727246940135956,
          -0.027859799563884735,
          -0.021746212616562843,
          0.09108223021030426,
          -0.10155974328517914,
          0.011878415942192078,
          -0.04812411963939667,
          -0.10427866876125336,
          -0.01558071468025446,
          -0.014054445549845695,
          0.020656561478972435,
          -0.057169463485479355,
          -0.06680100411176682,
          -0.047394175082445145,
          -0.015512601472437382,
          -0.07109861075878143,
          0.03315358981490135,
          -0.09811177104711533,
          -0.014109165407717228,
          -0.016863007098436356,
          -0.04611654952168465,
          0.06185569241642952,
          0.047455623745918274,
          0.07098014652729034,
          0.02260536141693592,
          0.05749119818210602,
          -0.08899828791618347,
          -0.011324833147227764,
          -0.034135863184928894,
          -0.058608733117580414,
          -0.07935839146375656,
          0.07141367346048355,
          0.037620529532432556,
          0.03790206089615822,
          -0.07062852382659912,
          -0.053789038211107254,
          -0.06260810047388077,
          0.0081307552754879,
          -0.024765383452177048,
          0.08163188397884369,
          -0.05818679928779602,
          0.013190851546823978,
          0.057248555123806,
          -0.02820299193263054,
          -0.06173856556415558,
          0.04440147429704666,
          0.051440827548503876,
          0.07783323526382446,
          0.045034363865852356,
          -0.044515423476696014,
          0.03956640511751175,
          -0.044364891946315765,
          -0.06612706929445267,
          0.051579609513282776,
          0.00987103208899498,
          -0.04383712634444237,
          0.02063148096203804,
          0.04312756657600403,
          0.04711878299713135,
          -0.05982961878180504,
          -0.05098884925246239,
          -0.003794814692810178,
          -0.0633043423295021,
          -0.028363248333334923
        ],
        [
          0.02417384833097458,
          -0.07656101137399673,
          0.025135697796940804,
          -0.002181401476264,
          -0.06144487112760544,
          0.07645649462938309,
          0.02014802396297455,
          0.027286240831017494,
          0.024942779913544655,
          -0.00565773481503129,
          0.07255347073078156,
          0.009345063008368015,
          0.06114877387881279,
          -0.02793704904615879,
          -0.08493451029062271,
          0.005777612794190645,
          -0.005847727879881859,
          -0.022358359768986702,
          0.04614873230457306,
          0.058129727840423584,
          0.07234755158424377,
          -0.05310826748609543,
          -0.03153971955180168,
          0.012388743460178375,
          0.021575627848505974,
          -0.020878955721855164,
          -0.06570374220609665,
          -0.059766944497823715,
          -0.009443620219826698,
          0.0654236301779747,
          -0.010333331301808357,
          -0.05297623947262764,
          -0.09190373122692108,
          -0.05696430057287216,
          0.025989994406700134,
          -0.07831600308418274,
          0.0695129856467247,
          0.011678481474518776,
          -0.0530204102396965,
          -0.03307555615901947,
          0.049749843776226044,
          0.016628481447696686,
          0.002977005671709776,
          -0.021527282893657684,
          -0.0015275178011506796,
          0.03860029950737953,
          0.05681348219513893,
          0.04261472076177597,
          -0.059928905218839645,
          -0.006503514014184475,
          0.03450070694088936,
          0.040637414902448654,
          0.02419372648000717,
          0.018157141283154488,
          0.02826194278895855,
          0.06270678341388702,
          -0.048759639263153076,
          0.041915688663721085,
          0.0643559917807579,
          -0.0017642435850575566,
          -0.03745487332344055,
          0.07552356272935867,
          -0.034961264580488205,
          -0.06177476793527603,
          -0.0034232332836836576,
          -0.0004384974599815905,
          -0.05934221297502518,
          0.04371383413672447,
          0.06499414145946503,
          0.06069666147232056,
          0.0063646952621638775,
          -0.03303458169102669,
          0.02959834598004818,
          -0.017611172050237656,
          0.002750735729932785,
          -0.0544125959277153,
          -0.035927675664424896,
          0.038923610001802444,
          -0.022184105589985847,
          -0.0559794083237648,
          0.04998200014233589,
          -0.0444633923470974,
          -0.008266936987638474,
          -0.048021137714385986,
          0.04048285260796547,
          0.05988475680351257,
          -0.06299139559268951,
          -0.08351428061723709,
          0.09819544851779938,
          -0.08004816621541977,
          -0.06886515766382217,
          -0.07605651766061783,
          -0.034229084849357605,
          -0.0040104929357767105,
          0.09856995940208435,
          -0.0180180873721838,
          0.0655461922287941,
          0.05159246176481247,
          -0.04066699370741844,
          -0.052816640585660934,
          0.016592247411608696,
          0.058914560824632645,
          0.06995288282632828,
          0.01933317631483078,
          0.03761013597249985,
          -0.06899285316467285,
          -0.07970435917377472,
          -0.06777838617563248,
          0.0982833281159401,
          -0.06021120026707649,
          0.039847876876592636,
          -0.027919653803110123,
          -0.07294508069753647,
          0.07926306873559952,
          -0.05590872839093208,
          0.0345308855175972,
          0.05967775359749794,
          -0.05485501140356064,
          0.024335535243153572,
          0.018337668851017952,
          0.06991211324930191,
          -0.03101152926683426,
          0.049120910465717316,
          0.06772438436746597,
          0.08254418522119522,
          -0.06027785316109657,
          -0.07093004137277603,
          -0.020994650200009346
        ],
        [
          -0.01850900612771511,
          -0.08065155148506165,
          -0.05470164492726326,
          0.061205051839351654,
          0.059193581342697144,
          -0.09489507228136063,
          0.04141198471188545,
          0.03842741250991821,
          0.05558986961841583,
          -0.08438661694526672,
          0.03394579142332077,
          -0.014387011528015137,
          0.004946383647620678,
          0.04388795047998428,
          -0.07407596707344055,
          0.018533384427428246,
          0.03591381385922432,
          -0.06169632822275162,
          -0.057873066514730453,
          0.06835810840129852,
          -0.049292340874671936,
          -0.01665412448346615,
          -0.08286954462528229,
          0.09702994674444199,
          -0.06477270275354385,
          0.043460968881845474,
          -0.049359280616045,
          0.014048701152205467,
          -0.0007282394799403846,
          0.06160638853907585,
          0.05957483500242233,
          -0.01224503479897976,
          -0.08067848533391953,
          -0.05532313883304596,
          -0.058828387409448624,
          -0.01081275474280119,
          0.004582786001265049,
          -0.07946104556322098,
          -0.028549611568450928,
          -0.043433889746665955,
          -0.011150093749165535,
          0.021257860586047173,
          0.07710554450750351,
          0.0009017621050588787,
          -0.021514609456062317,
          -0.05583154037594795,
          -0.02845066785812378,
          0.07791942358016968,
          -0.029552260413765907,
          -0.018811549991369247,
          0.003889862447977066,
          0.008682409301400185,
          -0.003405611962080002,
          -0.06687642633914948,
          -0.0024914834648370743,
          0.08414284884929657,
          0.05968642234802246,
          0.002745480975136161,
          -0.041812505573034286,
          0.044728148728609085,
          0.01449593622237444,
          0.07849971950054169,
          -0.0721818059682846,
          0.03028087690472603,
          0.013759608380496502,
          -0.06414196640253067,
          0.07730507850646973,
          0.06916578859090805,
          -0.041135773062705994,
          0.030137211084365845,
          -0.004676526878029108,
          0.05757400393486023,
          -0.018320072442293167,
          0.023856187239289284,
          -0.0751275047659874,
          -0.01185066718608141,
          -0.01936851628124714,
          -0.056400761008262634,
          0.0533759668469429,
          -0.030840804800391197,
          0.05921804532408714,
          0.07170155644416809,
          -0.08392946422100067,
          0.03349600359797478,
          -0.0323777049779892,
          0.10119647532701492,
          -0.010612452402710915,
          0.013825270347297192,
          -0.02112780697643757,
          -0.01792224869132042,
          -0.0824810042977333,
          -0.0111530851572752,
          0.04488583281636238,
          0.02892322465777397,
          -0.07731668651103973,
          0.06110766902565956,
          -0.005301164463162422,
          -0.036121927201747894,
          -0.039527297019958496,
          -0.057413872331380844,
          -0.026292338967323303,
          -0.016452908515930176,
          0.005704367533326149,
          0.07133495062589645,
          0.006524209398776293,
          0.05493889003992081,
          -0.06954627484083176,
          -0.07023466378450394,
          -0.09228712320327759,
          -0.06376946717500687,
          -0.005152259953320026,
          0.03169165179133415,
          0.03331539407372475,
          0.07450739294290543,
          0.07775421440601349,
          0.017027931287884712,
          -0.03406405448913574,
          0.031189098954200745,
          -0.058901820331811905,
          -0.043609701097011566,
          -0.0051680998876690865,
          0.027739398181438446,
          0.02905326522886753,
          0.0032268499489873648,
          -0.0779142752289772,
          0.09176721423864365,
          0.01892385631799698,
          0.08439842611551285
        ],
        [
          0.0033655480947345495,
          -0.023373477160930634,
          -0.07049435377120972,
          -0.030636925250291824,
          -0.023221496492624283,
          -0.06391612440347672,
          -0.04845736175775528,
          -0.06320024281740189,
          -0.048218026757240295,
          0.04352038726210594,
          0.02493503876030445,
          0.06767939031124115,
          0.009823735803365707,
          0.01202499307692051,
          -0.04431944712996483,
          0.024801649153232574,
          0.02043827995657921,
          -0.10086432099342346,
          -0.09382171183824539,
          -0.07944074273109436,
          -0.007460992783308029,
          -0.030752740800380707,
          0.06752950698137283,
          0.021572427824139595,
          0.033328112214803696,
          0.008756903000175953,
          0.07307298481464386,
          -0.07751252502202988,
          0.07262707501649857,
          0.051966458559036255,
          0.06514820456504822,
          0.019444869831204414,
          0.03097446635365486,
          0.08278167247772217,
          -0.026177456602454185,
          -0.008736250922083855,
          -0.07844219356775284,
          0.02812608703970909,
          0.017453253269195557,
          0.027835488319396973,
          -0.013743565417826176,
          0.002288552699610591,
          -0.08797487616539001,
          -0.05818815901875496,
          -0.03607332333922386,
          -0.0024443401489406824,
          -0.04613444209098816,
          0.07100433856248856,
          -0.07834984362125397,
          -0.025116844102740288,
          -0.08802632242441177,
          -0.004861410707235336,
          0.03182397410273552,
          0.09058898687362671,
          -0.025800611823797226,
          -0.07444717735052109,
          -0.0697329118847847,
          0.06051773205399513,
          0.02030416764318943,
          0.04251661151647568,
          -0.07994871586561203,
          -0.0707818865776062,
          0.010566489771008492,
          -0.024971384555101395,
          0.025945225730538368,
          -0.08327838778495789,
          0.024085262790322304,
          0.013830574229359627,
          0.034120846539735794,
          -0.048720475286245346,
          0.06571522355079651,
          0.02725103311240673,
          0.08467128872871399,
          0.025311129167675972,
          0.08009831607341766,
          -0.05018964037299156,
          -0.056876230984926224,
          -0.006676837801933289,
          0.00465224776417017,
          -0.06565927714109421,
          -0.09226763248443604,
          0.031064657494425774,
          0.025469815358519554,
          -0.049369558691978455,
          0.04874219000339508,
          0.03479714319109917,
          0.03344276174902916,
          -0.082125224173069,
          -0.022658640518784523,
          -0.04307744279503822,
          -0.04062272608280182,
          0.06775029748678207,
          -0.01958247274160385,
          -0.02274034544825554,
          -0.009900758042931557,
          -0.061544470489025116,
          0.081593818962574,
          0.06569754332304001,
          -0.04879792407155037,
          -0.019215594977140427,
          0.028299646452069283,
          -0.01474841684103012,
          0.08627914637327194,
          0.06419223546981812,
          0.01573469117283821,
          -0.06856004148721695,
          -0.08185555785894394,
          -0.026532655581831932,
          0.06963618844747543,
          -0.023992694914340973,
          0.009240534156560898,
          -0.07283353805541992,
          0.023552238941192627,
          0.04058372974395752,
          -0.09711189568042755,
          -0.08100821822881699,
          0.01386314257979393,
          0.07441109418869019,
          0.08060886710882187,
          -0.017744747921824455,
          -0.058142997324466705,
          0.0020348040852695704,
          0.06154808774590492,
          0.026246938854455948,
          -0.0027372650802135468,
          -0.060834210366010666,
          -0.003606203244999051,
          0.026709437370300293
        ],
        [
          0.04828023165464401,
          -0.03567903861403465,
          0.03143793344497681,
          0.003611606080085039,
          -0.04021648317575455,
          -0.009989914484322071,
          0.014773313887417316,
          0.02818160690367222,
          -0.026530755683779716,
          -0.0020637342240661383,
          0.08737371861934662,
          -0.06492076814174652,
          -0.015851600095629692,
          0.009703055955469608,
          -0.038814906030893326,
          0.004430921282619238,
          -0.016145551577210426,
          0.00997159630060196,
          -0.004110968206077814,
          -0.01382017694413662,
          -0.06562278419733047,
          -0.06416749209165573,
          0.0009707448771223426,
          -0.0250473003834486,
          -0.04018143564462662,
          0.030696863308548927,
          0.02891821786761284,
          -0.006020639557391405,
          -0.05788512900471687,
          -0.021621907129883766,
          -0.034498970955610275,
          0.05808928981423378,
          -0.07390919327735901,
          -0.053900811821222305,
          0.06065830960869789,
          -0.04858613759279251,
          0.07362265884876251,
          -0.016276279464364052,
          0.02215893752872944,
          0.023266324773430824,
          0.08767952024936676,
          0.04002857953310013,
          -0.11088182777166367,
          -0.07612168043851852,
          -0.04179250821471214,
          0.014946688897907734,
          0.07365813106298447,
          0.07700991630554199,
          0.06531960517168045,
          -0.07682327181100845,
          -0.10195469856262207,
          0.041487760841846466,
          -0.03482572361826897,
          0.06148699298501015,
          -0.02086794748902321,
          0.004254448693245649,
          0.08374311774969101,
          0.05139743536710739,
          0.026316221803426743,
          -0.026621736586093903,
          0.08433058857917786,
          0.01016209740191698,
          0.014727654866874218,
          -0.02376190759241581,
          0.020749181509017944,
          -0.004085199907422066,
          -0.02017996646463871,
          0.013203698210418224,
          0.08769052475690842,
          -0.008238658308982849,
          -0.016512541100382805,
          -0.01571299508213997,
          0.017630785703659058,
          0.06722066551446915,
          0.007269713096320629,
          0.038640622049570084,
          0.054384101182222366,
          -0.02044069580733776,
          0.013307121582329273,
          0.05606725811958313,
          0.025483928620815277,
          0.05169808864593506,
          0.06268954277038574,
          -0.04167911037802696,
          -0.01951976865530014,
          -0.08834541589021683,
          -0.08382152020931244,
          -0.018858853727579117,
          -0.06540010124444962,
          0.0731179341673851,
          0.04355607181787491,
          0.06864033639431,
          -0.020166363567113876,
          -0.06529852747917175,
          0.008744720369577408,
          -0.05912524089217186,
          -0.03935777395963669,
          -0.06366393715143204,
          0.03671956807374954,
          -0.06426246464252472,
          0.07520455121994019,
          -0.06912001222372055,
          -0.008937099017202854,
          0.053625475615262985,
          -0.018854869529604912,
          0.05253690108656883,
          -0.041094955056905746,
          -0.053805988281965256,
          0.0038130045868456364,
          -0.051345307379961014,
          -0.05241774395108223,
          -0.0629468783736229,
          -0.08215565234422684,
          0.05409158766269684,
          0.06086399778723717,
          0.005581058096140623,
          0.04001276567578316,
          -0.021876897662878036,
          0.08936178684234619,
          -0.007975753396749496,
          -0.06977038085460663,
          0.09740830957889557,
          0.03042028285562992,
          -0.010608202777802944,
          0.04361460357904434,
          0.0035097748041152954,
          0.058556798845529556,
          0.07180147618055344
        ],
        [
          -0.04308653995394707,
          -0.06588992476463318,
          0.06092789024114609,
          0.021500423550605774,
          -0.03217734768986702,
          -0.07745801657438278,
          -0.055167630314826965,
          0.06723286956548691,
          -0.033650707453489304,
          -0.029132505878806114,
          0.0037755644880235195,
          -0.07631881535053253,
          -0.07295337319374084,
          0.06067004054784775,
          -0.06980740278959274,
          0.04380042105913162,
          0.0732651948928833,
          0.06839040666818619,
          0.04775591567158699,
          -0.07552414387464523,
          -0.04221333563327789,
          -0.05219648778438568,
          -0.05322181433439255,
          -0.01967073231935501,
          0.07177454978227615,
          -0.020428484305739403,
          0.09366071969270706,
          0.009140833280980587,
          0.005392703227698803,
          -0.009552604518830776,
          -0.0349632203578949,
          0.016244707629084587,
          0.09544549882411957,
          0.04884597659111023,
          0.006914484780281782,
          0.02147427387535572,
          -0.07607835531234741,
          0.060189519077539444,
          0.02800343744456768,
          -0.005912472028285265,
          0.006586112082004547,
          0.07374544441699982,
          -0.01963234879076481,
          0.006656441371887922,
          0.023166228085756302,
          -0.03387083485722542,
          0.04135516658425331,
          0.06326790153980255,
          -0.036056119948625565,
          0.09822904318571091,
          0.07513947039842606,
          0.04022424668073654,
          0.008763881400227547,
          0.06173624470829964,
          0.08839151263237,
          0.07551639527082443,
          -0.05309826508164406,
          -0.06245524808764458,
          -0.03284339979290962,
          -0.04832868278026581,
          0.09129101037979126,
          -0.0838787704706192,
          0.029546774923801422,
          -0.055813852697610855,
          0.021992310881614685,
          0.0535716786980629,
          -0.025977134704589844,
          -0.06972502171993256,
          -0.059148382395505905,
          0.051428552716970444,
          -0.04514874890446663,
          -0.018040349707007408,
          -0.05797024816274643,
          0.07504840940237045,
          -0.015627657994627953,
          0.06405335664749146,
          0.02841171622276306,
          0.07479462772607803,
          0.037180714309215546,
          -0.07773561030626297,
          -0.022677067667245865,
          0.022109918296337128,
          -0.07681365311145782,
          0.06369435787200928,
          0.021125949919223785,
          0.07293442636728287,
          -0.018500827252864838,
          -0.017439328134059906,
          -0.06691376864910126,
          -0.03363242372870445,
          0.02884187363088131,
          -0.0770014151930809,
          -0.0485776886343956,
          0.07202308624982834,
          0.00629396503791213,
          0.02549486793577671,
          -0.10258269309997559,
          0.045577600598335266,
          -0.018483469262719154,
          -0.08759842813014984,
          -0.026687487959861755,
          0.0524120107293129,
          0.03418390825390816,
          0.04343904182314873,
          -0.02941381372511387,
          -0.07381416857242584,
          -0.08416781574487686,
          -0.053826652467250824,
          -0.06805796921253204,
          0.06986735016107559,
          -0.02763461135327816,
          0.07008876651525497,
          -0.08666566759347916,
          0.04132787510752678,
          0.011662754230201244,
          0.07171091437339783,
          -0.06997689604759216,
          -0.017521312460303307,
          -0.03917497768998146,
          0.027750367298722267,
          0.03543134033679962,
          0.016265302896499634,
          -0.03299160674214363,
          -0.052909791469573975,
          -0.0508280023932457,
          -0.03414766862988472,
          0.056979384273290634,
          0.027334893122315407
        ],
        [
          -0.019172566011548042,
          0.040558185428380966,
          -0.05433472990989685,
          0.08640944957733154,
          -0.01572347618639469,
          -0.01703319139778614,
          0.04281084984540939,
          0.0428672656416893,
          -0.09440965950489044,
          0.006518930196762085,
          0.05192785710096359,
          -0.07203076034784317,
          -0.061521876603364944,
          0.09136832505464554,
          -0.027703164145350456,
          -0.007846791297197342,
          -0.07346507161855698,
          -0.06959182024002075,
          -0.07768717408180237,
          -0.013936524279415607,
          0.029824811965227127,
          0.026062853634357452,
          0.004434642381966114,
          -0.08538173884153366,
          -0.028618447482585907,
          0.04492371156811714,
          0.01071680337190628,
          0.06395849585533142,
          0.052037738263607025,
          0.019343063235282898,
          -0.013655510731041431,
          -0.041459426283836365,
          -0.018414318561553955,
          0.07565061002969742,
          -0.016447337344288826,
          -0.06453812122344971,
          -0.03248002380132675,
          -0.0746246799826622,
          0.02768358215689659,
          0.03214984014630318,
          -0.06842534244060516,
          0.0049757277593016624,
          -0.017520330846309662,
          -0.039684973657131195,
          0.0595477856695652,
          0.08627452701330185,
          -0.020162375643849373,
          0.037110209465026855,
          0.015071593225002289,
          -0.07780257612466812,
          -0.014150800183415413,
          -0.06422242522239685,
          -0.030480049550533295,
          0.08988213539123535,
          0.02412557229399681,
          -0.042709000408649445,
          -0.0019883078057318926,
          0.047272954136133194,
          -0.029585255309939384,
          0.046324074268341064,
          0.04529847577214241,
          0.06825220584869385,
          -0.01839229092001915,
          -0.04020404815673828,
          -0.02767382375895977,
          0.0732928216457367,
          0.06044311821460724,
          -0.06427920609712601,
          0.022490421310067177,
          0.04273553565144539,
          -0.008462648838758469,
          -0.024013003334403038,
          -0.05741460993885994,
          0.07183409482240677,
          0.06921619176864624,
          0.06724561750888824,
          0.09235530346632004,
          -0.048371195793151855,
          -0.06649185717105865,
          0.013385321013629436,
          -0.024010498076677322,
          -0.07841312140226364,
          -0.07478103041648865,
          -0.07549956440925598,
          0.06104353070259094,
          -0.059071850031614304,
          -0.015497776679694653,
          -0.04966289550065994,
          -0.0032824170775711536,
          0.013738482259213924,
          -0.0475044846534729,
          -0.012760967947542667,
          -0.022389303892850876,
          -0.07234002649784088,
          0.03010004386305809,
          -0.03865384683012962,
          0.014520552940666676,
          -0.03122013621032238,
          0.058645401149988174,
          0.01057241391390562,
          -0.05365836247801781,
          -0.04890900105237961,
          0.04111381620168686,
          -0.09687122702598572,
          0.014204843901097775,
          -0.08449696749448776,
          0.04451531916856766,
          -0.02579592727124691,
          0.05373697727918625,
          -0.07854598760604858,
          0.006865692790597677,
          -0.03782091662287712,
          0.043757688254117966,
          0.07234741002321243,
          -0.055852361023426056,
          -0.011917023919522762,
          -0.004054025746881962,
          -0.0533238910138607,
          0.0314505398273468,
          -0.05757582187652588,
          -0.06802362203598022,
          -0.010172471404075623,
          -0.09020428359508514,
          -0.0758451521396637,
          0.0195538941770792,
          -0.05809013172984123,
          -0.07420207560062408,
          -0.0449797548353672
        ],
        [
          -0.018766693770885468,
          0.03583914786577225,
          -0.061025116592645645,
          0.034079890698194504,
          -0.0006314822239801288,
          0.04199802502989769,
          0.04711220785975456,
          -0.050948936492204666,
          -0.004356423392891884,
          -0.060890618711709976,
          -0.0801227018237114,
          -0.009370733983814716,
          -0.0633912980556488,
          0.0611327700316906,
          0.053861092776060104,
          0.07800877094268799,
          0.0715300664305687,
          0.07631588727235794,
          -0.07564854621887207,
          0.012504429556429386,
          0.00419009430333972,
          -0.010686535388231277,
          -0.007760739419609308,
          0.01937379315495491,
          0.01465341541916132,
          -0.10254119336605072,
          -0.08818285912275314,
          0.01601276732981205,
          0.05793479084968567,
          -0.05832787603139877,
          0.027888698503375053,
          0.052862584590911865,
          0.03751978650689125,
          -0.020596196874976158,
          -0.0379052497446537,
          0.08823487907648087,
          0.049780506640672684,
          -0.02449282445013523,
          0.00921702478080988,
          -0.0817066878080368,
          0.047418076545000076,
          -0.0200416948646307,
          -0.01354424748569727,
          0.05802420526742935,
          -0.04081330448389053,
          -0.08222169429063797,
          -0.011212147772312164,
          0.021200912073254585,
          -0.0632203072309494,
          0.07580408453941345,
          -0.07477400451898575,
          0.06613589823246002,
          -0.05062349513173103,
          -0.04573842138051987,
          0.05240190029144287,
          -0.01394830085337162,
          -0.04790237918496132,
          -0.0413619764149189,
          -0.06004565209150314,
          0.06622416526079178,
          0.0003857591946143657,
          0.061965204775333405,
          0.025018660351634026,
          0.02936432510614395,
          0.05050462856888771,
          0.010338221676647663,
          -0.051818639039993286,
          -0.04554423689842224,
          -0.015153720043599606,
          -0.07830522954463959,
          -0.04068215936422348,
          -0.037617363035678864,
          0.06898529827594757,
          0.056950800120830536,
          -0.017171939834952354,
          0.036225032061338425,
          0.024087846279144287,
          -0.05162771791219711,
          0.07781466841697693,
          -0.09923025965690613,
          -0.08511374145746231,
          0.06267900764942169,
          -0.02650943212211132,
          -0.017446894198656082,
          -0.05464447662234306,
          -0.0038935658521950245,
          -0.053133778274059296,
          -0.0277088712900877,
          0.06312337517738342,
          0.008503273129463196,
          0.05682947486639023,
          0.00878986343741417,
          0.010157113894820213,
          -0.031468670815229416,
          0.038339585065841675,
          -0.06922529637813568,
          -0.017821716144680977,
          -0.05186109244823456,
          0.06529991328716278,
          -0.00032170081976801157,
          -0.011015551164746284,
          -0.05430793762207031,
          0.06946351379156113,
          0.09182799607515335,
          -0.03651702031493187,
          0.04137236252427101,
          0.08529598265886307,
          -0.03843822330236435,
          0.0689362958073616,
          -0.0009819298284128308,
          -0.08909497410058975,
          0.07140230387449265,
          0.040927112102508545,
          -0.0775771364569664,
          0.07108762860298157,
          -0.0073899924755096436,
          -0.06445913761854172,
          -0.013905741274356842,
          -0.011765250004827976,
          0.06439018994569778,
          -0.0777946189045906,
          -0.08015357702970505,
          0.046773962676525116,
          0.03823162615299225,
          0.05142149701714516,
          -0.018018394708633423,
          0.09878099709749222,
          -0.014056025072932243
        ],
        [
          -0.03333064913749695,
          0.05007551982998848,
          -0.047980260103940964,
          -0.04695780202746391,
          0.0669412761926651,
          0.023388832807540894,
          0.04725683107972145,
          -0.047799251973629,
          -0.08831044286489487,
          0.02377231791615486,
          -0.04214037209749222,
          -0.025723706930875778,
          0.029752414673566818,
          0.014389322139322758,
          -0.04622757434844971,
          -0.08145733177661896,
          0.03430913761258125,
          0.09818294644355774,
          0.1022820919752121,
          -0.018037162721157074,
          0.0623689740896225,
          -0.05189590901136398,
          -0.04632353037595749,
          -0.030176425352692604,
          0.07688605040311813,
          -0.024192780256271362,
          -0.010085384361445904,
          -0.02730444073677063,
          -0.07864715903997421,
          -0.05688880383968353,
          -0.05046776309609413,
          -0.07394769787788391,
          -0.03158557787537575,
          0.010650794953107834,
          -0.028728969395160675,
          -0.02133694663643837,
          0.08293125033378601,
          0.08149448782205582,
          -0.04313558712601662,
          -0.055282797664403915,
          0.07351808249950409,
          0.06797277927398682,
          -0.08041971921920776,
          -0.09124517440795898,
          0.0322323776781559,
          -0.0027011996135115623,
          -0.06407009810209274,
          0.0496164932847023,
          0.07571270316839218,
          0.038423024117946625,
          0.01960177905857563,
          0.03510177880525589,
          0.010241094045341015,
          0.0350903682410717,
          0.0011796432081609964,
          0.04712534695863724,
          0.011737336404621601,
          -0.014961063861846924,
          0.040612298995256424,
          -0.04584144055843353,
          0.03749728575348854,
          -0.024681201204657555,
          -0.028066597878932953,
          0.06632065027952194,
          -0.07341254502534866,
          0.04681193828582764,
          -0.0880960151553154,
          0.060849953442811966,
          -0.06420229375362396,
          -0.08284297585487366,
          -0.0791172981262207,
          -0.06792188435792923,
          -0.010871048085391521,
          0.08773072063922882,
          0.03154514729976654,
          -0.032963309437036514,
          -0.04923752322793007,
          0.02141379378736019,
          -0.04260948300361633,
          -0.07783953100442886,
          0.020250961184501648,
          0.03131980448961258,
          0.07748250663280487,
          -0.013509703800082207,
          0.07177568227052689,
          -0.018499979749321938,
          0.08726315945386887,
          0.06003338471055031,
          -0.014315611682832241,
          -0.0669216513633728,
          -0.01413287315517664,
          -0.04058365523815155,
          -0.04404319450259209,
          -0.0459931306540966,
          -0.03066893480718136,
          0.006562806200236082,
          0.021089153364300728,
          -0.07230118662118912,
          0.05253690108656883,
          -0.07976774871349335,
          -0.061256639659404755,
          0.03149672970175743,
          -0.01242482103407383,
          0.07457688450813293,
          -0.08139798790216446,
          0.0005890137399546802,
          0.05467122048139572,
          0.0568787083029747,
          0.004604467190802097,
          0.04947054386138916,
          -0.04213594272732735,
          0.07635783404111862,
          0.0016596231143921614,
          -0.07707217335700989,
          0.04678008705377579,
          0.027542997151613235,
          -0.048519887030124664,
          0.0914655551314354,
          -0.07174976915121078,
          -0.06642592698335648,
          -0.026860078796744347,
          -0.030766600742936134,
          -0.06528574973344803,
          -0.013627919368445873,
          -0.07664377987384796,
          -0.016295667737722397,
          -0.032555121928453445,
          0.041279274970293045
        ],
        [
          -0.041831135749816895,
          -0.024751810356974602,
          -0.021757278591394424,
          0.0007902902434580028,
          0.02846900001168251,
          -0.0680706650018692,
          -0.019084040075540543,
          0.013632138259708881,
          0.036891017109155655,
          -0.059282395988702774,
          0.03446479141712189,
          -0.01854601688683033,
          0.0534241683781147,
          0.022768327966332436,
          0.06848250329494476,
          0.016711866483092308,
          -0.007883456535637379,
          0.00208096019923687,
          -0.0539715513586998,
          0.003248111577704549,
          0.07075795531272888,
          -0.03460119292140007,
          0.03839433938264847,
          -0.02898319996893406,
          -0.06926801800727844,
          -0.026564419269561768,
          0.03156819939613342,
          0.020333748310804367,
          0.06362125277519226,
          -0.07994218170642853,
          0.03487195447087288,
          -0.08973323553800583,
          0.007709714118391275,
          0.014402564615011215,
          -0.04448479413986206,
          0.029106682166457176,
          0.015244814567267895,
          -0.05800527706742287,
          -0.016637584194540977,
          -0.005162226501852274,
          0.013135611079633236,
          0.019223494455218315,
          0.03890032321214676,
          -0.06383450329303741,
          0.006127065978944302,
          0.012658314779400826,
          -0.010316645726561546,
          0.04906392842531204,
          0.006392942275851965,
          0.05253930017352104,
          -0.06599091738462448,
          0.056210216134786606,
          -0.038113851100206375,
          -0.051479920744895935,
          -0.06585850566625595,
          -0.018486713990569115,
          -0.04313492402434349,
          0.03956190124154091,
          0.06874918192625046,
          0.04510164633393288,
          0.005455973092466593,
          -0.013234059326350689,
          -0.009786010719835758,
          0.075096994638443,
          0.05464712157845497,
          -0.05707981437444687,
          -0.007281414698809385,
          0.029671048745512962,
          0.027616912499070168,
          0.04020791873335838,
          0.04866713657975197,
          0.038598738610744476,
          0.012990533374249935,
          -0.03959288075566292,
          0.011914015747606754,
          0.04443540796637535,
          -0.057826414704322815,
          0.06560230255126953,
          -0.06987036764621735,
          -0.006498611532151699,
          -0.0860084742307663,
          0.10026878118515015,
          -0.025177694857120514,
          -0.052972350269556046,
          0.011118740774691105,
          -0.0786944180727005,
          -0.01953023113310337,
          0.017217641696333885,
          -0.02039247192442417,
          0.028704890981316566,
          -0.07603800296783447,
          0.0036280485801398754,
          0.0474422313272953,
          0.009336229413747787,
          0.03668411076068878,
          -0.06739743053913116,
          0.002311809454113245,
          -0.023987550288438797,
          0.08130000531673431,
          -0.08654098957777023,
          0.05921553447842598,
          0.013677963986992836,
          -0.017207931727170944,
          0.06736499816179276,
          0.043052688241004944,
          0.038058459758758545,
          0.05004237964749336,
          -0.03481035679578781,
          0.05329837277531624,
          -0.018413038924336433,
          0.060519903898239136,
          0.06013959273695946,
          -0.08666928112506866,
          0.0640496239066124,
          -0.036872562021017075,
          0.05699986219406128,
          -0.00998913124203682,
          0.04804437607526779,
          0.05395520105957985,
          -0.0865936204791069,
          0.018867725506424904,
          0.10125775635242462,
          0.013175609521567822,
          0.0005492191412486136,
          -0.0735018402338028,
          -0.03834410756826401,
          -0.03987430781126022,
          0.05159544572234154
        ],
        [
          -0.03531638905405998,
          -0.038902487605810165,
          -0.0535617433488369,
          -0.011044229380786419,
          -0.04335664585232735,
          -0.021262994036078453,
          -0.0825866237282753,
          0.03066406026482582,
          0.08600830286741257,
          -0.041901372373104095,
          -0.07559903711080551,
          0.05487416684627533,
          -0.019607942551374435,
          0.06593663990497589,
          0.011284076608717442,
          -0.03538523614406586,
          -0.007999235764145851,
          0.04149520769715309,
          -0.0076597281731665134,
          0.026804164052009583,
          0.05362151190638542,
          -0.04024338349699974,
          0.012661539018154144,
          -0.045186348259449005,
          0.01977337896823883,
          -0.04865581542253494,
          -0.005907595157623291,
          -0.050154268741607666,
          -0.05532977357506752,
          -0.045483727008104324,
          -0.053695157170295715,
          0.05387299507856369,
          0.05819139629602432,
          0.04567345604300499,
          -0.039477623999118805,
          -0.07243777811527252,
          0.033686116337776184,
          -0.08343814313411713,
          0.05259124934673309,
          0.05213354155421257,
          -0.020235663279891014,
          0.04977915808558464,
          0.09279724210500717,
          -0.024329431354999542,
          -0.05507122352719307,
          0.05516020953655243,
          -0.05042266473174095,
          -0.019395161420106888,
          0.030071904882788658,
          0.0017443520482629538,
          0.04498567432165146,
          -0.02847374975681305,
          0.04740174859762192,
          0.07206754386425018,
          0.050103262066841125,
          -0.07409429550170898,
          0.052615389227867126,
          0.057521797716617584,
          0.07631285488605499,
          0.04412641376256943,
          -0.03929346427321434,
          0.09567016363143921,
          0.06012384220957756,
          0.03693214803934097,
          -0.07159863412380219,
          -0.09892866015434265,
          0.006898730993270874,
          -0.011758167296648026,
          0.0708928257226944,
          0.06068895012140274,
          -0.02738197147846222,
          0.07336447387933731,
          0.03695721551775932,
          -0.04329188913106918,
          -0.07043549418449402,
          0.03021077625453472,
          0.05685630068182945,
          0.07428819686174393,
          -0.09683976322412491,
          0.06305389106273651,
          -0.008925316855311394,
          0.07858913391828537,
          0.07297918945550919,
          0.03216132894158363,
          -0.03143727406859398,
          0.050379104912281036,
          -0.07035796344280243,
          0.037368737161159515,
          0.08180901408195496,
          0.031223466619849205,
          -0.04976925998926163,
          -0.056825775653123856,
          0.028365960344672203,
          0.07664001733064651,
          -0.07290025800466537,
          0.06278997659683228,
          0.01255884300917387,
          0.009538956917822361,
          0.00483600003644824,
          0.006873690988868475,
          -0.07630527764558792,
          -0.07813186198472977,
          -0.019984818994998932,
          0.062038764357566833,
          -0.013589027337729931,
          0.036879170686006546,
          0.011893143877387047,
          -0.05195609852671623,
          0.052813369780778885,
          0.027344033122062683,
          -0.0005606529302895069,
          -0.002421189332380891,
          0.023636121302843094,
          0.07809243351221085,
          -0.07442014664411545,
          0.05113951489329338,
          0.03825846314430237,
          -0.06677638739347458,
          0.005262486170977354,
          0.03833583742380142,
          -0.04628725349903107,
          -0.00904467236250639,
          0.08702217042446136,
          0.03569674491882324,
          0.01885366439819336,
          -0.006612360943108797,
          -0.049742281436920166,
          0.01578235812485218
        ],
        [
          0.05282847210764885,
          0.013466862961649895,
          0.0033094484824687243,
          -0.055111028254032135,
          -0.06324516981840134,
          -0.02698235772550106,
          -0.10570652037858963,
          0.008847856894135475,
          0.007818150334060192,
          -0.027192428708076477,
          -0.07371758669614792,
          0.0273201335221529,
          0.09490807354450226,
          -0.05102036893367767,
          0.0789530873298645,
          -0.033080942928791046,
          0.02211184985935688,
          -0.08531882613897324,
          -0.05700044333934784,
          0.037084683775901794,
          -0.05914996564388275,
          0.019461706280708313,
          0.006678587757050991,
          -0.027457131072878838,
          0.06987768411636353,
          0.08265125751495361,
          -0.02135297656059265,
          -0.011253900825977325,
          -0.0961550623178482,
          -0.024863723665475845,
          -0.025995120406150818,
          0.002385941566899419,
          0.07067675143480301,
          0.028751293197274208,
          -0.048469774425029755,
          -0.07864721119403839,
          0.08045542240142822,
          -0.02597244270145893,
          0.04486772045493126,
          0.039005111902952194,
          -0.03822936490178108,
          0.0455612987279892,
          -0.031198279932141304,
          0.07019804418087006,
          0.014584558084607124,
          -0.002158471615985036,
          -0.06175930052995682,
          -0.04936361312866211,
          -0.017869222909212112,
          0.01204898301512003,
          0.014697058126330376,
          -0.0597556009888649,
          -0.10324665158987045,
          0.0759446769952774,
          0.005144460592418909,
          0.048948321491479874,
          -0.04385964944958687,
          -0.0070981960743665695,
          0.07473282516002655,
          0.06023335084319115,
          0.06772911548614502,
          -0.03390556573867798,
          -0.07236047834157944,
          0.0034912193659693003,
          -0.07205457240343094,
          0.061877164989709854,
          0.05633273720741272,
          -0.029586317017674446,
          -0.0409887470304966,
          -0.06162122264504433,
          -0.006040711421519518,
          -0.07770160585641861,
          0.07071949541568756,
          0.04069514200091362,
          0.01638496108353138,
          0.10222660005092621,
          0.0689472109079361,
          0.033043500036001205,
          0.040481362491846085,
          -0.01286542508751154,
          -0.040096476674079895,
          0.001146457507275045,
          0.07296918332576752,
          0.01463659293949604,
          -0.05813585966825485,
          -0.0732027217745781,
          0.0553215891122818,
          -0.0863480418920517,
          0.06694947183132172,
          -0.008669455535709858,
          -0.022296061739325523,
          0.06959664821624756,
          -0.0016422363696619868,
          -0.029454274103045464,
          -0.043993640691041946,
          0.005108962766826153,
          0.059622712433338165,
          -0.03508101403713226,
          -0.08307021856307983,
          -0.0561721995472908,
          -0.05299723893404007,
          0.052759166806936264,
          0.05845675989985466,
          -0.016846010461449623,
          0.018673406913876534,
          -0.061418887227773666,
          -0.07280918955802917,
          0.05866248905658722,
          -0.030691931024193764,
          -0.08029292523860931,
          -0.04716188833117485,
          0.004228128585964441,
          -0.024227211251854897,
          -0.0824110209941864,
          0.06936851143836975,
          0.043246079236269,
          0.04237215220928192,
          0.045342881232500076,
          -0.025095295161008835,
          0.059689316898584366,
          0.051460377871990204,
          -0.05397377535700798,
          0.055453624576330185,
          -0.07836689800024033,
          -0.08248733729124069,
          0.01785241812467575,
          0.07676169276237488,
          0.061483465135097504
        ],
        [
          -0.006989545654505491,
          -0.028698138892650604,
          -0.08580920100212097,
          -0.03540940582752228,
          -0.07868562638759613,
          0.035373564809560776,
          0.016901982948184013,
          -0.011762467212975025,
          -0.04262064769864082,
          0.05487336218357086,
          -0.08175834268331528,
          -0.03191019594669342,
          -0.06623170524835587,
          -0.0033611522521823645,
          -0.06401147693395615,
          -0.04532531648874283,
          -0.02707108110189438,
          0.013173529878258705,
          -0.08241629600524902,
          0.061267830431461334,
          0.0002538865664973855,
          0.013105865567922592,
          0.036529432982206345,
          0.00919841043651104,
          -0.05706712603569031,
          -0.008605911396443844,
          -0.02612302638590336,
          -0.0673549473285675,
          -0.034997425973415375,
          -0.06812353432178497,
          -0.09313477575778961,
          0.011657048016786575,
          0.04150313138961792,
          -0.05369603633880615,
          0.016427360475063324,
          0.032522398978471756,
          -0.07565239816904068,
          -0.026014292612671852,
          -0.03137315437197685,
          -0.09150083363056183,
          -0.0223490372300148,
          -0.060655467212200165,
          0.052708037197589874,
          0.05574044585227966,
          0.05984312668442726,
          0.0387156717479229,
          -0.0022415039129555225,
          -0.051945578306913376,
          0.03492522984743118,
          0.007101214025169611,
          0.054475944489240646,
          0.022570380941033363,
          -0.02491837367415428,
          0.07179351150989532,
          0.09343069046735764,
          0.00186163408216089,
          -0.04044881835579872,
          -0.08063728362321854,
          -0.08070486038923264,
          -0.010448736138641834,
          0.039529960602521896,
          -0.07833052426576614,
          0.01409142930060625,
          0.05116613209247589,
          0.07462606579065323,
          -0.061536502093076706,
          0.0666503831744194,
          0.05388480797410011,
          0.023166952654719353,
          -0.061604633927345276,
          0.05559556931257248,
          -0.08402016758918762,
          0.06006467714905739,
          0.081105537712574,
          0.044271618127822876,
          0.03837902843952179,
          -0.009212613105773926,
          -0.02573479525744915,
          -0.005125835072249174,
          -0.02609395980834961,
          0.018960943445563316,
          -0.030816728249192238,
          -0.009936855174601078,
          0.07018782198429108,
          0.04718492925167084,
          -0.0629609227180481,
          0.05249829590320587,
          0.033298444002866745,
          0.01955796219408512,
          0.010939767584204674,
          0.056110795587301254,
          -0.015431178733706474,
          -0.041047103703022,
          -0.03969694301486015,
          0.06433744728565216,
          -0.07868840545415878,
          0.03508232906460762,
          -0.015147282741963863,
          -0.009747724048793316,
          -0.0722421333193779,
          -0.02958826720714569,
          0.04591352492570877,
          -0.08272593468427658,
          0.04859684035181999,
          -0.0017736017471179366,
          -0.042973585426807404,
          -0.004034428857266903,
          0.04136102646589279,
          -0.07451949268579483,
          0.0009575283620506525,
          -0.0041645183227956295,
          -0.048857640475034714,
          0.05666491389274597,
          0.011509494855999947,
          0.06348288804292679,
          -0.02065647765994072,
          0.005038061644881964,
          -0.07785278558731079,
          0.05589156597852707,
          -0.012492461130023003,
          -0.08374481648206711,
          0.057825010269880295,
          0.062040749937295914,
          -0.07111932337284088,
          -0.07152087241411209,
          -0.04998216778039932,
          -0.0844280868768692,
          -0.03264894708991051
        ],
        [
          -0.019088083878159523,
          0.028570281341671944,
          -0.00670279748737812,
          0.01619459129869938,
          -0.03720904141664505,
          0.06669538468122482,
          0.027300681918859482,
          -0.0028945929370820522,
          0.02245849184691906,
          -0.09317799657583237,
          -0.03558294102549553,
          -0.07585795223712921,
          0.018770592287182808,
          -0.02107101120054722,
          0.018283706158399582,
          0.014841566793620586,
          0.015475734136998653,
          -0.020443152636289597,
          -0.007767974399030209,
          0.00225409516133368,
          0.027647577226161957,
          0.061677124351263046,
          0.060118984431028366,
          0.024108819663524628,
          0.01794654130935669,
          0.048428528010845184,
          -0.06617550551891327,
          0.04795942083001137,
          0.0030759184155613184,
          0.0074305906891822815,
          0.07876674085855484,
          -0.06566353142261505,
          -0.029831888154149055,
          -0.03627074137330055,
          0.05641716718673706,
          -0.006286759860813618,
          -0.06709181517362595,
          0.08614922314882278,
          -2.6212223019683734e-05,
          0.03350045159459114,
          -0.019417045637965202,
          0.05964040383696556,
          -0.02190736122429371,
          -0.026547277346253395,
          0.07669926434755325,
          0.020002489909529686,
          -0.01833287812769413,
          -0.039402954280376434,
          -0.011820460669696331,
          0.0010780675802379847,
          -0.017094174399971962,
          -0.07407810539007187,
          -0.041376784443855286,
          0.03865122050046921,
          0.07395011931657791,
          0.054089322686195374,
          -0.025874163955450058,
          0.02313322387635708,
          0.015668421983718872,
          0.019568756222724915,
          0.015634074807167053,
          -0.08424592763185501,
          -0.055558547377586365,
          -0.04029485955834389,
          -0.05639835447072983,
          -0.0001855523296399042,
          -0.0002189039660152048,
          -0.06275869905948639,
          0.0008875458734109998,
          -0.047485578805208206,
          -0.015713002532720566,
          -0.0025237365625798702,
          -0.08359476923942566,
          0.013900073245167732,
          0.011746757663786411,
          -0.07449457794427872,
          0.048633377999067307,
          -0.008892998099327087,
          0.04939410090446472,
          0.034517619758844376,
          -0.0688188374042511,
          0.07396955043077469,
          0.0803256556391716,
          0.024044759571552277,
          -0.010501309297978878,
          -0.0009034701506607234,
          0.019154444336891174,
          -0.02964167669415474,
          -0.011843598447740078,
          0.028183232992887497,
          0.006203136872500181,
          -0.04164313152432442,
          0.06585945188999176,
          0.05114908516407013,
          0.07871945202350616,
          -0.08465129137039185,
          0.03908948600292206,
          -0.00791496317833662,
          -0.017422305420041084,
          0.03872278705239296,
          0.04648534208536148,
          -0.08041244745254517,
          -0.026503004133701324,
          -0.05167081579566002,
          0.06534260511398315,
          0.08264747262001038,
          0.06338068097829819,
          0.01537260226905346,
          -0.01197575032711029,
          0.000977693940512836,
          -0.039111558347940445,
          -0.026021655648946762,
          -0.01708129234611988,
          -0.07278447598218918,
          0.03244459629058838,
          -0.04197553172707558,
          -0.012284422293305397,
          -0.09028124809265137,
          0.0496794730424881,
          -0.08164125680923462,
          -0.026339087635278702,
          0.027326637879014015,
          0.032706618309020996,
          -0.08066126704216003,
          -0.03538094833493233,
          0.027715301141142845,
          -0.050181396305561066,
          0.05068311467766762
        ],
        [
          -0.004724753089249134,
          -0.014011411927640438,
          -0.07317115366458893,
          -0.054655399173498154,
          -0.09475048631429672,
          -0.015705937519669533,
          0.03682684525847435,
          -0.04210330918431282,
          0.04386831820011139,
          0.06706595420837402,
          0.0022890393156558275,
          -0.029348624870181084,
          0.011662856675684452,
          -0.04471088573336601,
          0.01749749481678009,
          -0.050381824374198914,
          -0.0466173030436039,
          0.0448143370449543,
          0.02478715218603611,
          -0.054115746170282364,
          0.07459700852632523,
          0.06569486111402512,
          0.050514768809080124,
          0.056960076093673706,
          0.009946593083441257,
          -0.07522648572921753,
          0.04704911261796951,
          -0.030073679983615875,
          0.08122493326663971,
          -0.053492773324251175,
          0.037729937583208084,
          0.022698041051626205,
          0.0462782122194767,
          -0.021449126303195953,
          -0.04312966391444206,
          0.09175768494606018,
          -0.041394613683223724,
          -0.020302336663007736,
          0.024029940366744995,
          0.02464059367775917,
          0.08790922909975052,
          0.037254706025123596,
          0.0728205218911171,
          0.07823505252599716,
          0.03375134617090225,
          0.022766411304473877,
          -0.04513464495539665,
          0.006385911256074905,
          0.06774095445871353,
          0.09361355006694794,
          0.07850632816553116,
          -0.07612713426351547,
          -0.030430398881435394,
          -0.06140692159533501,
          0.014697657898068428,
          -0.000836787570733577,
          0.0330946184694767,
          0.06227528676390648,
          -0.02099853754043579,
          0.026861758902668953,
          -0.00490666925907135,
          0.05857028067111969,
          -0.005868890322744846,
          -0.07380060106515884,
          0.038079068064689636,
          0.08154882490634918,
          0.031292155385017395,
          0.05236901715397835,
          -0.02515389211475849,
          -0.06011846661567688,
          -0.024407796561717987,
          -0.05824628844857216,
          0.020492780953645706,
          -0.07497820258140564,
          -0.09267164766788483,
          0.0846337154507637,
          0.06089360639452934,
          -0.05136299878358841,
          -0.03348550572991371,
          -0.0036471858620643616,
          0.036092359572649,
          -0.0971154272556305,
          0.01259413082152605,
          0.008646054193377495,
          0.04589872062206268,
          -0.023555723950266838,
          -0.048852983862161636,
          -0.05911673232913017,
          0.008892660029232502,
          -0.06211889907717705,
          0.05427240952849388,
          0.08919058740139008,
          0.03070639632642269,
          0.016453763470053673,
          0.06594573706388474,
          0.06936901807785034,
          0.05227508023381233,
          -0.06091376021504402,
          0.004675124306231737,
          -0.09088235348463058,
          -0.093351349234581,
          0.024507474154233932,
          0.02324623614549637,
          -0.05868632718920708,
          -0.0870409607887268,
          -0.02082923613488674,
          -0.024444058537483215,
          0.038097817450761795,
          -0.021507203578948975,
          -0.03483821079134941,
          0.036075230687856674,
          -0.07076355814933777,
          0.05872606858611107,
          -0.006785451900213957,
          0.020369190722703934,
          0.0702509954571724,
          -0.07664839178323746,
          0.03552946448326111,
          -0.03784788027405739,
          -0.04260030761361122,
          -0.07324650138616562,
          -0.07511569559574127,
          -0.010401486419141293,
          -0.0011700261384248734,
          -0.04412522539496422,
          -0.07010780274868011,
          -0.0624258928000927,
          -0.05054387450218201
        ],
        [
          -0.02756689116358757,
          0.03726089745759964,
          -0.027738919481635094,
          0.013942955061793327,
          -0.05232284963130951,
          0.04882464557886124,
          0.013077408075332642,
          -0.049907077103853226,
          0.07593776285648346,
          -0.04767058417201042,
          -0.06849469244480133,
          -0.09080181270837784,
          0.02739594504237175,
          -0.05090987682342529,
          -0.052502576261758804,
          -0.01793912798166275,
          -0.058540020138025284,
          0.007908650673925877,
          -0.04657106474041939,
          0.043888118118047714,
          0.053161293268203735,
          -0.08603951334953308,
          -0.018151916563510895,
          0.04454321786761284,
          0.04992524906992912,
          -0.040475476533174515,
          -0.061882320791482925,
          0.0027949793729931116,
          -0.08100137114524841,
          0.030938737094402313,
          -0.08915693312883377,
          -0.06786025315523148,
          0.022052619606256485,
          0.04369356110692024,
          -0.05085352435708046,
          0.06954701244831085,
          0.011079186573624611,
          -0.06754465401172638,
          0.04720477759838104,
          0.07150851935148239,
          0.006485185120254755,
          -0.07360055297613144,
          -0.06826099753379822,
          0.015571566298604012,
          -0.043522708117961884,
          -0.023672819137573242,
          0.010351236909627914,
          -0.08349369466304779,
          0.08814846724271774,
          0.08834681659936905,
          -0.024264296516776085,
          -0.06645027548074722,
          -0.08861153572797775,
          -0.057126425206661224,
          -0.0744582861661911,
          -0.002279939129948616,
          0.01815185137093067,
          -0.04139438271522522,
          -0.05007843300700188,
          0.021967148408293724,
          -0.025978267192840576,
          0.051136113703250885,
          -0.050227828323841095,
          -0.01619664393365383,
          -0.06400494277477264,
          -0.04984600469470024,
          0.09647443890571594,
          -0.04050479829311371,
          0.04187881574034691,
          -0.07900488376617432,
          -0.05069294571876526,
          -0.01828123815357685,
          0.04879537969827652,
          -0.07268522679805756,
          0.04736609384417534,
          0.05079611763358116,
          0.05309396609663963,
          0.07225526869297028,
          0.03683951497077942,
          -0.02543727494776249,
          -0.05921270325779915,
          0.09554935991764069,
          0.06925109028816223,
          0.0486781969666481,
          -0.05143367871642113,
          0.04371751844882965,
          0.050722479820251465,
          -0.08385950326919556,
          0.05537811666727066,
          -0.04422919079661369,
          0.058370161801576614,
          -0.07516559213399887,
          -0.07582354545593262,
          -0.08195449411869049,
          -0.028946105390787125,
          0.08755863457918167,
          -0.02098098397254944,
          -0.02263597771525383,
          0.01734086684882641,
          0.07364893704652786,
          -0.06669777631759644,
          -0.015793487429618835,
          0.025011707097291946,
          -0.05108320713043213,
          -0.050681766122579575,
          -0.039886683225631714,
          0.0049741375260055065,
          -0.07983008772134781,
          0.09479986131191254,
          -0.04143283888697624,
          -0.07026001065969467,
          0.01646389253437519,
          -0.009033847600221634,
          0.021475432440638542,
          0.05801313742995262,
          -0.053453460335731506,
          -0.043754879385232925,
          -0.035637933760881424,
          -0.0010362124303355813,
          -0.05824717506766319,
          0.028364598751068115,
          -0.030178308486938477,
          0.05089947208762169,
          -0.03733142837882042,
          0.00597119377925992,
          0.06463978439569473,
          0.073469378054142,
          0.016215382143855095
        ],
        [
          0.013719070702791214,
          -0.021125933155417442,
          -0.048353161662817,
          -0.05692218989133835,
          0.04072035476565361,
          -0.018308289349079132,
          -0.05471818894147873,
          -0.07217171043157578,
          -0.048277948051691055,
          0.01718979701399803,
          0.0710030347108841,
          0.030887406319379807,
          0.06561281532049179,
          -0.02550262212753296,
          0.003498450620099902,
          0.051131848245859146,
          -0.06308826804161072,
          0.01640228182077408,
          -0.040678709745407104,
          -0.06376830488443375,
          0.06344190239906311,
          -0.08713752031326294,
          -0.05277726426720619,
          -0.0249161459505558,
          0.00701539870351553,
          -0.08994311094284058,
          0.07326707988977432,
          -0.08277062326669693,
          0.04280856251716614,
          0.02202693000435829,
          -0.02502434328198433,
          0.008637513965368271,
          -0.07836727797985077,
          -0.0076498850248754025,
          0.07211708277463913,
          0.028475750237703323,
          -0.07856018096208572,
          0.06384831666946411,
          0.038537777960300446,
          0.0033204802311956882,
          -0.028640927746891975,
          0.00813889317214489,
          -0.011251701042056084,
          0.0025479518808424473,
          0.003862169338390231,
          0.02563668042421341,
          -0.011592430993914604,
          -0.08057717978954315,
          -0.03062417171895504,
          -0.041654933243989944,
          0.0302374716848135,
          0.06666423380374908,
          0.011741913855075836,
          0.005143233574926853,
          -0.019676581025123596,
          -0.0009715229389257729,
          -0.03183263912796974,
          0.07850151509046555,
          -0.04182841256260872,
          -0.010536457411944866,
          -0.01379403192549944,
          -0.0935547947883606,
          0.08100242912769318,
          0.07949665188789368,
          0.08145418018102646,
          -0.06747575849294662,
          -0.0049193743616342545,
          -0.025462428107857704,
          -0.04388100653886795,
          -0.012736611999571323,
          -0.011737331748008728,
          -0.07627228647470474,
          0.006586240604519844,
          -0.015850385650992393,
          -0.05204089730978012,
          0.005462637171149254,
          -0.008095420897006989,
          0.012895818799734116,
          -0.01649022474884987,
          0.0478823222219944,
          0.029052510857582092,
          0.06030344218015671,
          -0.009232799522578716,
          -0.04564182832837105,
          -0.07291305065155029,
          -0.007212753873318434,
          -0.004999091848731041,
          0.08610198646783829,
          0.024459926411509514,
          0.0922451764345169,
          -0.07168123126029968,
          0.07226560264825821,
          0.04119768366217613,
          -0.08420862257480621,
          -0.002317071193829179,
          -0.010698242112994194,
          -0.07383343577384949,
          -0.04357779771089554,
          0.07253652811050415,
          0.05818818137049675,
          -0.045884985476732254,
          0.03308330476284027,
          0.03230028972029686,
          -0.0267940703779459,
          0.017711175605654716,
          0.01935547962784767,
          0.07100535184144974,
          -0.06262566149234772,
          0.02926703356206417,
          0.06986759603023529,
          0.03158960118889809,
          0.04346974566578865,
          -0.02259082905948162,
          -0.03029528073966503,
          0.02040226012468338,
          0.07054539024829865,
          0.028544671833515167,
          0.002568290801718831,
          0.07008706778287888,
          -0.022650105878710747,
          0.014927705749869347,
          0.03921904042363167,
          -0.07120507210493088,
          0.002149339532479644,
          0.05594390258193016,
          0.0031757827382534742,
          0.03986680880188942,
          -0.05849916860461235
        ],
        [
          -0.07056374847888947,
          0.00488877110183239,
          0.04670461267232895,
          0.0020784891676157713,
          0.022473463788628578,
          0.011145568452775478,
          0.05843959376215935,
          0.05369342491030693,
          0.06348909437656403,
          0.00016506505198776722,
          -0.012431087903678417,
          0.004761039279401302,
          -0.05063757300376892,
          0.04110516607761383,
          0.06740393489599228,
          0.08342815190553665,
          0.06261014938354492,
          0.004202253185212612,
          0.026998931542038918,
          -0.09071710705757141,
          0.013091115280985832,
          -0.02623678930103779,
          -0.05352313071489334,
          -0.09166475385427475,
          -0.055469341576099396,
          0.0658370703458786,
          -0.018118232488632202,
          -0.0071440525352954865,
          -0.03284284472465515,
          0.03415756672620773,
          -0.08178560435771942,
          0.0796620175242424,
          0.05331425368785858,
          -0.005230002570897341,
          -0.08461649715900421,
          -0.025920076295733452,
          0.07395240664482117,
          -0.009506463073194027,
          0.001806923421099782,
          -0.010177605785429478,
          -0.04765971750020981,
          0.030452243983745575,
          0.04963133484125137,
          -0.0653291717171669,
          0.05759325623512268,
          -0.03267756476998329,
          0.007187546696513891,
          0.05897253006696701,
          0.025455836206674576,
          -0.014862747862935066,
          0.004884759429842234,
          -0.06891834735870361,
          -0.03552748262882233,
          0.015614310279488564,
          0.0795675590634346,
          -0.050087135285139084,
          -0.0068372818641364574,
          -0.05092613026499748,
          0.010714905336499214,
          0.048526786267757416,
          0.10026668757200241,
          0.05431509390473366,
          -0.04026743769645691,
          -0.037240371108055115,
          0.01415681280195713,
          0.05071388557553291,
          0.0019757726695388556,
          0.06151611730456352,
          0.07117541879415512,
          0.00923897884786129,
          0.08382857590913773,
          0.01764122024178505,
          0.00952228158712387,
          0.0788610503077507,
          -0.07276997715234756,
          -0.05797053873538971,
          0.007581345736980438,
          -0.0422280877828598,
          -0.06568388640880585,
          -0.017372701317071915,
          0.027378661558032036,
          0.06782007962465286,
          0.021505365148186684,
          -0.07893844693899155,
          -0.0807824432849884,
          -0.011795037426054478,
          0.04675648733973503,
          0.08613690733909607,
          0.10037997364997864,
          -0.02018425054848194,
          -0.09726183861494064,
          -0.06520600616931915,
          -0.059879228472709656,
          0.06921418756246567,
          -0.07589341700077057,
          -0.09351714700460434,
          -0.019446708261966705,
          0.013160604983568192,
          -0.03565108776092529,
          0.007693668827414513,
          0.08060875535011292,
          -0.011344808153808117,
          0.07911619544029236,
          -0.010735820047557354,
          -0.057277861982584,
          0.010860326699912548,
          -0.06960345059633255,
          -0.02214856818318367,
          0.0050197746604681015,
          0.07414129376411438,
          0.054691217839717865,
          0.030175162479281425,
          0.05140969529747963,
          -0.0224293265491724,
          0.03893650695681572,
          -0.06675227731466293,
          -0.006551174912601709,
          -0.07607249170541763,
          0.08186835050582886,
          0.036928076297044754,
          0.052739448845386505,
          0.021628279238939285,
          -0.012157180346548557,
          0.030456189066171646,
          -0.04368707910180092,
          0.00976188201457262,
          -0.042449645698070526,
          0.03181895241141319
        ],
        [
          0.051709987223148346,
          0.0023119919933378696,
          0.028686869889497757,
          0.0015306933782994747,
          0.008532754145562649,
          0.015570370480418205,
          0.020495669916272163,
          -0.0657086968421936,
          -0.07483243942260742,
          0.013477358967065811,
          0.006272982805967331,
          0.041584502905607224,
          -0.0174136720597744,
          -0.0544595792889595,
          -0.04499576613306999,
          0.0904378890991211,
          0.0238600205630064,
          0.04847190901637077,
          0.03883880376815796,
          -0.08774639666080475,
          -0.021969150751829147,
          -0.004380969330668449,
          0.0022975860629230738,
          0.06409750133752823,
          -0.018139416351914406,
          0.013639532960951328,
          -0.03940644860267639,
          -0.07275193929672241,
          -0.06250278651714325,
          0.0737682357430458,
          -0.09474881738424301,
          -0.012162908911705017,
          0.030346393585205078,
          0.04826328530907631,
          0.049542125314474106,
          0.051513638347387314,
          -0.04428086057305336,
          0.005175444763153791,
          0.023367904126644135,
          0.027334874495863914,
          -0.009969099424779415,
          -0.032981209456920624,
          -0.011898864060640335,
          -0.09216134250164032,
          0.08729001134634018,
          -0.019413160160183907,
          -0.047036174684762955,
          0.04848691448569298,
          0.040465839207172394,
          -0.03359774127602577,
          -0.03836837783455849,
          -0.03185270354151726,
          -0.03919168934226036,
          0.05307520925998688,
          -0.07198721915483475,
          0.024264412000775337,
          0.012948770076036453,
          0.06980416923761368,
          0.05548321455717087,
          0.051790036261081696,
          0.082522913813591,
          -0.07516408711671829,
          0.04906963184475899,
          0.07411031424999237,
          0.05675074830651283,
          -0.08935751765966415,
          0.006549632642418146,
          0.06645391881465912,
          0.027125047519803047,
          0.003192838979884982,
          0.06255867332220078,
          -0.08248244971036911,
          0.053522203117609024,
          0.03586718067526817,
          0.026545977219939232,
          0.07809951901435852,
          0.025252070277929306,
          0.025326577946543694,
          -0.008780822157859802,
          0.050385478883981705,
          0.013820414431393147,
          -0.05580011010169983,
          -0.02371259406208992,
          -0.029121868312358856,
          -0.012858129106462002,
          0.07490289211273193,
          -0.03290969133377075,
          -0.024648291990160942,
          0.0659451112151146,
          0.05899348109960556,
          0.08502088487148285,
          -0.08112476766109467,
          0.013026973232626915,
          0.08258969336748123,
          -0.06440253555774689,
          -0.015302598476409912,
          -0.051151346415281296,
          0.010220633819699287,
          0.026075104251503944,
          0.005904658697545528,
          0.08361507207155228,
          0.019036347046494484,
          0.051016535609960556,
          -0.007168235257267952,
          0.07817097753286362,
          -0.06630143523216248,
          0.040020816028118134,
          -0.03357737138867378,
          -0.05943005159497261,
          -0.08265189826488495,
          -0.027217652648687363,
          -9.326940926257521e-05,
          -0.07024116814136505,
          0.01669919677078724,
          -0.020614581182599068,
          -0.07395613193511963,
          -0.011467302218079567,
          0.02929442748427391,
          0.08128507435321808,
          -0.045090202242136,
          -0.014762981794774532,
          0.03778821602463722,
          -0.0378597229719162,
          0.065862737596035,
          -0.026866693049669266,
          -0.07746858149766922,
          -0.002664400963112712,
          0.06023743376135826
        ],
        [
          -0.08368631452322006,
          0.031594887375831604,
          0.008108978159725666,
          0.09099423140287399,
          0.07435547560453415,
          0.02052268758416176,
          0.06246529519557953,
          -0.036421775817871094,
          -0.06223693862557411,
          -0.07121340930461884,
          -0.06886053085327148,
          -0.053876619786024094,
          -0.0453454963862896,
          -0.036432478576898575,
          -0.008706212975084782,
          0.03852307051420212,
          -0.03040746971964836,
          0.06786809116601944,
          -0.016493048518896103,
          0.08471108973026276,
          -0.03132111206650734,
          0.021210860460996628,
          -0.053606193512678146,
          0.06029396876692772,
          0.011490984819829464,
          0.06268903613090515,
          -0.04624593257904053,
          -0.08670775592327118,
          -0.06858733296394348,
          0.07942947745323181,
          0.06069990247488022,
          -0.09558502584695816,
          -0.09648508578538895,
          -0.01175177376717329,
          -0.008701318874955177,
          -0.008736697025597095,
          0.016245780512690544,
          -0.04284249246120453,
          -0.04973089322447777,
          0.04974113032221794,
          -0.05652688816189766,
          -0.03238904848694801,
          -0.05251052603125572,
          0.033010948449373245,
          -0.0021454470697790384,
          -0.05372630059719086,
          0.017148304730653763,
          -0.047654829919338226,
          0.028519634157419205,
          0.08083463460206985,
          -0.07379145175218582,
          -0.053122628480196,
          -0.03352254256606102,
          0.03625336289405823,
          -0.0023481359239667654,
          0.053993914276361465,
          -0.03680938109755516,
          0.04272216930985451,
          0.0002514298539608717,
          0.023632777854800224,
          0.07160446792840958,
          0.08556833863258362,
          -0.041845161467790604,
          0.06337950378656387,
          -0.08790263533592224,
          -0.03312299773097038,
          -0.027234768494963646,
          0.09436953067779541,
          0.05119403824210167,
          0.0015081927413120866,
          -0.05713200569152832,
          -0.0055684116668999195,
          0.015324288979172707,
          0.07573407888412476,
          0.08476635068655014,
          -0.07079745084047318,
          -0.0487944521009922,
          -0.017018252983689308,
          -0.0654173493385315,
          -0.05682801827788353,
          -0.06966105848550797,
          0.042199186980724335,
          0.010587443597614765,
          0.07610544562339783,
          0.0041510858573019505,
          -0.07022030651569366,
          -0.020641319453716278,
          -0.01623041369020939,
          -0.048149947077035904,
          -0.006109688431024551,
          0.035458486527204514,
          0.0574498325586319,
          0.06767698377370834,
          0.01706906221807003,
          0.05979584529995918,
          0.08176198601722717,
          -0.06189187243580818,
          0.04426088184118271,
          -0.04383118823170662,
          -0.07816265523433685,
          0.010570007376372814,
          0.023890864104032516,
          0.05919906497001648,
          0.03407641500234604,
          -0.023171717301011086,
          -0.0773688480257988,
          0.0484137088060379,
          -0.0819193571805954,
          -0.05121351405978203,
          0.030118441209197044,
          -0.05988971143960953,
          -0.07241082191467285,
          -0.02453725039958954,
          -0.00990388449281454,
          0.0978279784321785,
          -0.004510852973908186,
          0.08799921721220016,
          -0.067661814391613,
          -0.028315633535385132,
          0.03450788930058479,
          0.07749678939580917,
          -0.030611595138907433,
          -0.035837020725011826,
          -0.032499488443136215,
          0.00047021344653330743,
          -0.05466486141085625,
          0.0029980994295328856,
          -0.0612223856151104
        ],
        [
          0.0035604401491582394,
          0.08111148327589035,
          -0.011396275833249092,
          -0.018153049051761627,
          -0.08319927006959915,
          0.00040804152376949787,
          0.062181323766708374,
          0.05735253542661667,
          -0.06837449222803116,
          -0.0696534514427185,
          -0.007716949563473463,
          0.06256911158561707,
          0.10154366493225098,
          0.014543337747454643,
          -0.01645619235932827,
          0.07366820424795151,
          -0.019615737721323967,
          0.012240320444107056,
          0.0833820253610611,
          -0.0316011868417263,
          -0.007866325788199902,
          0.07802705466747284,
          0.04451492801308632,
          0.012218642048537731,
          0.022816814482212067,
          0.06811559945344925,
          0.0036684132646769285,
          -0.04608844220638275,
          0.028697069734334946,
          0.04279490187764168,
          0.022047773003578186,
          -0.0013434182619675994,
          -0.027810389176011086,
          -0.034942083060741425,
          -0.0500221773982048,
          -0.0645163357257843,
          0.008679630234837532,
          -0.07975780963897705,
          0.05597750097513199,
          -0.07694732397794724,
          -0.01892557367682457,
          -0.047731027007102966,
          -0.08042170852422714,
          -0.057153958827257156,
          -0.04870452731847763,
          -0.038198068737983704,
          -0.010885259136557579,
          -0.04867575317621231,
          -0.05218914896249771,
          0.07458867877721786,
          0.041838131844997406,
          0.047553692013025284,
          0.07176835089921951,
          0.01493026502430439,
          -0.0858912244439125,
          0.005238277371972799,
          -0.027084071189165115,
          -0.005730238277465105,
          0.05534762144088745,
          0.054823774844408035,
          0.08386806398630142,
          0.05265326797962189,
          -0.03499486669898033,
          0.061747174710035324,
          -0.03161010146141052,
          0.0006002956652082503,
          -0.027624662965536118,
          0.03496578708291054,
          0.07829709351062775,
          -0.057446666061878204,
          0.07876580208539963,
          0.030475765466690063,
          -0.05932258814573288,
          -0.028139205649495125,
          -0.003424939699470997,
          -0.02470327727496624,
          -0.033325567841529846,
          0.07674790918827057,
          0.08502180129289627,
          0.013207311742007732,
          -0.04547721892595291,
          -0.05126173421740532,
          -0.002882255706936121,
          0.04669592157006264,
          0.06521175801753998,
          0.02699962630867958,
          0.049160584807395935,
          0.035739898681640625,
          -0.06108527630567551,
          0.03605978190898895,
          -0.046913646161556244,
          -0.08153260499238968,
          0.006241639610379934,
          -0.05431508645415306,
          0.012523222714662552,
          -0.04061941057443619,
          0.024917759001255035,
          0.037495724856853485,
          0.07883409410715103,
          0.03873563930392265,
          0.00607164204120636,
          0.025473577901721,
          0.03322138637304306,
          0.04895351082086563,
          -0.0409991554915905,
          -0.05215371027588844,
          0.06339771300554276,
          -0.03187013790011406,
          0.06279287487268448,
          0.044034119695425034,
          -0.021296808496117592,
          0.06177230924367905,
          0.05311685428023338,
          0.08097238838672638,
          -0.007928713224828243,
          -0.042821988463401794,
          -0.014385378919541836,
          0.05657035484910011,
          0.011266247369349003,
          0.02830955944955349,
          0.07488120347261429,
          0.09944242984056473,
          -0.08443570137023926,
          -0.05407825484871864,
          0.08713584393262863,
          0.03478015214204788,
          0.023339223116636276,
          0.008819172158837318
        ],
        [
          -0.08048540353775024,
          -0.08495109528303146,
          -0.05965099111199379,
          0.0028077061288058758,
          -0.06105130538344383,
          -0.07793688029050827,
          0.024463282898068428,
          -0.09216999262571335,
          0.05251450836658478,
          -0.001899226102977991,
          -0.05597357079386711,
          -0.03257695958018303,
          0.028549131006002426,
          -0.08078084141016006,
          0.0871017798781395,
          -0.04794340208172798,
          -0.015183474868535995,
          0.03703202307224274,
          -0.060924116522073746,
          0.062470901757478714,
          0.046070899814367294,
          0.007914653047919273,
          0.024529753252863884,
          0.05477370694279671,
          -0.06775274127721786,
          -0.06134599819779396,
          -0.052186429500579834,
          0.06268195807933807,
          0.01879950985312462,
          -0.050647757947444916,
          0.011634685099124908,
          -0.016823086887598038,
          -0.0309849102050066,
          0.0695120170712471,
          0.04084641486406326,
          -0.0008709280518814921,
          0.025231575593352318,
          -0.04626323655247688,
          0.004372071474790573,
          -0.011325571686029434,
          0.0012615337036550045,
          -0.007184091489762068,
          0.06168876960873604,
          -0.004105474799871445,
          -0.06851784139871597,
          0.061952780932188034,
          0.013879286125302315,
          -0.02638714574277401,
          0.009096294641494751,
          0.05359417572617531,
          -0.007340490352362394,
          -0.08567973971366882,
          0.011467999778687954,
          -0.03556765243411064,
          0.05196576938033104,
          -0.06255405396223068,
          -0.033498428761959076,
          0.05660988390445709,
          -0.046946678310632706,
          0.0076057701371610165,
          -0.08435998111963272,
          -0.06999177485704422,
          -0.003948611672967672,
          -0.06066860258579254,
          0.08260630071163177,
          -0.030257204547524452,
          -0.011586273089051247,
          0.05760743096470833,
          0.023016395047307014,
          0.01353600062429905,
          0.058405179530382156,
          -0.09022685885429382,
          -0.054172638803720474,
          -0.03507428988814354,
          0.05987213924527168,
          0.04277901351451874,
          0.009928258135914803,
          0.034246623516082764,
          -0.005820785649120808,
          0.05283280089497566,
          0.005738995037972927,
          0.08425562083721161,
          0.07287091016769409,
          0.04878413677215576,
          0.016076166182756424,
          -0.035113487392663956,
          0.0011851983144879341,
          0.01650810055434704,
          0.028165187686681747,
          0.08719642460346222,
          -0.08228987455368042,
          -0.04314688593149185,
          -0.017585888504981995,
          -0.009802047163248062,
          0.07812222838401794,
          -0.00688868248835206,
          0.08076582103967667,
          -0.015768207609653473,
          -0.027323521673679352,
          -0.0885414183139801,
          0.03656643629074097,
          0.05328267812728882,
          0.015558406710624695,
          -0.002043710555881262,
          0.008926022797822952,
          -0.08357775956392288,
          0.048618122935295105,
          0.01219639927148819,
          0.042010024189949036,
          -0.054963141679763794,
          0.007010665722191334,
          -0.030509762465953827,
          -0.03628164157271385,
          0.015419105999171734,
          0.021132566034793854,
          -0.07726316899061203,
          -0.10545308887958527,
          0.010175125673413277,
          -0.09088623523712158,
          0.05110330134630203,
          0.04567402973771095,
          0.043250083923339844,
          -0.03392322361469269,
          -0.024341946467757225,
          -0.023743627592921257,
          -0.023457026109099388,
          0.05017374828457832,
          -0.02818104811012745
        ],
        [
          0.04316396266222,
          -0.05742375925183296,
          0.006862306036055088,
          0.07607739418745041,
          0.014242349192500114,
          -0.06794139742851257,
          0.05999012291431427,
          0.007788362447172403,
          -0.022224459797143936,
          -0.03041188046336174,
          -0.020607654005289078,
          0.09035264700651169,
          -0.03183917701244354,
          -0.019989918917417526,
          -0.05869065225124359,
          0.04430321976542473,
          0.06671927124261856,
          -0.013417785055935383,
          -0.05985863506793976,
          -0.04424586892127991,
          -0.009950359351933002,
          0.06699419021606445,
          -0.06757686287164688,
          -0.03809460997581482,
          0.07513643801212311,
          0.00568345608189702,
          0.07336114346981049,
          -0.024474583566188812,
          -0.003842223435640335,
          -0.01632191240787506,
          0.012508705258369446,
          -0.030795827507972717,
          0.00402586767449975,
          0.08633015304803848,
          -0.05422272905707359,
          0.0856633260846138,
          0.026023412123322487,
          -0.049251727759838104,
          -0.00017295902944169939,
          0.03658957779407501,
          -0.013545497320592403,
          -0.09672179073095322,
          0.08576206117868423,
          0.04546310007572174,
          -0.06467820703983307,
          -0.03423772752285004,
          0.020168747752904892,
          0.08121226727962494,
          -0.05701053515076637,
          -0.002626074943691492,
          0.02651788294315338,
          -0.0157289020717144,
          -0.048609551042318344,
          -0.005132782272994518,
          -0.09907827526330948,
          0.014068610966205597,
          -0.029582135379314423,
          -0.10250897705554962,
          0.023355385288596153,
          0.029426725581288338,
          -0.06765662133693695,
          0.03729049488902092,
          -0.018752167001366615,
          -0.09284346550703049,
          -0.02406996861100197,
          -0.07499369233846664,
          -0.07180240005254745,
          -0.0397767648100853,
          -0.016928259283304214,
          0.009599902667105198,
          0.03708769008517265,
          -0.06683538109064102,
          -0.0841076448559761,
          -0.0009882354643195868,
          -0.07727965712547302,
          0.03122803010046482,
          -0.055437907576560974,
          -0.0452839694917202,
          0.01844470389187336,
          0.0012075768318027258,
          -0.026914779096841812,
          0.07075458765029907,
          -0.0861034020781517,
          -0.007944231852889061,
          0.06427901238203049,
          0.06851524114608765,
          0.04094311222434044,
          0.0535898320376873,
          -0.0011657453142106533,
          -0.02460172399878502,
          -0.019249338656663895,
          0.07891245931386948,
          0.04151889681816101,
          0.002070952206850052,
          -0.0646195262670517,
          -0.042639899998903275,
          -0.05775441601872444,
          0.06541647017002106,
          -0.07438792288303375,
          0.022166531533002853,
          -0.018488673493266106,
          0.03285374119877815,
          -0.015499571338295937,
          0.031502898782491684,
          -0.003703213995322585,
          -0.005065136589109898,
          0.024647824466228485,
          0.0756387710571289,
          -0.07093535363674164,
          0.0678623840212822,
          0.003920760005712509,
          -0.03565889596939087,
          0.07355954498052597,
          -0.07015715539455414,
          0.04574626311659813,
          -0.09801716357469559,
          -0.017606209963560104,
          -0.020898936316370964,
          0.08343898504972458,
          0.043271273374557495,
          -0.014818130061030388,
          0.025040993466973305,
          -0.01993768848478794,
          0.057297032326459885,
          -0.044847916811704636,
          -0.029604073613882065,
          0.08928018063306808,
          -0.04762033000588417
        ],
        [
          0.05191193148493767,
          -0.022666459903120995,
          0.00665220245718956,
          0.049927014857530594,
          -0.09698532521724701,
          -0.05613162741065025,
          -0.05487727373838425,
          -0.0006125292857177556,
          -0.0639706626534462,
          0.038498155772686005,
          0.05680668726563454,
          -0.08104611188173294,
          0.08106734603643417,
          -0.0625908225774765,
          0.0013197932858020067,
          -0.03366445377469063,
          -0.033852510154247284,
          -0.051742419600486755,
          -0.08143723011016846,
          -0.09258756041526794,
          -0.05205683782696724,
          -0.04877537861466408,
          -0.018580738455057144,
          -0.06739263981580734,
          0.06437244266271591,
          -0.06618330627679825,
          -0.013545946218073368,
          0.012247570790350437,
          0.09255387634038925,
          0.03684873878955841,
          0.08375528454780579,
          -0.003954865038394928,
          0.08810102194547653,
          -0.06466478854417801,
          0.023107239976525307,
          0.02145298384130001,
          0.020897388458251953,
          0.0015355210052803159,
          -0.042403608560562134,
          0.033227816224098206,
          0.004904467612504959,
          0.022852648049592972,
          0.030457885935902596,
          0.03320271521806717,
          -0.06546930968761444,
          0.04883577302098274,
          -0.02435041218996048,
          -0.000808168959338218,
          0.05128098651766777,
          0.05640619248151779,
          -0.00900430791079998,
          -0.03470604866743088,
          -0.011718989349901676,
          -0.04596066102385521,
          0.08474759757518768,
          0.029458893463015556,
          -0.0694325640797615,
          0.012083671987056732,
          0.010809052735567093,
          -0.07399611920118332,
          0.048931945115327835,
          0.08055359125137329,
          0.05031122267246246,
          0.09404611587524414,
          0.035753872245550156,
          -0.0751475840806961,
          0.022976454347372055,
          -0.0733327865600586,
          0.06276765465736389,
          -0.004580327309668064,
          -0.017447378486394882,
          -0.0024235898163169622,
          -0.08473341912031174,
          0.011248238384723663,
          0.04472670331597328,
          -0.03559967130422592,
          -0.02429237961769104,
          0.06614694744348526,
          -0.0653197169303894,
          0.0018061674199998379,
          0.009279974736273289,
          0.0330984890460968,
          0.05624794960021973,
          0.037879131734371185,
          0.05136822909116745,
          0.022243263199925423,
          -0.02706213667988777,
          -0.06567802280187607,
          0.03751892223954201,
          -0.011797597631812096,
          -0.07383458316326141,
          -0.06734015047550201,
          0.019569355994462967,
          -0.021366432309150696,
          0.09143985062837601,
          -0.0510714091360569,
          0.0340212881565094,
          0.06293074786663055,
          -0.09458950161933899,
          0.030425138771533966,
          0.04514585807919502,
          -0.03038383275270462,
          0.0060390387661755085,
          -0.0020462919492274523,
          -0.056430839002132416,
          -0.047889795154333115,
          -0.0402575321495533,
          0.020010381937026978,
          -0.07358009368181229,
          0.0670410767197609,
          -0.06975124031305313,
          -0.015896374359726906,
          -0.040309179574251175,
          0.019325895234942436,
          -0.06520412117242813,
          -0.00028431351529434323,
          0.01416134461760521,
          0.05931815132498741,
          0.019982917234301567,
          0.0425901934504509,
          -0.01606203056871891,
          0.028489384800195694,
          0.01797833852469921,
          -0.0847940742969513,
          -0.015848977491259575,
          0.05130632594227791,
          0.03419956937432289,
          -0.06548363715410233
        ],
        [
          -0.024468664079904556,
          -0.034963928163051605,
          0.006287521217018366,
          -0.06540817022323608,
          -0.031129131093621254,
          -0.026655446738004684,
          -0.06965956836938858,
          0.05102686211466789,
          0.06788505613803864,
          0.08707897365093231,
          0.01885661482810974,
          -0.050334494560956955,
          0.035214394330978394,
          -0.05707130953669548,
          -0.07796655595302582,
          0.017811333760619164,
          0.08278220146894455,
          0.039139166474342346,
          0.0434645414352417,
          -0.014079269953072071,
          -0.05580279976129532,
          0.0712662935256958,
          0.016975311562418938,
          -0.03506334871053696,
          0.06835600733757019,
          -0.0200209841132164,
          0.02290809527039528,
          -0.04131000488996506,
          0.1019824668765068,
          0.005454240832477808,
          -0.024909216910600662,
          -0.023331178352236748,
          -0.0759209394454956,
          -0.05132829770445824,
          0.09087486565113068,
          0.06006942316889763,
          -0.0036581633612513542,
          0.045406684279441833,
          -0.07494755834341049,
          0.015306716784834862,
          0.07493649423122406,
          -0.06731835007667542,
